tree
version=v4
num_class=1
num_tree_per_iteration=1
label_index=0
max_feature_idx=29
objective=regression
feature_names=vwc_20cm vwc_20cm_lag_6s vwc_20cm_lag_18s vwc_20cm_lag_36s vwc_20cm_lag_72s vwc_20cm_lag_144s vwc_20cm_roll_mean_3h vwc_20cm_roll_std_6h vwc_20cm_deriv_1h soil_temp_c air_temp_c rh_pct vpd_kpa rain_mm_h rain_mm_1h_sum rain_mm_6h_sum rain_mm_24h_sum et0_open_meteo_mm_h et0_hargreaves_mm_day etc_mm_h ra_mj_m2_day daylength_h gdd_cum kc_dynamic sin_doy cos_doy sin_hour cos_hour hours_since_last_irrigation line_id
feature_infos=[16.449999999999999:40.710000000000001] [16.449999999999999:40.710000000000001] [16.449999999999999:40.710000000000001] [16.449999999999999:40.710000000000001] [16.449999999999999:40.710000000000001] [16.449999999999999:40.710000000000001] [16.461666666666666:37.286111111111111] [4.0580840214241639e-07:8.7786591701351018] [-11.150000000000002:19.16] [19.600000000000001:25.899999999999999] [10.1:40.899999999999999] [18:94.5] [0.10324467087530979:5.1836647401430618] [0:12.9] [0:77.400000000000006] [0:172.80000000000001] [0:306] [0:0.63] [5.2716542188849349:7.6022464865586494] [0:0.37335417030885781] [34.955762914248304:38.878757645294399] [13.634132857015434:14.538371963848492] [34.219211344211345:387.05601689976692] [0.40000000000000002:0.61205601689976696] [-0.74122201084859574:-0.45590669350845903] [-0.89002757643467656:-0.67125995756753154] [-1:1] [-1:1] [0:138] [0:2]
tree_sizes=5216 5424 5433 5425 5422 5432 5434 5448 5428 5445 5437 5459 5449 5454 5484 5480 5470 5490 5477 5470 5473 5467 5497 5491 5487 5504 5493 5500 5507 5513 5518 5515 5514 5548 5519 5525 5529 5503 5550 5524 5543 5538 5535 5560 5546 5555 5557 5556 5527 5559 5549 5546 5552 5554 5533 5565 5575 5566 5561 5569 5594 5577 5568 5581 5598 5588 5603 5582 5582 5601 5625 5625 5646 5640 5625 5610 5645 5606 5602 5637 5623 5638 5614 5626 5608 5657 5626 5625 5636 5618 5601 5609 5647 5653 5605 5610 5638 5638 5599 5656 5658 5662 5641 5644 5661 5652 5678 5651 5678 5637 5647 5687 5690 5668 5704 5650 5687 5669 5696 5696 5671 5680 5675 5693 5704 5698 5709 5695

Tree=0
num_leaves=63
num_cat=0
split_feature=29 0 0 20 0 1 20 26 0 20 27 1 2 9 2 18 20 0 20 12 20 16 4 11 20 0 1 3 4 12 20 0 3 5 11 1 18 7 5 0 5 27 17 27 9 12 12 7 15 4 4 20 5 26 0 5 11 2 0 0 6 12
split_gain=83144.4 16817.9 9226.24 2572.02 2554.37 2286.32 2082.07 2310.13 2069.64 2018.33 2787.51 2666.61 1781.24 1647.96 1499.24 1291.02 1078.04 2503.95 911.747 873.669 1710.82 1349.16 1114.18 863.657 733.472 632.93 613.508 534.005 551.14 1163.28 491.669 458.514 457.34 1372.68 435.342 730.202 407.734 396.974 382.39 377.344 352.404 323.398 304.604 296.652 262.054 324.013 241.478 237.024 720.507 231.793 219.734 189.227 178.273 884.736 236.145 176.62 171.384 169.527 145.969 144.765 130.819 129.862
threshold=1.0000000180025095e-35 21.120000000000001 28.750000000000004 35.911563300033244 22.030000000000005 24.170000000000005 38.158798854355886 0.69134849440110402 23.795000000000005 35.280520904054022 -0.021809693682667986 19.330000000000002 16.570000000000004 23.950000000000003 21.580000000000002 7.0806438128618572 36.711394547204677 16.820000000000004 37.461271478421395 2.5290687853774001 36.516019857817845 9.0500000000000025 20.075000000000003 87.750000000000014 38.158798854355886 19.525000000000002 30.700000000000003 25.325000000000006 25.650000000000002 2.2388559096815772 38.158798854355886 18.620000000000005 22.030000000000005 23.380000000000006 87.250000000000014 17.970000000000002 6.9493124101527206 0.039579133846753156 21.875000000000004 27.215000000000003 23.170000000000005 0.34202014332566838 0.20500000000000004 0.40265084705289472 21.750000000000004 0.34459146534991963 0.66881528325280559 0.11551316123357941 0.55000000000000016 28.005000000000006 25.270000000000003 38.801858615337487 17.500000000000004 0.85470842479866238 18.010000000000002 17.550000000000001 41.250000000000007 27.515000000000004 19.120000000000005 24.225000000000005 16.733055555555556 0.58274649839306736
decision_type=2 2 2 2 2 2 2 2 2 2 2 2 2 2 2 2 2 2 2 2 2 2 2 2 2 2 2 2 2 2 2 2 2 2 2 2 2 2 2 2 2 2 2 2 2 2 2 2 2 2 2 2 2 2 2 2 2 2 2 2 2 2
left_child=2 6 3 4 -1 13 9 40 14 10 11 37 -11 -5 24 18 17 -14 26 31 21 58 56 27 -3 34 -4 59 29 -29 -16 -19 33 -32 52 -36 -6 -2 -30 47 -8 -9 -26 -17 -10 -46 -38 48 -40 -48 -47 -34 53 60 -54 -52 -23 -20 -21 -7 -18 -49
right_child=1 8 15 5 36 23 7 41 44 12 -12 -13 16 -15 30 43 25 19 57 20 -22 22 -24 -25 42 -27 -28 28 38 -31 32 -33 51 -35 35 -37 46 -39 39 -41 -42 -43 -44 -45 45 50 49 61 -50 -51 55 -53 54 -55 -56 -57 -58 -59 -60 -61 -62 -63
leaf_value=23.451419660701536 23.387731523011311 22.838627999252914 23.471121765996628 23.385557171871238 22.881046679963621 23.063755754513299 22.929336322599831 23.165999592920855 22.855095854899123 23.067567292172409 22.665087712589497 22.708125830147846 23.15674382374106 22.927615541395802 22.798416948066141 23.104168280905974 22.584312747484105 22.625856884153052 23.294336339759482 22.649373547780812 23.103933373229243 22.961238334616144 22.679532458968477 23.269591430122652 23.325734420728015 22.726335295778586 23.297368325805753 23.045838826153858 23.257544653866869 23.462822997049894 22.811740117524248 22.705403969379802 22.83334308446959 23.318734419456447 22.962022536650345 22.659479672420748 22.870213589685974 23.122142038569461 23.007247693773113 23.102714132902186 22.719084835290172 22.929233603928669 23.058119284586514 23.217987847008729 23.064294542695691 22.954804142470788 23.159234420001404 23.079907032377431 23.368782048676593 22.979233095526233 22.8066681458868 22.907511520221743 22.607321268210754 22.959923250561868 22.654683552340259 22.918871709471688 23.134044648462716 23.179070731614214 22.717881052382449 22.949113372186236 22.740892692930409 23.016382800468861
leaf_weight=23 24 23 69 94 262 34 23 48 83 30 101 39 31 25 609 168 60 297 48 135 33 39 35 48 20 288 314 47 23 26 36 510 428 20 28 65 43 41 43 281 133 21 26 98 55 624 20 98 20 141 43 107 603 25 567 172 23 199 232 141 21 608
leaf_count=23 24 23 69 94 262 34 23 48 83 30 101 39 31 25 609 168 60 297 48 135 33 39 35 48 20 288 314 47 23 26 36 510 428 20 28 65 43 41 43 281 133 21 26 98 55 624 20 98 20 141 43 107 603 25 567 172 23 199 232 141 21 608
internal_value=22.8892 22.7786 23.1084 23.048 22.9483 23.0807 22.7093 22.8565 22.8851 22.6991 22.8511 23.0321 22.6888 23.2905 22.843 23.2415 22.6849 22.7187 23.2809 22.708 22.7607 22.7358 22.9016 23.0621 23.068 22.6578 23.3301 23.0543 23.0668 23.2001 22.8299 22.6758 22.8625 22.9972 22.6436 22.7504 22.9223 23.2263 23.0574 23.0527 22.7502 23.0956 23.1813 23.1472 22.9398 22.9477 22.9752 23.0341 23.1277 23.0031 22.9398 22.8482 22.6359 22.7021 22.6301 22.8962 23.0282 23.203 22.6921 22.9723 22.6226 23.0255
internal_weight=8571 5698 2873 1977 489 1488 3452 225 2246 3227 205 104 3022 119 1269 896 2992 1335 630 1304 497 464 97 1369 69 1657 383 1321 1146 73 1200 807 591 56 1369 93 466 65 1073 1050 156 69 46 266 977 894 204 769 63 161 839 535 1276 106 1170 215 62 247 367 175 81 706
internal_count=8571 5698 2873 1977 489 1488 3452 225 2246 3227 205 104 3022 119 1269 896 2992 1335 630 1304 497 464 97 1369 69 1657 383 1321 1146 73 1200 807 591 56 1369 93 466 65 1073 1050 156 69 46 266 977 894 204 769 63 161 839 535 1276 106 1170 215 62 247 367 175 81 706
is_linear=0
shrinkage=1


Tree=1
num_leaves=63
num_cat=0
split_feature=29 0 0 20 0 1 20 26 0 20 10 1 2 9 2 18 10 4 0 16 4 20 11 20 26 3 4 10 20 3 5 5 11 1 18 7 5 0 20 20 10 10 10 7 5 9 12 4 0 20 9 2 5 26 0 5 0 12 6 0 29 0
split_gain=75091.5 15184 8328.12 2322.05 2315.78 2065.68 1880.51 2092.15 1866.92 1823.97 2132.42 2808.62 1610.38 1488.53 1357.74 1165.72 1139.15 1969.76 982.301 907.987 1376.36 822.646 781.727 665.009 564.257 482.258 500.59 1055.33 444.235 414.589 1244.65 400.666 393.526 610.475 368.685 363.038 347.721 342.831 305.414 1758.52 277.305 268.296 262.46 250.509 643.513 236.667 293.2 220.982 206.608 170.853 156.678 154.146 143.231 812.256 169.808 133.124 131.209 129.656 257.366 126.238 131.785 125.629
threshold=1.0000000180025095e-35 21.120000000000001 28.750000000000004 35.911563300033244 22.030000000000005 24.170000000000005 38.158798854355886 0.76604444311897824 23.795000000000005 35.280520904054022 25.450000000000003 19.170000000000005 16.570000000000004 23.950000000000003 21.580000000000002 7.0806438128618572 32.95000000000001 17.180000000000003 18.975000000000005 9.0500000000000025 20.075000000000003 37.461271478421395 87.750000000000014 38.158798854355886 0.55543802234893513 25.325000000000006 25.650000000000002 31.550000000000004 38.158798854355886 22.030000000000005 23.380000000000006 23.170000000000005 88.750000000000014 17.970000000000002 6.9493124101527206 0.035405810661009708 21.875000000000004 27.105000000000004 36.711394547204677 36.516019857817845 29.050000000000004 21.250000000000004 23.850000000000005 0.11551316123357941 28.885000000000005 21.750000000000004 0.34459146534991963 27.335000000000004 24.980000000000004 38.801858615337487 23.550000000000004 27.515000000000004 17.500000000000004 0.85470842479866238 17.810000000000006 17.550000000000001 24.225000000000005 0.58274649839306736 25.723611111111115 22.390000000000004 1.5000000000000002 19.925000000000001
decision_type=2 2 2 2 2 2 2 2 2 2 2 2 2 2 2 2 2 2 2 2 2 2 2 2 2 2 2 2 2 2 2 2 2 2 2 2 2 2 2 2 2 2 2 2 2 2 2 2 2 2 2 2 2 2 2 2 2 2 2 2 2 2
left_child=2 6 3 4 -1 13 9 31 14 10 -2 35 -11 -5 23 21 18 -18 32 38 50 24 25 -3 -4 56 27 -27 59 30 -30 -8 52 -34 -6 -12 -28 43 39 -19 -25 -36 -17 44 -38 -10 -47 -43 55 -31 -21 -23 53 -14 -54 -48 -7 58 -45 60 -16 -20
right_child=1 8 15 5 34 22 7 -9 45 12 11 -13 16 -15 28 42 17 19 61 20 -22 51 -24 40 -26 26 36 -29 29 49 -32 -33 33 -35 41 -37 37 -39 -40 -41 -42 47 -44 57 -46 46 48 -49 -50 -51 -52 -53 54 -55 -56 -57 -58 -59 -60 -61 -62 -63
leaf_value=0.53680697282155354 -0.21564168406056836 -0.046621748696391782 0.39695789334377812 0.47332506882516967 -0.0062232276283119567 0.16760328974042621 0.048428965437001203 0.21830830285626074 -0.0308946125846844 0.17126287212294919 0.48732588394828469 -0.17211065596225217 -0.25579418140121651 0.038095396527877225 -0.15297874030612765 0.29598355673361515 0.26829996273435397 -0.18548922817831096 -0.18358329968909695 0.246211314201355 -0.20685023771865027 0.38681823574766822 0.36328532549799708 0.41745935848781041 0.60290211382366365 0.1462887388594607 0.35222182472546898 0.54041208965437748 -0.072165727615356445 -0.051546720944568608 0.41060789255868824 -0.15766276373480359 0.075513738173025632 -0.21888793019148023 -0.046128023196669192 0.22874626869505105 0.45832357009251912 0.19964986880137203 -0.23549247560175984 0.2146432145436605 0.16216904322306316 0.26137729088465372 0.19250472880326785 0.32342445087432864 0.093324254020567876 0.16802125573158266 -0.073141479717962671 0.086520679922480345 0.072917781592526307 0.018928835580677348 0.075883640223291027 0.27697372376918794 -0.26435905132266085 0.068849848988107767 -0.22638472158002015 0.031832837430406206 0.058463035666869147 0.11927881197307422 0.13347792347272239 -0.060644667763453702 -0.08342122630538229 -0.14091409167795207
leaf_weight=23 90 23 342 94 262 34 28 61 83 30 22 50 78 25 104 137 28 345 364 20 55 48 48 20 41 46 23 27 36 428 20 136 26 51 33 43 20 328 175 29 26 20 129 24 30 55 32 151 445 107 42 199 579 25 793 362 141 574 74 292 213 382
leaf_count=23 90 23 342 94 262 34 28 61 83 30 22 50 78 25 104 137 28 345 364 20 55 48 48 20 41 46 23 27 36 428 20 136 26 51 33 43 20 328 175 29 26 20 129 24 30 55 32 151 445 107 42 199 579 25 793 362 141 574 74 292 213 382
internal_value=0.00153271 -0.103553 0.209912 0.152471 0.0577926 0.183526 -0.169375 -0.0294701 -0.0023574 -0.179118 -0.0346005 0.107721 -0.188906 0.38297 -0.0423418 0.336342 -0.192574 -0.136052 -0.209577 -0.153429 -0.0266964 0.373736 0.165922 0.171804 0.420517 0.158482 0.170309 0.297393 -0.054788 -0.0238456 0.104432 -0.122396 -0.232349 -0.119786 0.0330514 0.322323 0.161395 0.156883 -0.180339 -0.153973 0.279685 0.0832767 0.246709 0.137206 0.245448 0.0495675 0.0570639 0.108372 0.0495988 -0.0374426 0.133864 0.299794 -0.23814 -0.177093 -0.242591 0.0231434 0.0804992 0.128799 0.182792 -0.0847275 -0.106651 -0.161952
internal_weight=8571 5698 2873 1977 489 1488 3452 225 2246 3227 205 115 3022 119 1269 896 2992 694 2298 666 117 630 1369 69 383 1321 1146 73 1200 591 56 164 1552 77 466 65 1073 1050 549 374 46 204 266 722 50 977 894 171 839 535 62 247 1475 103 1372 394 175 672 98 609 317 746
internal_count=8571 5698 2873 1977 489 1488 3452 225 2246 3227 205 115 3022 119 1269 896 2992 694 2298 666 117 630 1369 69 383 1321 1146 73 1200 591 56 164 1552 77 466 65 1073 1050 549 374 46 204 266 722 50 977 894 171 839 535 62 247 1475 103 1372 394 175 672 98 609 317 746
is_linear=0
shrinkage=0.05


Tree=2
num_leaves=63
num_cat=0
split_feature=29 0 0 20 0 1 20 28 20 28 0 28 9 28 0 2 9 18 11 0 20 28 28 7 10 28 16 4 0 20 10 1 0 11 1 0 7 15 7 17 20 16 9 12 28 4 0 27 8 1 27 20 28 20 0 0 8 9 20 0 0 2
split_gain=67819.8 13707.2 7525.84 2281.22 2072.53 1799.32 1697.92 1731.82 1752.65 3922.23 1684.4 1632.25 1345.07 1242.71 2279.95 1229.7 1066.39 884.371 655.424 602.979 602.937 539.449 531.314 521.932 489.089 1141.1 883.607 1262.98 534.015 386.332 1286.64 389.197 385.035 336.396 552.339 323.56 279.632 422.192 278.865 253.463 252.997 217.444 216.4 227.327 193.064 176.208 173.678 173.172 155.634 153.693 148.396 127.017 126.516 122.718 272.964 101.581 97.6657 91.4345 90.8559 86.9425 77.3823 77.3181
threshold=1.0000000180025095e-35 21.120000000000001 29.525000000000002 35.911563300033244 22.030000000000005 24.170000000000005 38.158798854355886 134.08333333333334 35.280520904054022 87.250000000000014 23.795000000000005 35.916666666666679 23.950000000000003 85.583333333333357 16.820000000000004 21.580000000000002 23.950000000000003 7.0806438128618572 87.750000000000014 27.335000000000004 38.158798854355886 41.250000000000007 15.583333333333334 0.28933714760453982 32.95000000000001 70.083333333333357 9.5500000000000025 20.075000000000003 18.920000000000005 36.11606205075293 31.550000000000004 25.380000000000006 24.390000000000004 88.750000000000014 17.970000000000002 22.490000000000006 0.11551316123357941 0.55000000000000016 0.016674376299717204 0.20500000000000004 37.640648329351997 1.7500000000000002 21.550000000000004 0.34459146534991963 90.583333333333357 25.270000000000003 19.050000000000004 0.51864980417341211 -0.35500000000000215 20.420000000000005 -0.9598213885186474 38.801858615337487 64.916666666666671 38.801858615337487 25.830000000000002 24.225000000000005 0.55499999999999983 23.350000000000005 37.98944505954568 25.325000000000006 28.500000000000004 31.035000000000004
decision_type=2 2 2 2 2 2 2 2 2 2 2 2 2 2 2 2 2 2 2 2 2 2 2 2 2 2 2 2 2 2 2 2 2 2 2 2 2 2 2 2 2 2 2 2 2 2 2 2 2 2 2 2 2 2 2 2 2 2 2 2 2 2
left_child=2 6 3 4 -1 12 7 8 9 50 15 41 -5 14 -10 20 -13 23 19 29 -3 35 49 -4 28 26 46 52 33 30 -7 55 38 -24 -35 48 37 -33 -6 -22 61 -8 -12 -44 -11 59 -26 -19 -17 -16 -2 57 -28 -38 -55 -31 -42 -37 -47 -45 -21 -25
right_child=1 10 17 5 32 18 11 -9 13 44 42 16 -14 -15 22 21 -18 47 -20 60 39 -23 24 40 25 -27 27 -29 -30 31 -32 36 -34 34 -36 51 53 -39 -40 -41 56 -43 43 45 -46 58 -48 -49 -50 -51 -52 -53 -54 54 -56 -57 -58 -59 -60 -61 -62 -63
leaf_value=0.51108496785163882 -0.044236407961164209 -0.04438778806943447 0.5639313970293317 0.44910611135443468 0.15848218565401825 0.070329265114737721 -0.18756414099437435 0.14612842971502349 0.22676762950917087 0.37826359884158989 -0.05343142390141592 0.25065046529921275 0.036263886208717643 -0.25541338635984001 0.026834920977125878 -0.14521113078245956 -0.12627026769849989 0.21031295678294298 0.34549175719825592 0.19119809362958756 0.39800338063921248 0.1287129932641983 -0.2248397411852453 0.42981712015051593 -0.22410074632192398 0.15615508979366674 0.19752568108694896 -0.19669240681188449 -0.1593151053248299 0.1594625599895205 0.51435651353427347 0.14810659885406494 0.081841600461818251 0.07187789237057722 -0.20815400893871605 -0.072464446476632111 0.13171089458756333 0.43731641655876524 -0.024053276124699364 0.15403187804751928 0.27160204378888014 -0.058301780568925959 0.14443906371792156 0.037099416296547491 0.18217736816406249 -0.034723966691734984 -0.15922264620547988 0.30614854659157237 -0.072933241358259696 -0.10356562077999115 -0.19346132883949885 0.017991157279660306 0.039975487813353541 0.33416342643591079 0.12632419555745228 0.067265553185410928 0.37809526794835141 -0.025592464489068802 0.031234622482514504 0.074772424953120462 0.24190360323378912 0.3598877089364188
leaf_weight=23 20 23 34 96 22 40 81 42 35 36 50 62 25 510 31 88 26 140 48 236 20 39 957 94 193 30 34 55 697 34 27 36 228 26 51 162 573 20 231 26 127 56 62 265 24 80 261 86 511 79 125 107 21 25 46 243 37 293 146 374 151 251
leaf_count=23 20 23 34 96 22 40 81 42 35 36 50 62 25 510 31 88 26 140 48 236 20 39 957 94 193 30 34 55 697 34 27 36 228 26 51 162 573 20 231 26 127 56 62 265 24 80 261 86 511 79 125 107 21 25 46 243 37 293 146 374 151 251
internal_value=0.00149575 -0.0983723 0.199529 0.150481 0.0575693 0.179693 -0.160911 -0.170169 -0.174384 -0.0327908 -0.00222372 -0.0279725 0.364805 -0.184111 -0.169291 -0.0402034 0.13912 0.333355 0.164313 0.157999 0.163595 -0.0520482 -0.175074 0.368372 -0.180161 -0.140459 -0.156485 -0.0290263 -0.193696 0.137962 0.254198 0.129739 0.0348682 -0.216695 -0.113889 -0.0582259 0.149631 0.257256 -0.00761917 0.266318 0.354229 -0.135532 0.0470978 0.0525718 0.304101 0.0458279 -0.187235 0.247969 -0.083776 -0.0669057 -0.173323 -0.0308932 0.139158 0.139888 0.203132 0.0791151 0.297774 -0.0424033 0.00783634 0.0592314 0.211555 0.380128
internal_weight=8571 5698 2873 2104 504 1600 3452 3227 3185 205 2246 225 121 2980 2470 1269 88 769 1479 1431 69 1200 2435 543 2325 594 564 110 1731 1044 67 977 481 1034 77 1161 700 56 253 46 509 137 977 927 60 865 454 226 599 110 145 562 55 644 71 277 164 455 226 639 387 345
internal_count=8571 5698 2873 2104 504 1600 3452 3227 3185 205 2246 225 121 2980 2470 1269 88 769 1479 1431 69 1200 2435 543 2325 594 564 110 1731 1044 67 977 481 1034 77 1161 700 56 253 46 509 137 977 927 60 865 454 226 599 110 145 562 55 644 71 277 164 455 226 639 387 345
is_linear=0
shrinkage=0.05


Tree=3
num_leaves=63
num_cat=0
split_feature=29 6 1 28 28 20 5 28 20 26 20 28 1 3 26 1 9 18 28 6 11 20 8 26 10 28 16 5 1 3 3 8 1 10 1 11 2 10 9 12 1 9 20 26 16 1 28 26 6 1 5 16 5 11 1 18 28 28 10 9 20 5
split_gain=61256 11051.1 5352.82 2633.45 1853.39 1776.62 1638.49 1511.33 1513.96 1781.6 1497.5 3708.67 1415.92 1338.74 1112.12 1060.96 1086.89 1043.56 1030.08 1841.86 764.759 736.569 524.353 500.672 379.989 1026.56 892.921 1052.79 591.883 366.575 365.64 859.241 361.614 333.556 325.686 319.091 533.529 292.16 254.461 239.88 224.254 201.266 194.96 274.589 604.91 175.33 174.462 173.214 170.508 156.148 181.106 147.833 137.12 121.955 116.32 106.157 92.8957 90.9688 88.0003 75.8689 75.0665 71.0622
threshold=1.0000000180025095e-35 21.15805555555556 28.750000000000004 0.24999999999999997 7.916666666666667 35.911563300033244 22.750000000000004 134.08333333333334 38.158798854355886 0.69134849440110402 35.280520904054022 87.250000000000014 23.795000000000005 21.980000000000004 0.76604444311897824 24.170000000000005 23.950000000000003 7.0806438128618572 86.416666666666671 16.843888888888895 87.750000000000014 37.461271478421395 -0.31000000000000044 0.55543802234893513 32.95000000000001 70.083333333333357 9.5500000000000025 20.420000000000005 19.525000000000002 25.325000000000006 25.435000000000006 -0.17500000000000068 21.520000000000003 23.850000000000005 24.390000000000004 88.750000000000014 18.010000000000002 20.050000000000004 21.550000000000004 0.33898029611038899 27.335000000000004 23.050000000000004 37.461271478421395 0.77969889170510687 2.350000000000001 18.620000000000005 90.583333333333357 0.93178607664859781 22.436944444444453 24.550000000000004 16.820000000000004 2.9500000000000006 18.010000000000002 41.250000000000007 19.170000000000005 6.7909356156404463 38.250000000000007 33.583333333333336 31.250000000000004 20.150000000000002 38.801858615337487 18.010000000000002
decision_type=2 2 2 2 2 2 2 2 2 2 2 2 2 2 2 2 2 2 2 2 2 2 2 2 2 2 2 2 2 2 2 2 2 2 2 2 2 2 2 2 2 2 2 2 2 2 2 2 2 2 2 2 2 2 2 2 2 2 2 2 2 2
left_child=2 4 3 -1 55 6 -5 8 10 51 11 -6 13 14 32 16 -7 21 19 -12 29 23 -15 -4 28 26 54 53 35 58 31 -31 -3 -19 -8 45 -37 -11 -14 41 42 -40 -32 -44 57 -21 -13 -16 56 52 -51 -10 -41 -28 -26 -2 -24 -45 -17 -9 -50 -52
right_child=1 12 17 5 7 15 34 59 9 37 18 46 38 22 47 20 -18 33 -20 24 -22 -23 48 -25 25 -27 27 -29 -30 30 40 -33 -34 -35 -36 36 -38 -39 39 49 -42 -43 43 44 -46 -47 -48 -49 60 50 61 -53 -54 -55 -56 -57 -58 -59 -60 -61 -62 -63
leaf_value=0.42702702064939502 0.012729147224212593 0.10929950042204424 0.35184095653687947 0.37194772031572132 -0.18323346018791198 0.41864786959356731 -0.017793335881919711 0.20788319735299973 -0.17928316911061606 0.019942977172987805 0.25572571250108572 0.35986158461184115 -0.068672499722904637 -0.13745724211136501 0.18285203731578331 0.058457068296209461 0.034520430289782016 0.26786600385887038 -0.24330508230220727 -0.2189903990815045 0.33687300567443557 0.25960400182057203 -0.07693241002984072 0.5474715657350494 -0.20967272575655135 0.14859920663218346 0.065980817354989771 -0.18671362747748693 -0.13261540569630034 0.463141232530276 0.094389208720062248 0.089971633606097279 -0.057685999798623822 0.15714464103615525 0.068860367598838887 0.062080197187606247 -0.19744424235146002 0.2484619677066803 0.21698081063372748 -0.069920399483817161 0.18186512251833936 0.020142014053734867 0.12759186035626896 0.26544164342264975 0.10084295687930925 -0.17797975225617776 0.17343285369873049 0.39308364391326905 -0.036997430535862179 -0.052439017911465505 0.089443748647168489 -0.07252246266411197 0.022066601882957351 0.21823853378494584 -0.15487810201605653 0.11612123722831409 0.032258152110236034 0.42614861985911495 0.16657374013553969 0.070048066196234327 0.011925881797659028 0.048173647307391682
leaf_weight=78 52 54 321 35 129 71 242 20 74 20 25 36 53 194 22 154 25 137 502 776 51 245 381 40 192 30 32 47 491 29 272 33 78 148 195 31 52 47 34 47 285 21 384 30 55 450 24 23 417 38 145 61 259 23 242 47 20 22 21 22 96 391
leaf_count=78 52 54 321 35 129 71 242 20 74 20 25 36 53 194 22 154 25 137 502 776 51 245 381 40 192 30 32 47 491 29 272 33 78 148 195 31 52 47 34 47 285 21 384 30 55 450 24 23 417 38 145 61 259 23 242 47 20 22 21 22 96 391
internal_value=0.0014593 -0.093453 0.189665 0.14378 -0.150166 0.131959 0.0477018 -0.156512 -0.160333 -0.0275746 -0.169022 -0.0324718 -0.00796884 -0.0425577 0.0847971 0.159678 0.320002 0.291459 -0.177929 -0.164107 0.147927 0.328833 -0.0629604 0.37497 -0.168649 -0.132351 -0.148323 -0.015021 -0.179983 0.140172 0.150797 0.2691 0.0109344 0.211119 0.0209426 -0.197635 -0.100928 0.181544 0.0370152 0.043073 0.143548 0.143526 0.129016 0.147968 0.219234 -0.204095 0.289356 0.296513 -0.0470152 0.0366389 0.0519961 -0.131931 0.00775615 0.132412 -0.179545 0.0624846 -0.0714198 0.340191 0.0723038 0.138992 -0.0278368 0.0594839
internal_weight=8571 5698 2873 1982 3425 1904 472 3326 3284 202 3082 189 2273 1285 177 1432 96 891 2893 2391 1336 606 1108 361 2366 566 536 102 1800 1285 1110 62 132 285 437 1309 83 67 988 935 1048 55 763 491 107 1226 60 45 914 880 574 135 306 55 434 99 401 52 175 42 513 536
internal_count=8571 5698 2873 1982 3425 1904 472 3326 3284 202 3082 189 2273 1285 177 1432 96 891 2893 2391 1336 606 1108 361 2366 566 536 102 1800 1285 1110 62 132 285 437 1309 83 67 988 935 1048 55 763 491 107 1226 60 45 914 880 574 135 306 55 434 99 401 52 175 42 513 536
is_linear=0
shrinkage=0.05


Tree=4
num_leaves=63
num_cat=0
split_feature=29 0 0 20 0 1 20 26 28 20 28 0 9 2 28 0 18 11 20 0 28 28 7 10 28 16 4 0 20 10 6 18 28 11 1 5 7 15 0 10 10 10 4 10 27 2 20 7 0 27 5 0 1 9 28 0 28 20 4 5 12 1
split_gain=55318.4 11185 6155.97 1865.82 1748.4 1473.56 1382.26 1551.37 1415.83 1431.94 3222.98 1369.21 1102.28 1014.71 1011.77 1889.37 721.842 536.349 499.659 490.031 466.093 442.182 433.671 399.889 934.113 720.65 1036.94 430.151 317.401 1076.06 329.074 316.039 308.542 274.43 453.346 273.815 273.191 345.439 269.485 268.286 253.937 226.979 253.375 208.698 204 260.451 201.405 180.199 215.75 148.711 148.107 142.571 125.789 111.906 114.16 111.525 111.145 100.285 97.7246 96.4535 91.3357 289.418
threshold=1.0000000180025095e-35 21.120000000000001 29.525000000000002 35.911563300033244 22.030000000000005 24.170000000000005 38.158798854355886 0.69134849440110402 134.08333333333334 35.280520904054022 88.083333333333357 23.795000000000005 23.850000000000005 21.580000000000002 85.583333333333357 16.820000000000004 7.0806438128618572 87.750000000000014 38.158798854355886 27.335000000000004 41.250000000000007 15.91666666666667 0.28933714760453982 32.95000000000001 70.083333333333357 9.5500000000000025 20.075000000000003 18.920000000000005 36.11606205075293 31.550000000000004 25.197222222222226 6.9493124101527206 90.583333333333357 88.750000000000014 17.970000000000002 21.875000000000004 0.11551316123357941 0.55000000000000016 22.540000000000003 32.850000000000001 20.050000000000004 21.250000000000004 27.165000000000003 29.050000000000004 0.065387565056496913 19.775000000000002 37.640648329351997 0.16183851105279162 24.870000000000001 0.60876142900872032 16.820000000000004 19.050000000000004 20.420000000000005 23.650000000000002 13.91666666666667 24.225000000000005 64.416666666666671 38.801858615337487 17.550000000000001 30.500000000000004 0.58274649839306736 25.715000000000003
decision_type=2 2 2 2 2 2 2 2 2 2 2 2 2 2 2 2 2 2 2 2 2 2 2 2 2 2 2 2 2 2 2 2 2 2 2 2 2 2 2 2 2 2 2 2 2 2 2 2 2 2 2 2 2 2 2 2 2 2 2 2 2 2
left_child=2 6 3 4 -1 12 8 39 9 10 44 13 -5 18 15 -11 22 19 -3 28 38 52 -4 27 25 51 56 33 29 -7 55 59 -12 -23 -35 -32 37 -37 53 -8 -9 -33 -43 -20 45 -2 -24 -13 58 -18 -50 -25 -17 54 -15 -30 -27 -40 -49 -6 61 -38
right_child=1 11 16 5 31 17 7 40 -10 14 32 47 -14 20 -16 21 49 -19 43 -21 -22 23 46 24 -26 26 -28 -29 30 -31 35 41 -34 34 -36 36 60 -39 57 -41 -42 42 -44 -45 -46 -47 -48 48 50 -51 -52 -53 -54 -55 -56 -57 -58 -59 -60 -61 -62 -63
leaf_value=0.46842873990535738 0.074903335457756404 -0.04037218442341934 0.51106687818254748 0.41382803942567564 -0.018411353445896238 0.061909168740598167 -0.13961528633067857 0.018993313965343296 0.13236550465226174 0.2076752316620615 0.4187682209343746 0.18426834392276678 0.058518442610899613 -0.057442361861467367 -0.23056133797723954 0.024110787315294147 0.19186190962791444 0.31230634596883039 0.36199206624712266 0.19098361495536628 0.12108718633651734 -0.20307380038163858 0.34321757017532528 -0.20262273003145592 0.1414089160580789 0.18502613811781912 -0.17827030558671272 -0.14412015076157683 0.1479511821269989 0.46789351786885947 0.30538583423780358 -0.044543010347029746 0.16510807037353517 0.065428057864860265 -0.18826408936427191 0.13521282237929266 0.32556718181480065 0.39690150561786836 -0.037478574734333713 0.043604850272337597 0.23081139183044433 0.26096549204417635 0.075346927335876196 0.14053651293118793 -0.18875337218751714 -0.14631410160580197 0.26958339821208605 -0.065541789338395412 -0.046727488425019531 0.28225132905984224 0.066366726960404784 -0.14385186178993634 -0.093071283541974581 -0.058511131039032577 -0.13063687557107084 0.050543536719783115 0.03969524091711113 0.01642934423353937 0.019606642871359853 0.067691524052306232 0.11052917402322766 0.11585128095589187
leaf_weight=23 20 23 34 92 225 40 133 20 42 35 28 21 29 89 510 31 148 48 20 387 39 957 345 193 30 32 55 693 34 27 22 33 24 26 51 36 21 20 434 23 49 20 166 26 97 36 164 36 30 78 511 261 83 389 142 201 23 107 379 37 568 75
leaf_count=23 20 23 34 92 225 40 133 20 42 35 28 21 29 89 510 31 148 48 20 387 39 957 345 193 30 32 55 693 34 27 22 33 24 26 51 36 21 20 434 23 49 20 166 26 97 36 164 36 30 78 511 261 83 389 142 201 23 107 379 37 568 75
internal_value=0.00142033 -0.0887749 0.180272 0.135913 0.0518858 0.162332 -0.145268 -0.0253208 -0.153621 -0.157432 -0.029449 -0.00192148 0.329849 -0.0361639 -0.166224 -0.152852 0.301308 0.148414 0.148963 0.142702 -0.0469239 -0.158117 0.332945 -0.162845 -0.126956 -0.141456 -0.0263476 -0.175108 0.124639 0.22999 0.117186 0.0310375 0.307018 -0.195718 -0.102861 0.13354 0.127873 0.233997 -0.052667 -0.112496 0.170563 0.0752216 0.0965947 0.242475 -0.145055 -0.0673799 0.320068 0.0425466 0.0392442 0.224164 0.0600207 -0.169226 -0.0612734 -0.0751533 -0.102806 0.0652038 0.126046 -0.0268059 0.0120805 -0.00604064 0.118584 0.16461
internal_weight=8571 5698 2873 2104 504 1600 3452 225 3227 3185 205 2246 121 1269 2980 2470 769 1479 69 1431 1200 2435 543 2321 594 564 110 1727 1044 67 977 481 52 1034 77 742 720 56 1161 156 69 219 186 46 153 56 509 977 956 226 541 454 114 620 231 235 55 541 415 262 664 96
internal_count=8571 5698 2873 2104 504 1600 3452 225 3227 3185 205 2246 121 1269 2980 2470 769 1479 69 1431 1200 2435 543 2321 594 564 110 1727 1044 67 977 481 52 1034 77 742 720 56 1161 156 69 219 186 46 153 56 509 977 956 226 541 454 114 620 231 235 55 541 415 262 664 96
is_linear=0
shrinkage=0.05


Tree=5
num_leaves=63
num_cat=0
split_feature=29 0 0 21 0 1 0 21 26 21 10 1 2 9 6 18 10 4 0 11 21 16 4 1 5 29 0 11 7 21 2 3 4 10 11 1 7 5 18 0 9 12 15 5 0 10 2 10 0 0 2 5 5 26 5 26 21 4 10 8 16 6
split_gain=49716 10120.3 5377.15 1597.62 1440.81 1379.38 1202.99 1150.63 1358.54 1127.4 1385.18 1738.01 1054.54 1007.8 924.543 793.05 738.919 1388.43 724.066 557.453 535.004 512.7 927.082 412.451 367.017 337.205 399.64 893.971 337.051 321.161 458.267 295.237 312.035 723.996 278.621 448.083 275.02 273.326 266.188 226.534 184.34 198.876 177.029 445.473 175.233 172.013 182.575 165.373 135.579 124.541 113.808 112.148 111.47 102.263 93.3499 592.827 92.0244 82.0337 80.3737 79.0533 78.4454 76.3148
threshold=1.0000000180025095e-35 21.220000000000002 28.750000000000004 13.844500471780597 22.030000000000005 24.170000000000005 23.795000000000005 14.363669243043597 0.76604444311897824 13.705008797624865 25.450000000000003 19.170000000000005 16.570000000000004 23.850000000000005 21.488888888888887 7.0806438128618572 32.95000000000001 17.180000000000003 19.525000000000002 87.750000000000014 14.240579692498361 9.2500000000000018 20.075000000000003 30.630000000000006 23.265000000000004 1.5000000000000002 18.220000000000002 35.750000000000007 0.082824637052352115 14.363669243043597 21.780000000000005 25.325000000000006 25.650000000000002 32.150000000000013 88.750000000000014 17.970000000000002 0.048188617503027206 21.875000000000004 6.9493124101527206 27.165000000000003 21.550000000000004 0.34459146534991963 0.55000000000000016 27.455000000000002 18.315000000000005 21.250000000000004 24.445000000000004 23.450000000000003 24.595000000000002 24.225000000000005 27.515000000000004 22.390000000000004 16.820000000000004 0.48087430661751696 17.500000000000004 0.85470842479866238 14.51952299419624 25.035000000000004 19.650000000000002 -0.54499999999999982 1.7500000000000002 22.436944444444453
decision_type=2 2 2 2 2 2 2 2 2 2 2 2 2 2 2 2 2 2 2 2 2 2 2 2 2 2 2 2 2 2 2 2 2 2 2 2 2 2 2 2 2 2 2 2 2 2 2 2 2 2 2 2 2 2 2 2 2 2 2 2 2 2
left_child=2 7 3 4 -1 13 14 9 24 10 -2 36 -11 -5 51 20 18 -18 34 31 23 25 53 -4 28 -19 27 -27 -9 59 -31 49 33 -33 44 -36 -12 -34 57 42 -8 -42 58 -44 54 -40 -47 -17 -43 -7 -22 -3 -50 -23 55 -14 -32 -6 -39 -16 -26 -61
right_child=1 6 15 5 38 19 40 8 -10 12 11 -13 16 -15 29 47 17 21 -20 -21 50 22 -24 -25 60 26 -28 -29 -30 30 56 32 37 -35 35 -37 -38 39 45 -41 41 48 43 -45 -46 46 -48 -49 52 -51 -52 -53 -54 -55 -56 -57 -58 -59 -60 61 -62 -63
leaf_value=0.44170752221887766 -0.17718757870553556 0.09433642132651239 0.46027662999489732 0.39436231903407887 -0.016092233438092959 0.15758934034965932 -0.051634400279498574 -0.10121591496467591 0.1893888334433238 0.13848959880490458 0.36934305871686629 -0.14076113066774734 -0.218712713182727 0.054256484071568904 -0.11016393794755762 0.24059785937154016 0.21714525684233635 -0.18843888196888872 -0.11692886290402947 0.30867132985073592 0.32205320146348743 0.050585836758289274 -0.16833192199468613 0.31683608438724131 -0.16285911401112874 -0.19664124912685821 -0.13624377035432392 0.19994821031888327 0.16411114568295687 0.15705030775732465 -0.037469283713712949 0.11919952111041293 0.29467405630992011 0.45320675556476298 0.06381542697548867 -0.17732975114475599 0.15203853953968396 0.13805294185876846 -0.043135022089399143 0.16465140059829908 0.13357776445832836 0.013470874183400986 0.29985198095440863 0.11832446261697455 -0.1631126669867366 0.22813398454870498 0.06962022823946816 0.15695138761630426 -0.042890306482357643 0.047444337844582546 0.22496490602048569 0.26052852964401246 0.060075006554834547 0.18539083714668569 -0.20382918666607594 0.054721826563278834 0.013801885667172345 0.069312931038439274 0.082720793876293552 -0.080947792934703416 -0.08056167860825858 -0.041201833664611359
leaf_weight=21 86 20 67 91 231 31 50 24 53 30 30 46 78 29 95 128 30 253 517 45 44 33 59 311 92 26 251 29 22 35 434 46 25 25 29 54 32 83 28 310 60 310 39 246 509 20 153 129 27 139 192 24 519 25 1115 26 109 31 369 231 47 261
leaf_count=21 86 20 67 91 231 31 50 24 53 30 30 46 78 29 95 128 30 253 517 45 44 33 59 311 92 26 251 29 22 35 434 46 25 25 29 54 32 83 28 310 60 310 39 246 509 20 153 129 27 139 192 24 519 25 1115 26 109 31 369 231 47 261
internal_value=0.00027956 -0.0851656 0.17129 0.125285 0.0463167 0.151095 -0.000478374 -0.137838 -0.0315552 -0.14559 -0.0285343 0.0903774 -0.152989 0.313298 -0.0337052 0.27466 -0.155916 -0.110801 -0.169545 0.136542 0.305792 -0.125654 -0.0301681 0.343408 -0.0955306 -0.14555 -0.109591 0.0123059 0.0264715 -0.0422621 -0.0157636 0.130413 0.139578 0.241469 -0.184492 -0.0933175 0.261379 0.132611 0.0274699 0.128464 0.0410987 0.0462113 0.11304 0.144127 -0.188815 0.0706011 0.0891513 0.199383 0.0399388 0.0683337 0.244349 0.188762 0.0549142 0.110849 -0.199405 -0.150484 -0.0271708 -0.00576192 0.0931637 -0.0682832 -0.135806 -0.0599894
internal_weight=8504 5671 2833 1962 484 1478 2175 3496 238 3258 194 108 3064 120 1209 871 3034 706 2328 1358 614 676 117 378 185 559 306 55 46 1165 578 1313 1143 71 1811 83 62 1072 463 1047 966 916 737 285 1728 201 173 257 856 170 236 44 546 58 1219 104 543 262 452 587 139 492
internal_count=8504 5671 2833 1962 484 1478 2175 3496 238 3258 194 108 3064 120 1209 871 3034 706 2328 1358 614 676 117 378 185 559 306 55 46 1165 578 1313 1143 71 1811 83 62 1072 463 1047 966 916 737 285 1728 201 173 257 856 170 236 44 546 58 1219 104 543 262 452 587 139 492
is_linear=0
shrinkage=0.05


Tree=6
num_leaves=63
num_cat=0
split_feature=29 0 0 20 0 1 0 18 20 5 27 0 27 20 5 27 4 3 26 18 0 10 11 20 1 26 11 1 0 18 1 18 9 6 20 6 1 4 18 0 17 9 0 9 12 27 10 2 29 0 2 9 5 0 5 2 0 26 16 20 5 0
split_gain=44902.1 9136.53 4853.73 1442.18 1306.75 1246.45 1145.07 961.819 1238.53 1396.54 1107.29 1148.5 945.668 938.964 830.369 772.661 2483.32 763.158 1052.74 716.157 596.82 834.867 504.685 482.674 373.963 341.568 316.046 404.307 360.827 316.041 291.715 271.773 317.282 914.928 279.941 653.732 259.769 253.621 240.585 226.067 202.06 199.858 176.072 166.581 179.922 166.421 155.638 165.929 155.192 122.503 103.82 103.607 100.272 99.1802 98.9541 96.4045 79.3652 78.953 78.2811 77.1106 74.8112 74.7631
threshold=1.0000000180025095e-35 21.120000000000001 28.750000000000004 35.911563300033244 22.030000000000005 24.170000000000005 23.795000000000005 6.7831064630342235 38.158798854355886 17.755000000000006 0.46174861323503352 19.980000000000004 0.34202014332566838 36.711394547204677 22.960000000000004 -0.021809693682667986 18.830000000000002 21.980000000000004 0.76604444311897824 7.0806438128618572 18.420000000000005 31.450000000000003 87.750000000000014 37.640648329351997 30.630000000000006 0.80625269229011354 87.250000000000014 18.220000000000002 18.620000000000005 6.8482254722442155 21.520000000000003 7.585060371437252 22.350000000000005 25.329722222222227 37.98944505954568 25.781388888888895 18.570000000000004 27.455000000000002 6.9493124101527206 22.285000000000004 0.46500000000000002 21.550000000000004 24.225000000000005 21.550000000000004 0.34459146534991963 0.3826834323650895 21.250000000000004 24.445000000000004 1.5000000000000002 24.550000000000004 25.935000000000006 21.650000000000002 16.820000000000004 16.710000000000004 20.670000000000005 19.580000000000002 18.060000000000006 0.94670478576706774 280.80000000000001 36.90364558833042 30.440000000000001 19.120000000000005
decision_type=2 2 2 2 2 2 2 2 2 2 2 2 2 2 2 2 2 2 2 2 2 2 2 2 2 2 2 2 2 2 2 2 2 2 2 2 2 2 2 2 2 2 2 2 2 2 2 2 2 2 2 2 2 2 2 2 2 2 2 2 2 2
left_child=2 7 3 4 -1 12 17 26 9 10 11 41 51 15 -10 16 20 18 30 23 21 -11 31 24 -4 -16 28 -28 -2 -18 -3 32 37 -34 -35 -36 -17 42 60 48 -23 53 -7 -8 -45 59 -40 -48 -19 -46 -25 -5 -51 -9 -41 -12 -15 -20 -30 -21 -6 -31
right_child=1 6 19 5 38 22 43 8 14 13 55 -13 -14 56 25 36 29 39 57 45 -22 40 -24 50 -26 -27 27 -29 58 61 -32 -33 33 34 35 -37 -38 -39 46 54 -42 -43 -44 44 49 -47 47 -49 -50 52 -52 -53 -54 -55 -56 -57 -58 -59 -60 -61 -62 -63
leaf_value=0.42062603018500594 -0.20039578222999566 0.13178172199814409 0.43760123883976654 0.43838302384723316 -0.016189677556561276 0.2056419126365496 -0.049103302743249373 0.16987513614737471 0.21794263851351856 -0.12873304171221597 -0.19199869658412605 -0.12383879969517392 0.035614037287554572 -0.20454165896373008 -0.087003817499338928 -0.19557235581534249 0.0085897043626755477 -0.12148501939737975 0.19583380586571164 0.11891291641894682 0.36679313807260422 0.26051900368748288 0.29357327119163845 0.30852968970010447 0.30104504579152819 0.1369747286751157 0.061372266468756348 -0.16656012871991033 -0.14993992870446868 -0.17805386157262892 -0.055155457821219112 0.052631754049610707 0.42566131671269736 0.09552509004401194 0.32759621826085183 0.14067816983231091 -0.1264120119922566 0.14201224247614544 -0.041052642464637759 -0.050000046786016307 0.093292016850577475 0.21582771672142878 0.060965203664357398 0.12700836527481921 0.012399968425228003 0.24318336049715678 0.21727046441464198 0.066161819499034394 -0.056141903513186688 -0.04082238082108753 0.21423418430181651 0.30882276553733679 0.05680363014483817 0.041364385932683947 -0.011416712787669862 -0.092554381307290531 -0.16712909872078105 0.34626111321239955 -0.089537376505987989 0.19169991949954668 0.060489263083483728 -0.1261395322185167
leaf_weight=21 637 26 67 43 226 22 50 22 40 34 57 59 27 334 90 209 39 133 26 80 20 32 45 42 311 20 33 45 377 104 91 123 29 221 54 351 423 230 28 321 44 53 283 60 304 95 20 153 295 27 194 50 525 46 345 48 330 20 69 82 36 283
leaf_count=21 637 26 67 43 226 22 50 22 40 34 57 59 27 334 90 209 39 133 26 80 20 32 45 42 311 20 33 45 377 104 91 123 29 221 54 351 423 230 28 321 44 53 283 60 304 95 20 153 295 27 194 50 525 46 345 48 330 20 69 82 36 283
internal_value=0.000295127 -0.080908 0.162816 0.119107 0.0440781 0.14363 -0.00186307 -0.131855 -0.112935 -0.12268 -0.0195646 0.0556664 0.297818 -0.138529 0.0257932 -0.111734 -0.0685519 -0.0333103 0.0673341 0.261025 0.122078 0.0746812 0.129796 0.29061 0.32634 -0.0454133 -0.168995 -0.070571 -0.176012 -0.126875 -0.0128491 0.123963 0.131286 0.154745 0.141536 0.166346 -0.149556 0.10233 0.0261296 -0.0483536 0.166172 0.143491 0.0720388 0.0390496 0.0439097 0.189491 0.067134 0.0847793 -0.076683 0.0379436 0.232247 0.372753 0.0519633 0.0848008 -0.0300603 -0.14784 -0.186227 0.267213 -0.140816 0.156706 -0.0054637 -0.140514
internal_weight=8504 5671 2833 1962 484 1478 2223 3448 2287 2137 285 180 120 1852 150 1188 556 1257 163 871 130 110 1358 614 378 110 1161 78 1083 426 117 1313 1190 655 626 405 632 535 463 1094 76 121 305 966 916 257 201 173 428 856 236 93 552 68 666 105 664 46 446 162 262 387
internal_count=8504 5671 2833 1962 484 1478 2223 3448 2287 2137 285 180 120 1852 150 1188 556 1257 163 871 130 110 1358 614 378 110 1161 78 1083 426 117 1313 1190 655 626 405 632 535 463 1094 76 121 305 966 916 257 201 173 428 856 236 93 552 68 666 105 664 46 446 162 262 387
is_linear=0
shrinkage=0.05


Tree=7
num_leaves=63
num_cat=0
split_feature=29 0 0 20 0 1 28 28 6 0 20 5 28 9 27 2 18 28 11 20 26 28 0 10 28 16 4 0 3 4 10 5 11 1 18 0 0 3 27 9 16 15 26 10 3 1 0 28 11 0 29 0 8 9 5 0 26 5 20 27 27 9
split_gain=40555.9 8252.95 4381.99 1286.68 1185.62 1136.24 979.547 1112.95 1282.38 978.7 869.94 1118.69 908.659 2159.57 855.239 767.569 649.172 503.84 467.968 456.28 410.408 404.006 342.093 291.672 820.627 477.739 868.659 326.53 241.154 261.098 601.122 224.216 216.962 364.298 216.769 175.848 175.284 174.507 155.412 152.401 150.421 143.83 395.115 141.262 158.768 122.705 115.612 114.214 112.079 147.912 109.835 102.685 97.0627 93.8486 90.049 83.225 82.9083 79.676 78.0037 75.8646 73.8828 69.6294
threshold=1.0000000180025095e-35 21.220000000000002 28.685000000000002 35.911563300033244 22.030000000000005 24.170000000000005 134.08333333333334 93.250000000000014 16.843888888888895 23.740000000000006 38.158798854355886 22.960000000000004 87.250000000000014 22.950000000000003 0.34202014332566838 21.580000000000002 7.0806438128618572 41.250000000000007 87.750000000000014 37.461271478421395 0.80625269229011354 15.583333333333334 30.565000000000005 32.650000000000013 70.083333333333357 9.5500000000000025 20.075000000000003 19.120000000000005 25.325000000000006 25.650000000000002 32.150000000000013 21.875000000000004 88.750000000000014 17.970000000000002 6.9493124101527206 27.045000000000005 22.285000000000004 21.580000000000002 0.55543802234893513 21.550000000000004 1.7500000000000002 0.55000000000000016 0.80625269229011354 21.350000000000005 24.550000000000004 20.420000000000005 19.050000000000004 90.583333333333357 85.250000000000014 24.980000000000004 1.5000000000000002 24.225000000000005 0.87000000000000288 21.650000000000002 16.820000000000004 18.170000000000005 0.62577451934763018 18.060000000000006 38.801858615337487 0.59116893267988313 -0.40265084705289433 23.350000000000005
decision_type=2 2 2 2 2 2 2 2 2 2 2 2 2 2 2 2 2 2 2 2 2 2 2 2 2 2 2 2 2 2 2 2 2 2 2 2 2 2 2 2 2 2 2 2 2 2 2 2 2 2 2 2 2 2 2 2 2 2 2 2 2 2
left_child=2 6 3 4 -1 14 7 8 -2 15 12 -12 21 -14 53 37 19 36 28 22 40 45 -4 27 25 46 56 32 51 30 -30 -31 55 -34 -6 41 50 -3 -18 -11 -13 59 -43 -36 -45 -10 -25 -15 49 -41 -17 -7 -21 -5 -51 -23 -27 -56 61 -33 -24 -38
right_child=1 9 16 5 34 18 -8 -9 10 39 11 20 13 47 -16 17 38 -19 -20 52 -22 23 60 24 -26 26 -28 -29 29 31 -32 35 33 -35 43 -37 58 -39 -40 48 -42 42 -44 44 -46 -47 -48 -49 -50 54 -52 -53 -54 -55 57 -57 -58 -59 -60 -61 -62 -63
leaf_value=0.40055070356889211 0.16885536756270972 0.073679907868305847 0.4551667952537537 0.41696203621951017 -0.0051820974944853451 0.14214703005272897 0.11352625703655704 -0.20321035080112765 0.034874258596135084 -0.045713339085449223 0.199505805562843 -0.14795931026499759 -0.17971046138817157 0.29266533715384346 0.033896932538066596 -0.1123598062886601 0.15257152390220893 0.14480858974986607 0.28222933504316544 0.20634805029685346 0.13045212087177097 -0.17972165943581001 0.32757300604134798 -0.17346213491951548 0.133747086019227 0.064326552195208414 -0.15415662382588244 -0.1176550652521352 0.10729870021026185 0.26583558045900785 0.4115883588790894 0.065768286865894449 0.057764686023195594 -0.16183939530299263 -0.035255456547583303 0.14538990076453914 -0.057552343067027924 0.26908327178521591 0.2401936711409153 0.017079824488049605 -0.054339766324985599 0.10570243579200192 0.28734845825604033 0.21082075224036265 0.062878247088943892 -0.076061289198696619 -0.12346907684597344 0.13400645797902888 0.12399947391106532 -0.037460276732842128 -0.054877775925255959 0.042154841205504327 0.31136515339215598 0.29368440123165357 0.095802211332272069 -0.15028087987210648 0.19386788890475321 0.04827796238904148 0.01081939454057387 0.10948568686663387 0.2694822009180633 -0.021280503047964663
leaf_weight=21 38 26 39 43 262 31 42 425 33 53 43 92 70 34 27 112 183 35 44 217 20 750 127 204 32 34 65 575 46 25 25 269 29 51 30 335 226 21 77 456 83 233 34 20 150 95 312 21 38 23 335 139 29 50 128 428 20 296 104 165 212 322
leaf_count=21 38 26 39 43 262 31 42 425 33 53 43 92 70 34 27 112 183 35 44 217 20 750 127 204 32 34 65 575 46 25 25 269 29 51 30 335 226 21 77 456 83 233 34 20 150 95 312 21 38 23 335 139 29 50 128 428 20 296 104 165 212 322
internal_value=0.000309058 -0.0768641 0.154764 0.112786 0.041897 0.136097 -0.124429 -0.127355 -0.116648 -0.000388009 -0.12033 -0.0284812 -0.128258 0.00342846 0.283251 -0.0311466 0.247083 -0.0394048 0.122778 0.274977 -0.0795166 -0.13452 0.310121 -0.138959 -0.110245 -0.122732 -0.0320974 -0.149342 0.117177 0.125535 0.218671 0.119102 -0.163721 -0.0825026 0.0247647 0.115308 -0.0453978 0.164775 0.179342 0.0361517 -0.104118 0.100746 0.129819 0.0638255 0.0814143 -0.0474121 -0.143531 0.235561 0.0408062 0.037172 -0.0694991 0.0611133 0.219939 0.354513 0.0575848 -0.169162 0.114957 0.0628166 -0.0287932 0.0826024 0.292144 -0.0363169
internal_weight=8504 5671 2833 1949 483 1466 3496 3454 3029 2175 2991 238 2753 125 120 1181 884 1134 1346 624 195 2628 378 2500 667 635 119 1833 1302 1132 71 1061 1258 80 462 1036 1099 47 260 994 175 701 267 200 170 128 516 55 941 903 447 170 246 93 447 1178 54 424 652 434 339 548
internal_count=8504 5671 2833 1949 483 1466 3496 3454 3029 2175 2991 238 2753 125 120 1181 884 1134 1346 624 195 2628 378 2500 667 635 119 1833 1302 1132 71 1061 1258 80 462 1036 1099 47 260 994 175 701 267 200 170 128 516 55 941 903 447 170 246 93 447 1178 54 424 652 434 339 548
is_linear=0
shrinkage=0.05


Tree=8
num_leaves=63
num_cat=0
split_feature=29 6 1 28 20 28 28 28 6 1 3 26 28 9 20 26 5 4 18 28 11 4 1 18 1 10 28 16 4 9 6 6 5 7 4 4 7 11 3 5 3 28 29 15 18 10 26 1 5 20 1 10 28 1 5 27 4 26 5 4 18 16
split_gain=36632.1 6693.01 3049.07 1796.66 1237.48 1088.84 913.065 910.613 1071.51 859.714 912.386 856.882 763.086 1954.03 762.276 1084.71 756.568 639.717 582.765 489.808 359.386 340.686 316.025 253.311 246.175 330.738 742.77 627.083 654.202 228.483 414.333 300.239 265.763 311.276 223.02 220.937 210.58 210.438 354.632 206.037 199.249 191.67 210.369 172.905 172.651 172.508 153.836 151.398 142.288 121.146 118.497 109.183 103.196 93.079 92.7338 88.282 77.717 75.2831 73.6238 59.8999 56.9161 55.1189
threshold=1.0000000180025095e-35 21.15805555555556 29.460000000000004 1.0000000180025095e-35 35.911563300033244 0.24999999999999997 134.08333333333334 93.250000000000014 16.843888888888895 23.795000000000005 21.980000000000004 0.83127174505093893 87.250000000000014 22.950000000000003 38.158798854355886 0.76604444311897824 22.750000000000004 24.595000000000002 7.0806438128618572 64.416666666666671 88.250000000000014 30.565000000000005 21.520000000000003 7.585060371437252 19.815000000000001 32.650000000000013 70.083333333333357 9.5500000000000025 20.075000000000003 22.150000000000002 25.329722222222227 24.520833333333336 27.455000000000002 0.14699152332532373 27.455000000000002 25.035000000000004 0.15553989412879088 88.750000000000014 18.060000000000006 25.775000000000002 24.445000000000004 12.91666666666667 1.5000000000000002 31.500000000000004 7.3738776270843021 24.450000000000003 0.27976242230339715 18.570000000000004 23.645000000000007 37.640648329351997 24.705000000000002 17.750000000000004 90.583333333333357 28.500000000000004 16.820000000000004 0.65918890865109991 26.520000000000003 0.62577451934763018 18.010000000000002 17.235000000000003 6.918669838423571 2.1500000000000008
decision_type=2 2 2 2 2 2 2 2 2 2 2 2 2 2 2 2 2 2 2 2 2 2 2 2 2 2 2 2 2 2 2 2 2 2 2 2 2 2 2 2 2 2 2 2 2 2 2 2 2 2 2 2 2 2 2 2 2 2 2 2 2 2
left_child=2 5 3 -1 16 60 7 8 -7 10 11 22 14 -14 24 48 -5 19 21 39 23 49 -3 29 25 37 27 -27 57 34 31 -31 33 56 40 -18 -11 47 -39 -6 -19 -12 44 50 -43 -20 -23 -10 55 -4 58 -52 -15 -35 -53 -16 -32 -29 -38 -8 -2 -51
right_child=1 9 18 4 17 6 59 -9 12 36 41 -13 13 52 15 -17 35 20 45 -21 -22 46 -24 -25 -26 26 -28 28 -30 30 32 -33 -34 53 -36 -37 43 38 -40 -41 -42 42 -44 -45 -46 -47 -48 -49 -50 61 51 54 -54 -55 -56 -57 -58 -59 -60 -61 -62 -63
leaf_value=0.34824074050411585 0.020426014097548822 0.10243210694828973 0.26527650066201675 0.2471834571697773 0.22269153520464899 0.1998426706702621 0.16335440900014797 -0.19307368372527647 -0.16953910593067148 0.18228599876165391 -0.022342987623973812 0.29022540864017277 -0.17085149859038878 0.27845017637525288 0.044975260712883693 0.16534467429484961 -0.011479058499794623 0.21227953359484675 0.20600096852691085 0.39399279669711462 0.25363305317504065 0.27699695651729905 -0.048278134932488573 0.046090891300886873 -0.099131414735758761 -0.14905152828066653 0.12726237990639427 0.061202120855450626 -0.14316646506388983 0.12714494459685827 0.34885880152384441 0.39000130551201956 0.099296227763643719 0.11761208494955844 0.13285061925904365 0.060631244170800437 -0.038125068636792193 0.048590703225798081 -0.15056296368439992 0.026949078625156764 0.055223755386111364 -0.12316126861039876 -0.0421328933230109 -0.099156374622274335 -0.03955691462423612 0.11895627010952343 0.42400780553403106 -0.13525835622001339 -0.13599075566055954 0.1438522175738686 0.14620032440125943 -0.041325236347449182 0.12761069319464943 0.18293772721558477 0.044267688783270032 -0.080648894722645109 0.20693259477615356 0.18463608877999443 0.018185067202119778 0.042193936769451414 0.10112166614145846 0.22224521946719311
leaf_weight=79 55 60 262 38 42 26 22 425 812 21 400 35 70 34 21 52 265 21 134 37 48 47 80 124 512 368 32 34 47 20 23 27 353 175 233 176 71 35 59 20 275 205 402 26 90 109 45 591 92 37 24 33 21 88 503 38 29 20 299 20 36 126
leaf_count=79 55 60 262 38 42 26 22 425 812 21 400 35 70 34 21 52 265 21 134 37 48 47 80 124 512 368 32 34 47 20 23 27 353 175 233 176 71 35 59 20 275 205 402 26 90 109 45 591 92 37 24 33 21 88 503 38 29 20 299 20 36 126
internal_value=0.000326304 -0.0730186 0.14712 0.115613 0.106227 -0.117044 -0.121707 -0.124672 -0.114458 -0.00600871 -0.0330904 0.0726474 -0.117407 0.00335504 -0.12297 -0.0296065 0.0360801 0.128367 0.232792 0.251134 0.119613 0.263049 0.0165804 0.114728 -0.130506 -0.138492 -0.102894 -0.118835 -0.00835841 0.121527 0.140088 0.283127 0.129615 0.16317 0.0962244 0.0173717 0.0292479 -0.150329 -0.0766791 0.160979 0.0670435 -0.0500091 -0.0658316 0.0256992 -0.0978747 0.167604 0.35269 -0.155205 -0.0973881 0.242862 0.0292926 0.0437805 0.224164 0.14008 0.0389308 -0.0359309 0.275105 0.109444 0.00730597 0.107982 0.0531017 0.205436
internal_weight=8504 5671 2833 2073 1994 3422 3331 3289 2864 2249 1272 175 2838 125 2713 203 479 1515 760 99 1416 517 140 1368 2510 1998 501 469 101 1244 715 47 668 315 529 441 977 1497 94 62 296 1097 697 956 295 243 92 1403 151 425 930 560 55 263 536 59 52 54 370 42 91 163
internal_count=8504 5671 2833 2073 1994 3422 3331 3289 2864 2249 1272 175 2838 125 2713 203 479 1515 760 99 1416 517 140 1368 2510 1998 501 469 101 1244 715 47 668 315 529 441 977 1497 94 62 296 1097 697 956 295 243 92 1403 151 425 930 560 55 263 536 59 52 54 370 42 91 163
is_linear=0
shrinkage=0.05


Tree=9
num_leaves=63
num_cat=0
split_feature=29 0 0 20 0 0 9 28 28 0 0 20 5 28 9 2 9 18 5 28 20 11 26 0 28 2 0 10 28 16 4 3 10 18 8 11 1 5 0 8 7 0 0 16 15 26 1 28 2 5 4 4 5 5 1 9 28 8 10 0 4 9
split_gain=33087.7 6744.6 3580.32 1030.13 1010.86 950.925 814.006 801.06 905.815 1058.08 798.739 707.744 941.049 742.401 1768.05 624.658 971.371 523.886 457.985 411.947 408.692 408.532 332.219 288.104 287.296 340.237 285.642 282.727 688.147 548.956 629.701 186.551 455.967 178.74 171.185 162.823 313.322 159.259 142.537 142.074 132.136 145.988 131.451 120.729 111.232 332.724 101.402 93.241 92.3953 89.0447 84.0997 79.793 76.0598 79.2458 76.146 71.8773 71.7203 67.0804 63.0185 55.0459 54.2982 53.2594
threshold=1.0000000180025095e-35 21.220000000000002 28.565000000000005 35.911563300033244 22.030000000000005 24.170000000000005 23.850000000000005 134.08333333333334 93.250000000000014 16.820000000000004 23.795000000000005 38.158798854355886 22.960000000000004 87.250000000000014 22.950000000000003 21.830000000000002 24.650000000000002 7.0806438128618572 22.490000000000006 6.2500000000000009 37.461271478421395 87.750000000000014 0.80625269229011354 30.565000000000005 1.5833333333333337 25.090000000000003 19.775000000000002 32.650000000000013 70.083333333333357 9.5500000000000025 20.075000000000003 25.435000000000006 32.150000000000013 6.8482254722442155 -0.18499999999999867 88.750000000000014 17.970000000000002 21.875000000000004 18.370000000000005 -0.31000000000000044 0.16183851105279162 24.870000000000001 27.045000000000005 1.7500000000000002 0.55000000000000016 0.80625269229011354 22.440000000000001 90.583333333333357 27.515000000000004 22.750000000000004 25.270000000000003 17.550000000000001 16.820000000000004 17.235000000000003 25.205000000000002 23.750000000000004 13.91666666666667 -0.38000000000000073 30.450000000000003 17.295000000000005 17.235000000000003 24.150000000000002
decision_type=2 2 2 2 2 2 2 2 2 2 2 2 2 2 2 2 2 2 2 2 2 2 2 2 2 2 2 2 2 2 2 2 2 2 2 2 2 2 2 2 2 2 2 2 2 2 2 2 2 2 2 2 2 2 2 2 2 2 2 2 2 2
left_child=2 7 3 4 -1 6 -5 8 9 -2 15 13 -13 19 -15 16 18 20 -3 -11 23 24 43 -4 -7 -26 27 35 29 -29 55 32 -27 -6 56 38 -37 -33 59 -19 -12 51 44 -14 -39 -46 -36 -16 -22 -35 -51 -42 -43 54 -54 -31 -17 -58 -25 -21 -9 -45
right_child=1 10 17 5 33 21 -8 60 -10 11 40 12 22 14 47 34 -18 39 -20 26 48 -23 -24 58 25 31 -28 28 -30 30 -32 37 -34 49 46 36 -38 42 -40 -41 41 52 -44 61 45 -47 -48 -49 -50 50 -52 -53 53 -55 -56 -57 57 -59 -60 -61 -62 -63
leaf_value=0.36894708221608941 0.16098557380405631 0.057091707760287873 0.41315942645072945 0.32226549073903249 -0.027320648435587909 0.28454407887025313 0.034392139512826415 0.15554180689479993 -0.18344265794809997 0.037009562188532297 0.15222972701911047 0.18334388346834618 -0.1339834515766431 -0.16242924089163124 0.26492544106074745 -0.032691904242851379 -0.050945142703720282 0.095395766131913487 0.31922928660343858 -0.20332807302474976 0.26595045742781265 0.26357650501387464 0.11636655898321242 0.23758760821612587 0.036415850250782929 0.075520512194683156 -0.092504732831539177 -0.14289397185610742 0.12109207854126439 0.17760344289598012 -0.13850602920238789 0.2448402586437407 0.38483890465327675 0.13898075222969056 -0.050898441617541458 0.053335050427384914 -0.14316028277079265 0.074159403272045302 -0.12906744790594646 0.18258973860261429 -0.059994432349738329 -0.033566439430837314 0.12952507644095831 0.020247521996498111 0.093585369150553432 0.26069901806967599 -0.012206434019129369 0.12152018357406964 0.18179316261774814 0.0055520817118563832 0.057961063330982165 0.015880585278183975 0.17318452118585509 0.043574581823388386 0.066487962712462143 0.057173717261425089 -0.11832676044786755 -0.063309366777896017 0.28918633248124803 -0.15712983227622876 0.040184701566717461 -0.072367688268423089
leaf_weight=21 36 30 39 98 131 21 33 22 425 40 22 43 92 70 34 96 78 66 38 85 45 41 20 172 177 29 577 387 32 20 51 20 20 21 271 30 59 412 598 198 37 26 336 20 223 34 451 21 220 139 170 394 23 400 64 34 91 154 167 717 20 63
leaf_count=21 36 30 39 98 131 21 33 22 425 40 22 43 92 70 34 96 78 66 38 85 45 41 20 172 177 29 577 387 32 20 51 20 20 21 271 30 59 412 598 198 37 26 336 20 223 34 451 21 220 139 170 394 23 400 64 34 91 154 167 717 20 63
internal_value=0.000342826 -0.0693636 0.139854 0.101192 0.0377986 0.122311 0.250558 -0.112363 -0.115009 -0.105349 -0.00022845 -0.108605 -0.0257572 -0.115751 0.00328062 -0.0273031 0.0693545 0.22175 0.206084 -0.121407 0.246308 0.109335 -0.0725668 0.280244 0.10416 0.100908 -0.123867 -0.132806 -0.100797 -0.115445 -0.0138827 0.111492 0.206945 0.0219478 -0.0406314 -0.143995 -0.0770692 0.106732 -0.148192 0.161233 0.03365 0.0307284 0.103743 -0.0946977 0.09062 0.116619 -0.0267796 0.213318 0.19703 0.0415293 0.0344795 0.00924315 0.0487262 0.0531794 0.0963426 0.104195 -0.0697957 -0.0841423 0.263782 -0.162273 0.102822 -0.0500754
internal_weight=8504 5671 2833 1926 482 1444 131 3496 3454 3029 2175 2993 238 2755 125 1209 146 907 68 2630 643 1313 195 378 1272 1251 2590 2013 524 492 105 1074 49 461 1063 1489 89 1025 1400 264 966 944 1005 175 669 257 722 55 265 330 309 431 513 487 87 54 341 245 339 802 42 83
internal_count=8504 5671 2833 1926 482 1444 131 3496 3454 3029 2175 2993 238 2755 125 1209 146 907 68 2630 643 1313 195 378 1272 1251 2590 2013 524 492 105 1074 49 461 1063 1489 89 1025 1400 264 966 944 1005 175 669 257 722 55 265 330 309 431 513 487 87 54 341 245 339 802 42 83
is_linear=0
shrinkage=0.05


Tree=10
num_leaves=63
num_cat=0
split_feature=29 6 1 28 1 20 28 20 28 4 5 6 20 5 1 27 20 5 18 12 3 4 11 8 27 4 1 28 1 28 11 2 20 5 5 7 17 6 4 19 20 11 6 7 26 6 1 9 18 18 20 5 11 6 5 3 20 5 26 28 6 6
split_gain=30027.8 5410.53 2563.65 1433.13 937.74 906.588 905.108 901.107 1675.22 850.844 749.059 720.062 561.212 923.762 496.4 564.558 483.671 975.12 446.1 413.637 749.75 824.706 366.711 316.768 308.945 278.033 257.741 240.026 232.238 210.197 217.574 313.835 210.169 298.462 411.585 201.76 200.745 189.248 165.037 153.643 152.384 613.145 193.844 166.413 144.153 142.223 136.662 134.476 131.704 198.251 113.687 108.217 103.957 177.346 102.093 98.7655 95.9695 93.8685 92.0859 92.0309 90.4757 81.4434
threshold=1.0000000180025095e-35 20.429444444444446 29.525000000000002 0.24999999999999997 23.795000000000005 35.911563300033244 40.583333333333336 35.280520904054022 88.083333333333357 20.720000000000002 17.180000000000003 22.094444444444452 38.158798854355886 23.645000000000007 24.170000000000005 0.34202014332566838 36.711394547204677 17.700000000000006 7.0806438128618572 2.410692777590008 18.060000000000006 18.010000000000002 87.750000000000014 -0.31000000000000044 -0.021809693682667986 30.565000000000005 19.330000000000002 90.583333333333357 27.335000000000004 133.08333333333334 87.250000000000014 18.010000000000002 38.158798854355886 22.640000000000004 22.340000000000003 0.15786603927615372 0.46500000000000002 18.050277777777783 25.035000000000004 0.0098047453379953003 36.11606205075293 56.750000000000007 25.197222222222226 0.10878696232784131 0.36235178784537941 24.778333333333336 18.620000000000005 20.850000000000005 6.8482254722442155 6.7831064630342235 38.487259578935841 16.820000000000004 73.250000000000014 25.781388888888895 18.010000000000002 21.830000000000002 38.487259578935841 16.920000000000005 0.87651811848133032 14.91666666666667 21.901388888888896 25.914722222222228
decision_type=2 2 2 2 2 2 2 2 2 2 2 2 2 2 2 2 2 2 2 2 2 2 2 2 2 2 2 2 2 2 2 2 2 2 2 2 2 2 2 2 2 2 2 2 2 2 2 2 2 2 2 2 2 2 2 2 2 2 2 2 2 2
left_child=2 7 3 -1 6 11 23 8 24 -8 58 -5 16 -14 15 -7 17 -12 25 46 21 -21 28 59 26 50 -2 -10 40 30 37 -32 -25 34 56 -6 -23 -18 -13 -20 41 -16 -42 47 -27 54 -19 -44 49 -22 -4 -47 -45 -54 -37 -11 -34 -53 -9 -3 -35 -24
right_child=1 4 18 5 35 14 9 10 27 55 12 38 13 -15 22 -17 29 19 39 20 48 36 61 32 -26 44 -28 -29 -30 -31 31 -33 33 60 -36 45 -38 -39 -40 -41 42 -43 43 52 -46 51 -48 -49 -50 -51 -52 57 53 -55 -56 -57 -58 -59 -60 -61 -62 -63
leaf_value=0.31205240273848178 0.13140517051021258 -0.042122144431903451 0.22827197644617653 0.2607855897961241 0.16124381218795425 0.2998584386280605 -0.10681805568081992 0.013810509785607057 0.34847250691166631 0.17155417141161466 0.18035140415032705 -0.0080832005825839815 0.15019700354337695 -0.12878657579421998 0.3468783837777597 0.032927189767360691 -0.17168991856951821 -0.15968473860075777 0.19024405913693565 -0.14170258719670145 -0.13258889516194661 0.24625408023595813 0.27814774255494812 -0.05372083948787313 -0.14038803727939875 0.25009748748704497 -0.10558811859651046 0.11794458213059798 0.13534964720408124 -0.00083007038069459111 0.041801258235402108 -0.13571544671669986 -0.019614409234423143 -0.064054321249326071 0.24023044407367708 -0.042862342989358766 0.071487324684858328 -0.13361858113112221 0.05338410832798543 0.1092682910550918 0.04591798663198475 0.037424884286777281 0.095003707068307075 0.08200541918177856 0.38972538384524258 -0.038403499079313841 -0.11423348558268376 0.28140070817687296 -0.12276847413863137 0.036300205042887779 0.13654602142897518 0.14438482108323469 0.23405315785697015 0.092084673563639322 0.014751559658394336 0.31792131445624611 0.081271309011122769 0.040560994775071857 0.14599792325780506 -0.11629925017697472 -0.017417194165132377 0.13976923851739795
leaf_weight=79 23 57 384 32 26 69 27 36 26 37 29 251 49 72 26 28 678 283 139 37 32 29 36 695 98 50 21 22 380 25 36 77 76 149 23 103 39 690 192 111 251 40 20 548 43 41 447 21 266 36 43 22 32 74 294 21 33 485 20 174 343 20
leaf_count=79 23 57 384 32 26 69 27 36 26 37 29 251 49 72 26 28 678 283 139 37 32 29 36 695 98 50 21 22 380 25 36 77 76 149 23 103 39 690 192 111 251 40 20 548 43 41 447 21 266 36 43 22 32 74 294 21 33 485 20 174 343 20
internal_value=0.00113274 -0.0654933 0.132945 0.104231 -0.0124955 0.0959527 -0.0356014 -0.110448 -0.00495365 0.122354 -0.117401 0.0354456 -0.120993 -0.0155047 0.11452 0.223928 -0.125706 -0.101806 0.210983 -0.108954 -0.0703388 0.0458719 0.107042 -0.0443368 -0.091382 0.237612 0.0184619 0.247377 0.10185 -0.144637 -0.147063 -0.0792909 -0.0348265 -0.0137299 0.0527703 0.0264076 0.148509 -0.152599 0.0186175 0.154869 0.0891495 0.162689 0.0838525 0.0974669 0.318116 0.0225313 -0.132048 0.194902 -0.1069 -0.0439468 0.219376 0.0390174 0.0910704 0.13673 -0.000266265 0.229039 0.0113901 0.0453415 0.0627534 -0.0982563 -0.0316423 0.232046
internal_weight=8546 5677 2869 2099 2606 2020 1635 3071 190 85 2881 475 2825 121 1545 97 2704 1198 770 1169 439 105 1448 1550 142 520 44 48 1392 1506 1481 113 1319 624 132 971 68 1368 443 250 1012 66 946 695 93 945 730 41 334 68 427 548 654 106 397 58 109 507 56 231 492 56
internal_count=8546 5677 2869 2099 2606 2020 1635 3071 190 85 2881 475 2825 121 1545 97 2704 1198 770 1169 439 105 1448 1550 142 520 44 48 1392 1506 1481 113 1319 624 132 971 68 1368 443 250 1012 66 946 695 93 945 730 41 334 68 427 548 654 106 397 58 109 507 56 231 492 56
is_linear=0
shrinkage=0.05


Tree=11
num_leaves=63
num_cat=0
split_feature=29 0 0 20 1 20 26 20 28 28 1 0 27 28 6 2 26 27 18 11 0 28 28 7 10 28 16 4 0 18 28 2 0 26 7 6 4 20 7 6 0 8 29 11 1 0 11 27 20 16 9 20 29 0 9 16 9 28 20 7 6 2
split_gain=27118.6 5486.79 3029.09 857.572 860.607 692.641 841.823 701.045 1643.89 696.08 691.718 668.303 570.206 553.317 909.928 463.752 856.539 298.301 279.77 277.802 275.761 217.383 215.084 210.631 202.887 522.452 355.768 511.042 280.088 181.204 295.021 170.84 164.513 162.549 281.081 539.397 184.731 175.704 156.672 141.74 120.695 120.489 102.666 102.387 235.207 101.002 94.6492 91.3717 91.2377 83.5425 79.001 71.1506 68.7174 68.006 67.6162 66.4396 66.0574 78.9494 64.1811 61.1695 56.5213 54.7165
threshold=1.0000000180025095e-35 21.120000000000001 29.780000000000005 35.911563300033244 22.030000000000005 38.158798854355886 0.55543802234893513 35.280520904054022 88.083333333333357 134.08333333333334 24.170000000000005 23.795000000000005 0.34202014332566838 86.416666666666671 16.843888888888895 21.830000000000002 0.87651811848133032 0.40265084705289472 7.0806438128618572 87.750000000000014 27.335000000000004 90.583333333333357 33.583333333333336 0.28933714760453982 32.95000000000001 70.083333333333357 9.0500000000000025 20.075000000000003 19.525000000000002 6.9493124101527206 35.250000000000007 17.550000000000001 22.285000000000004 0.59116893267988357 0.067972623169752264 25.723611111111115 26.520000000000003 36.11606205075293 0.16183851105279162 25.197222222222226 24.870000000000001 0.52000000000000146 1.5000000000000002 88.750000000000014 17.970000000000002 20.025000000000002 41.250000000000007 0.65918890865109991 38.487259578935841 2.350000000000001 21.650000000000002 38.801858615337487 1.5000000000000002 24.390000000000004 21.850000000000005 3.350000000000001 23.350000000000005 12.583333333333334 36.317561841262361 0.084462586790986907 17.999444444444446 21.520000000000003
decision_type=2 2 2 2 2 2 2 2 2 2 2 2 2 2 2 2 2 2 2 2 2 2 2 2 2 2 2 2 2 2 2 2 2 2 2 2 2 2 2 2 2 2 2 2 2 2 2 2 2 2 2 2 2 2 2 2 2 2 2 2 2 2
left_child=2 5 3 4 -1 7 49 8 31 13 12 15 50 14 -9 16 22 -8 23 20 33 -10 61 -4 28 26 45 46 43 -6 53 -2 42 37 -35 36 59 -12 -13 -39 -40 48 -17 52 -45 -26 -28 -20 -25 -7 -5 56 -16 -31 -42 -21 57 -34 -22 -36 -54 -3
right_child=1 11 18 10 29 6 17 9 21 -11 19 38 -14 -15 24 32 -18 -19 47 55 58 -23 -24 41 25 -27 27 -29 -30 30 -32 -33 51 34 35 -37 -38 39 40 -41 54 -43 -44 44 -46 -47 -48 -49 -50 -51 -52 -53 60 -55 -56 -57 -58 -59 -60 -61 -62 -63
leaf_value=0.35171473480406262 0.037001666000911169 0.028014363188828741 0.36277614794671537 0.34513953707434913 -0.004248027122230269 -0.11973847012187161 0.16941347084939481 0.13705799610991229 0.33169419809624001 0.092002201900056493 0.19666301884821483 0.16263051615519958 0.031337601139113817 -0.16387759900280441 -0.14560596395833755 -0.10095183088527462 0.2606094033212254 -0.047622155059467666 0.13658456943875594 0.26818559861952262 0.045237157600266593 0.11230375041132389 0.13646593337709254 0.21575515067472484 -0.12699029514177598 0.10920731280789231 0.031761278688477786 -0.12759220654314216 -0.086061497277490073 -0.034218404335635048 0.2359284682642846 -0.11822595180887166 -0.017443040185441665 0.027839058413842901 0.19215340722690932 0.086193027619908491 0.10403534742918881 0.032209587126970293 0.007258794783410849 0.082253860166892706 -0.014304863058644882 0.26798773776483903 -0.045417081156262647 0.048141399536419799 -0.13088201688507858 -0.068960651159286498 0.15970568532745044 0.20859781205654146 0.12210297987741583 -0.043609647136746033 0.2344992458820343 0.01506110762021746 -0.038153698507019065 0.049976452110136411 0.048870229056970645 0.13761679955891201 -0.014609467355721818 -0.074566894957312835 0.13999017260715793 0.31619808978222785 -0.12394890232119703 -0.052140397934809984
leaf_weight=20 20 27 31 43 255 85 59 37 26 40 27 21 28 508 663 122 37 21 138 30 20 22 21 340 373 32 38 54 495 27 20 131 111 71 21 163 21 199 414 505 46 130 269 26 58 99 23 75 33 65 47 107 21 177 481 20 332 134 382 46 568 91
leaf_count=20 20 27 31 43 255 85 59 37 26 40 27 21 28 508 663 122 37 21 138 30 20 22 21 340 373 32 38 54 495 27 20 131 111 71 21 163 21 199 414 505 46 130 269 26 58 99 23 75 33 65 47 107 21 177 481 20 332 134 382 46 568 91
internal_value=0.00110354 -0.0622127 0.126368 0.0958069 0.0383814 -0.101493 -0.0175698 -0.107454 -0.0164503 -0.113413 0.113428 -0.000709984 0.229839 -0.116187 -0.106383 -0.0247966 0.0502423 0.112557 0.212938 0.104154 0.100036 0.235484 -0.00721617 0.232597 -0.110114 -0.0850525 -0.0958102 -0.0167754 -0.118536 0.0245931 0.0572986 -0.0975578 -0.0371173 0.0864198 0.116153 0.140925 0.240196 0.0731816 0.0306058 0.0681736 0.0274899 0.22387 -0.0629584 -0.130494 -0.0755555 -0.11499 0.0818004 0.162798 0.207818 -0.0872566 0.290573 -0.0222752 -0.134117 0.0387205 0.0433392 0.219681 -0.029213 -0.0488624 0.1354 0.280716 -0.12096 -0.0337186
internal_weight=8546 5677 2869 2122 499 3464 230 3234 199 3035 1623 2213 118 2995 2487 1251 176 80 747 1505 1455 48 139 534 2450 619 587 115 1831 479 224 151 1075 1053 322 251 88 731 962 704 941 503 391 1336 84 472 61 213 373 150 90 684 1252 204 527 50 577 245 402 67 589 118
internal_count=8546 5677 2869 2122 499 3464 230 3234 199 3035 1623 2213 118 2995 2487 1251 176 80 747 1505 1455 48 139 534 2450 619 587 115 1831 479 224 151 1075 1053 322 251 88 731 962 704 941 503 391 1336 84 472 61 213 373 150 90 684 1252 204 527 50 577 245 402 67 589 118
is_linear=0
shrinkage=0.05


Tree=12
num_leaves=63
num_cat=0
split_feature=29 0 0 20 1 20 26 20 28 28 1 0 2 9 27 28 0 5 27 11 0 28 0 3 10 28 16 5 28 0 8 5 2 0 2 3 10 0 20 5 3 15 12 9 29 15 26 20 28 6 2 0 0 16 26 9 10 20 16 20 1 9
split_gain=24493.7 4955.02 2734.78 774.151 780.761 690.006 729.308 627.004 1491.35 626.978 626.406 572.609 518.618 829.493 515.713 505.881 822.677 404.388 346.786 252.309 249.266 229.598 214.31 236.82 215.228 472.284 285.409 482.691 196.876 195.015 158.822 158.155 154.532 141.42 192.821 160.836 305.623 137.736 137.551 134.942 157.136 98.7066 150.125 150.983 86.9144 86.8199 277.315 82.8586 94.6765 86.9055 78.0049 76.9353 76.1563 75.7236 71.5808 71.5145 67.2342 61.5331 60.0269 59.5661 57.2062 55.3159
threshold=1.0000000180025095e-35 21.220000000000002 29.780000000000005 35.911563300033244 22.030000000000005 38.158798854355886 0.44218343748786676 35.280520904054022 88.083333333333357 134.08333333333334 24.170000000000005 23.795000000000005 21.830000000000002 24.650000000000002 0.34202014332566838 86.416666666666671 16.820000000000004 22.490000000000006 0.40265084705289472 87.750000000000014 27.395000000000003 16.250000000000004 17.235000000000003 17.445000000000004 32.95000000000001 70.083333333333357 9.5500000000000025 20.420000000000005 90.583333333333357 18.920000000000005 1.3149999999999997 21.875000000000004 17.550000000000001 24.170000000000005 25.090000000000003 25.435000000000006 31.550000000000004 22.390000000000004 38.487259578935841 22.750000000000004 24.925000000000001 12.750000000000002 0.34459146534991963 23.150000000000002 1.5000000000000002 0.55000000000000016 0.76604444311897824 35.064480604080039 13.250000000000002 30.674722222222226 25.715000000000003 20.025000000000002 28.885000000000005 2.350000000000001 0.59116893267988357 21.650000000000002 19.250000000000004 36.317561841262361 3.350000000000001 38.801858615337487 20.420000000000005 23.450000000000003
decision_type=2 2 2 2 2 2 2 2 2 2 2 2 2 2 2 2 2 2 2 2 2 2 2 2 2 2 2 2 2 2 2 2 2 2 2 2 2 2 2 2 2 2 2 2 2 2 2 2 2 2 2 2 2 2 2 2 2 2 2 2 2 2
left_child=2 5 3 4 -1 7 53 8 32 15 14 12 13 17 55 16 -9 -3 -8 20 31 60 -23 -24 29 26 51 54 -10 -25 38 -12 -2 -33 -35 36 -36 44 47 -6 -41 42 43 -13 -14 56 -47 -4 49 -49 -48 -26 -44 -7 -28 -5 -37 -22 -21 61 -18 -39
right_child=1 11 30 10 39 6 18 9 28 -11 19 41 37 -15 -16 -17 21 -19 -20 58 57 22 23 24 25 -27 27 -29 -30 -31 -32 33 -34 34 35 45 -38 59 -40 40 -42 -43 52 -45 -46 46 50 48 -50 -51 -52 -53 -54 -55 -56 -57 -58 -59 -60 -61 -62 -63
leaf_value=0.33496641885666623 0.035239681175776888 0.041712264109540875 0.12856849032369527 0.32827475341883572 0.12262243553996087 -0.11335701381458957 0.156157121484849 0.13385945290729806 0.3157237317827013 0.087514288661002027 0.21674574938687413 0.16638231478655377 -0.089647222089460465 -0.044137683663612759 0.029824751358607723 -0.15569982210170544 0.018816523030964715 0.29683670416474345 -0.057202426592508952 0.25520887528696368 0.043083007704643982 -0.17797344023326658 0.012886244855647863 -0.13167422072758617 -0.12009142581214252 0.1039124122171691 0.040757010900415482 -0.11978489951840764 0.10693270175353341 -0.096233018642563506 0.26881205953400711 0.20115830296029649 -0.11231749765855029 0.031062372157499879 0.060751382860222039 0.10367863183622961 0.31468384347178718 -0.044319529323486477 0.1215348708985457 -0.0077921707724389446 0.052595494329596364 -0.063606948671596386 0.020178301486428955 -0.0024672006567319233 -0.04106384200526543 0.083961130155707317 0.29567992233094714 0.29167656472751075 0.15799293229074191 0.20845774799441369 0.14313750650201526 -0.068462625906175509 0.060589199678690954 -0.041333147445145775 0.15992410310677119 0.22301854913433394 0.059067772971209437 0.13601505754650503 0.13106362024943036 0.014315025156570805 -0.057788718975696367 -0.011582808578182667
leaf_weight=20 20 26 43 43 31 84 66 36 26 40 21 38 134 77 28 508 32 39 26 30 20 105 42 906 350 32 34 57 22 711 86 23 132 187 27 110 21 237 66 270 178 27 739 20 302 264 20 41 98 413 20 97 138 67 20 47 398 344 20 107 96 284
leaf_count=20 20 26 43 43 31 84 66 36 26 40 21 38 134 77 28 508 32 39 26 30 20 105 42 906 350 32 34 57 22 711 86 23 132 187 27 110 21 237 66 270 178 27 739 20 302 264 20 41 98 413 20 97 138 67 20 47 398 344 20 107 96 284
internal_value=0.00107398 -0.0591001 0.120122 0.0910834 0.0365223 -0.095809 -0.0144588 -0.101855 -0.015991 -0.107449 0.107826 0.000331518 -0.0226105 0.0668319 0.218604 -0.110055 -0.100788 0.196965 0.0958931 0.0990007 0.0950764 -0.104244 -0.107793 -0.104439 -0.106676 -0.0805329 -0.0912774 -0.0193091 0.224163 -0.11616 0.202379 0.0829682 -0.0927987 0.0801427 0.0772949 0.0873 0.176002 -0.0345989 0.193343 0.0233892 0.0162648 0.0290861 0.0318279 0.109103 -0.0561664 0.0818465 0.103163 0.201091 0.206498 0.216598 0.22476 -0.109066 0.0265989 -0.0818816 0.0869982 0.276362 0.0689123 0.131041 0.209094 -0.0195598 -0.03864 -0.0265309
internal_weight=8546 5677 2869 2122 499 3509 243 3266 200 3066 1623 2168 1206 142 118 3026 2518 65 92 1505 1455 2482 2354 2249 2207 590 558 111 48 1617 747 1091 152 1070 1047 860 48 1064 661 479 448 962 935 58 436 812 304 595 552 454 40 447 877 151 54 90 508 364 50 628 128 521
internal_count=8546 5677 2869 2122 499 3509 243 3266 200 3066 1623 2168 1206 142 118 3026 2518 65 92 1505 1455 2482 2354 2249 2207 590 558 111 48 1617 747 1091 152 1070 1047 860 48 1064 661 479 448 962 935 58 436 812 304 595 552 454 40 447 877 151 54 90 508 364 50 628 128 521
is_linear=0
shrinkage=0.05


Tree=13
num_leaves=63
num_cat=0
split_feature=29 0 0 20 0 20 28 1 20 28 28 0 9 9 2 9 28 6 5 18 11 7 18 9 6 5 7 29 1 11 7 3 0 6 27 2 4 7 0 0 28 8 0 27 0 16 20 16 10 0 29 2 5 5 0 28 16 5 3 20 1 10
split_gain=22124.7 4472.7 2472.42 659.825 730.391 622.564 660.81 585.223 567.078 1350.03 566.541 516.871 482.156 469.629 469.132 750.479 456.819 748.177 365.842 317.962 237.967 197.681 188.087 185.204 494.987 183.577 250.763 183.296 699.177 247.631 179.072 162.917 160.166 160.067 143.029 209.546 137.334 134.405 125.405 119.262 117.033 115.691 103.927 101.468 90.65 86.0843 85.2156 81.6527 226.214 280.053 77.3132 71.3635 67.201 67.5492 65.3757 85.2099 120.495 57.9947 70.6053 57.7617 56.5133 54.4915
threshold=1.0000000180025095e-35 21.220000000000002 29.260000000000002 35.911563300033244 22.080000000000002 38.158798854355886 35.583333333333336 24.170000000000005 35.280520904054022 88.083333333333357 134.08333333333334 23.795000000000005 23.950000000000003 23.850000000000005 21.830000000000002 24.650000000000002 87.250000000000014 16.843888888888895 22.490000000000006 7.0806438128618572 87.750000000000014 0.28933714760453982 7.585060371437252 22.250000000000004 25.329722222222227 27.455000000000002 0.14699152332532373 1.5000000000000002 17.970000000000002 88.250000000000014 0.045465840036303252 18.920000000000005 24.390000000000004 17.826388888888896 0.065387565056496913 19.630000000000006 27.455000000000002 0.16183851105279162 22.285000000000004 24.225000000000005 16.916666666666668 0.52000000000000146 24.870000000000001 0.62577451934763018 27.455000000000002 2.2500000000000004 37.640648329351997 2.9500000000000006 34.45000000000001 18.060000000000006 1.5000000000000002 25.830000000000002 16.820000000000004 17.235000000000003 20.175000000000001 63.416666666666679 9.6500000000000004 18.010000000000002 25.145000000000007 38.801858615337487 25.205000000000002 16.550000000000004
decision_type=2 2 2 2 2 2 2 2 2 2 2 2 2 2 2 2 2 2 2 2 2 2 2 2 2 2 2 2 2 2 2 2 2 2 2 2 2 2 2 2 2 2 2 2 2 2 2 2 2 2 2 2 2 2 2 2 2 2 2 2 2 2
left_child=2 5 3 4 -1 8 45 13 9 34 16 14 -8 -5 15 18 17 -10 -3 21 22 -4 23 36 -25 26 51 29 33 40 -11 -30 -6 -29 35 -2 39 -13 50 -9 -19 46 57 -21 -28 -7 -23 -42 -49 -50 -16 -26 -44 60 55 -33 -57 58 -39 -40 -54 -22
right_child=1 11 19 7 32 6 12 20 10 30 -12 37 -14 -15 38 -17 -18 27 -20 43 61 41 -24 24 25 -27 44 28 31 -31 -32 54 -34 -35 -36 -37 -38 42 59 -41 47 -43 52 -45 -46 -47 -48 48 49 -51 -52 -53 53 -55 -56 56 -58 -59 -60 -61 -62 -63
leaf_value=0.25455069933618818 0.10177021537508285 0.039703896641731268 0.3294657611846924 0.26561880339397476 -0.011738626606880832 -0.11045292390717401 0.1553782309234982 0.15949632058972898 0.12492819973512699 0.32572452397573565 0.083245297939312179 0.14991816932504828 -0.097103267678847693 0.035554342410497125 -0.090284010223720401 -0.041959093205439744 -0.14834935926272722 -0.049279843026497329 0.28236591339111333 0.11560231748899799 0.12469222914604915 0.20435880571603776 0.030936663027739886 0.31066657543182374 0.25876376146361946 0.075822884314368635 0.079226015467901492 0.01934251140874739 -0.12135555639742519 0.0066513846229229656 0.12467970015673802 -0.095946639823733568 0.04749154564779666 0.20745635770616078 -0.12652255975185556 -0.093404800295829774 0.099603988388005438 -0.060540122595295065 -0.026285389700548396 0.040678808529202533 -0.13333920867160987 0.24386439608104193 -0.033627744590630754 0.18723885439619234 0.13665737615409473 -0.032012244959672295 0.15179882248242696 -0.11702718677445197 0.11638128554821014 -0.12821989763866773 -0.040853514820895394 0.13170965171995616 0.15186710487241331 0.035149190621224499 -0.060389330527230882 -0.099877748566289115 0.042146781443393441 0.016058708392503031 0.029583493880379726 0.013605901428187886 0.058650454548610891 0.24294832214232415
leaf_weight=34 20 26 34 88 231 89 70 22 37 20 40 21 25 30 114 77 500 60 39 162 20 255 131 29 41 343 147 25 370 41 28 595 224 20 93 39 254 60 577 286 654 133 29 78 140 59 137 354 24 21 266 20 22 411 267 30 28 321 33 107 65 30
leaf_count=34 20 26 34 88 231 89 70 22 37 20 40 21 25 30 114 77 500 60 39 162 20 255 131 29 41 343 147 25 370 41 28 595 224 20 93 39 254 60 577 286 654 133 29 78 140 59 137 354 24 21 266 20 22 411 267 30 28 321 33 107 65 30
internal_value=0.00104695 -0.0561431 0.114191 0.0852829 0.0344317 -0.0910197 -0.0137472 0.100979 -0.096763 -0.0151055 -0.102083 0.000321931 0.0886163 0.207918 -0.0214749 0.0635932 -0.104559 -0.0958364 0.187373 0.188885 0.0922179 0.209774 0.0883006 0.0941336 0.111 0.102184 0.127874 -0.099167 -0.0863817 -0.11387 0.213386 -0.0931568 0.017461 0.105641 -0.0881839 -0.0266503 0.0723663 0.0276412 -0.0328771 0.0496545 -0.118312 0.20141 0.0247562 0.139565 0.107619 -0.0796074 0.186423 -0.122195 -0.10364 0.00192814 -0.0558807 0.219903 0.0394631 0.0437782 -0.0816965 -0.090303 -0.0317619 0.00598505 -0.0285863 -0.0200343 0.0836804 0.199018
internal_weight=8546 5677 2869 2070 489 3509 243 1581 3266 200 3066 2168 95 118 1206 142 3026 2526 65 799 1463 559 1413 1282 720 691 348 2489 1335 1154 48 1290 455 45 152 59 562 962 1064 308 1113 525 941 240 287 148 392 1053 399 45 380 61 527 498 920 653 58 414 93 684 87 50
internal_count=8546 5677 2869 2070 489 3509 243 1581 3266 200 3066 2168 95 118 1206 142 3026 2526 65 799 1463 559 1413 1282 720 691 348 2489 1335 1154 48 1290 455 45 152 59 562 962 1064 308 1113 525 941 240 287 148 392 1053 399 45 380 61 527 498 920 653 58 414 93 684 87 50
is_linear=0
shrinkage=0.05


Tree=14
num_leaves=63
num_cat=0
split_feature=29 0 0 20 5 20 5 1 20 28 28 0 2 26 27 28 0 4 18 11 18 2 28 0 6 10 0 2 28 0 10 20 7 18 20 6 0 10 27 2 4 8 27 5 0 29 16 0 17 26 8 6 15 20 5 5 26 28 20 5 20 1
split_gain=19981.9 4037.79 2235.92 561.622 598.55 559.758 676.114 542.495 512.891 1222.65 511.931 466.82 432.02 589.864 430.091 412.594 686.218 362.618 329.822 230.005 212.618 209.028 188.485 185.015 194.198 170.623 371.399 695.644 167.009 163.143 154.221 152.513 152.4 150.827 166.344 359.337 146.402 132.182 129.288 189.849 127.826 112.528 111.693 111.243 317.414 101.889 103.455 101.819 87.6308 85.4585 84.1723 80.5797 67.0564 62.9732 60.7826 61.2712 58.8241 56.5596 55.4349 55.1554 54.4083 51.3415
threshold=1.0000000180025095e-35 21.220000000000002 28.750000000000004 38.158798854355886 22.960000000000004 35.911563300033244 22.750000000000004 24.170000000000005 35.280520904054022 88.083333333333357 134.08333333333334 23.740000000000006 21.830000000000002 0.76604444311897824 0.27976242230339704 88.083333333333357 16.820000000000004 19.280000000000005 7.0806438128618572 86.750000000000014 6.9493124101527206 30.965000000000003 15.250000000000002 17.235000000000003 17.340000000000003 32.750000000000007 18.010000000000002 17.910000000000004 90.583333333333357 19.525000000000002 35.95000000000001 37.640648329351997 0.16030872944360749 7.585060371437252 37.98944505954568 25.723611111111115 24.280000000000005 23.150000000000002 0.065387565056496913 19.630000000000006 25.035000000000004 -0.30499999999999966 0.62577451934763018 28.375000000000004 25.325000000000006 1.5000000000000002 9.6500000000000004 24.870000000000001 0.55500000000000016 -0.85470842479866205 0.59999999999999976 22.436944444444453 1.9500000000000002 36.90364558833042 16.820000000000004 17.235000000000003 0.15208718494349113 35.916666666666679 36.90364558833042 18.010000000000002 38.487259578935841 25.205000000000002
decision_type=2 2 2 2 2 2 2 2 2 2 2 2 2 2 2 2 2 2 2 2 2 2 2 2 2 2 2 2 2 2 2 2 2 2 2 2 2 2 2 2 2 2 2 2 2 2 2 2 2 2 2 2 2 2 2 2 2 2 2 2 2 2
left_child=2 3 5 8 -5 6 30 14 9 38 15 12 13 -3 60 16 -10 -6 20 33 50 -22 -18 -24 -25 29 27 48 -11 -26 -1 -21 -13 34 36 -36 -9 -15 39 -2 57 49 58 -38 -45 -28 -47 59 -27 -14 -4 -43 -19 -46 -49 61 -48 -8 -20 -34 -7 -56
right_child=1 11 18 4 17 7 40 19 10 28 -12 32 41 37 -16 -17 22 52 42 31 21 -23 23 24 25 26 45 -29 -30 -31 -32 -33 47 -35 35 -37 43 -39 -40 -41 -42 51 -44 44 53 46 56 54 -50 -51 -52 -53 -54 -55 55 -57 -58 -59 -60 -61 -62 -63
leaf_value=0.31636602553454313 0.096924012047903879 -0.016082789360181145 0.16096952129542297 0.14328808135219984 0.13977133740078321 0.28700991570949558 -0.023235741955669305 0.17331634887627193 0.12315751765225386 0.28744532576313725 0.079184552239645961 0.15891835407597857 -0.0012871934032839974 0.088363742154268995 0.033116241457361369 -0.14146000492536367 -0.032795857824385169 -0.090571076261413697 0.078532067613274456 0.063534907739432087 0.31400942946925309 0.19911907196954917 -0.16255465206110253 0.051622549995132119 -0.1135846442475572 -0.1299938134658031 -0.11693125174159097 0.19181895222928791 0.095418533034946615 -0.077121924246058751 0.1153166863357737 0.23606037919114278 -0.027285477993827242 0.029401548754310971 0.24636467271380955 0.095429670105073458 0.045335425011889079 0.25866014044731855 -0.12026373192350914 -0.088851315379142759 0.046152558729136733 -0.044149009548480202 0.17799541754058645 0.27474127163489664 0.052807054616706942 -0.083340769551182525 -0.050109965527164083 -0.032002403582446277 -0.0082013199329376216 -0.083292360379090241 0.21866224006466242 -0.012177630308305935 -0.010158876939253374 0.092425171295628272 0.14460389005101246 0.033395996896292364 0.060595131221981284 0.028305110790156379 0.13447191105948555 0.014569586640294722 0.18797034621238709 0.055762362784960051
leaf_weight=21 20 91 336 48 21 55 189 34 36 26 40 20 40 20 30 490 120 142 101 20 65 130 105 22 1215 38 209 35 22 424 20 40 101 131 44 358 320 31 93 39 176 316 78 20 189 261 27 29 24 154 91 524 32 228 22 411 20 73 89 344 31 65
leaf_count=21 20 91 336 48 21 55 189 34 36 26 40 20 40 20 30 490 120 142 101 20 65 130 105 22 1215 38 209 35 22 424 20 40 101 131 44 358 320 31 93 39 176 316 78 20 189 261 27 29 24 154 91 524 32 228 22 411 20 73 89 344 31 65
internal_value=0.00101738 -0.0533327 0.108543 -0.0864702 -0.0130771 0.0788743 0.0317302 0.0938978 -0.0919252 -0.0142676 -0.0969846 0.000316976 -0.0209842 0.0605115 0.197557 -0.0993387 -0.0911476 -0.0521017 0.174352 0.0850732 0.194499 0.238823 -0.0942816 -0.0973666 -0.0942879 -0.0957349 -0.0729931 0.0166397 0.203177 -0.104205 0.223374 0.180536 0.0255649 0.0806141 0.0862083 0.11252 0.0727109 0.194861 -0.0838133 -0.0253108 0.013323 -0.0322238 0.127042 0.0679696 0.0844024 -0.0898097 -0.0710869 0.0226605 -0.0837269 -0.0664774 0.173747 -0.0242432 -0.0759252 0.074638 0.03751 0.0416139 -0.00272044 -0.0088221 0.105302 0.00503002 0.253881 0.079616
internal_weight=8546 5677 2869 3509 243 1979 479 1500 3266 200 3066 2168 1176 142 116 3026 2536 195 890 1384 622 195 2500 2380 2275 2253 614 97 48 1639 41 60 992 1324 1193 402 791 51 152 59 438 1034 268 757 437 517 308 972 62 194 427 840 174 417 527 498 47 262 190 445 86 87
internal_count=8546 5677 2869 3509 243 1979 479 1500 3266 200 3066 2168 1176 142 116 3026 2536 195 890 1384 622 195 2500 2380 2275 2253 614 97 48 1639 41 60 992 1324 1193 402 791 51 152 59 438 1034 268 757 437 517 308 972 62 194 427 840 174 417 527 498 47 262 190 445 86 87
is_linear=0
shrinkage=0.05


Tree=15
num_leaves=63
num_cat=0
split_feature=29 0 0 20 0 1 0 18 5 20 27 28 27 20 28 9 20 28 2 27 2 11 0 18 28 7 18 6 10 18 6 0 18 29 5 18 10 18 6 7 28 0 16 8 0 28 29 27 20 0 9 5 20 10 9 12 5 6 15 0 9 29
split_gain=18037.6 3654.62 2065.06 670.048 588.889 486.015 475.822 445.036 492.889 594.428 513.915 507.216 424.829 393.232 887.124 389.143 288.448 641.091 364.505 261.74 871 194.995 187.248 182.434 158.221 156.97 151.672 151.626 147.552 143.667 222.354 126.343 123.67 111.713 110.096 137.206 390.563 218.906 214.187 96.6305 94.5902 85.3412 79.0264 70.4322 66.9115 64.8056 102.47 61.9745 61.9176 60.4998 57.0895 54.2436 54.2294 51.9799 50.4218 49.0641 44.8271 61.76 43.2084 43.0839 53.9596 42.9059
threshold=1.0000000180025095e-35 20.930000000000003 29.780000000000005 35.911563300033244 22.030000000000005 24.170000000000005 23.740000000000006 6.7831064630342235 17.755000000000006 38.158798854355886 0.46174861323503352 67.416666666666671 0.40265084705289472 36.711394547204677 88.083333333333357 23.850000000000005 38.158798854355886 41.583333333333336 21.580000000000002 -0.40265084705289433 18.010000000000002 86.750000000000014 27.335000000000004 7.0806438128618572 36.916666666666679 0.27655412111500272 6.8482254722442155 17.877500000000001 29.050000000000004 6.6369721787154674 17.340000000000003 19.050000000000004 6.8482254722442155 1.5000000000000002 21.875000000000004 6.918669838423571 34.050000000000004 6.9038733133785124 25.723611111111115 0.16030872944360749 17.583333333333339 24.870000000000001 3.4500000000000006 0.37000000000000099 19.430000000000003 13.91666666666667 1.5000000000000002 0.69134849440110402 37.640648329351997 21.980000000000004 21.850000000000005 18.010000000000002 37.461271478421395 13.350000000000001 21.750000000000004 0.71048808869789404 18.060000000000006 25.261111111111113 0.55000000000000016 24.815000000000001 22.750000000000004 1.5000000000000002
decision_type=2 2 2 2 2 2 2 2 2 2 2 2 2 2 2 2 2 2 2 2 2 2 2 2 2 2 2 2 2 2 2 2 2 2 2 2 2 2 2 2 2 2 2 2 2 2 2 2 2 2 2 2 2 2 2 2 2 2 2 2 2 2
left_child=2 7 3 4 -1 15 16 29 10 13 11 40 24 14 19 54 45 18 28 20 27 22 34 25 -11 -4 -22 -10 -18 30 -2 -21 -6 -13 -7 36 37 52 -39 -8 -9 51 -23 48 -32 -3 -47 -25 -27 -20 -43 -41 53 -36 -5 -54 57 -52 -14 60 -34 -28
right_child=1 6 23 5 32 21 39 8 9 12 -12 33 58 -15 -16 -17 17 -19 49 31 26 42 -24 47 -26 43 61 -29 -30 -31 44 -33 59 -35 35 -37 -38 38 -40 41 -42 50 -44 -45 -46 46 -48 -49 -50 -51 56 -53 55 -55 -56 -57 -58 -59 -60 -61 -62 -63
leaf_value=0.28619266464596704 0.048889746189117435 -0.025951110784846704 0.31793293380737309 0.27654386077608384 -0.025020641608646622 0.18462295390310743 0.12486721631949363 0.023288748459796602 0.062814212242762249 -0.012778919574845097 -0.10719911144936788 0.15124273263428312 -0.092356858051048138 -0.11815251642204089 0.20866782031953335 0.026226241367354915 0.22461296036129907 0.22730704307556154 -0.050666618696230604 -0.11649353139930302 0.029474447475325679 0.22661962684463052 0.11105375444949275 0.11195775633745819 0.14574901243602786 0.18542317178041218 -0.10692283161481222 0.22130672136942545 0.040993020713329317 -0.1426748011726886 -0.11068714888900771 -0.074789790972305911 0.08696262051069592 0.019366207905113699 0.095646390089621919 0.045351996357671967 0.2904457379471172 0.25715126991271975 0.047612848945639358 -0.027109643709062055 -0.086798641361572129 -0.015640441041585861 0.093780671840622318 0.21554087326951224 -0.075463071333037479 -0.093991424020071684 -0.04008934935417903 0.17357769748743845 0.1373127373641935 -0.011468367455590257 0.11990344854625497 0.014397822728208385 0.15306263764699302 0.030635568883437186 0.19055339024991405 0.072299155169798998 0.030175100867958132 0.043598528799501442 -0.0098261343936125456 0.049088167029263378 0.0031921099302927394 -0.067909470612281239
leaf_weight=20 24 265 24 48 134 20 22 30 44 22 84 72 52 660 27 29 20 29 126 341 30 33 395 136 53 251 149 23 24 255 706 410 21 21 38 409 21 30 21 100 53 50 20 145 179 132 271 67 115 442 36 356 20 155 48 323 332 102 23 172 153 151
leaf_count=20 24 265 24 48 134 20 22 30 44 22 84 72 52 660 27 29 20 29 126 341 30 33 395 136 53 251 149 23 24 255 706 410 21 21 38 409 21 30 21 100 53 50 20 145 179 132 271 67 115 442 36 356 20 155 48 323 332 102 23 172 153 151
internal_value=9.77012e-05 -0.0511215 0.102878 0.0776336 0.0270045 0.0933304 -0.00251767 -0.0840031 -0.0709301 -0.0794052 -0.00616982 0.0423819 0.0161973 -0.0872247 -0.0697667 0.187893 -0.0223377 0.00162891 -0.00941835 -0.0764912 -0.0434898 0.0852495 0.0816513 0.174849 0.0996912 0.190433 -0.076879 0.119676 0.127593 -0.109134 -0.099579 -0.0938556 0.0156325 0.121987 0.0703555 0.0679292 0.0830174 0.0751153 0.173446 0.0234751 -0.0472045 0.0210641 0.179157 0.183836 -0.103656 -0.0453037 -0.0579336 0.133047 0.170722 -0.0202375 0.0348901 0.00525591 0.0654536 0.0438627 0.235956 0.0774397 0.0402874 0.0642236 -0.0675097 0.0314035 0.0137415 -0.087577
internal_weight=8564 5716 2848 2110 500 1610 2307 3409 2245 1985 260 176 150 1835 1175 125 1309 641 612 1148 397 1485 1432 738 75 535 330 67 44 1164 909 751 480 93 1037 1017 608 587 51 998 83 976 53 511 885 668 403 203 366 568 520 456 536 193 96 343 470 138 75 346 174 300
internal_count=8564 5716 2848 2110 500 1610 2307 3409 2245 1985 260 176 150 1835 1175 125 1309 641 612 1148 397 1485 1432 738 75 535 330 67 44 1164 909 751 480 93 1037 1017 608 587 51 998 83 976 53 511 885 668 403 203 366 568 520 456 536 193 96 343 470 138 75 346 174 300
is_linear=0
shrinkage=0.05


Tree=16
num_leaves=63
num_cat=0
split_feature=29 0 0 20 1 4 0 18 5 20 27 28 27 20 28 11 3 26 27 1 18 18 9 6 9 5 7 0 28 7 11 6 18 11 1 6 8 4 28 3 29 4 0 7 28 15 4 0 8 20 6 27 28 5 5 0 7 27 8 5 3 8
split_gain=16292.5 3299.59 1864.44 605.202 541.289 444.873 429.512 401.947 444.81 536.572 464.417 458.495 384.156 355.135 802.852 312.553 270.726 504.762 236.521 788.828 166.087 164.7 164.26 296.796 265.225 171.248 182.221 154.157 143.104 143.074 141.054 138.325 137.118 132.21 173.163 156.915 125.959 115.345 164.818 114.196 100.914 97.9875 93.5719 87.6756 85.5608 78.8376 77.6227 72.4716 65.7202 63.441 58.5045 56.1097 54.284 54.1638 54.7255 66.1054 52.5641 49.9058 94.8177 44.3359 42.8129 41.3431
threshold=1.0000000180025095e-35 20.930000000000003 29.780000000000005 35.911563300033244 22.080000000000002 24.595000000000002 23.740000000000006 6.7831064630342235 17.755000000000006 38.158798854355886 0.46174861323503352 67.416666666666671 0.40265084705289472 36.711394547204677 88.083333333333357 45.750000000000007 21.980000000000004 0.76604444311897824 -0.40265084705289433 17.970000000000002 7.585060371437252 7.0806438128618572 22.150000000000002 25.329722222222227 22.950000000000003 27.455000000000002 0.16874957259641601 25.830000000000002 36.916666666666679 0.27655412111500272 76.250000000000014 17.826388888888896 6.8482254722442155 87.250000000000014 18.220000000000002 18.098888888888894 -0.18499999999999867 27.455000000000002 130.08333333333334 19.225000000000005 1.5000000000000002 25.035000000000004 28.375000000000004 0.16030872944360749 17.583333333333339 27.900000000000002 24.500000000000004 24.550000000000004 1.3149999999999997 38.487259578935841 22.436944444444453 0.69134849440110402 35.916666666666679 16.820000000000004 17.235000000000003 25.090000000000003 0.043705362712415353 -0.62577451934762984 -0.18999999999999942 18.010000000000002 24.980000000000004 -0.32499999999999923
decision_type=2 2 2 2 2 2 2 2 2 2 2 2 2 2 2 2 2 2 2 2 2 2 2 2 2 2 2 2 2 2 2 2 2 2 2 2 2 2 2 2 2 2 2 2 2 2 2 2 2 2 2 2 2 2 2 2 2 2 2 2 2 2
left_child=2 7 3 4 -1 15 16 33 10 13 11 44 28 14 18 -5 17 57 19 31 22 29 37 24 -24 26 27 -25 -11 -4 -19 -10 -21 35 -35 -2 60 38 -7 -20 -13 52 -28 -8 -9 47 -17 59 49 -31 -38 -23 -6 -49 55 -55 -54 58 -3 -45 61 -18
right_child=1 6 21 5 41 20 43 8 9 12 -12 40 -14 -15 -16 46 36 30 39 32 -22 51 23 25 -26 -27 42 -29 -30 48 -32 -33 -34 34 -36 -37 50 -39 -40 -41 -42 -43 -44 45 -46 -47 -48 53 -50 -51 -52 -53 56 54 -56 -57 -58 -59 -60 -61 -62 -63
leaf_value=0.22806992723095801 -0.12863524922419434 -0.052486623326937355 0.30267214632034301 0.27669947028160097 -0.021465788639556522 0.033337493063848853 0.11889530664876752 0.022161873814559752 0.043305179104208946 -0.012167753999971826 -0.10190221247427605 0.1437841869380376 -0.064201485287202029 -0.11225382674840503 0.19860705179827554 0.14555330401972721 -0.083416717696715811 0.23903224567572276 -0.10968242858846983 0.028048264914222305 0.026208008265541507 0.10640073018352481 0.24960995912551881 0.22083522869694616 0.035968271718316139 0.065606567014814515 0.071502205001554284 0.065540823464592307 0.138596513412065 0.17187425037075704 0.063414208520026438 0.18762686306780035 -0.083244978876604994 0.048220638095429452 -0.10022920029503959 -0.089993086322494184 -0.035789987813036488 0.089447297178520457 0.1757786731828343 -0.070163645445542183 0.018441911515864461 0.037967509581134297 0.13258417357618993 -0.035320082334995583 -0.082539079434893747 -0.069594578320781392 0.034862678614445031 -0.030101767052529441 0.22002504384970367 0.096800006429354352 -0.0076851145485956548 0.16502644594977886 0.096059699369860557 0.14510657074658767 0.029149782127647312 0.046450227065241503 0.0014799475129693748 -0.033327513797135624 0.088297612752233245 0.012015515907522265 -0.012999530208225436 -0.045427474834978943
leaf_weight=30 510 20 24 49 194 280 22 30 35 22 84 72 75 660 27 56 135 29 359 30 128 136 56 61 20 355 173 23 53 398 20 32 300 32 48 574 316 262 21 392 21 207 103 59 53 23 23 32 78 35 447 67 20 22 487 72 49 101 27 281 51 163
leaf_count=30 510 20 24 49 194 280 22 30 35 22 84 72 75 660 27 56 135 29 359 30 128 136 56 61 20 355 173 23 53 398 20 32 300 32 48 574 316 262 21 392 21 207 103 59 53 23 23 32 78 35 447 67 20 22 487 72 49 101 27 281 51 163
internal_value=0.000116129 -0.0485623 0.0977977 0.0738112 0.0256943 0.0887291 -0.00237963 -0.0798061 -0.0673821 -0.0754332 -0.00586135 0.0402931 0.0153976 -0.0828624 -0.0662717 0.178048 -0.0212105 0.0326938 -0.0726689 -0.0412979 0.0808998 0.166184 0.0860469 0.1008 0.194586 0.0905738 0.114944 0.179585 0.0947941 0.180991 0.170053 0.11398 -0.0730732 -0.10369 -0.040987 -0.108275 -0.0307809 0.0651766 0.0438244 -0.0891755 0.115978 0.0123199 0.0946936 0.0223159 -0.0448821 0.0200194 0.114166 0.0222529 0.174696 0.166043 -0.0193565 0.126464 -0.00793401 0.0325082 0.0360024 0.0708244 0.029875 -0.0136194 0.028544 0.00372191 -0.0556307 -0.0628588
internal_weight=8564 5716 2848 2110 500 1610 2307 3409 2245 1985 260 176 150 1835 1175 128 1309 197 1148 397 1482 738 1354 791 76 715 360 84 75 535 49 67 330 1164 80 1084 1112 563 301 751 93 470 276 998 83 976 79 953 511 433 763 203 263 613 581 94 69 148 47 340 349 298
internal_count=8564 5716 2848 2110 500 1610 2307 3409 2245 1985 260 176 150 1835 1175 128 1309 197 1148 397 1482 738 1354 791 76 715 360 84 75 535 49 67 330 1164 80 1084 1112 563 301 751 93 470 276 998 83 976 79 953 511 433 763 203 263 613 581 94 69 148 47 340 349 298
is_linear=0
shrinkage=0.05


Tree=17
num_leaves=63
num_cat=0
split_feature=29 0 0 20 0 1 0 18 5 20 27 28 27 9 20 28 20 28 10 4 4 28 11 0 18 7 28 28 18 6 17 18 6 29 18 28 0 5 1 18 7 0 28 0 8 16 20 0 10 28 29 20 27 27 0 4 27 9 10 28 29 5
split_gain=14714.8 2978.62 1684.47 551.592 493.282 399.844 387.752 363.071 401.397 484.448 420.614 397.105 347.276 326.526 320.757 726.576 241.73 542.711 214.681 841.993 210.089 208.594 155.477 166.55 148.842 132.356 129.432 121.788 120.023 183.131 110.048 104.361 100.74 100.469 98.73 136.855 307.345 100.459 254.53 81.6072 180.594 78.0618 77.3889 75.1561 65.4498 64.4544 58.2774 58.0782 57.4653 54.3479 89.1643 51.354 52.2409 50.8408 46.0073 45.5057 44.8713 44.0758 41.5275 40.9221 40.8603 36.3417
threshold=1.0000000180025095e-35 20.930000000000003 29.845000000000002 35.911563300033244 22.030000000000005 24.170000000000005 23.740000000000006 6.7831064630342235 17.755000000000006 38.158798854355886 0.51864980417341211 67.416666666666671 0.40265084705289472 23.850000000000005 36.711394547204677 88.083333333333357 38.158798854355886 41.583333333333336 31.250000000000004 18.830000000000002 22.030000000000005 20.250000000000004 86.750000000000014 28.250000000000004 7.0806438128618572 0.27655412111500272 36.916666666666679 63.416666666666679 6.6369721787154674 17.340000000000003 0.46500000000000002 6.8482254722442155 18.955277777777784 1.5000000000000002 7.585060371437252 44.250000000000007 25.145000000000007 27.455000000000002 25.775000000000002 6.7909356156404463 0.17329990279946028 24.390000000000004 17.250000000000004 24.225000000000005 -0.22000000000000056 3.4500000000000006 36.516019857817845 19.430000000000003 17.750000000000004 13.91666666666667 1.5000000000000002 37.461271478421395 0.75166088996455127 0.72219205899833583 26.285000000000004 17.810000000000006 -0.62577451934762984 21.650000000000002 33.45000000000001 15.91666666666667 1.5000000000000002 22.750000000000004
decision_type=2 2 2 2 2 2 2 2 2 2 2 2 2 2 2 2 2 2 2 2 2 2 2 2 2 2 2 2 2 2 2 2 2 2 2 2 2 2 2 2 2 2 2 2 2 2 2 2 2 2 2 2 2 2 2 2 2 2 2 2 2 2
left_child=2 7 3 4 -1 13 16 28 10 14 11 42 26 57 15 18 49 20 32 30 21 -18 23 34 25 -4 -11 60 29 -2 -20 -6 -10 -13 35 36 -7 38 -38 59 -41 -42 -9 -37 -22 -24 56 -31 -43 -3 -51 -45 -53 -26 -39 -50 -27 -5 -25 -8 -21 -33
right_child=1 6 24 5 31 22 39 8 9 12 -12 33 -14 -15 -16 -17 17 -19 19 27 44 -23 45 58 53 46 -28 -29 -30 47 -32 61 -34 -35 -36 43 37 54 -40 40 41 48 -44 51 -46 -47 -48 -49 55 50 -52 52 -54 -55 -56 -57 -58 -59 -60 -61 -62 -63
leaf_value=0.26170396691276915 0.044935871243476866 -0.023449204477334493 0.29221505820751192 0.25457222617190817 -0.023268060973259036 0.27477871917542956 0.003403388558420796 0.021089525226383441 -0.1097839776244197 -0.011585819462071295 -0.1011030687764287 0.13294222291807334 -0.061033647899564947 0.022334288201915724 -0.10664962781720011 0.18903134954827172 0.0046778231203048071 0.2094351675113042 0.18422950636595489 -0.094976576741453253 -0.084037948565350643 0.18210891098887833 0.20401628332979538 0.12413951327891951 0.10149729137911517 0.22411084668976922 0.13179501980819083 0.032321123392493642 -0.12916228687390685 -0.10002914801308467 0.057621249047721305 0.080368144762131485 -0.070282161551098385 0.012885792274028064 0.024983006203547122 0.13041239645746019 0.20381583170789594 0.047211845546804798 0.074814337228431185 0.16996166584166617 -0.0032428555129003266 0.11515289140599115 -0.078159638710997334 0.029423896517536997 -0.014201465072311565 0.084112687156136554 0.14950142353773119 -0.067274615979856914 0.058640341538449992 -0.086363099750719582 -0.036097789737601381 0.053997123400673613 0.13865768773989245 0.15822632716252255 0.079764336298812522 0.02318815662756318 0.1692966432851038 0.17470849385628334 0.054701763178621021 -0.055722696121249887 -0.060837886219031245 0.02340104461050118
leaf_weight=20 24 265 23 45 134 20 178 30 285 22 79 74 75 29 660 27 43 29 31 190 35 26 33 182 135 69 53 26 255 706 40 30 396 23 127 26 52 190 146 21 190 20 54 247 508 20 275 179 114 132 271 130 21 64 274 441 161 51 27 34 180 317
leaf_count=20 24 265 23 45 134 20 178 30 285 22 79 74 75 29 660 27 43 29 31 190 35 26 33 182 135 69 53 26 255 706 40 30 396 23 127 26 52 190 146 21 190 20 54 247 508 20 275 179 114 132 271 130 21 64 274 441 161 51 27 34 180 317
internal_value=0.000129228 -0.0461324 0.0929609 0.0703902 0.0244772 0.0845653 -0.00225337 -0.0758176 -0.0640097 -0.0716579 -0.00556829 0.0364556 0.0146483 0.170359 -0.078717 -0.0629499 -0.0201454 0.00179425 -0.0690356 -0.0427814 -0.00837055 0.0731824 0.0772829 0.0740903 0.158623 0.172759 0.0901376 -0.071233 -0.0985169 -0.0897875 0.114692 0.0140908 -0.0869505 0.104897 0.066988 0.0717844 0.0856851 0.0795665 0.109547 0.0212109 0.0286287 0.0245322 -0.0428824 0.0492761 -0.0188491 0.161165 0.166751 -0.0934876 0.0336997 -0.0411695 -0.0527349 0.0436622 0.0666059 0.120442 0.0665648 0.0305626 0.18664 0.214383 0.115472 -0.00629619 -0.0785773 0.0285429
internal_weight=8564 5716 2848 2121 501 1620 2307 3409 2245 1985 260 181 150 125 1835 1175 1309 641 1148 467 612 69 1495 1442 727 528 75 396 1164 909 71 481 681 97 1233 1106 682 662 198 998 786 765 84 424 543 53 505 885 575 668 403 398 151 199 464 555 230 96 209 212 370 347
internal_count=8564 5716 2848 2121 501 1620 2307 3409 2245 1985 260 181 150 125 1835 1175 1309 641 1148 467 612 69 1495 1442 727 528 75 396 1164 909 71 481 681 97 1233 1106 682 662 198 998 786 765 84 424 543 53 505 885 575 668 403 398 151 199 464 555 230 96 209 212 370 347
is_linear=0
shrinkage=0.05


Tree=18
num_leaves=63
num_cat=0
