tree
version=v4
num_class=1
num_tree_per_iteration=1
label_index=0
max_feature_idx=29
objective=regression
feature_names=vwc_20cm vwc_20cm_lag_6s vwc_20cm_lag_18s vwc_20cm_lag_36s vwc_20cm_lag_72s vwc_20cm_lag_144s vwc_20cm_roll_mean_3h vwc_20cm_roll_std_6h vwc_20cm_deriv_1h soil_temp_c air_temp_c rh_pct vpd_kpa rain_mm_h rain_mm_1h_sum rain_mm_6h_sum rain_mm_24h_sum et0_open_meteo_mm_h et0_hargreaves_mm_day etc_mm_h ra_mj_m2_day daylength_h gdd_cum kc_dynamic sin_doy cos_doy sin_hour cos_hour hours_since_last_irrigation line_id
feature_infos=[16.449999999999999:40.710000000000001] [16.449999999999999:40.710000000000001] [16.449999999999999:40.710000000000001] [16.449999999999999:40.710000000000001] [16.449999999999999:40.710000000000001] [16.449999999999999:40.710000000000001] [16.461666666666666:37.286111111111111] [4.0580840214241639e-07:8.7786591701351018] [-11.150000000000002:19.16] [19.600000000000001:25.899999999999999] [10.1:40.899999999999999] [18:94.5] [0.10324467087530979:5.1836647401430618] [0:12.9] [0:77.400000000000006] [0:172.80000000000001] [0:306] [0:0.63] [5.2716542188849349:7.6022464865586494] [0:0.37335417030885781] [34.955762914248304:38.878757645294399] [13.634132857015434:14.538371963848492] [34.219211344211345:387.05601689976692] [0.40000000000000002:0.61205601689976696] [-0.74122201084859574:-0.45590669350845903] [-0.89002757643467656:-0.67125995756753154] [-1:1] [-1:1] [0:138] [0:2]
tree_sizes=5199 5441 5437 5446 5452

Tree=0
num_leaves=63
num_cat=0
split_feature=29 20 0 20 6 1 9 6 20 1 17 20 6 6 18 18 5 20 16 6 4 5 16 16 29 9 18 16 3 9 5 0 9 0 16 1 2 16 3 26 27 20 12 7 26 5 29 18 18 16 8 5 0 17 27 6 5 4 27 5 18 20
split_gain=81580.5 7362.9 5451.56 4200.3 6955.53 5116.44 3201.89 3573.39 2783.27 2348.06 2297.2 1532.83 1256.21 1237.43 2179.62 1229.96 1653.78 1331.1 1060.75 1025.61 982.274 887.566 1026.89 849.802 799.807 775.432 716.15 968.361 710.748 658.356 608.769 608.557 574.359 534.431 532.439 811.007 524.685 504.197 487.924 412.471 411.213 402.856 504.217 370.191 344.521 331.908 323.889 425.602 317.425 299.689 380.522 271.416 243.545 231.918 215.276 204.233 194.715 191.615 189.642 181.013 170.983 217.811
threshold=1.0000000180025095e-35 38.324747219585369 17.075000000000003 35.911563300033244 22.352222222222228 25.650000000000002 22.550000000000004 18.689444444444447 37.461271478421395 23.055000000000003 0.35000000000000003 37.640648329351997 18.625277777777782 17.623888888888896 6.918669838423571 6.1937139253922942 25.380000000000006 36.90364558833042 10.15 27.229166666666671 18.220000000000002 19.280000000000005 4.2500000000000009 0.55000000000000016 1.5000000000000002 20.650000000000002 6.9038733133785124 1.0500000000000003 22.080000000000002 24.650000000000002 18.370000000000005 17.295000000000005 24.250000000000004 27.165000000000003 4.950000000000002 26.625000000000004 16.820000000000004 288.30000000000007 18.920000000000005 -0.21643961393810282 -0.8062526922901132 36.11606205075293 2.7112649756216038 0.16030872944360749 0.19504389580251658 19.330000000000002 1.5000000000000002 7.3738776270843021 7.0624548762157744 1.9500000000000002 -0.11999999999999918 24.110000000000003 22.030000000000005 0.28500000000000009 -0.8062526922901132 25.393611111111113 27.455000000000002 26.455000000000002 -0.85470842479866216 21.780000000000005 6.1937139253922942 35.911563300033244
decision_type=2 2 2 2 2 2 2 2 2 2 2 2 2 2 2 2 2 2 2 2 2 2 2 2 2 2 2 2 2 2 2 2 2 2 2 2 2 2 2 2 2 2 2 2 2 2 2 2 2 2 2 2 2 2 2 2 2 2 2 2 2 2
left_child=3 2 25 4 39 11 21 8 12 10 32 41 13 29 18 19 17 51 -15 37 45 22 30 -14 38 -2 60 -28 -12 54 31 58 52 -6 -18 -36 -27 -7 59 -1 -32 -5 -43 -29 56 -10 47 -11 -16 50 -30 -17 -3 -38 -8 -44 -13 -46 -4 -9 -26 -62
right_child=1 9 6 5 33 15 7 24 20 46 28 44 23 14 48 16 34 -19 -20 -21 -22 -23 -24 -25 26 36 27 43 49 -31 40 -33 -34 -35 35 -37 53 -39 -40 -41 -42 42 55 -45 57 -47 -48 -49 -50 -51 -52 -53 -54 -55 -56 -57 -58 -59 -60 -61 61 -63
leaf_value=23.259619817464916 22.657502486257812 22.740623186694567 22.800071256018118 23.049683775333953 22.709854158430538 23.137044507341987 22.658050230784792 22.574844138145476 22.594058314830779 22.540498167260935 22.725005480401425 23.010117505233339 22.798352951889242 22.486419510631848 22.729433548051041 22.969845344396628 22.839882859004394 22.922557457611788 22.731504432433965 22.923730303351675 22.477631914723371 22.45704216206228 22.466527566268603 23.121114372227169 22.49968805877392 22.745611613251747 22.575896948630099 22.764223701126205 22.991348895692404 23.064180926826506 22.564983739814561 22.535331884466746 22.802201389387211 22.814738304185376 23.226571250117257 22.898665406847012 22.860976812944696 22.859833150405976 22.506283920048503 23.067624250373512 22.832857846768309 23.133132523281027 23.329436699033884 22.651721258135353 22.968421899077654 22.774493234015697 22.698796861211157 22.672627800017739 22.858092563761847 22.907811712023975 23.229100284738916 23.162821156634468 22.623797079836006 23.000925863871025 22.823282707757219 23.137101431408745 23.156482726276323 22.810416155608532 22.634710346634304 22.696758507400755 22.525603786915038 22.596961498503234
leaf_weight=56 61 87 20 80 333 140 24 123 55 102 22 87 55 146 97 28 622 252 63 166 165 478 304 32 134 66 439 110 47 26 22 432 216 190 20 229 77 20 593 77 37 193 76 214 110 46 256 152 94 36 31 99 90 52 96 30 40 25 103 41 195 259
leaf_count=56 61 87 20 80 333 140 24 123 55 102 22 87 55 146 97 28 622 252 63 166 165 478 304 32 134 66 439 110 47 26 22 432 216 190 20 229 77 20 593 77 37 193 76 214 110 46 256 152 94 36 31 99 90 52 96 30 40 25 103 41 195 259
internal_value=22.7246 22.6151 22.5883 22.9418 22.8305 22.9747 22.5752 22.6043 22.6879 22.7355 22.8092 23.0939 22.7449 22.7167 22.6712 22.926 22.9032 22.9904 22.56 23.0128 22.5525 22.5126 22.5418 22.9202 22.5688 22.8123 22.592 22.6242 22.9855 22.8408 22.5795 22.5632 22.7476 22.7481 22.865 22.9269 22.8608 23.1035 22.5275 23.1519 22.732 23.1587 23.1867 22.6899 22.9989 22.6759 22.659 22.6191 22.7931 23.0353 23.0911 23.1225 22.681 22.9191 22.79 23.2794 23.0592 22.94 22.662 22.605 22.5505 22.5659
internal_weight=8571 5698 4659 2873 656 2217 4403 3007 899 1039 529 641 633 546 400 1576 1250 379 209 326 266 1396 918 87 2108 256 1351 763 136 146 614 555 393 523 871 249 195 160 757 133 59 379 299 324 262 101 510 254 191 114 78 127 177 129 120 106 127 135 123 164 588 454
internal_count=8571 5698 4659 2873 656 2217 4403 3007 899 1039 529 641 633 546 400 1576 1250 379 209 326 266 1396 918 87 2108 256 1351 763 136 146 614 555 393 523 871 249 195 160 757 133 59 379 299 324 262 101 510 254 191 114 78 127 177 129 120 106 127 135 123 164 588 454
is_linear=0
shrinkage=1


Tree=1
num_leaves=63
num_cat=0
split_feature=29 20 0 20 6 1 20 6 26 1 17 9 20 16 18 6 18 5 20 16 6 16 4 0 10 5 16 9 5 3 9 6 20 0 2 16 18 26 20 10 2 16 26 0 29 18 0 16 8 5 20 18 5 4 2 26 11 5 16 3 5 4
split_gain=73679.1 6649.32 4923.93 3793.26 6287.89 4625.83 2891.06 2685.99 2561.04 2122.57 2079.68 1509.5 1383.9 1284.89 1177.05 2775.93 1111.06 1494.32 1204.25 958.297 926.83 873.955 853.8 787.005 725.637 708.216 767.205 701.021 645.989 643.246 526.5 485.835 575.679 483.022 474.351 454.297 423.79 373.35 363.745 498.15 324.737 312.443 311.839 297.943 292.626 384.548 275.128 271.215 345.062 266.846 245.845 797.673 244.751 237.881 231.348 226.542 210.499 209.954 191.637 190.574 176.798 172.766
threshold=1.0000000180025095e-35 38.324747219585369 17.075000000000003 35.911563300033244 22.352222222222228 25.650000000000002 35.493746640049174 18.689444444444447 -1.0000000180025095e-35 23.055000000000003 0.35000000000000003 22.450000000000003 37.640648329351997 0.55000000000000016 6.9038733133785124 18.877777777777784 6.1937139253922942 25.380000000000006 36.90364558833042 0.55000000000000016 27.229166666666671 1.0500000000000003 18.220000000000002 22.540000000000003 37.050000000000004 19.280000000000005 4.2500000000000009 20.650000000000002 19.280000000000005 22.080000000000002 24.350000000000005 18.460000000000001 37.461271478421395 26.625000000000004 16.820000000000004 288.30000000000007 7.0624548762157744 -0.21643961393810282 36.11606205075293 31.150000000000002 18.010000000000002 4.950000000000002 0.19504389580251658 21.420000000000005 1.5000000000000002 7.3738776270843021 22.080000000000002 1.9500000000000002 -0.11999999999999918 17.645000000000007 37.461271478421395 6.8482254722442155 24.055000000000003 18.920000000000005 22.855000000000004 -0.53729960834682411 44.750000000000007 20.830000000000002 2.0500000000000007 26.455000000000002 27.455000000000002 26.455000000000002
decision_type=2 2 2 2 2 2 2 2 2 2 2 2 2 2 2 2 2 2 2 2 2 2 2 2 2 2 2 2 2 2 2 2 2 2 2 2 2 2 2 2 2 2 2 2 2 2 2 2 2 2 2 2 2 2 2 2 2 2 2 2 2 2
left_child=3 2 27 4 37 12 7 8 19 10 30 25 38 -10 22 36 20 18 52 -4 35 53 28 -23 41 26 31 -2 -13 -12 46 32 40 -6 -29 -7 -16 -1 -5 -40 58 -19 60 -9 45 -11 -3 48 -31 -45 51 -24 -18 -17 -52 -21 -36 -25 -8 -41 -14 -44
right_child=1 9 6 5 33 16 11 43 13 44 29 14 42 -15 15 21 17 24 -20 55 -22 23 50 57 -26 -27 -28 34 -30 47 -32 -33 -34 -35 56 -37 -38 -39 39 59 -42 -43 61 49 -46 -47 -48 -49 -50 -51 54 -53 -54 -55 -56 -57 -58 -59 -60 -61 -62 -63
leaf_value=0.51054500780607526 -0.061990039387056911 0.022628163483155814 0.1072557894956498 0.31083661450280087 -0.013577335097038977 0.39377438836063905 -0.087731239139376319 -0.19427826128144196 0.026599306867583029 -0.17318001198537142 0.0021953955940578296 -0.14498225297364925 0.27321010448715904 -0.24446987867355349 -0.010599000409096129 -0.10420780027006556 0.23184674552508763 0.10798290056588709 0.18990426383942013 0.26609769944221745 0.1910391512031327 0.032304522389173508 -0.067518554917917958 -0.2033314536599552 0.4075329601764679 -0.252368649724242 -0.24299667682027992 0.021783309324241398 0.031882479431590553 0.25549647149940335 0.085783977716998333 -0.17958550215125443 -0.22330359032279568 0.085205260992050169 0.26222717957063157 0.13060317720685685 0.12853348574094606 0.32789932519961629 0.39149449200465763 0.58194421906220295 0.13546739479769832 0.1760208131124576 0.23354665910875477 -0.1649158573952042 -0.022712454151956489 -0.047584775831014697 -0.091462014159377741 0.17610645487501816 0.48187171369791032 -0.069751170307102775 -0.22579904340081294 -0.21335056301291663 0.41745587858823269 -0.18213972980366613 -0.11831776822199587 0.48710802793502811 0.12964918072286405 -0.081682697981595997 0.072042290493845945 0.37391820506233242 0.41262278673125474 0.08349921130217039
leaf_weight=56 61 114 83 80 324 140 135 137 133 102 22 143 87 64 105 126 27 609 252 30 166 124 148 67 23 461 276 66 80 47 182 332 56 199 54 20 113 77 202 75 22 239 110 118 256 152 97 36 31 201 471 261 100 531 60 26 75 79 21 22 40 25
leaf_count=56 61 114 83 80 324 140 135 137 133 102 22 143 87 64 105 126 27 609 252 30 166 124 148 67 23 461 276 66 80 47 182 332 56 199 54 20 113 77 202 75 22 239 110 118 256 152 97 36 31 201 471 261 100 531 60 26 75 79 21 22 40 25
internal_value=0.00187209 -0.102221 -0.127723 0.208282 0.102444 0.239539 -0.140118 -0.0535195 0.0536623 0.0121466 0.0822407 -0.159092 0.352856 -0.0622537 -0.134679 -0.0985397 0.193256 0.171539 0.254475 0.217217 0.275744 -0.136267 -0.170144 -0.0602328 0.135201 -0.202197 -0.174462 0.0851826 -0.0816739 0.250001 0.0236991 -0.140672 -0.0849322 0.0241 0.131303 0.361894 0.0617777 0.408039 0.414418 0.441004 -0.0403954 0.127343 0.262565 -0.13244 -0.0605775 -0.098502 -0.0300049 0.297388 0.350427 -0.105359 -0.191023 -0.160873 0.380115 -0.167375 -0.213899 0.375455 0.186737 -0.138511 -0.0659014 0.53906 0.32 0.206578
internal_weight=8571 5698 4659 2873 656 2217 4403 792 336 1039 529 3611 641 197 2308 1145 1576 1250 379 139 326 927 1163 270 871 1303 842 256 223 136 393 566 234 523 195 160 218 133 379 299 178 848 262 456 510 254 211 114 78 319 940 409 127 657 531 56 129 146 156 97 127 135
internal_count=8571 5698 4659 2873 656 2217 4403 792 336 1039 529 3611 641 197 2308 1145 1576 1250 379 139 326 927 1163 270 871 1303 842 256 223 136 393 566 234 523 195 160 218 133 379 299 178 848 262 456 510 254 211 114 78 319 940 409 127 657 531 56 129 146 156 97 127 135
is_linear=0
shrinkage=0.05


Tree=2
num_leaves=63
num_cat=0
split_feature=29 20 0 20 0 1 9 28 9 1 17 17 20 28 18 20 18 0 1 20 29 0 16 28 9 20 0 4 9 2 9 0 0 2 16 2 28 28 20 10 9 7 16 20 18 7 11 29 18 0 28 28 28 7 27 4 17 28 4 3 7 28
split_gain=66543.8 6005.34 4447.5 3425.59 5668.87 4182.32 2615.37 3848.14 2469.85 1918.77 1882.71 1334.46 1249.41 1015.24 1003.71 1060.3 940.461 2557.6 818.989 1024.53 800.784 798.379 779.362 677.127 633.744 621.569 568.204 557.002 544.732 510.696 475.51 436.754 431.549 428.837 411.24 376.882 346.534 329.856 328.418 452.41 315.688 304.497 290.655 289.407 670.447 348.625 275.242 264.381 347.454 248.562 234.891 233.594 602.923 232.048 198.135 193.317 190.539 172.34 172.266 170.596 169.075 153.986
threshold=1.0000000180025095e-35 38.324747219585369 17.075000000000003 35.911563300033244 22.190000000000001 25.650000000000002 22.550000000000004 68.916666666666671 22.950000000000003 23.055000000000003 0.35000000000000003 0.53500000000000014 37.640648329351997 115.41666666666667 6.1937139253922942 36.711394547204677 6.9038733133785124 18.475000000000005 27.105000000000004 36.317561841262361 1.5000000000000002 27.105000000000004 1.0500000000000003 2.2500000000000004 20.650000000000002 36.711394547204677 28.250000000000004 29.525000000000002 22.850000000000005 19.120000000000005 24.350000000000005 27.515000000000004 22.130000000000006 16.820000000000004 288.30000000000007 31.710000000000004 18.583333333333339 71.416666666666671 36.11606205075293 31.150000000000002 23.250000000000004 0.15103715462187481 165.15000000000003 35.911563300033244 6.7831064630342235 0.065559254668542219 51.750000000000007 1.5000000000000002 7.3738776270843021 22.080000000000002 26.583333333333339 51.416666666666679 57.416666666666679 0.25099570716436975 -0.8765181184813301 20.470000000000002 0.28500000000000009 74.083333333333357 27.755000000000003 26.455000000000002 0.28933714760453982 23.250000000000004
decision_type=2 2 2 2 2 2 2 2 2 2 2 2 2 2 2 2 2 2 2 2 2 2 2 2 2 2 2 2 2 2 2 2 2 2 2 2 2 2 2 2 2 2 2 2 2 2 2 2 2 2 2 2 2 2 2 2 2 2 2 2 2 2
left_child=3 2 24 4 40 12 13 16 -9 10 30 46 38 25 21 18 28 53 -16 -20 29 34 -22 -12 -2 55 -17 -21 42 -19 49 -6 -25 -26 61 -29 -14 51 60 -40 -1 -24 -8 -30 -45 -46 -10 48 -11 -3 -38 -27 -53 -18 -15 -4 -35 -48 -23 -41 -5 -7
right_child=1 9 6 5 31 14 7 8 11 47 23 -13 36 54 15 26 17 20 19 27 22 58 41 32 33 37 -28 35 43 -31 -32 -33 -34 56 -36 -37 50 -39 39 59 -42 -43 -44 44 45 -47 57 -49 -50 -51 -52 52 -54 -55 -56 -57 -58 -59 -60 -61 -62 -63
leaf_value=0.3055305086391073 -0.058940527612163174 0.021506592942320782 -0.054266427401214457 0.34556373442922322 -0.010970144257908302 0.47253910365857577 -0.11444249169476201 -0.22096865592580853 -0.031143166414671103 -0.16460507494732016 -0.015619410380073216 0.39525057806780467 0.12749036854388668 0.091338678014775132 0.52519473036130271 0.10128693303984299 0.06901033241681008 -0.06076036965109638 0.10594840239286424 0.4160815995837015 -0.1316886682316189 0.24543554120593603 0.038823377204324133 0.21824807892610998 0.020710400147224542 -0.20867321496406502 0.1809305567783539 0.32748944942767805 -0.20557375267031297 -0.18790763080740969 0.081518214582745496 0.084286228611188785 0.43613103253500801 0.12488246636512952 0.12438398202260335 0.14272650335774278 0.38285280051438708 -0.25358053856984558 0.37201619347915277 0.55322985460883689 0.47249328903853893 -0.063664973317752782 0.064308037253488839 -0.18541919537571705 0.0098821694107904829 -0.12137374345367478 0.23868894577026367 -0.021581249576830216 -0.045221087755939741 -0.086935577708847675 0.2472550867568879 0.11624050026848204 -0.1793551112841634 0.24931004955655053 -0.078154252017989312 -0.16024535421062919 0.2517132471192558 0.08471542346949984 0.14006391263008119 0.35603515428045523 0.17626344790825477 0.33449446392059329
leaf_weight=70 61 114 77 55 337 37 56 65 48 102 22 37 50 20 23 530 131 96 124 62 441 71 108 80 66 576 395 51 382 479 182 186 34 77 20 65 45 402 202 75 63 216 37 468 72 168 20 256 152 97 167 20 102 20 98 101 52 163 99 22 25 99
leaf_count=70 61 114 77 55 337 37 56 65 48 102 22 37 50 20 23 530 131 96 124 62 441 71 108 80 66 576 395 51 382 479 182 186 34 77 20 65 45 402 202 75 63 216 37 468 72 168 20 256 152 97 167 20 102 20 98 101 52 163 99 22 25 99
internal_value=0.00180843 -0.0971157 -0.121351 0.197969 0.0973909 0.227673 -0.133132 -0.10681 0.0533394 0.0115724 0.0782167 0.120444 0.335421 -0.189711 0.183664 0.163024 -0.126767 -0.100224 0.240831 0.217512 -0.122207 0.262067 -0.0884986 0.237835 0.0809919 -0.202664 0.135456 0.294204 -0.160107 -0.166822 0.0225163 0.0230031 0.286458 0.124843 0.344064 0.226063 0.249628 -0.216739 0.393916 0.419179 0.387554 -0.0294878 -0.0433991 -0.170016 -0.150568 -0.0821194 0.0749129 -0.0575725 -0.0936202 -0.0285209 0.2777 -0.195189 -0.130346 0.0943742 -0.0489005 -0.11496 0.177551 0.102749 0.18525 0.512595 0.295487 0.375226
internal_weight=8571 5698 4659 2873 656 2217 4403 3007 333 1039 529 268 641 1396 1576 1250 2674 1491 325 302 1340 326 765 136 256 1278 925 178 1183 575 393 523 114 195 156 116 262 1100 379 299 133 324 93 1090 708 240 231 510 254 211 212 698 122 151 118 178 129 183 170 97 80 136
internal_count=8571 5698 4659 2873 656 2217 4403 3007 333 1039 529 268 641 1396 1576 1250 2674 1491 325 302 1340 326 765 136 256 1278 925 178 1183 575 393 523 114 195 156 116 262 1100 379 299 133 324 93 1090 708 240 231 510 254 211 212 698 122 151 118 178 129 183 170 97 80 136
is_linear=0
shrinkage=0.05


Tree=3
num_leaves=63
num_cat=0
split_feature=29 20 1 20 6 1 9 28 9 1 17 17 20 9 28 18 5 20 3 16 18 28 6 28 5 10 20 9 28 29 6 16 1 5 28 26 20 10 28 5 5 26 16 29 18 5 8 9 28 5 19 1 27 26 3 29 1 6 1 3 6 2
split_gain=60104.9 5422.08 3855.38 3094.75 5143.64 3779.82 2440.65 3448.89 2233.09 1733.96 1702.99 1207.98 1129.13 955.606 926.991 908.362 1244.22 977.655 877.249 854.635 1705.14 1476.43 759.962 612.468 602.168 601.303 572.025 429.941 417.063 414.178 379.431 369.748 352.227 346.278 312.827 311.906 295.676 411.525 294.503 279.905 380.586 266.079 262.833 238.862 313.938 215.337 214.88 303.926 213.235 204.311 186.802 181.031 179.391 175.476 170.109 154.506 152.719 151.371 144.48 143.995 137.46 130.152
threshold=1.0000000180025095e-35 38.324747219585369 17.075000000000003 35.911563300033244 22.352222222222228 25.650000000000002 22.550000000000004 68.916666666666671 22.950000000000003 23.055000000000003 0.35000000000000003 0.53500000000000014 37.640648329351997 22.850000000000005 115.41666666666667 6.1937139253922942 25.380000000000006 36.90364558833042 18.475000000000005 0.95000000000000018 6.7831064630342235 27.583333333333339 27.229166666666671 2.2500000000000004 17.445000000000004 37.050000000000004 36.711394547204677 24.250000000000004 30.916666666666668 1.5000000000000002 21.066388888888891 288.30000000000007 27.395000000000003 18.315000000000005 18.583333333333339 -0.21643961393810282 36.11606205075293 31.350000000000005 70.750000000000014 19.280000000000005 18.780000000000005 0.087155742747658152 4.950000000000002 1.5000000000000002 7.3738776270843021 20.320000000000004 -0.15500000000000105 24.250000000000004 26.583333333333339 24.170000000000005 0.12857561550602178 19.470000000000002 -0.8765181184813301 -0.59116893267988346 26.455000000000002 1.5000000000000002 24.870000000000001 26.290277777777781 22.285000000000004 22.900000000000002 18.098888888888894 25.715000000000003
decision_type=2 2 2 2 2 2 2 2 2 2 2 2 2 2 2 2 2 2 2 2 2 2 2 2 2 2 2 2 2 2 2 2 2 2 2 2 2 2 2 2 2 2 2 2 2 2 2 2 2 2 2 2 2 2 2 2 2 2 2 2 2 2
left_child=3 2 24 4 35 12 14 13 -9 10 27 41 36 18 26 22 17 49 33 30 59 29 31 -12 -2 42 51 58 -23 -22 55 57 -6 -8 -14 -1 56 -38 39 40 -28 -10 61 44 -11 -30 -25 -48 -36 -17 -26 -4 -16 -35 -39 -15 -5 -7 -3 60 -21 -18
right_child=1 9 6 5 32 15 7 8 11 43 23 -13 34 19 52 16 25 -19 -20 20 21 28 -24 46 50 -27 38 -29 45 -31 -32 -33 -34 53 48 -37 37 54 -40 -41 -42 -43 -44 -45 -46 -47 47 -49 -50 -51 -52 -53 -54 -55 -56 -57 -58 -59 -60 -61 -62 -63
leaf_value=0.4625483345567134 -0.0091204283936026174 0.010729998034468398 -0.012079285187885548 0.17073022392061021 -0.00993185879260664 0.30096889555454259 -0.11580085261114713 -0.21008762121200564 0.12715330703838454 -0.15645472361046134 -0.014872394955676535 0.37600811217960561 0.1212408448843395 -0.20632497333298044 0.086989216107342934 0.2171027345042075 0.19629740454256536 0.17242741843928464 -0.13625809568911793 -0.10368713253038996 -0.16278770539377418 0.24044029854592824 0.17246938672608247 0.1987493844355567 0.094994799845985009 0.36967098116874697 -0.16775522040284199 0.068593357709420988 -0.054124390074740285 -0.065248036480719043 -0.12111027921313672 0.11846093507040115 0.074761837766486774 0.16607911304423684 0.3641262948513031 0.29587350961489556 0.35544469094162356 0.53492627961294992 -0.24097810966381128 -0.22068745852259461 0.049424776705828587 0.019765480182927533 0.15927109273771445 -0.020506385768535421 -0.042974811395496332 0.036980706455440007 0.46517878813402991 0.21923481384913127 0.23496591831956593 0.38041133540017263 0.21611290893771434 -0.13537979785432205 -0.074286012810589094 0.039243448696889928 0.33900738332582558 -0.15918293240416143 0.3300740484757857 0.42111652666522614 -0.07934300716846221 -0.11012474549444098 -0.19936786890029909 0.091229990294238561
leaf_weight=56 120 85 38 26 328 79 28 65 110 102 22 37 50 362 20 30 31 252 118 46 223 20 166 58 83 23 344 216 91 216 401 20 195 37 45 77 208 69 413 320 21 121 239 256 152 219 27 29 167 97 54 140 98 100 22 392 54 61 92 75 347 578
leaf_count=56 120 85 38 26 328 79 28 65 110 102 22 37 50 362 20 30 31 252 118 46 223 20 166 58 83 23 344 216 91 216 401 20 195 37 45 77 208 69 413 320 21 121 239 256 152 219 27 29 167 97 54 140 98 100 22 392 54 61 92 75 347 578
internal_value=0.00175529 -0.0922611 -0.11529 0.188185 0.0925862 0.216417 -0.126281 -0.100875 0.0507423 0.0110141 0.0743676 0.114549 0.318849 -0.119761 -0.18099 0.17458 0.154944 0.230617 -0.0327406 -0.130038 -0.101002 -0.0550879 0.249165 0.226177 0.0727217 0.12179 -0.193386 0.0213925 0.0247902 -0.115053 -0.161022 0.32717 0.0217285 0.0416649 0.23729 0.368981 0.374457 0.398433 -0.20691 -0.186048 -0.155159 0.0712302 0.114639 -0.0547165 -0.0889803 0.0101489 0.27242 0.343896 0.263963 0.343832 0.143955 -0.109272 -0.0464499 0.0744536 0.491761 -0.182059 0.281034 0.355934 -0.0362703 -0.176168 -0.18846 0.0968913
internal_weight=8571 5698 4659 2873 656 2217 4402 3008 333 1039 529 268 641 2675 1394 1576 1250 379 283 2392 1237 769 326 136 257 871 1276 393 330 439 1155 160 523 165 262 133 379 299 1098 685 365 231 848 510 254 310 114 56 212 127 137 178 118 137 91 754 80 140 177 468 393 609
internal_count=8571 5698 4659 2873 656 2217 4402 3008 333 1039 529 268 641 2675 1394 1576 1250 379 283 2392 1237 769 326 136 257 871 1276 393 330 439 1155 160 523 165 262 133 379 299 1098 685 365 231 848 510 254 310 114 56 212 127 137 178 118 137 91 754 80 140 177 468 393 609
is_linear=0
shrinkage=0.05


Tree=4
num_leaves=63
num_cat=0
split_feature=29 20 0 20 6 1 20 28 1 17 9 17 20 18 6 28 18 5 20 6 28 4 28 16 10 9 5 0 9 28 5 5 0 28 0 27 26 0 28 26 20 19 26 27 16 29 20 0 5 28 20 16 2 5 29 0 7 27 1 4 18 2
split_gain=54287.8 4896.9 3641.09 2795.44 4649.93 3416.69 2163.78 3865.61 1567.54 1541.96 1103.12 1093.7 1020.46 876.338 2115.6 862.34 821.485 1124.09 884.525 687.856 651.188 640.915 554.442 552.701 546.042 538.524 503.561 406.108 394.338 390.069 429.93 395.355 363.061 361.602 360.769 337.036 329.822 296.115 282.399 282.319 266.19 376.553 242.246 238.986 237.283 215.806 285.267 205.831 199.388 193.72 187.9 601.112 190.702 183.874 179.56 170.875 168.955 162.421 138.306 134.498 121.929 118.185
threshold=1.0000000180025095e-35 38.324747219585369 17.075000000000003 35.911563300033244 22.352222222222228 25.650000000000002 35.493746640049174 68.916666666666671 23.055000000000003 0.35000000000000003 22.450000000000003 0.53500000000000014 37.640648329351997 6.9038733133785124 18.877777777777784 115.41666666666667 6.1937139253922942 25.380000000000006 36.90364558833042 27.229166666666671 35.250000000000007 18.220000000000002 2.2500000000000004 1.0500000000000003 37.050000000000004 20.650000000000002 19.525000000000002 21.420000000000005 24.350000000000005 75.583333333333357 19.280000000000005 18.370000000000005 28.005000000000006 120.08333333333336 22.130000000000006 0.65918890865109991 -0.59116893267988346 24.170000000000005 18.583333333333339 -0.21643961393810282 36.11606205075293 0.088999778651903616 -0.62577451934762973 -0.75166088996455105 4.950000000000002 1.5000000000000002 38.801858615337487 22.080000000000002 17.645000000000007 26.916666666666668 37.461271478421395 9.3500000000000032 22.855000000000004 24.170000000000005 1.5000000000000002 24.870000000000001 0.097914360050019258 -0.8765181184813301 24.815000000000001 27.755000000000003 6.9038733133785124 25.715000000000003
decision_type=2 2 2 2 2 2 2 2 2 2 2 2 2 2 2 2 2 2 2 2 2 2 2 2 2 2 2 2 2 2 2 2 2 2 2 2 2 2 2 2 2 2 2 2 2 2 2 2 2 2 2 2 2 2 2 2 2 2 2 2 2 2
left_child=3 2 25 4 39 12 7 27 9 28 15 42 40 21 36 29 19 18 53 35 37 26 -11 -22 44 -2 -12 -4 47 30 31 -8 -6 56 -24 -7 -15 54 -14 -1 58 -42 -9 -33 61 46 -10 -3 -29 -40 51 -23 -52 -18 -16 -43 -27 -17 -5 -21 -46 -19
right_child=1 8 6 5 32 16 10 11 45 22 13 -13 38 14 20 57 17 24 -20 59 23 50 34 -25 -26 33 -28 48 -30 -31 -32 43 -34 -35 -36 -37 -38 -39 49 -41 41 55 -44 -45 60 -47 -48 -49 -50 -51 52 -53 -54 -55 -56 -57 -58 -59 -60 -61 -62 -63
leaf_value=0.43982663405568978 -0.055435126007444435 0.019372158695579223 -0.17957821410952832 0.15643932819366457 -0.009304782627096584 0.34838584233075381 -0.15034615344533298 0.14242216670835339 -0.1398313323005301 -0.014161106620145881 -0.12185231192617228 0.3577024579048157 0.11529766414679735 0.13627966076135636 -0.1857559380097823 0.082846874291343353 0.20659775580129316 0.18678924664855004 0.16384012256215214 0.21928737058359038 -0.15942785384362204 -0.17043845556372761 0.19688402653476339 0.029229915174502942 0.35195758208865302 0.12682723490521314 0.037667892923628959 -0.13961254653851848 0.074053652006420279 -0.23034284611543021 -0.20902002560180577 -0.12517961859703064 0.078430993280597244 0.0077756297039992088 0.39595440115247454 0.16145103661453022 0.0087781988463497603 -0.084133036495471492 0.34374939675132432 0.2812694917886685 0.32858741441484318 0.53336362028121953 0.032498374687062591 0.097955121811745427 0.1244786472991109 -0.019485056438349219 -0.033627112644877451 -0.079310305264531353 -0.057814111671235305 0.22254737084170426 -0.19519629516338899 -0.024452539816822695 -0.097963911588074729 0.36158485704538773 -0.12744774912477386 0.38693545082925074 0.26453635334968567 -0.070609231413614873 0.31122204964621025 0.12459351074695589 0.20253318945566812 0.086676369483593946
leaf_weight=56 61 114 203 24 345 127 427 73 121 22 150 37 50 79 274 20 30 31 252 67 56 318 80 121 23 109 73 120 182 359 352 20 178 57 34 33 139 195 47 77 180 49 158 27 159 256 133 97 201 165 471 91 60 97 281 70 29 98 56 99 80 578
leaf_count=56 61 114 203 24 345 127 427 73 121 22 150 37 50 79 274 20 30 31 252 67 56 318 80 121 23 109 73 120 182 359 352 20 178 57 34 33 139 195 47 77 180 49 158 27 159 256 133 97 201 165 471 91 60 97 281 70 29 98 56 99 80 578
internal_value=0.00169943 -0.0876516 -0.109537 0.178878 0.0880195 0.20571 -0.120196 -0.0452791 0.0104946 0.0707312 -0.13661 0.108919 0.303097 -0.11574 -0.0845578 -0.17346 0.165933 0.147261 0.219188 0.236861 -0.117494 -0.14634 0.215185 -0.0310188 0.115747 0.0735451 -0.0696977 -0.124201 0.0203229 -0.186291 -0.16689 -0.13523 0.0206483 0.11397 0.259183 0.311073 0.0553942 -0.137834 0.225563 0.350814 0.355962 0.378716 0.0677004 0.0023744 0.108934 -0.0520022 -0.0845704 -0.0261538 -0.0887316 0.250905 -0.164429 -0.138096 -0.184414 0.326874 -0.156516 0.451172 0.157461 -0.0441221 0.267292 0.163898 0.151341 0.0920703
internal_weight=8571 5698 4659 2873 656 2217 4403 792 1039 529 3611 268 641 2308 1145 1303 1576 1250 379 326 927 1163 136 177 871 256 223 524 393 1185 826 474 523 195 114 160 218 750 262 133 379 299 231 47 848 510 254 211 321 212 940 409 531 127 555 119 138 118 80 166 239 609
internal_count=8571 5698 4659 2873 656 2217 4403 792 1039 529 3611 268 641 2308 1145 1303 1576 1250 379 326 927 1163 136 177 871 256 223 524 393 1185 826 474 523 195 114 160 218 750 262 133 379 299 231 47 848 510 254 211 321 212 940 409 531 127 555 119 138 118 80 166 239 609
is_linear=0
shrinkage=0.05


end of trees

feature_importances:
ra_mj_m2_day=37
vwc_20cm_lag_144s=27
hours_since_last_irrigation=26
vwc_20cm=24
rain_mm_24h_sum=24
soil_temp_c=21
et0_hargreaves_mm_day=21
vwc_20cm_roll_mean_3h=19
vwc_20cm_lag_6s=18
line_id=15
sin_hour=12
vwc_20cm_lag_18s=10
vwc_20cm_lag_72s=10
et0_open_meteo_mm_h=10
vwc_20cm_lag_36s=8
cos_hour=8
vwc_20cm_roll_std_6h=6
air_temp_c=6
vwc_20cm_deriv_1h=3
rh_pct=2
etc_mm_h=2
vpd_kpa=1

parameters:
[boosting: gbdt]
[objective: regression]
[metric: rmse]
[tree_learner: serial]
[device_type: cpu]
[data_sample_strategy: bagging]
[data: ]
[valid: ]
[num_iterations: 2000]
[learning_rate: 0.05]
[num_leaves: 63]
[num_threads: 0]
[seed: 0]
[deterministic: 0]
[force_col_wise: 0]
[force_row_wise: 0]
[histogram_pool_size: -1]
[max_depth: -1]
[min_data_in_leaf: 20]
[min_sum_hessian_in_leaf: 0.001]
[bagging_fraction: 0.9]
[pos_bagging_fraction: 1]
[neg_bagging_fraction: 1]
[bagging_freq: 5]
[bagging_seed: 3]
[bagging_by_query: 0]
[feature_fraction: 0.9]
[feature_fraction_bynode: 1]
[feature_fraction_seed: 2]
[extra_trees: 0]
[extra_seed: 6]
[early_stopping_round: 0]
[early_stopping_min_delta: 0]
[first_metric_only: 0]
[max_delta_step: 0]
[lambda_l1: 0]
[lambda_l2: 1]
[linear_lambda: 0]
[min_gain_to_split: 0]
[drop_rate: 0.1]
[max_drop: 50]
[skip_drop: 0.5]
[xgboost_dart_mode: 0]
[uniform_drop: 0]
[drop_seed: 4]
[top_rate: 0.2]
[other_rate: 0.1]
[min_data_per_group: 100]
[max_cat_threshold: 32]
[cat_l2: 10]
[cat_smooth: 10]
[max_cat_to_onehot: 4]
[top_k: 20]
[monotone_constraints: ]
[monotone_constraints_method: basic]
[monotone_penalty: 0]
[feature_contri: ]
[forcedsplits_filename: ]
[refit_decay_rate: 0.9]
[cegb_tradeoff: 1]
[cegb_penalty_split: 0]
[cegb_penalty_feature_lazy: ]
[cegb_penalty_feature_coupled: ]
[path_smooth: 0]
[interaction_constraints: ]
[verbosity: -1]
[saved_feature_importance_type: 0]
[use_quantized_grad: 0]
[num_grad_quant_bins: 4]
[quant_train_renew_leaf: 0]
[stochastic_rounding: 1]
[linear_tree: 0]
[max_bin: 255]
[max_bin_by_feature: ]
[min_data_in_bin: 3]
[bin_construct_sample_cnt: 200000]
[data_random_seed: 1]
[is_enable_sparse: 1]
[enable_bundle: 1]
[use_missing: 1]
[zero_as_missing: 0]
[feature_pre_filter: 1]
[pre_partition: 0]
[two_round: 0]
[header: 0]
[label_column: ]
[weight_column: ]
[group_column: ]
[ignore_column: ]
[categorical_feature: ]
[forcedbins_filename: ]
[precise_float_parser: 0]
[parser_config_file: ]
[objective_seed: 5]
[num_class: 1]
[is_unbalance: 0]
[scale_pos_weight: 1]
[sigmoid: 1]
[boost_from_average: 1]
[reg_sqrt: 0]
[alpha: 0.9]
[fair_c: 1]
[poisson_max_delta_step: 0.7]
[tweedie_variance_power: 1.5]
[lambdarank_truncation_level: 30]
[lambdarank_norm: 1]
[label_gain: ]
[lambdarank_position_bias_regularization: 0]
[eval_at: ]
[multi_error_top_k: 1]
[auc_mu_weights: ]
[num_machines: 1]
[local_listen_port: 12400]
[time_out: 120]
[machine_list_filename: ]
[machines: ]
[gpu_platform_id: -1]
[gpu_device_id: -1]
[gpu_use_dp: 0]
[num_gpu: 1]

end of parameters

pandas_categorical:null
