{"learner":{"attributes":{"best_iteration":"26","best_score":"3.5817223788206674"},"feature_names":["vwc_20cm","vwc_20cm_lag_6s","vwc_20cm_lag_18s","vwc_20cm_lag_36s","vwc_20cm_lag_72s","vwc_20cm_lag_144s","vwc_20cm_roll_mean_3h","vwc_20cm_roll_std_6h","vwc_20cm_deriv_1h","soil_temp_c","air_temp_c","rh_pct","vpd_kpa","rain_mm_h","rain_mm_1h_sum","rain_mm_6h_sum","rain_mm_24h_sum","et0_open_meteo_mm_h","et0_hargreaves_mm_day","etc_mm_h","ra_mj_m2_day","daylength_h","gdd_cum","kc_dynamic","sin_doy","cos_doy","sin_hour","cos_hour","hours_since_last_irrigation","line_id"],"feature_types":[],"gradient_booster":{"model":{"cats":{"enc":[],"feature_segments":[],"sorted_idx":[]},"gbtree_model_param":{"num_parallel_tree":"1","num_trees":"77"},"iteration_indptr":[0,1,2,3,4,5,6,7,8,9,10,11,12,13,14,15,16,17,18,19,20,21,22,23,24,25,26,27,28,29,30,31,32,33,34,35,36,37,38,39,40,41,42,43,44,45,46,47,48,49,50,51,52,53,54,55,56,57,58,59,60,61,62,63,64,65,66,67,68,69,70,71,72,73,74,75,76,77],"tree_info":[0,0,0,0,0,0,0,0,0,0,0,0,0,0,0,0,0,0,0,0,0,0,0,0,0,0,0,0,0,0,0,0,0,0,0,0,0,0,0,0,0,0,0,0,0,0,0,0,0,0,0,0,0,0,0,0,0,0,0,0,0,0,0,0,0,0,0,0,0,0,0,0,0,0,0,0,0],"trees":[{"base_weights":[-1.0223519E-2,-3.0121777E0,3.4630144E0,4.8510413E0,-3.2719526E0,2.4036992E0,7.4452896E0,2.5930834E0,6.0596805E0,-4.284629E0,-1.3308922E0,3.4584672E0,9.036471E-1,8.000658E0,2.5975847E0,4.2420382E0,9.6930116E-1,7.0439367E0,2.2559233E0,-4.506842E0,-6.2302864E-1,-1.5516634E0,1.3353972E0,1.0321029E1,3.176881E0,2.5126845E-1,1.6484982E0,8.685688E0,6.529181E0,2.803923E0,1.047523E-2,2.5981554E-1,1.4440244E-1,8.450382E-2,4.0350094E-1,6.255201E0,5.5321455E-1,2.1362881E-1,-1.9482622E-2,-5.1096373E0,-3.7175148E0,-2.2810645E0,9.420231E0,-2.6100361E0,-1.076901E0,-1.3570299E0,8.229971E0,1.1204033E1,3.821533E-1,2.6264749E0,4.5283203E0,-9.972203E-1,5.1539433E-1,1.4610851E0,3.4213736E0,9.769959E0,7.588666E0,3.6687446E-1,5.548642E0,7.890498E-2,1.4323016E-1,-9.345023E-3,3.325383E-2,3.279418E-1,2.1837881E-1,-2.5955036E-1,-5.9849974E-2,1.43137E-1,-1.8961857E-1,-1.7304133E-1,2.2360933E-1,3.7808678E-1,6.0960025E-1,-1.7490193E-1,-1.23207085E-1,3.1610128E-1,-5.9184015E-2,-8.8639155E-2,1.7644513E-1,4.848579E-1,5.716483E-4,3.4251657E-1,5.8114934E-1,4.2435932E-1,1.2600596E-1,2.0335694E-1,2.597314E-1,-6.7222215E-2,1.61596E-2,1.5711358E-1,1.4775589E-2,8.398997E-2,1.9343577E-2,6.6799365E-2,2.0671725E-1,4.4604287E-1,5.8038753E-1,4.0483204E-1,3.061619E-1,3.6102667E-1,2.5669464E-1],"categories":[],"categories_nodes":[],"categories_segments":[],"categories_sizes":[],"default_left":[0,0,0,0,0,0,0,0,0,0,0,0,0,0,0,0,0,0,0,0,0,0,0,0,0,0,0,0,0,0,0,0,0,0,0,0,0,0,0,0,0,0,0,0,0,0,0,0,0,0,0,0,0,0,0,0,0,0,0,0,0,0,0,0,0,0,0,0,0,0,0,0,0,0,0,0,0,0,0,0,0,0,0,0,0,0,0,0,0,0,0,0,0,0,0,0,0,0,0,0,0],"id":0,"left_children":[1,3,5,7,9,11,13,15,17,19,21,23,25,27,29,31,33,35,37,39,41,43,45,47,49,51,53,55,57,59,-1,-1,-1,-1,61,63,-1,-1,-1,65,67,69,71,73,75,77,79,81,-1,83,85,87,89,91,93,95,97,-1,99,-1,-1,-1,-1,-1,-1,-1,-1,-1,-1,-1,-1,-1,-1,-1,-1,-1,-1,-1,-1,-1,-1,-1,-1,-1,-1,-1,-1,-1,-1,-1,-1,-1,-1,-1,-1,-1,-1,-1,-1,-1,-1],"loss_changes":[8.910489E4,9.379457E3,1.6695738E4,3.85458E2,8.717922E3,4.9507637E3,2.2191797E3,1.37798E2,3.3977734E2,2.3698086E3,8.985703E2,3.5189688E3,6.283727E2,6.952617E2,4.2281982E1,1.8586792E1,1.0736864E1,1.6861523E2,1.1370419E2,1.2889883E3,2.8190383E3,7.041726E2,2.1830552E3,8.462158E1,1.3024727E3,2.2837686E2,1.9568604E2,5.2773047E2,1.5029785E2,1.4300537E0,0E0,0E0,0E0,0E0,2.7496915E0,8.608643E0,0E0,0E0,0E0,4.8916797E2,5.989961E2,1.1707255E3,3.1439209E1,4.7736572E1,7.762035E2,1.7892003E2,3.9780762E2,1.5227051E1,0E0,7.6274805E2,1.3558984E2,5.591043E1,3.2888358E2,1.2810046E2,7.92254E1,2.8812695E2,1.4098926E2,0E0,4.1286377E1,0E0,0E0,0E0,0E0,0E0,0E0,0E0,0E0,0E0,0E0,0E0,0E0,0E0,0E0,0E0,0E0,0E0,0E0,0E0,0E0,0E0,0E0,0E0,0E0,0E0,0E0,0E0,0E0,0E0,0E0,0E0,0E0,0E0,0E0,0E0,0E0,0E0,0E0,0E0,0E0,0E0,0E0],"parents":[2147483647,0,0,1,1,2,2,3,3,4,4,5,5,6,6,7,7,8,8,9,9,10,10,11,11,12,12,13,13,14,14,15,15,16,16,17,17,18,18,19,19,20,20,21,21,22,22,23,23,24,24,25,25,26,26,27,27,28,28,29,29,34,34,35,35,39,39,40,40,41,41,42,42,43,43,44,44,45,45,46,46,47,47,49,49,50,50,51,51,52,52,53,53,54,54,55,55,56,56,58,58],"right_children":[2,4,6,8,10,12,14,16,18,20,22,24,26,28,30,32,34,36,38,40,42,44,46,48,50,52,54,56,58,60,-1,-1,-1,-1,62,64,-1,-1,-1,66,68,70,72,74,76,78,80,82,-1,84,86,88,90,92,94,96,98,-1,100,-1,-1,-1,-1,-1,-1,-1,-1,-1,-1,-1,-1,-1,-1,-1,-1,-1,-1,-1,-1,-1,-1,-1,-1,-1,-1,-1,-1,-1,-1,-1,-1,-1,-1,-1,-1,-1,-1,-1,-1,-1,-1],"split_conditions":[2.293E1,8.333333E-1,2.969E1,6.79236E0,2.029E1,1E0,1E0,2E0,-7.372773E-1,2.685455E-1,3.95E1,6.666667E-1,2.447E1,7.0740952E0,2.393E1,2.02E1,4E-2,2.149E1,2.237E1,1.845E1,7.3166664E1,2.125E1,3.17E1,3.8406868E1,2.714E1,-2.6E-1,2.3E-1,3.1E1,2.32E1,6.7895117E0,1.047523E-2,2.5981554E-1,1.4440244E-1,8.450382E-2,-9.063078E-1,3.0768197E0,5.5321455E-1,2.1362881E-1,-1.9482622E-2,9.25E1,1.86E1,3.2E0,1.787E1,-2.3E-1,2.149E1,6E-1,1.8884528E-1,2.5039825E-1,3.821533E-1,1.6575368E-1,6E0,2.506E1,2.27E1,2E-1,6.79236E0,6.9658446E0,3.737076E1,3.6687446E-1,-8.870108E-1,7.890498E-2,1.4323016E-1,-9.345023E-3,3.325383E-2,3.279418E-1,2.1837881E-1,-2.5955036E-1,-5.9849974E-2,1.43137E-1,-1.8961857E-1,-1.7304133E-1,2.2360933E-1,3.7808678E-1,6.0960025E-1,-1.7490193E-1,-1.23207085E-1,3.1610128E-1,-5.9184015E-2,-8.8639155E-2,1.7644513E-1,4.848579E-1,5.716483E-4,3.4251657E-1,5.8114934E-1,4.2435932E-1,1.2600596E-1,2.0335694E-1,2.597314E-1,-6.7222215E-2,1.61596E-2,1.5711358E-1,1.4775589E-2,8.398997E-2,1.9343577E-2,6.6799365E-2,2.0671725E-1,4.4604287E-1,5.8038753E-1,4.0483204E-1,3.061619E-1,3.6102667E-1,2.5669464E-1],"split_indices":[1,28,1,18,1,29,29,29,27,19,28,28,1,18,3,9,8,2,1,1,28,1,10,20,1,8,8,3,10,18,0,0,0,0,27,7,0,0,0,11,2,16,1,8,2,14,7,7,0,12,16,3,9,19,18,18,20,0,27,0,0,0,0,0,0,0,0,0,0,0,0,0,0,0,0,0,0,0,0,0,0,0,0,0,0,0,0,0,0,0,0,0,0,0,0,0,0,0,0,0,0],"split_type":[0,0,0,0,0,0,0,0,0,0,0,0,0,0,0,0,0,0,0,0,0,0,0,0,0,0,0,0,0,0,0,0,0,0,0,0,0,0,0,0,0,0,0,0,0,0,0,0,0,0,0,0,0,0,0,0,0,0,0,0,0,0,0,0,0,0,0,0,0,0,0,0,0,0,0,0,0,0,0,0,0,0,0,0,0,0,0,0,0,0,0,0,0,0,0,0,0,0,0,0,0],"sum_hessian":[8.544E3,4.583E3,3.961E3,1.46E2,4.437E3,3.13E3,8.31E2,5.2E1,9.4E1,2.915E3,1.522E3,1.837E3,1.293E3,7.45E2,8.6E1,2.5E1,2.7E1,7.4E1,2E1,2.748E3,1.67E2,1.406E3,1.16E2,7.1E1,1.766E3,6.9E2,6.03E2,5.05E2,2.4E2,7.9E1,7E0,1.3E1,1.2E1,1.1E1,1.6E1,6.4E1,1E1,1.1E1,9E0,1.555E3,1.193E3,1.44E2,2.3E1,4.34E2,9.72E2,8.4E1,3.2E1,5.1E1,2E1,1.257E3,5.09E2,1.2E2,5.7E2,5.47E2,5.6E1,2.5E2,2.55E2,1.28E2,1.12E2,5E0,7.4E1,5E0,1.1E1,5.3E1,1.1E1,1.523E3,3.2E1,1.3E1,1.18E3,1.23E2,2.1E1,1.6E1,7E0,5.8E1,3.76E2,1.3E1,9.59E2,7.8E1,6E0,2.7E1,5E0,6E0,4.5E1,2.1E1,1.236E3,3.05E2,2.04E2,9.5E1,2.5E1,4.3E1,5.27E2,4.54E2,9.3E1,1.5E1,4.1E1,1.75E2,7.5E1,1.86E2,6.9E1,1.9E1,9.3E1],"tree_param":{"num_deleted":"0","num_feature":"30","num_nodes":"101","size_leaf_vector":"1"}},{"base_weights":[-5.9986217E-3,-2.961298E0,3.3982646E0,-3.9619906E0,-1.2045642E0,2.2082431E0,6.948291E0,4.246084E0,-4.1061163E0,6.4866734E0,-1.2970613E0,3.044304E0,1.0117859E0,7.5331182E0,3.1732259E0,2.758534E0,3.040779E-1,-4.33248E0,-5.4299974E-1,8.609672E-2,3.980062E-1,-2.3782787E0,-7.73259E-1,4.982825E-1,2.9061985E0,4.0676457E-1,1.7504008E0,6.942549E0,9.45245E0,1.0487539E0,3.3703623E0,2.263196E-1,1.3284957E0,-4.873376E0,-3.5811245E0,-2.1420474E0,9.009045E0,-2.5517402E0,1.4430104E0,-9.964131E-1,2.2421193E0,2.4662669E0,4.198202E0,-1.705106E-1,7.617824E-1,3.285706E0,1.5288236E0,4.954935E-1,6.747218E0,4.2968503E-1,5.2969414E-1,6.1917927E-2,3.1057773E-2,4.3859982E0,2.8158195E0,8.977822E-2,4.340186E-2,-2.4710774E-1,-7.600872E-2,1.5760382E-1,-1.8279068E-1,2.8255102E-1,-1.5942554E-1,3.6695108E-1,6.12748E-1,-1.3762692E-1,-1.1541697E-1,2.351024E-1,-1.4180192E-1,1.3657197E-1,-5.512845E-2,-4.503682E-2,3.5979757E-1,3.9896995E-1,1.1953825E-1,1.9687633E-1,2.492466E-1,-4.9634248E-2,1.182738E-4,2.2653058E-1,3.246715E-2,2.0787351E-1,5.475637E-2,3.1902593E-2,8.500788E-2,2.8340635E-1,3.6047068E-1,2.51309E-1,1.5744486E-1,1.06774144E-1,1.520512E-1],"categories":[],"categories_nodes":[],"categories_segments":[],"categories_sizes":[],"default_left":[0,0,0,0,0,0,0,0,0,0,0,0,0,0,0,0,0,0,0,0,0,0,0,0,0,0,0,0,0,0,0,0,0,0,0,0,0,0,0,0,0,0,0,0,0,0,0,0,0,0,0,0,0,0,0,0,0,0,0,0,0,0,0,0,0,0,0,0,0,0,0,0,0,0,0,0,0,0,0,0,0,0,0,0,0,0,0,0,0,0,0],"id":1,"left_children":[1,3,5,7,9,11,13,15,17,19,21,23,25,27,29,31,-1,33,35,-1,-1,37,39,-1,41,43,45,47,49,51,53,-1,55,57,59,61,63,65,67,69,71,73,75,77,79,81,83,-1,85,-1,-1,-1,-1,87,89,-1,-1,-1,-1,-1,-1,-1,-1,-1,-1,-1,-1,-1,-1,-1,-1,-1,-1,-1,-1,-1,-1,-1,-1,-1,-1,-1,-1,-1,-1,-1,-1,-1,-1,-1,-1],"loss_changes":[8.6360336E4,8.073008E3,1.6836613E4,3.4800664E3,1.1957686E3,2.9868506E3,2.1860664E3,1.2247217E2,2.3181133E3,1.2670532E2,9.326289E2,1.6524229E3,5.4939453E2,9.159883E2,5.3423584E1,6.982982E1,0E0,1.081875E3,2.66173E3,0E0,0E0,3.6029346E2,7.5116534E2,0E0,9.7069336E2,1.3908125E2,1.8344104E2,3.191543E2,1.0598047E2,2.8475666E-1,5.748828E1,0E0,2.3125648E0,3.5457812E2,5.828135E2,1.2331372E3,4.5579468E1,1.8816406E1,3.480291E2,4.1338733E2,1.2053083E3,5.178882E2,6.999219E1,3.6815125E1,1.750394E2,1.2721417E2,7.308838E1,0E0,2.7235352E2,0E0,0E0,0E0,0E0,1.7435791E1,6.2227783E0,0E0,0E0,0E0,0E0,0E0,0E0,0E0,0E0,0E0,0E0,0E0,0E0,0E0,0E0,0E0,0E0,0E0,0E0,0E0,0E0,0E0,0E0,0E0,0E0,0E0,0E0,0E0,0E0,0E0,0E0,0E0,0E0,0E0,0E0,0E0,0E0],"parents":[2147483647,0,0,1,1,2,2,3,3,4,4,5,5,6,6,7,7,8,8,9,9,10,10,11,11,12,12,13,13,14,14,15,15,17,17,18,18,21,21,22,22,24,24,25,25,26,26,27,27,28,28,29,29,30,30,32,32,33,33,34,34,35,35,36,36,37,37,38,38,39,39,40,40,41,41,42,42,43,43,44,44,45,45,46,46,48,48,53,53,54,54],"right_children":[2,4,6,8,10,12,14,16,18,20,22,24,26,28,30,32,-1,34,36,-1,-1,38,40,-1,42,44,46,48,50,52,54,-1,56,58,60,62,64,66,68,70,72,74,76,78,80,82,84,-1,86,-1,-1,-1,-1,88,90,-1,-1,-1,-1,-1,-1,-1,-1,-1,-1,-1,-1,-1,-1,-1,-1,-1,-1,-1,-1,-1,-1,-1,-1,-1,-1,-1,-1,-1,-1,-1,-1,-1,-1,-1,-1],"split_conditions":[2.293E1,2.004E1,2.885E1,1.6666667E-1,3.3333334E-1,1E0,1E0,6.79236E0,2.685455E-1,3.25E1,2.109E1,3.3333334E-1,2.447E1,3.25E1,1.689E1,2E0,3.040779E-1,1.845E1,7.3166664E1,8.609672E-2,3.980062E-1,4.35E1,3.9E1,4.982825E-1,2.702E1,2.362E1,1.6666667E-1,2.506E1,-5.3729963E-1,2.6222778E1,-9.396926E-1,2.263196E-1,9.618889E-2,9.25E1,1.86E1,1.762E1,1.787E1,2.059E1,2.075E1,2.165E1,3.18E1,1.6575368E-1,2.835E1,1.803E1,1.3769071E-1,2.6504444E1,-6.4278764E-1,4.954935E-1,3.026E1,4.2968503E-1,5.2969414E-1,6.1917927E-2,3.1057773E-2,2.885E1,6.793264E0,8.977822E-2,4.340186E-2,-2.4710774E-1,-7.600872E-2,1.5760382E-1,-1.8279068E-1,2.8255102E-1,-1.5942554E-1,3.6695108E-1,6.12748E-1,-1.3762692E-1,-1.1541697E-1,2.351024E-1,-1.4180192E-1,1.3657197E-1,-5.512845E-2,-4.503682E-2,3.5979757E-1,3.9896995E-1,1.1953825E-1,1.9687633E-1,2.492466E-1,-4.9634248E-2,1.182738E-4,2.2653058E-1,3.246715E-2,2.0787351E-1,5.475637E-2,3.1902593E-2,8.500788E-2,2.8340635E-1,3.6047068E-1,2.51309E-1,1.5744486E-1,1.06774144E-1,1.520512E-1],"split_indices":[0,0,0,28,28,29,29,18,19,10,0,28,0,0,5,29,0,1,28,0,0,28,28,0,0,0,28,2,26,6,27,0,7,11,2,0,0,0,2,3,10,12,0,5,7,6,27,0,0,0,0,0,0,1,18,0,0,0,0,0,0,0,0,0,0,0,0,0,0,0,0,0,0,0,0,0,0,0,0,0,0,0,0,0,0,0,0,0,0,0,0],"split_type":[0,0,0,0,0,0,0,0,0,0,0,0,0,0,0,0,0,0,0,0,0,0,0,0,0,0,0,0,0,0,0,0,0,0,0,0,0,0,0,0,0,0,0,0,0,0,0,0,0,0,0,0,0,0,0,0,0,0,0,0,0,0,0,0,0,0,0,0,0,0,0,0,0,0,0,0,0,0,0,0,0,0,0,0,0,0,0,0,0,0,0],"sum_hessian":[8.582E3,4.594E3,3.988E3,2.926E3,1.668E3,2.988E3,1E3,5E1,2.876E3,1.9E1,1.649E3,1.758E3,1.23E3,8.65E2,1.35E2,2.9E1,2.1E1,2.704E3,1.72E2,5E0,1.4E1,5.37E2,1.112E3,3.3E1,1.725E3,6.77E2,5.53E2,6.65E2,2E2,1.2E1,1.23E2,1.2E1,1.7E1,1.569E3,1.135E3,1.48E2,2.4E1,5.14E2,2.3E1,1.036E3,7.6E1,1.289E3,4.36E2,2.58E2,4.19E2,6.8E1,4.85E2,3.8E1,6.27E2,1.19E2,8.1E1,7E0,5E0,4.1E1,8.2E1,7E0,1E1,1.537E3,3.2E1,1.2E1,1.123E3,1.7E1,1.31E2,1.8E1,6E0,2.76E2,2.38E2,1.3E1,1E1,2.8E1,1.008E3,4.7E1,2.9E1,1.6E1,1.273E3,3.32E2,1.04E2,4.4E1,2.14E2,1.1E1,4.08E2,4.8E1,2E1,7.9E1,4.06E2,1.92E2,4.35E2,2.5E1,1.6E1,2.3E1,5.9E1],"tree_param":{"num_deleted":"0","num_feature":"30","num_nodes":"91","size_leaf_vector":"1"}},{"base_weights":[1.313586E-2,-2.7583196E0,3.344188E0,-3.8060405E0,-1.0570993E0,2.1812394E0,6.649189E0,4.1605077E0,-3.9257E0,4.873754E0,-1.1620961E0,1.3095368E0,3.1028328E0,7.1919837E0,3.004857E0,2.644904E0,2.9678747E-1,-4.2263417E0,-2.4103265E0,1.0759201E-2,6.7697515E0,-2.2429774E0,-6.859053E-1,6.0935016E0,1.2091011E0,2.6670775E0,3.8417304E0,6.6119747E0,9.00583E0,5.2187543E-2,3.1922698E0,2.0519128E-1,1.3987008E0,-4.7185383E0,-3.4652677E0,-3.4503384E0,6.2221317E0,5.4386115E0,4.7065115E-1,-2.4266734E0,1.9277996E0,-9.303612E-1,2.1286285E0,4.6109492E-1,2.7797856E0,1.8611614E0,7.435669E-1,6.332543E0,2.5828972E0,4.1748385E0,2.2924807E0,5.1157613E0,6.9448433E0,4.9536186E-1,4.0002462E-1,2.6122353E0,3.8528259E0,8.5850395E-2,4.527781E-2,1.5093242E-1,-2.373892E-1,-1.796184E-1,-1.2469816E-1,-1.9411133E-1,-8.738312E-2,2.1444822E-2,3.9022744E-1,1.1017417E-1,3.5014552E-1,-1.5539265E-1,-1.1609787E-1,2.2748704E-1,-1.3281512E-1,1.0553505E-1,-4.996284E-2,-5.125565E-2,2.49664E-1,2.1524215E-1,5.5765714E-2,8.108716E-2,2.5862366E-1,1.9192556E-2,6.2334515E-2,2.0011282E-1,3.8317275E-1,1.4374869E-1,9.586782E-2,3.893265E-1,2.0111115E-1,1.7721225E-1,8.6334735E-2,4.553669E-1,2.4008961E-1,3.7259248E-1,3.0873522E-1,9.365418E-2,1.4227672E-1,2.2282009E-1,1.3861668E-1],"categories":[],"categories_nodes":[],"categories_segments":[],"categories_sizes":[],"default_left":[0,0,0,0,0,0,0,0,0,0,0,0,0,0,0,0,0,0,0,0,0,0,0,0,0,0,0,0,0,0,0,0,0,0,0,0,0,0,0,0,0,0,0,0,0,0,0,0,0,0,0,0,0,0,0,0,0,0,0,0,0,0,0,0,0,0,0,0,0,0,0,0,0,0,0,0,0,0,0,0,0,0,0,0,0,0,0,0,0,0,0,0,0,0,0,0,0,0,0],"id":2,"left_children":[1,3,5,7,9,11,13,15,17,19,21,23,25,27,29,31,-1,33,35,-1,37,39,41,43,45,47,49,51,53,-1,55,-1,57,59,61,63,65,67,-1,69,71,73,75,-1,77,79,81,83,85,87,89,91,93,-1,-1,95,97,-1,-1,-1,-1,-1,-1,-1,-1,-1,-1,-1,-1,-1,-1,-1,-1,-1,-1,-1,-1,-1,-1,-1,-1,-1,-1,-1,-1,-1,-1,-1,-1,-1,-1,-1,-1,-1,-1,-1,-1,-1,-1],"loss_changes":[7.852621E4,8.271676E3,1.4833121E4,2.755086E3,1.1085015E3,2.2927295E3,1.9664023E3,9.999469E1,1.2795742E3,2.7235498E2,8.9456445E2,6.994204E2,4.3698145E2,8.599414E2,4.518286E1,3.9712784E1,0E0,8.680742E2,4.25004E3,0E0,2.62146E1,4.1227222E2,8.344961E2,2.8536365E2,4.3634448E2,2.5425098E2,2.5517139E2,2.9616797E2,1.1013867E2,0E0,3.591284E1,0E0,7.997246E-1,3.3814062E2,1.0597461E2,3.028047E2,4.641859E2,7.060123E1,0E0,2.916211E1,2.8852814E2,2.3550964E2,8.814527E2,0E0,3.5813377E1,4.6728442E2,1.520888E2,2.8255554E1,1.6146729E2,2.0073584E2,5.9745636E1,1.1292236E2,1.6561914E2,0E0,0E0,6.223755E0,2.286206E1,0E0,0E0,0E0,0E0,0E0,0E0,0E0,0E0,0E0,0E0,0E0,0E0,0E0,0E0,0E0,0E0,0E0,0E0,0E0,0E0,0E0,0E0,0E0,0E0,0E0,0E0,0E0,0E0,0E0,0E0,0E0,0E0,0E0,0E0,0E0,0E0,0E0,0E0,0E0,0E0,0E0,0E0],"parents":[2147483647,0,0,1,1,2,2,3,3,4,4,5,5,6,6,7,7,8,8,9,9,10,10,11,11,12,12,13,13,14,14,15,15,17,17,18,18,20,20,21,21,22,22,23,23,24,24,25,25,26,26,27,27,28,28,30,30,32,32,33,33,34,34,35,35,36,36,37,37,39,39,40,40,41,41,42,42,44,44,45,45,46,46,47,47,48,48,49,49,50,50,51,51,52,52,55,55,56,56],"right_children":[2,4,6,8,10,12,14,16,18,20,22,24,26,28,30,32,-1,34,36,-1,38,40,42,44,46,48,50,52,54,-1,56,-1,58,60,62,64,66,68,-1,70,72,74,76,-1,78,80,82,84,86,88,90,92,94,-1,-1,96,98,-1,-1,-1,-1,-1,-1,-1,-1,-1,-1,-1,-1,-1,-1,-1,-1,-1,-1,-1,-1,-1,-1,-1,-1,-1,-1,-1,-1,-1,-1,-1,-1,-1,-1,-1,-1,-1,-1,-1,-1,-1,-1],"split_conditions":[2.32E1,2.004E1,2.885E1,1.6666667E-1,8.333333E-1,2.535E1,1E0,6.79236E0,3.41E1,2.8E-1,2.109E1,3.3333334E-1,2.714E1,3.25E1,2.19E1,2E0,2.9678747E-1,1.8491667E1,7.0666664E1,1.0759201E-2,5E-1,4.35E1,3.9E1,1E0,1E0,1.6666667E-1,2.2763805E0,2.969E1,3.25E1,5.2187543E-2,-3.8268343E-1,2.0519128E-1,9.618889E-2,1.98E1,3.824263E1,9.1E0,3.45E1,2.38E1,4.7065115E-1,-2.3E-1,2.075E1,2.149E1,3.17E1,4.6109492E-1,2E0,5.5E-1,2.512E1,1.96E1,4.037027E-1,2.551E1,2.786E1,1.6666667E-1,7.0740952E0,4.9536186E-1,4.0002462E-1,6.793264E0,2.91E1,8.5850395E-2,4.527781E-2,1.5093242E-1,-2.373892E-1,-1.796184E-1,-1.2469816E-1,-1.9411133E-1,-8.738312E-2,2.1444822E-2,3.9022744E-1,1.1017417E-1,3.5014552E-1,-1.5539265E-1,-1.1609787E-1,2.2748704E-1,-1.3281512E-1,1.0553505E-1,-4.996284E-2,-5.125565E-2,2.49664E-1,2.1524215E-1,5.5765714E-2,8.108716E-2,2.5862366E-1,1.9192556E-2,6.2334515E-2,2.0011282E-1,3.8317275E-1,1.4374869E-1,9.586782E-2,3.893265E-1,2.0111115E-1,1.7721225E-1,8.6334735E-2,4.553669E-1,2.4008961E-1,3.7259248E-1,3.0873522E-1,9.365418E-2,1.4227672E-1,2.2282009E-1,1.3861668E-1],"split_indices":[0,0,0,28,28,0,29,18,10,17,0,28,0,0,9,29,0,6,28,0,17,28,28,29,29,28,7,0,2,0,26,0,7,9,20,16,10,9,0,8,2,2,10,0,29,17,3,1,7,1,1,28,18,0,0,18,1,0,0,0,0,0,0,0,0,0,0,0,0,0,0,0,0,0,0,0,0,0,0,0,0,0,0,0,0,0,0,0,0,0,0,0,0,0,0,0,0,0,0],"split_type":[0,0,0,0,0,0,0,0,0,0,0,0,0,0,0,0,0,0,0,0,0,0,0,0,0,0,0,0,0,0,0,0,0,0,0,0,0,0,0,0,0,0,0,0,0,0,0,0,0,0,0,0,0,0,0,0,0,0,0,0,0,0,0,0,0,0,0,0,0,0,0,0,0,0,0,0,0,0,0,0,0,0,0,0,0,0,0,0,0,0,0,0,0,0,0,0,0,0,0],"sum_hessian":[8.504E3,4.642E3,3.862E3,2.872E3,1.77E3,2.858E3,1.004E3,4.2E1,2.83E3,3E1,1.74E3,1.47E3,1.388E3,8.73E2,1.31E2,2.4E1,1.8E1,2.36E3,4.7E2,9E0,2.1E1,5.31E2,1.209E3,2.9E1,1.441E3,8.76E2,5.12E2,6.65E2,2.08E2,1.2E1,1.19E2,1E1,1.4E1,1.43E3,9.3E2,4.2E2,5E1,1.6E1,5E0,5.09E2,2.2E1,1.113E3,9.6E1,1.4E1,1.5E1,5.99E2,8.42E2,1.8E1,8.58E2,4.2E2,9.2E1,1.24E2,5.41E2,1.05E2,1.03E2,6.6E1,5.3E1,7E0,7E0,5E0,1.425E3,8.2E2,1.1E2,3.34E2,8.6E1,1.1E1,3.9E1,6E0,1E1,6.4E1,4.45E2,1.4E1,8E0,2.4E1,1.089E3,4.6E1,5E1,7E0,8E0,5.6E2,3.9E1,4.92E2,3.5E2,8E0,1E1,5.94E2,2.64E2,1.5E1,4.05E2,2.7E1,6.5E1,7E0,1.17E2,3.21E2,2.2E2,1.8E1,4.8E1,3.2E1,2.1E1],"tree_param":{"num_deleted":"0","num_feature":"30","num_nodes":"99","size_leaf_vector":"1"}},{"base_weights":[-3.2210038E-3,-2.5677652E0,3.0585985E0,-3.453909E0,-8.622038E-1,2.1425972E0,6.362109E0,3.8015225E0,-3.6594932E0,5.081018E0,-1.0737644E0,3.007313E0,7.9938316E-1,6.8265653E0,2.329701E0,5.0676727E0,2.102135E0,-3.8480053E0,-5.94101E-1,2.2588377E0,5.816072E0,-1.2523615E0,1.1310056E0,9.201786E0,2.72374E0,3.1091648E-1,1.438779E0,6.2910366E0,8.364483E0,2.451528E0,1.1791865E-2,5.450756E0,1.2354548E-1,9.0822273E-1,1.9361262E-1,-4.385094E0,-3.1555204E0,-1.9172086E0,8.175745E0,1.5024951E-1,4.4374753E-2,4.6482268E-1,4.8810964E0,-2.2052133E0,-8.7484014E-1,-9.209479E-1,5.716484E0,5.0275934E-1,3.3062765E-1,2.24451E0,3.9094515E0,-7.245974E-1,5.875021E-1,-2.6586723E-1,1.5625982E0,6.4664726E0,2.0293875E-1,3.7880015E-1,4.6805984E-1,6.878104E-2,2.516654E0,2.282605E-1,3.2745484E-1,7.157325E-2,1.3284596E-2,-2.235276E-1,-4.4689387E-2,1.0619285E-1,-1.6068062E-1,-1.5155618E-1,2.2310947E-1,3.2907432E-1,5.439776E-1,1.2940492E-1,2.774787E-1,-1.5911444E-1,-1.02430575E-1,2.7497333E-1,-4.9401186E-2,-8.066105E-2,1.5970287E-1,4.5174336E-1,-4.247452E-2,3.751535E-1,1.0771853E-1,1.1796152E-1,2.039968E-1,-5.704804E-2,2.3343135E-2,1.7506869E-1,2.2231692E-2,1.1725111E-2,-5.3445615E-2,1.2842213E-1,6.770288E-2,3.372566E-1,2.504597E-1,1.1129626E-1,1.4051186E-1],"categories":[],"categories_nodes":[],"categories_segments":[],"categories_sizes":[],"default_left":[0,0,0,0,0,0,0,0,0,0,0,0,0,0,0,0,0,0,0,0,0,0,0,0,0,0,0,0,0,0,0,0,0,0,0,0,0,0,0,0,0,0,0,0,0,0,0,0,0,0,0,0,0,0,0,0,0,0,0,0,0,0,0,0,0,0,0,0,0,0,0,0,0,0,0,0,0,0,0,0,0,0,0,0,0,0,0,0,0,0,0,0,0,0,0,0,0,0,0],"id":3,"left_children":[1,3,5,7,9,11,13,15,17,19,21,23,25,27,29,31,33,35,37,39,41,43,45,47,49,51,53,55,57,59,-1,61,-1,63,-1,65,67,69,71,-1,-1,-1,73,75,77,79,81,-1,-1,83,85,87,89,91,93,95,-1,-1,-1,-1,97,-1,-1,-1,-1,-1,-1,-1,-1,-1,-1,-1,-1,-1,-1,-1,-1,-1,-1,-1,-1,-1,-1,-1,-1,-1,-1,-1,-1,-1,-1,-1,-1,-1,-1,-1,-1,-1,-1],"loss_changes":[6.725385E4,7.0415273E3,1.1799949E4,4.5886562E3,2.0109324E3,3.549457E3,1.5704219E3,1.7223975E2,1.7214805E3,1.0095752E2,6.082092E2,3.2421855E3,3.7402863E2,5.724883E2,2.2124786E1,3.4281006E1,7.6791E1,1.0312734E3,2.0346748E3,1.0635086E1,9.454822E1,5.1103442E2,1.0967305E3,1.1249121E2,1.0026719E3,1.9546973E2,1.0995984E2,1.9580273E2,8.0756836E1,2.4238586E0,0E0,9.979858E0,0E0,7.688452E0,0E0,4.6741406E2,3.8435938E2,1.0936536E3,2.753955E1,0E0,0E0,0E0,4.0818604E1,5.5297363E1,7.434942E2,2.3589803E2,7.92058E2,0E0,0E0,5.858203E2,1.2542578E2,7.196826E1,2.224125E2,1.4716152E1,9.8045654E1,1.79E2,0E0,0E0,0E0,0E0,4.0222168E-1,0E0,0E0,0E0,0E0,0E0,0E0,0E0,0E0,0E0,0E0,0E0,0E0,0E0,0E0,0E0,0E0,0E0,0E0,0E0,0E0,0E0,0E0,0E0,0E0,0E0,0E0,0E0,0E0,0E0,0E0,0E0,0E0,0E0,0E0,0E0,0E0,0E0,0E0],"parents":[2147483647,0,0,1,1,2,2,3,3,4,4,5,5,6,6,7,7,8,8,9,9,10,10,11,11,12,12,13,13,14,14,15,15,16,16,17,17,18,18,19,19,20,20,21,21,22,22,23,23,24,24,25,25,26,26,27,27,28,28,29,29,31,31,33,33,35,35,36,36,37,37,38,38,42,42,43,43,44,44,45,45,46,46,49,49,50,50,51,51,52,52,53,53,54,54,55,55,60,60],"right_children":[2,4,6,8,10,12,14,16,18,20,22,24,26,28,30,32,34,36,38,40,42,44,46,48,50,52,54,56,58,60,-1,62,-1,64,-1,66,68,70,72,-1,-1,-1,74,76,78,80,82,-1,-1,84,86,88,90,92,94,96,-1,-1,-1,-1,98,-1,-1,-1,-1,-1,-1,-1,-1,-1,-1,-1,-1,-1,-1,-1,-1,-1,-1,-1,-1,-1,-1,-1,-1,-1,-1,-1,-1,-1,-1,-1,-1,-1,-1,-1,-1,-1,-1],"split_conditions":[2.3110556E1,2.0386667E1,2.969E1,3.3333334E-1,3.3333334E-1,1E0,1E0,2E0,2.685455E-1,-5E-1,3.95E1,6.666667E-1,2.457E1,2.539987E0,2.393E1,3.6E0,6.79236E0,1.845E1,7.3166664E1,1.835E1,1E0,2.125E1,3.18E1,3.8406868E1,2.714E1,-2.3E-1,1.685E1,3.8406868E1,2.1237603E-1,6.7895117E0,1.1791865E-2,4.8E-1,1.2354548E-1,1.3E-1,1.9361262E-1,9.25E1,1.86E1,3.2E0,1.787E1,1.5024951E-1,4.4374753E-2,4.6482268E-1,2.5E0,-2.9E-1,2.1334444E1,6E-1,2.2E1,5.0275934E-1,3.3062765E-1,1.6575368E-1,3.6417557E1,2.506E1,2.26E1,2.08E1,1.715E1,1.4666667E1,2.0293875E-1,3.7880015E-1,4.6805984E-1,6.878104E-2,-1.05E0,2.282605E-1,3.2745484E-1,7.157325E-2,1.3284596E-2,-2.235276E-1,-4.4689387E-2,1.0619285E-1,-1.6068062E-1,-1.5155618E-1,2.2310947E-1,3.2907432E-1,5.439776E-1,1.2940492E-1,2.774787E-1,-1.5911444E-1,-1.02430575E-1,2.7497333E-1,-4.9401186E-2,-8.066105E-2,1.5970287E-1,4.5174336E-1,-4.247452E-2,3.751535E-1,1.0771853E-1,1.1796152E-1,2.039968E-1,-5.704804E-2,2.3343135E-2,1.7506869E-1,2.2231692E-2,1.1725111E-2,-5.3445615E-2,1.2842213E-1,6.770288E-2,3.372566E-1,2.504597E-1,1.1129626E-1,1.4051186E-1],"split_indices":[6,6,1,28,28,29,29,29,19,26,28,28,1,7,3,16,18,1,28,5,29,1,10,20,1,8,5,20,19,18,0,17,0,8,0,11,2,16,1,0,0,0,16,8,6,14,1,0,0,12,20,3,9,3,5,28,0,0,0,0,8,0,0,0,0,0,0,0,0,0,0,0,0,0,0,0,0,0,0,0,0,0,0,0,0,0,0,0,0,0,0,0,0,0,0,0,0,0,0],"split_type":[0,0,0,0,0,0,0,0,0,0,0,0,0,0,0,0,0,0,0,0,0,0,0,0,0,0,0,0,0,0,0,0,0,0,0,0,0,0,0,0,0,0,0,0,0,0,0,0,0,0,0,0,0,0,0,0,0,0,0,0,0,0,0,0,0,0,0,0,0,0,0,0,0,0,0,0,0,0,0,0,0,0,0,0,0,0,0,0,0,0,0,0,0,0,0,0,0,0,0],"sum_hessian":[8.563E3,4.66E3,3.903E3,3.066E3,1.594E3,3.057E3,8.46E2,8.4E1,2.982E3,5.4E1,1.54E3,1.859E3,1.198E3,7.58E2,8.8E1,4.7E1,3.7E1,2.809E3,1.73E2,1.2E1,4.2E1,1.425E3,1.15E2,8E1,1.779E3,6.8E2,5.18E2,5.66E2,1.92E2,8.3E1,5E0,4E1,7E0,2.3E1,1.4E1,1.579E3,1.23E3,1.51E2,2.2E1,7E0,5E0,7E0,3.5E1,4.03E2,1.022E3,8E1,3.5E1,5.8E1,2.2E1,1.269E3,5.1E2,1.43E2,5.37E2,3.5E1,4.83E2,5.23E2,4.3E1,1.12E2,8E1,6E0,7.7E1,2.5E1,1.5E1,1.2E1,1.1E1,1.541E3,3.8E1,1.3E1,1.217E3,1.29E2,2.2E1,1.6E1,6E0,9E0,2.6E1,5.3E1,3.5E2,1.7E1,1.005E3,6.9E1,1.1E1,2.3E1,1.2E1,2E1,1.249E3,5.2E1,4.58E2,1.06E2,3.7E1,2.4E1,5.13E2,2.2E1,1.3E1,8.1E1,4.02E2,4.36E2,8.7E1,4.3E1,3.4E1],"tree_param":{"num_deleted":"0","num_feature":"30","num_nodes":"99","size_leaf_vector":"1"}},{"base_weights":[1.8125185E-3,-2.4082508E0,3.0916533E0,-3.2133534E0,-5.1491904E-1,2.0349905E0,6.004436E0,-3.4201224E0,-5.351068E-1,-1.208782E0,-1.05246596E-1,1.2145249E0,2.8230348E0,6.509215E0,2.7845557E0,-4.075907E0,-2.760895E0,3.6604037E0,-2.5784345E0,-1.8235952E0,-6.673881E-1,4.2780748E-1,-2.6101387E-1,3.1202158E-1,1.1457987E0,2.4107141E0,3.4626987E0,5.9786234E0,8.191325E0,4.501923E-2,2.9582329E0,2.9085994E0,-4.1543374E0,2.00597E0,-2.845883E0,-2.1875398E-1,6.5946445E0,-3.06874E0,2.1486874E0,-1.1846595E0,-2.011415E0,-1.2935929E0,-4.375835E-1,8.008193E0,-4.3140915E-1,1.0683292E0,3.9093263E0,3.4339442E0,2.2095463E0,3.7381618E0,2.0748067E0,8.128426E0,5.773305E0,4.4879147E-1,3.6076298E-1,3.81189E0,2.4129152E0,2.0998064E-1,-1.8668097E-2,-2.1050422E-1,-3.6131937E-2,-1.923869E-1,2.4906456E-1,-1.6184E-1,-1.0326759E-1,2.9484987E-1,5.1525104E-1,-1.8684879E-1,-1.3467498E-1,6.067968E-2,1.466041E-1,-7.2819605E-2,-4.1589946E-2,-1.2929864E-1,-8.326318E-2,-8.298144E-2,-1.2794872E-2,4.3205835E-2,-2.3677375E-2,2.1924584E-1,4.53223E-1,4.6487473E-2,-3.3773344E-2,2.557394E-1,5.08537E-2,4.817887E-2,5.258306E-1,3.312879E-1,1.1480335E-1,1.1740816E-1,6.836315E-2,3.6537257E-1,1.7958808E-1,1.5823063E-1,7.394308E-2,4.911565E-1,3.5558823E-1,2.1742682E-1,3.0183986E-1,2.153523E-1,1.3423647E-1,1.4675872E-1,1.0426482E-1],"categories":[],"categories_nodes":[],"categories_segments":[],"categories_sizes":[],"default_left":[0,0,0,0,0,0,0,0,0,0,0,0,0,0,0,0,0,0,0,0,0,0,0,0,0,0,0,0,0,0,0,0,0,0,0,0,0,0,0,0,0,0,0,0,0,0,0,0,0,0,0,0,0,0,0,0,0,0,0,0,0,0,0,0,0,0,0,0,0,0,0,0,0,0,0,0,0,0,0,0,0,0,0,0,0,0,0,0,0,0,0,0,0,0,0,0,0,0,0,0,0,0,0],"id":4,"left_children":[1,3,5,7,9,11,13,15,17,19,21,23,25,27,29,31,33,35,37,39,41,-1,43,-1,45,47,49,51,53,-1,55,57,59,61,63,-1,65,67,69,71,73,75,77,79,81,83,85,87,89,91,93,95,97,-1,-1,99,101,-1,-1,-1,-1,-1,-1,-1,-1,-1,-1,-1,-1,-1,-1,-1,-1,-1,-1,-1,-1,-1,-1,-1,-1,-1,-1,-1,-1,-1,-1,-1,-1,-1,-1,-1,-1,-1,-1,-1,-1,-1,-1,-1,-1,-1,-1],"loss_changes":[6.374385E4,7.328828E3,1.1532715E4,1.8666211E3,4.0806512E2,1.777207E3,1.6039531E3,1.3427461E3,2.0926292E3,1.7619525E2,1.2218757E3,4.5950098E2,3.6195117E2,7.20375E2,4.2167847E1,8.710293E2,6.3973145E2,1.9150956E3,3.8670203E2,2.7498352E1,4.04468E1,0E0,1.256086E3,0E0,2.814182E2,1.6881885E2,2.0175146E2,2.4395117E2,9.1444336E1,0E0,4.8991577E1,7.783496E1,2.9367383E2,5.0683325E2,4.6259375E2,0E0,9.195459E1,2.7296143E1,8.162399E0,4.445709E0,3.3680542E1,2.8442673E1,1.02402115E1,2.9141724E1,2.9030746E2,2.6421326E2,6.9054895E2,4.8961963E2,8.073584E1,2.1203369E2,5.5720154E1,2.4901611E1,2.00875E2,0E0,0E0,1.4668396E1,7.396332E0,0E0,0E0,0E0,0E0,0E0,0E0,0E0,0E0,0E0,0E0,0E0,0E0,0E0,0E0,0E0,0E0,0E0,0E0,0E0,0E0,0E0,0E0,0E0,0E0,0E0,0E0,0E0,0E0,0E0,0E0,0E0,0E0,0E0,0E0,0E0,0E0,0E0,0E0,0E0,0E0,0E0,0E0,0E0,0E0,0E0,0E0],"parents":[2147483647,0,0,1,1,2,2,3,3,4,4,5,5,6,6,7,7,8,8,9,9,10,10,11,11,12,12,13,13,14,14,15,15,16,16,17,17,18,18,19,19,20,20,22,22,24,24,25,25,26,26,27,27,28,28,30,30,31,31,32,32,33,33,34,34,36,36,37,37,38,38,39,39,40,40,41,41,42,42,43,43,44,44,45,45,46,46,47,47,48,48,49,49,50,50,51,51,52,52,55,55,56,56],"right_children":[2,4,6,8,10,12,14,16,18,20,22,24,26,28,30,32,34,36,38,40,42,-1,44,-1,46,48,50,52,54,-1,56,58,60,62,64,-1,66,68,70,72,74,76,78,80,82,84,86,88,90,92,94,96,98,-1,-1,100,102,-1,-1,-1,-1,-1,-1,-1,-1,-1,-1,-1,-1,-1,-1,-1,-1,-1,-1,-1,-1,-1,-1,-1,-1,-1,-1,-1,-1,-1,-1,-1,-1,-1,-1,-1,-1,-1,-1,-1,-1,-1,-1,-1,-1,-1,-1],"split_conditions":[2.345E1,2.09E1,2.885E1,2.685455E-1,2.119E1,2.535E1,1E0,1.835E1,1.864E1,2.226E1,2.21E1,1.99E1,2.702E1,3.25E1,1.689E1,1.715E1,1.864E1,6.777765E0,3.2E0,4.007095E-3,-3.4202015E-1,4.2780748E-1,2.165E1,3.1202158E-1,2.7385747E-1,1.3420992E-1,2.539987E0,2.551E1,-6.087614E-1,4.501923E-2,-9.238795E-1,9.396926E-1,9.25E1,4.6259277E-2,1.979E1,-2.1875398E-1,1.854E1,1.9E1,-4.3619387E-2,2.257E1,2E0,2.33E1,1.845E1,2.181E1,2.226E1,1.6575368E-1,9.5E0,-8.7155744E-2,2.2763805E0,2.551E1,2.6504444E1,3.9E1,2.949E1,4.4879147E-1,3.6076298E-1,2.91E1,1.752E1,2.0998064E-1,-1.8668097E-2,-2.1050422E-1,-3.6131937E-2,-1.923869E-1,2.4906456E-1,-1.6184E-1,-1.0326759E-1,2.9484987E-1,5.1525104E-1,-1.8684879E-1,-1.3467498E-1,6.067968E-2,1.466041E-1,-7.2819605E-2,-4.1589946E-2,-1.2929864E-1,-8.326318E-2,-8.298144E-2,-1.2794872E-2,4.3205835E-2,-2.3677375E-2,2.1924584E-1,4.53223E-1,4.6487473E-2,-3.3773344E-2,2.557394E-1,5.08537E-2,4.817887E-2,5.258306E-1,3.312879E-1,1.1480335E-1,1.1740816E-1,6.836315E-2,3.6537257E-1,1.7958808E-1,1.5823063E-1,7.394308E-2,4.911565E-1,3.5558823E-1,2.1742682E-1,3.0183986E-1,2.153523E-1,1.3423647E-1,1.4675872E-1,1.0426482E-1],"split_indices":[0,0,0,19,5,0,29,0,3,0,9,9,0,0,5,5,3,18,16,19,27,0,3,0,19,7,7,2,27,0,27,26,11,7,0,0,2,0,26,3,29,9,3,4,4,12,16,27,7,1,6,11,0,0,0,1,3,0,0,0,0,0,0,0,0,0,0,0,0,0,0,0,0,0,0,0,0,0,0,0,0,0,0,0,0,0,0,0,0,0,0,0,0,0,0,0,0,0,0,0,0,0,0],"split_type":[0,0,0,0,0,0,0,0,0,0,0,0,0,0,0,0,0,0,0,0,0,0,0,0,0,0,0,0,0,0,0,0,0,0,0,0,0,0,0,0,0,0,0,0,0,0,0,0,0,0,0,0,0,0,0,0,0,0,0,0,0,0,0,0,0,0,0,0,0,0,0,0,0,0,0,0,0,0,0,0,0,0,0,0,0,0,0,0,0,0,0,0,0,0,0,0,0,0,0,0,0,0,0],"sum_hessian":[8.558E3,4.808E3,3.75E3,3.373E3,1.435E3,2.753E3,9.97E2,3.131E3,2.42E2,5.32E2,9.03E2,1.35E3,1.403E3,8.61E2,1.36E2,1.567E3,1.564E3,7.9E1,1.63E2,2.48E2,2.84E2,1.5E1,8.88E2,1.7E1,1.333E3,8.56E2,5.47E2,6.58E2,2.03E2,1.2E1,1.24E2,1.7E1,1.55E3,2.7E1,1.537E3,2.1E1,5.8E1,1.48E2,1.5E1,5.8E1,1.9E2,7.5E1,2.09E2,1.7E1,8.71E2,1.298E3,3.5E1,1.38E2,7.18E2,4.55E2,9.2E1,5.4E1,6.04E2,1.08E2,9.5E1,4.6E1,7.8E1,1.2E1,5E0,1.525E3,2.5E1,9E0,1.8E1,1.022E3,5.15E2,5.1E1,7E0,5E1,9.8E1,8E0,7E0,3.1E1,2.7E1,6.9E1,1.21E2,5.5E1,2E1,5E0,2.04E2,5E0,1.2E1,1.32E2,7.39E2,1.5E1,1.283E3,2.5E1,1E1,3.5E1,1.03E2,6.15E2,1.03E2,1.6E1,4.39E2,3.1E1,6.1E1,1.7E1,3.7E1,9.7E1,5.07E2,3E1,1.6E1,2.7E1,5.1E1],"tree_param":{"num_deleted":"0","num_feature":"30","num_nodes":"103","size_leaf_vector":"1"}},{"base_weights":[9.2820957E-4,-2.4079604E0,2.782829E0,-3.2475495E0,-1.0114559E0,1.786081E0,5.707418E0,3.7392085E0,-3.3698862E0,4.9770756E0,-1.0843226E0,9.2509985E-1,2.5723214E0,2.8599906E0,6.093658E0,2.613861E0,2.584395E-1,-3.5523338E0,-5.3084105E-1,1.7372912E-2,6.402115E0,-1.9434365E0,-6.319971E-1,6.090648E0,8.132695E-1,2.2011807E0,3.2825599E0,8.1245303E-1,3.0740266E0,5.3028846E0,6.8551397E0,2.0753132E-1,1.5057008E0,-3.9778728E0,-2.9497383E0,-1.761632E0,7.132437E0,1.9304821E-1,3.9747846E-1,-2.1221483E0,1.4632573E0,-8.391992E-1,2.1168408E0,7.599472E0,8.628371E-2,2.680315E-1,7.6990557E-1,2.1170433E0,6.323236E0,3.562653E0,1.9566294E0,5.0325233E-2,2.8267885E-2,4.2414927E0,2.6482756E0,3.7742493E0,5.5014534E0,1.4568917E-1,7.0504684E0,8.862042E-2,3.9764352E-2,1.5310897E-1,-2.0035596E-1,2.025538E-1,-1.5119506E-1,2.4601598E-1,-1.3297307E-1,2.974639E-1,4.577964E-1,-1.3716677E-1,-1.0080763E-1,2.3085408E-1,-1.23545244E-1,1.22185946E-1,-4.6102934E-2,-3.553198E-2,3.1459552E-1,2.0489295E-1,4.1941538E-1,-1.7813722E-3,4.61636E-2,2.4878278E-1,1.0225482E-1,1.9934538E-1,3.5198703E-1,3.4106335E-1,1.7074339E-1,1.5916309E-1,7.365357E-2,2.58445E-1,1.6114406E-1,1.11810565E-1,1.9275358E-1,1.5104878E-1,2.4518831E-1,2.9296336E-1,2.3150206E-1,4.0958834E-1,3.1874737E-1],"categories":[],"categories_nodes":[],"categories_segments":[],"categories_sizes":[],"default_left":[0,0,0,0,0,0,0,0,0,0,0,0,0,0,0,0,0,0,0,0,0,0,0,0,0,0,0,0,0,0,0,0,0,0,0,0,0,0,0,0,0,0,0,0,0,0,0,0,0,0,0,0,0,0,0,0,0,0,0,0,0,0,0,0,0,0,0,0,0,0,0,0,0,0,0,0,0,0,0,0,0,0,0,0,0,0,0,0,0,0,0,0,0,0,0,0,0,0,0],"id":5,"left_children":[1,3,5,7,9,11,13,15,17,19,21,23,25,27,29,31,-1,33,35,-1,37,39,41,43,45,47,49,51,53,55,57,-1,59,61,63,65,67,-1,-1,69,71,73,75,77,-1,-1,79,81,83,85,87,-1,-1,89,91,93,95,-1,97,-1,-1,-1,-1,-1,-1,-1,-1,-1,-1,-1,-1,-1,-1,-1,-1,-1,-1,-1,-1,-1,-1,-1,-1,-1,-1,-1,-1,-1,-1,-1,-1,-1,-1,-1,-1,-1,-1,-1,-1],"loss_changes":[5.7631086E4,5.4007227E3,1.1623885E4,2.4725332E3,7.6117944E2,2.013542E3,1.0977617E3,6.6928345E1,1.4634707E3,1.3632068E2,6.6405347E2,8.1706445E2,4.029336E2,5.140686E1,5.0077344E2,4.483986E1,0E0,6.6985156E2,1.6348503E3,0E0,3.222406E1,3.6230713E2,6.41398E2,1.8446497E2,2.707577E2,3.4210303E2,1.9060547E2,5.4305077E-2,4.393982E1,1.1340039E2,3.2666406E2,0E0,2.190403E0,3.324375E2,5.8544727E2,9.069741E2,2.9875488E0,0E0,0E0,3.1406738E1,3.8363806E2,2.8651508E2,9.3706036E2,2.6394165E1,0E0,0E0,1.7076764E2,1.9672656E2,5.413025E0,1.8763623E2,5.165988E1,0E0,0E0,9.791931E0,3.3150635E1,3.113086E1,9.416406E1,0E0,2.7852344E2,0E0,0E0,0E0,0E0,0E0,0E0,0E0,0E0,0E0,0E0,0E0,0E0,0E0,0E0,0E0,0E0,0E0,0E0,0E0,0E0,0E0,0E0,0E0,0E0,0E0,0E0,0E0,0E0,0E0,0E0,0E0,0E0,0E0,0E0,0E0,0E0,0E0,0E0,0E0,0E0],"parents":[2147483647,0,0,1,1,2,2,3,3,4,4,5,5,6,6,7,7,8,8,9,9,10,10,11,11,12,12,13,13,14,14,15,15,17,17,18,18,20,20,21,21,22,22,23,23,24,24,25,25,26,26,27,27,28,28,29,29,30,30,32,32,33,33,34,34,35,35,36,36,39,39,40,40,41,41,42,42,43,43,46,46,47,47,48,48,49,49,50,50,53,53,54,54,55,55,56,56,58,58],"right_children":[2,4,6,8,10,12,14,16,18,20,22,24,26,28,30,32,-1,34,36,-1,38,40,42,44,46,48,50,52,54,56,58,-1,60,62,64,66,68,-1,-1,70,72,74,76,78,-1,-1,80,82,84,86,88,-1,-1,90,92,94,96,-1,98,-1,-1,-1,-1,-1,-1,-1,-1,-1,-1,-1,-1,-1,-1,-1,-1,-1,-1,-1,-1,-1,-1,-1,-1,-1,-1,-1,-1,-1,-1,-1,-1,-1,-1,-1,-1,-1,-1,-1,-1],"split_conditions":[2.293E1,1.995E1,2.885E1,1.6666667E-1,3.3333334E-1,2.501E1,2.206E1,6.79236E0,2.685455E-1,2.8E-1,2.109E1,3.3333334E-1,2.702E1,1.689E1,3.121E1,1.662E1,2.584395E-1,1.845E1,7.3166664E1,1.7372912E-2,2.181E1,4.35E1,3.9E1,7.0508146E0,1.99E1,9.1E1,2.539987E0,2.564611E1,-9.238795E-1,-5.5E-1,2.145E1,2.0753132E-1,5E-2,1.98E1,1.86E1,1.762E1,1.787E1,1.9304821E-1,3.9747846E-1,-2.3E-1,2.075E1,2.165E1,3.18E1,2.181E1,8.628371E-2,2.680315E-1,2.382E1,3.3333334E-1,2.506E1,2.551E1,2.786E1,5.0325233E-2,2.8267885E-2,3.976529E0,2.457E1,1E-1,1.4666667E1,1.4568917E-1,-6.087614E-1,8.862042E-2,3.9764352E-2,1.5310897E-1,-2.0035596E-1,2.025538E-1,-1.5119506E-1,2.4601598E-1,-1.3297307E-1,2.974639E-1,4.577964E-1,-1.3716677E-1,-1.0080763E-1,2.3085408E-1,-1.23545244E-1,1.22185946E-1,-4.6102934E-2,-3.553198E-2,3.1459552E-1,2.0489295E-1,4.1941538E-1,-1.7813722E-3,4.61636E-2,2.4878278E-1,1.0225482E-1,1.9934538E-1,3.5198703E-1,3.4106335E-1,1.7074339E-1,1.5916309E-1,7.365357E-2,2.58445E-1,1.6114406E-1,1.11810565E-1,1.9275358E-1,1.5104878E-1,2.4518831E-1,2.9296336E-1,2.3150206E-1,4.0958834E-1,3.1874737E-1],"split_indices":[0,0,0,28,28,0,5,18,19,17,0,28,0,5,0,2,0,1,28,0,4,28,28,18,9,11,7,6,27,8,2,0,8,9,2,0,0,0,0,8,2,3,10,1,0,0,2,28,0,1,1,0,0,7,4,14,28,0,27,0,0,0,0,0,0,0,0,0,0,0,0,0,0,0,0,0,0,0,0,0,0,0,0,0,0,0,0,0,0,0,0,0,0,0,0,0,0,0,0],"split_type":[0,0,0,0,0,0,0,0,0,0,0,0,0,0,0,0,0,0,0,0,0,0,0,0,0,0,0,0,0,0,0,0,0,0,0,0,0,0,0,0,0,0,0,0,0,0,0,0,0,0,0,0,0,0,0,0,0,0,0,0,0,0,0,0,0,0,0,0,0,0,0,0,0,0,0,0,0,0,0,0,0,0,0,0,0,0,0,0,0,0,0,0,0,0,0,0,0,0,0],"sum_hessian":[8.598E3,4.608E3,3.99E3,2.877E3,1.731E3,2.977E3,1.013E3,4.9E1,2.828E3,2E1,1.711E3,1.422E3,1.555E3,1.22E2,8.91E2,2.9E1,2E1,2.657E3,1.71E2,5E0,1.5E1,5.89E2,1.122E3,2.9E1,1.393E3,1.024E3,5.31E2,1.2E1,1.1E2,4.41E2,4.5E2,1.1E1,1.8E1,1.554E3,1.103E3,1.48E2,2.3E1,7E0,8E0,5.6E2,2.9E1,1.044E3,7.8E1,2.1E1,8E0,1.2E1,1.381E3,1.005E3,1.9E1,4.37E2,9.4E1,5E0,7E0,2.7E1,8.3E1,5.3E1,3.88E2,2.2E1,4.28E2,1.2E1,6E0,6E0,1.548E3,1.1E1,1.092E3,1.7E1,1.31E2,1.7E1,6E0,7.8E1,4.82E2,1.6E1,1.3E1,2.5E1,1.019E3,4.7E1,3.1E1,5E0,1.6E1,2.21E2,1.16E3,2.3E1,9.82E2,6E0,1.3E1,1.7E1,4.2E2,2.5E1,6.9E1,1.2E1,1.5E1,6.4E1,1.9E1,3.4E1,1.9E1,2.71E2,1.17E2,1.55E2,2.73E2],"tree_param":{"num_deleted":"0","num_feature":"30","num_nodes":"99","size_leaf_vector":"1"}},{"base_weights":[6.3106106E-3,-2.2547321E0,2.6766138E0,-3.07222E0,-8.743271E-1,1.7156502E0,5.433416E0,3.5714443E0,-3.1874552E0,4.490598E0,-9.688773E-1,2.3498108E0,7.9790115E-1,5.8733497E0,2.5070326E0,2.3233335E-1,1.9917669E0,-3.3605118E0,-4.8415217E-1,6.3653374E0,5.22933E-3,-1.8196337E0,-5.859722E-1,3.8353387E-1,2.2507014E0,3.5762393E-1,1.4017997E0,5.4209685E0,7.343626E0,3.7902687E0,2.2211268E0,1.0731754E0,1.9034332E-1,-3.7912853E0,-2.7817228E0,-1.750183E0,7.0807576E0,1.975334E-1,3.9235586E-1,-1.9789699E0,1.1925291E0,-7.830019E-1,1.7566761E0,1.8333752E0,3.0489688E0,-2.3954651E-1,5.271015E-1,1.2625637E0,2.8554616E0,5.236241E0,7.7287364E0,6.681912E0,4.185086E-1,2.4235868E-1,1.3823014E-1,7.476971E-1,2.3582501E0,6.541833E-2,2.3156453E-2,1.4263932E-1,-1.9074236E-1,1.3063315E-1,-1.4228772E-1,-1.3705467E-1,2.2100894E-1,2.816392E-1,4.7268018E-1,-1.296947E-1,-9.461069E-2,-1.0526728E-1,2.2026117E-1,1.2302381E-1,-4.295597E-2,1.9262934E-2,3.8518566E-1,2.5045642E-1,8.627097E-2,1.4174654E-1,1.9476366E-1,-4.9347363E-2,1.2400326E-3,1.5493558E-1,1.7081663E-2,-1.3893842E-2,6.740962E-2,2.8145805E-2,2.241789E-1,2.0397027E-1,2.7705815E-1,4.5317608E-1,3.1774423E-1,3.4484294E-1,2.430048E-1,2.2684766E-2,4.585414E-2,1.5684645E-1,1.0770231E-1],"categories":[],"categories_nodes":[],"categories_segments":[],"categories_sizes":[],"default_left":[0,0,0,0,0,0,0,0,0,0,0,0,0,0,0,0,0,0,0,0,0,0,0,0,0,0,0,0,0,0,0,0,0,0,0,0,0,0,0,0,0,0,0,0,0,0,0,0,0,0,0,0,0,0,0,0,0,0,0,0,0,0,0,0,0,0,0,0,0,0,0,0,0,0,0,0,0,0,0,0,0,0,0,0,0,0,0,0,0,0,0,0,0,0,0,0,0],"id":6,"left_children":[1,3,5,7,9,11,13,15,17,19,21,23,25,27,29,-1,31,33,35,37,-1,39,41,-1,43,45,47,49,51,53,55,57,-1,59,61,63,65,-1,-1,67,69,71,73,75,77,79,81,83,85,87,89,91,-1,-1,-1,93,95,-1,-1,-1,-1,-1,-1,-1,-1,-1,-1,-1,-1,-1,-1,-1,-1,-1,-1,-1,-1,-1,-1,-1,-1,-1,-1,-1,-1,-1,-1,-1,-1,-1,-1,-1,-1,-1,-1,-1,-1],"loss_changes":[5.157981E4,5.21759E3,1.0367543E4,2.2353984E3,8.7784326E2,1.689418E3,1.2881406E3,7.5670166E1,1.3344805E3,2.4601312E2,5.504437E2,8.8871875E2,3.1563324E2,5.44834E2,4.0743896E1,0E0,3.2595924E1,6.5864844E2,1.6692844E3,4.413684E1,0E0,2.5433191E2,5.409523E2,0E0,5.567461E2,6.9857895E1,9.779816E1,2.4771484E2,8.264551E1,1.1532196E1,2.0865417E1,1.6896973E0,0E0,2.5133789E2,4.0431152E2,9.2314307E2,3.2645508E1,0E0,0E0,2.1712646E1,2.953412E2,2.6850317E2,7.392163E2,3.7225342E2,9.365674E1,3.0253185E1,2.5506458E2,6.0919373E1,1.5797491E2,1.9927344E2,3.042456E1,1.6996582E1,0E0,0E0,0E0,1.3172054E-1,9.461853E0,0E0,0E0,0E0,0E0,0E0,0E0,0E0,0E0,0E0,0E0,0E0,0E0,0E0,0E0,0E0,0E0,0E0,0E0,0E0,0E0,0E0,0E0,0E0,0E0,0E0,0E0,0E0,0E0,0E0,0E0,0E0,0E0,0E0,0E0,0E0,0E0,0E0,0E0,0E0,0E0],"parents":[2147483647,0,0,1,1,2,2,3,3,4,4,5,5,6,6,7,7,8,8,9,9,10,10,11,11,12,12,13,13,14,14,16,16,17,17,18,18,19,19,21,21,22,22,24,24,25,25,26,26,27,27,28,28,29,29,30,30,31,31,33,33,34,34,35,35,36,36,39,39,40,40,41,41,42,42,43,43,44,44,45,45,46,46,47,47,48,48,49,49,50,50,51,51,55,55,56,56],"right_children":[2,4,6,8,10,12,14,16,18,20,22,24,26,28,30,-1,32,34,36,38,-1,40,42,-1,44,46,48,50,52,54,56,58,-1,60,62,64,66,-1,-1,68,70,72,74,76,78,80,82,84,86,88,90,92,-1,-1,-1,94,96,-1,-1,-1,-1,-1,-1,-1,-1,-1,-1,-1,-1,-1,-1,-1,-1,-1,-1,-1,-1,-1,-1,-1,-1,-1,-1,-1,-1,-1,-1,-1,-1,-1,-1,-1,-1,-1,-1,-1,-1],"split_conditions":[2.303E1,2.004E1,2.885E1,1.6666667E-1,8.333333E-1,1E0,1E0,2E0,2.685455E-1,-7.372773E-1,2.109E1,3.3333334E-1,2.457E1,3.25E1,-9.76296E-1,2.3233335E-1,6.79236E0,1.845E1,7.3166664E1,2.181E1,5.22933E-3,4.35E1,3.9E1,3.8353387E-1,2.637E1,2.408E1,2.66E0,1.92E0,-5E-1,3.093E1,1.685E1,4E-2,1.9034332E-1,1.98E1,1.86E1,3.2E0,1.787E1,1.975334E-1,3.9235586E-1,-2.9E-1,1.758E1,2.165E1,2E-1,2.3837223E1,2.828E1,1.803E1,2.26E1,1.685E1,6.79236E0,2.988E1,1.41772785E1,1.41772785E1,4.185086E-1,2.4235868E-1,1.3823014E-1,2.468E1,1.748E1,6.541833E-2,2.3156453E-2,1.4263932E-1,-1.9074236E-1,1.3063315E-1,-1.4228772E-1,-1.3705467E-1,2.2100894E-1,2.816392E-1,4.7268018E-1,-1.296947E-1,-9.461069E-2,-1.0526728E-1,2.2026117E-1,1.2302381E-1,-4.295597E-2,1.9262934E-2,3.8518566E-1,2.5045642E-1,8.627097E-2,1.4174654E-1,1.9476366E-1,-4.9347363E-2,1.2400326E-3,1.5493558E-1,1.7081663E-2,-1.3893842E-2,6.740962E-2,2.8145805E-2,2.241789E-1,2.0397027E-1,2.7705815E-1,4.5317608E-1,3.1774423E-1,3.4484294E-1,2.430048E-1,2.2684766E-2,4.585414E-2,1.5684645E-1,1.0770231E-1],"split_indices":[0,0,0,28,28,29,29,29,19,27,0,28,0,0,27,0,18,1,28,4,0,28,28,0,0,3,8,8,26,0,5,8,0,9,2,16,0,0,0,8,4,3,13,6,0,5,9,5,18,0,21,21,0,0,0,2,2,0,0,0,0,0,0,0,0,0,0,0,0,0,0,0,0,0,0,0,0,0,0,0,0,0,0,0,0,0,0,0,0,0,0,0,0,0,0,0,0],"split_type":[0,0,0,0,0,0,0,0,0,0,0,0,0,0,0,0,0,0,0,0,0,0,0,0,0,0,0,0,0,0,0,0,0,0,0,0,0,0,0,0,0,0,0,0,0,0,0,0,0,0,0,0,0,0,0,0,0,0,0,0,0,0,0,0,0,0,0,0,0,0,0,0,0,0,0,0,0,0,0,0,0,0,0,0,0,0,0,0,0,0,0,0,0,0,0,0,0],"sum_hessian":[8.541E3,4.625E3,3.916E3,2.904E3,1.721E3,2.905E3,1.011E3,4.9E1,2.855E3,2.9E1,1.692E3,1.717E3,1.188E3,8.78E2,1.33E2,2.8E1,2.1E1,2.683E3,1.72E2,2E1,9E0,5.24E2,1.168E3,3E1,1.687E3,6.88E2,5E2,6.75E2,2.03E2,2.2E1,1.11E2,1.5E1,6E0,1.535E3,1.148E3,1.48E2,2.4E1,9E0,1.1E1,4.98E2,2.6E1,1.078E3,9E1,1.11E3,5.77E2,1.52E2,5.36E2,4.58E2,4.2E1,6.28E2,4.7E1,1.28E2,7.5E1,9E0,1.3E1,1E1,1.01E2,1E1,5E0,5E0,1.53E3,1.3E1,1.135E3,1.28E2,2E1,1.7E1,7E0,5.8E1,4.4E2,1.3E1,1.3E1,2.4E1,1.054E3,7.4E1,1.6E1,3.5E1,1.075E3,4.64E2,1.13E2,3.9E1,1.13E2,3.5E1,5.01E2,2.4E1,4.34E2,1.8E1,2.4E1,1.34E2,4.94E2,2.1E1,2.6E1,1.12E2,1.6E1,5E0,5E0,1.8E1,8.3E1],"tree_param":{"num_deleted":"0","num_feature":"30","num_nodes":"97","size_leaf_vector":"1"}},{"base_weights":[-6.9044456E-3,-2.066652E0,2.6358545E0,-2.7948675E0,-4.6832642E-1,1.7168428E0,5.12576E0,3.2868361E0,-2.8873446E0,5.373677E0,-5.584326E-1,1.0118755E0,2.421072E0,2.4701388E0,5.4908175E0,2.1739953E0,2.3600462E-1,-3.0348675E0,-7.9568034E-1,1.6431158E-2,6.756824E0,-7.6502687E-1,1.8431438E0,4.965374E0,9.348132E-1,1.370846E0,2.596135E0,1.1467832E0,2.641731E0,4.839073E0,6.542071E0,1.8824868E-1,1.1902574E0,-3.5980432E0,-2.4477806E0,-1.7415432E0,6.8437862E0,1.7648043E-1,3.8632762E-1,-1.2366415E0,-4.1154316E-1,2.9627278E-1,7.305292E0,9.532964E-2,6.21891E0,8.8332903E-1,4.486797E0,1.7517573E-1,1.5917479E0,2.5174246E0,5.6170273E0,7.337581E-2,2.6238346E-2,2.3537245E0,4.0618997E0,2.4628713E0,4.9902854E0,7.4429893E0,5.7884545E0,9.137154E-3,7.5695634E-2,-1.8189472E-1,-3.9618474E-2,-1.2701397E-1,-9.8133115E-3,-1.2502387E-1,1.988343E-1,2.7200624E-1,4.7377592E-1,5.104015E-3,-7.0048586E-2,-3.0424735E-2,-4.844123E-3,3.3896443E-1,-6.7502074E-2,2.0551573E-1,4.2484656E-1,3.6212564E-1,2.195292E-1,2.5455627E-1,4.2217404E-2,2.6424026E-2,3.1365296E-1,4.5374904E-2,-3.0693263E-2,1.9856374E-1,7.155353E-2,1.1132455E-1,1.556004E-1,3.8060752E-1,2.1693073E-1,9.132488E-2,1.3503377E-1,2.3198652E-1,1.11462735E-1,6.479626E-2,1.6366424E-1,2.674408E-1,2.0332412E-1,4.0222E-1,3.144914E-1,3.0372116E-1,1.8404827E-1],"categories":[],"categories_nodes":[],"categories_segments":[],"categories_sizes":[],"default_left":[0,0,0,0,0,0,0,0,0,0,0,0,0,0,0,0,0,0,0,0,0,0,0,0,0,0,0,0,0,0,0,0,0,0,0,0,0,0,0,0,0,0,0,0,0,0,0,0,0,0,0,0,0,0,0,0,0,0,0,0,0,0,0,0,0,0,0,0,0,0,0,0,0,0,0,0,0,0,0,0,0,0,0,0,0,0,0,0,0,0,0,0,0,0,0,0,0,0,0,0,0,0,0],"id":7,"left_children":[1,3,5,7,9,11,13,15,17,19,21,23,25,27,29,31,-1,33,35,-1,37,39,41,43,45,47,49,51,53,55,57,-1,59,61,63,65,67,-1,-1,69,71,73,75,-1,77,79,81,83,85,87,89,-1,-1,91,93,95,97,99,101,-1,-1,-1,-1,-1,-1,-1,-1,-1,-1,-1,-1,-1,-1,-1,-1,-1,-1,-1,-1,-1,-1,-1,-1,-1,-1,-1,-1,-1,-1,-1,-1,-1,-1,-1,-1,-1,-1,-1,-1,-1,-1,-1,-1],"loss_changes":[4.662831E4,5.60183E3,8.576725E3,1.8694043E3,7.968128E2,1.3588394E3,9.665547E2,6.9487854E1,1.0029043E3,1.5827472E2,7.386919E2,4.1335938E2,2.4850732E2,2.5128174E1,5.767539E2,4.2471893E1,0E0,9.9730664E2,1.5727104E3,0E0,2.9059753E1,2.2771448E2,9.9484576E2,8.783472E1,2.4236377E2,5.2018036E1,2.650078E2,2.421915E0,3.50224E1,1.8604883E2,1.857207E2,0E0,6.2450905E0,1.7053516E2,3.1043652E2,8.4751715E2,3.7109375E1,0E0,0E0,1.290586E2,4.8527817E1,1.0017489E3,6.406372E1,0E0,1.8877563E0,2.1368909E2,1.310261E2,1.9047716E1,5.816696E1,1.9131152E2,4.094098E1,0E0,0E0,1.20789795E1,7.659149E0,2.8857895E1,1.4981738E2,5.343164E1,9.094336E1,0E0,0E0,0E0,0E0,0E0,0E0,0E0,0E0,0E0,0E0,0E0,0E0,0E0,0E0,0E0,0E0,0E0,0E0,0E0,0E0,0E0,0E0,0E0,0E0,0E0,0E0,0E0,0E0,0E0,0E0,0E0,0E0,0E0,0E0,0E0,0E0,0E0,0E0,0E0,0E0,0E0,0E0,0E0,0E0],"parents":[2147483647,0,0,1,1,2,2,3,3,4,4,5,5,6,6,7,7,8,8,9,9,10,10,11,11,12,12,13,13,14,14,15,15,17,17,18,18,20,20,21,21,22,22,23,23,24,24,25,25,26,26,27,27,28,28,29,29,30,30,32,32,33,33,34,34,35,35,36,36,39,39,40,40,41,41,42,42,44,44,45,45,46,46,47,47,48,48,49,49,50,50,53,53,54,54,55,55,56,56,57,57,58,58],"right_children":[2,4,6,8,10,12,14,16,18,20,22,24,26,28,30,32,-1,34,36,-1,38,40,42,44,46,48,50,52,54,56,58,-1,60,62,64,66,68,-1,-1,70,72,74,76,-1,78,80,82,84,86,88,90,-1,-1,92,94,96,98,100,102,-1,-1,-1,-1,-1,-1,-1,-1,-1,-1,-1,-1,-1,-1,-1,-1,-1,-1,-1,-1,-1,-1,-1,-1,-1,-1,-1,-1,-1,-1,-1,-1,-1,-1,-1,-1,-1,-1,-1,-1,-1,-1,-1,-1],"split_conditions":[2.345E1,2.08E1,2.885E1,1.6666667E-1,3.3333334E-1,2.535E1,2.165E1,6.79236E0,2.685455E-1,2.8E-1,3.9E1,3.3333334E-1,2.115E1,6.79236E0,3.161E1,1.662E1,2.3600462E-1,1.835E1,7.3166664E1,1.6431158E-2,2.181E1,2.21E1,6.9327803E0,1.945E1,9.15E1,2.22E1,6E-1,1.767E1,2.46E1,2.21E1,-5.7357645E-1,1.8824868E-1,2.06E1,9.25E1,3.8567654E1,3.2E0,1.787E1,1.7648043E-1,3.8632762E-1,2.196E1,2.393E1,2.1509445E1,3.47E1,9.532964E-2,4.05E1,1.99E1,2.414E1,1.662E1,1.748E1,2.731E1,3.790392E1,7.337581E-2,2.6238346E-2,6E-1,2.6070555E1,2.065E1,1.4666667E1,3.737076E1,3.790392E1,9.137154E-3,7.5695634E-2,-1.8189472E-1,-3.9618474E-2,-1.2701397E-1,-9.8133115E-3,-1.2502387E-1,1.988343E-1,2.7200624E-1,4.7377592E-1,5.104015E-3,-7.0048586E-2,-3.0424735E-2,-4.844123E-3,3.3896443E-1,-6.7502074E-2,2.0551573E-1,4.2484656E-1,3.6212564E-1,2.195292E-1,2.5455627E-1,4.2217404E-2,2.6424026E-2,3.1365296E-1,4.5374904E-2,-3.0693263E-2,1.9856374E-1,7.155353E-2,1.1132455E-1,1.556004E-1,3.8060752E-1,2.1693073E-1,9.132488E-2,1.3503377E-1,2.3198652E-1,1.11462735E-1,6.479626E-2,1.6366424E-1,2.674408E-1,2.0332412E-1,4.0222E-1,3.144914E-1,3.0372116E-1,1.8404827E-1],"split_indices":[0,0,0,28,28,0,3,18,19,17,28,28,5,18,0,2,0,0,28,0,4,0,18,5,11,9,8,2,9,5,27,0,9,11,20,16,0,0,0,4,5,6,10,0,11,9,2,3,2,0,20,0,0,8,6,5,28,20,20,0,0,0,0,0,0,0,0,0,0,0,0,0,0,0,0,0,0,0,0,0,0,0,0,0,0,0,0,0,0,0,0,0,0,0,0,0,0,0,0,0,0,0,0],"split_type":[0,0,0,0,0,0,0,0,0,0,0,0,0,0,0,0,0,0,0,0,0,0,0,0,0,0,0,0,0,0,0,0,0,0,0,0,0,0,0,0,0,0,0,0,0,0,0,0,0,0,0,0,0,0,0,0,0,0,0,0,0,0,0,0,0,0,0,0,0,0,0,0,0,0,0,0,0,0,0,0,0,0,0,0,0,0,0,0,0,0,0,0,0,0,0,0,0,0,0,0,0,0,0],"sum_hessian":[8.564E3,4.813E3,3.751E3,3.306E3,1.507E3,2.741E3,1.01E3,4.9E1,3.257E3,2.2E1,1.485E3,1.371E3,1.37E3,1.23E2,8.87E2,2.9E1,2E1,3.042E3,2.15E2,5E0,1.7E1,1.368E3,1.17E2,2.5E1,1.346E3,1.97E2,1.173E3,1.5E1,1.08E2,5.51E2,3.36E2,1E1,1.9E1,1.55E3,1.492E3,1.92E2,2.3E1,5E0,1.2E1,5.85E2,7.83E2,9.2E1,2.5E1,8E0,1.7E1,1.328E3,1.8E1,3.1E1,1.66E2,1.145E3,2.8E1,9E0,6E0,9.2E1,1.6E1,3.4E1,5.17E2,1.49E2,1.87E2,5E0,1.4E1,1.528E3,2.2E1,1.433E3,5.9E1,1.7E2,2.2E1,1.7E1,6E0,6.4E1,5.21E2,4.81E2,3.02E2,1.8E1,7.4E1,8E0,1.7E1,9E0,8E0,1.1E1,1.317E3,6E0,1.2E1,1.6E1,1.5E1,9E0,1.57E2,7.72E2,3.73E2,9E0,1.9E1,3.9E1,5.3E1,1.1E1,5E0,1.5E1,1.9E1,3.69E2,1.48E2,9.4E1,5.5E1,1.63E2,2.4E1],"tree_param":{"num_deleted":"0","num_feature":"30","num_nodes":"103","size_leaf_vector":"1"}},{"base_weights":[1.2798164E-2,-2.0244238E0,2.440355E0,-2.7923427E0,-8.192311E-1,1.5741776E0,4.933016E0,-2.998284E0,-8.43131E-3,-1.6054131E0,-4.354038E-1,8.8495827E-1,2.2986412E0,5.332811E0,2.2706811E0,-3.0473394E0,3.0291166E0,3.043339E0,-2.191953E0,-1.8075227E0,-5.929779E-1,3.4469156E0,-5.7931143E-1,7.8718364E-1,4.0223265E0,1.9685098E0,2.8278449E0,4.825254E0,6.585511E0,6.723681E-1,2.4223812E0,-3.397104E0,-2.5562382E0,1.999124E-1,1.6965084E0,-1.8981063E-1,5.5722957E0,-2.817886E0,1.8962476E0,4.807749E-2,-1.837557E0,2.2202805E-1,-1.5225551E0,7.4725156E0,-1.3179089E0,-1.8501631E0,-3.9877722E-1,2.5084257E-1,7.42547E-1,7.674077E0,1.9569239E-1,2.9172819E0,1.7848219E0,1.3087426E0,3.0134594E0,5.257469E0,4.1057973E0,3.7693307E-1,5.8712335E0,4.12529E-2,2.1181284E-2,3.0935142E0,1.9899851E0,1.5174563E-1,-1.7163363E-1,-7.2194204E-2,-1.3421257E-1,3.424457E-2,1.21268705E-1,2.5083926E-1,4.3127272E-1,-1.5884098E-1,-1.17769E-1,5.093977E-2,1.4394292E-1,-1.19882725E-1,-8.6406074E-2,-9.37599E-2,-6.820237E-2,2.0988643E-1,4.165452E-1,-8.0128565E-2,-1.6957887E-2,-1.03253186E-1,-6.220994E-2,1.65936E-2,-3.1734154E-2,2.1902278E-1,3.492823E-2,5.862834E-2,4.7074547E-1,6.675258E-2,-7.0948996E-2,2.7670673E-1,8.945155E-2,8.734438E-2,3.0639943E-1,2.351137E-2,1.079767E-1,2.8414017E-1,1.4309178E-1,2.9915103E-1,2.0283507E-1,2.3800485E-1,1.515972E-1,2.982242E-1,1.5704152E-1,1.754884E-1,1.04683876E-1,1.210195E-1,8.5457936E-2],"categories":[],"categories_nodes":[],"categories_segments":[],"categories_sizes":[],"default_left":[0,0,0,0,0,0,0,0,0,0,0,0,0,0,0,0,0,0,0,0,0,0,0,0,0,0,0,0,0,0,0,0,0,0,0,0,0,0,0,0,0,0,0,0,0,0,0,0,0,0,0,0,0,0,0,0,0,0,0,0,0,0,0,0,0,0,0,0,0,0,0,0,0,0,0,0,0,0,0,0,0,0,0,0,0,0,0,0,0,0,0,0,0,0,0,0,0,0,0,0,0,0,0,0,0,0,0,0,0,0,0],"id":8,"left_children":[1,3,5,7,9,11,13,15,17,19,21,23,25,27,29,31,33,35,37,39,41,43,45,47,49,51,53,55,57,59,61,63,65,-1,67,-1,69,71,73,-1,75,-1,77,79,81,83,85,-1,87,89,91,93,95,97,99,101,103,-1,105,-1,-1,107,109,-1,-1,-1,-1,-1,-1,-1,-1,-1,-1,-1,-1,-1,-1,-1,-1,-1,-1,-1,-1,-1,-1,-1,-1,-1,-1,-1,-1,-1,-1,-1,-1,-1,-1,-1,-1,-1,-1,-1,-1,-1,-1,-1,-1,-1,-1,-1,-1],"loss_changes":[4.2595348E4,4.331783E3,8.477443E3,1.6396758E3,5.497079E2,1.4549644E3,1.0661172E3,7.9661914E2,1.326065E3,1.212926E2,6.875162E2,4.560459E2,2.4286621E2,5.277422E2,3.086145E1,4.4513086E2,2.1629333E1,1.4567986E3,3.0218054E2,4.3184082E1,4.793463E2,8.538243E2,2.7090994E2,2.7059882E2,6.273243E2,1.4798364E2,1.4944629E2,1.7431836E2,1.2662305E2,1.4422941E-1,2.9247742E1,3.6273633E2,1.5318652E2,0E0,6.449545E0,0E0,6.0187866E1,9.284241E0,1.0862129E1,0E0,2.607483E1,0E0,2.2492523E0,3.249402E1,5.3073616E0,1.6573303E1,1.7912491E2,0E0,2.2718579E2,2.4927527E2,4.420732E1,4.0639697E2,1.1104907E2,4.2502014E1,1.7962988E2,3.155039E2,1.5489966E2,0E0,1.8949219E1,0E0,0E0,1.1796234E1,5.1700745E0,0E0,0E0,0E0,0E0,0E0,0E0,0E0,0E0,0E0,0E0,0E0,0E0,0E0,0E0,0E0,0E0,0E0,0E0,0E0,0E0,0E0,0E0,0E0,0E0,0E0,0E0,0E0,0E0,0E0,0E0,0E0,0E0,0E0,0E0,0E0,0E0,0E0,0E0,0E0,0E0,0E0,0E0,0E0,0E0,0E0,0E0,0E0,0E0],"parents":[2147483647,0,0,1,1,2,2,3,3,4,4,5,5,6,6,7,7,8,8,9,9,10,10,11,11,12,12,13,13,14,14,15,15,16,16,17,17,18,18,19,19,20,20,21,21,22,22,23,23,24,24,25,25,26,26,27,27,28,28,29,29,30,30,31,31,32,32,34,34,36,36,37,37,38,38,40,40,42,42,43,43,44,44,45,45,46,46,48,48,49,49,50,50,51,51,52,52,53,53,54,54,55,55,56,56,58,58,61,61,62,62],"right_children":[2,4,6,8,10,12,14,16,18,20,22,24,26,28,30,32,34,36,38,40,42,44,46,48,50,52,54,56,58,60,62,64,66,-1,68,-1,70,72,74,-1,76,-1,78,80,82,84,86,-1,88,90,92,94,96,98,100,102,104,-1,106,-1,-1,108,110,-1,-1,-1,-1,-1,-1,-1,-1,-1,-1,-1,-1,-1,-1,-1,-1,-1,-1,-1,-1,-1,-1,-1,-1,-1,-1,-1,-1,-1,-1,-1,-1,-1,-1,-1,-1,-1,-1,-1,-1,-1,-1,-1,-1,-1,-1,-1,-1],"split_conditions":[2.303E1,1.995E1,2.885E1,2.685455E-1,2.109E1,2.524E1,1E0,1.3E-1,1.864E1,3.8567654E1,2.149E1,2.7385747E-1,2.702E1,1.9481926E0,1.689E1,1.8423334E1,1.685E1,6.777765E0,3.2E0,2.001E1,2.262E1,-3.8268343E-1,-3.4E-1,1.99E1,5.500646E-1,1.3420992E-1,2.055E1,7.0740952E0,4.1E1,2.17E1,-9.238795E-1,1.98E1,1.895E1,1.999124E-1,2.19E1,-1.8981063E-1,1.854E1,1.9E1,1.96E1,4.807749E-2,-2.9E-1,2.2202805E-1,2.303E1,2.181E1,3.41544E-1,2.241E1,1E0,2.5084257E-1,1.6575368E-1,3.580857E1,2.719E1,2.755E1,8.95E1,6.9327803E0,2.69E1,3.737076E1,2.64E1,3.7693307E-1,3.086E1,4.12529E-2,2.1181284E-2,2.91E1,1.752E1,1.5174563E-1,-1.7163363E-1,-7.2194204E-2,-1.3421257E-1,3.424457E-2,1.21268705E-1,2.5083926E-1,4.3127272E-1,-1.5884098E-1,-1.17769E-1,5.093977E-2,1.4394292E-1,-1.19882725E-1,-8.6406074E-2,-9.37599E-2,-6.820237E-2,2.0988643E-1,4.165452E-1,-8.0128565E-2,-1.6957887E-2,-1.03253186E-1,-6.220994E-2,1.65936E-2,-3.1734154E-2,2.1902278E-1,3.492823E-2,5.862834E-2,4.7074547E-1,6.675258E-2,-7.0948996E-2,2.7670673E-1,8.945155E-2,8.734438E-2,3.0639943E-1,2.351137E-2,1.079767E-1,2.8414017E-1,1.4309178E-1,2.9915103E-1,2.0283507E-1,2.3800485E-1,1.515972E-1,2.982242E-1,1.5704152E-1,1.754884E-1,1.04683876E-1,1.210195E-1,8.5457936E-2],"split_indices":[0,0,0,19,0,0,29,8,3,20,2,19,0,7,5,6,2,18,16,2,5,27,8,9,7,7,5,18,11,9,27,9,4,0,9,0,2,0,5,0,8,0,5,4,7,0,29,0,12,20,2,5,11,18,1,20,10,0,5,0,0,1,3,0,0,0,0,0,0,0,0,0,0,0,0,0,0,0,0,0,0,0,0,0,0,0,0,0,0,0,0,0,0,0,0,0,0,0,0,0,0,0,0,0,0,0,0,0,0,0,0],"split_type":[0,0,0,0,0,0,0,0,0,0,0,0,0,0,0,0,0,0,0,0,0,0,0,0,0,0,0,0,0,0,0,0,0,0,0,0,0,0,0,0,0,0,0,0,0,0,0,0,0,0,0,0,0,0,0,0,0,0,0,0,0,0,0,0,0,0,0,0,0,0,0,0,0,0,0,0,0,0,0,0,0,0,0,0,0,0,0,0,0,0,0,0,0,0,0,0,0,0,0,0,0,0,0,0,0,0,0,0,0,0,0],"sum_hessian":[8.611E3,4.682E3,3.929E3,2.859E3,1.823E3,2.917E3,1.012E3,2.662E3,1.97E2,5.97E2,1.226E3,1.496E3,1.421E3,8.79E2,1.33E2,2.641E3,2.1E1,8.2E1,1.15E2,4.97E2,1E2,4.3E1,1.183E3,1.452E3,4.4E1,8.78E2,5.43E2,6.29E2,2.5E2,1.2E1,1.21E2,1.539E3,1.102E3,1.1E1,1E1,2.2E1,6E1,1E2,1.5E1,5E0,4.92E2,1.5E1,8.5E1,2.3E1,2E1,1.46E2,1.037E3,1.4E1,1.438E3,2.2E1,2.2E1,1.4E2,7.38E2,6E1,4.83E2,3.89E2,2.4E2,1.03E2,1.47E2,6E0,6E0,4.5E1,7.6E1,8E0,1.531E3,1.15E2,9.87E2,5E0,5E0,5.3E1,7E0,5.3E1,4.7E1,9E0,6E0,7.7E1,4.15E2,2.3E1,6.2E1,6E0,1.7E1,1.5E1,5E0,1.06E2,4E1,2.53E2,7.84E2,1.6E1,1.422E3,5E0,1.7E1,1.3E1,9E0,4.1E1,9.9E1,7.33E2,5E0,3.1E1,2.9E1,2.4E1,4.59E2,2.4E2,1.49E2,1.47E2,9.3E1,1.41E2,6E0,3E1,1.5E1,2.7E1,4.9E1],"tree_param":{"num_deleted":"0","num_feature":"30","num_nodes":"111","size_leaf_vector":"1"}},{"base_weights":[3.2004456E-3,-1.9226017E0,2.3270504E0,-2.6172779E0,-6.644561E-1,1.5053716E0,4.6274037E0,3.0131397E0,-2.7150092E0,4.4674077E0,-7.4521285E-1,2.0472252E0,7.064864E-1,5.0334506E0,2.1368074E0,1.9985437E0,2.1529184E-1,-2.8599586E0,-5.43303E-1,5.9427047E0,-1.9296387E-2,-8.911976E-1,1.1854417E0,3.4851706E-1,1.9519496E0,3.105688E-1,1.2295225E0,4.282253E0,5.7614164E0,3.3495434E-2,2.2641222E0,1.553716E-1,1.0250448E0,-3.2681534E0,-2.3358505E0,-1.5424381E0,6.3067584E0,2.1996692E-1,3.8539186E-1,-1.6168822E0,-5.812917E-1,1.9646569E-1,6.933216E0,1.58563E0,2.6335745E0,2.066968E0,2.3827803E-1,1.0996034E0,2.616985E0,4.629479E0,3.1292856E0,5.177642E0,6.570139E0,2.9132104E0,1.8508065E0,8.0547504E-2,1.9761277E-2,-1.661409E-1,-3.173415E-2,-1.188876E-1,2.1599661E-1,2.2454472E-1,-1.1125171E-1,2.4712184E-1,4.457024E-1,-1.1536437E-1,-7.602991E-2,4.174647E-1,-3.281078E-2,-4.935169E-2,3.7685183E-1,1.6115847E-1,4.1052356E-1,2.9902703E-1,7.5943336E-2,1.2146064E-1,1.7185636E-1,-6.958455E-3,2.5439942E-1,-1.324494E-3,2.9297119E-2,-1.648029E-2,5.8969874E-2,2.1622038E-2,2.042589E-1,2.2543478E-1,4.8052216E-1,1.319845E-1,1.9387971E-1,1.7530403E-1,2.6657358E-1,3.3823943E-1,1.8755715E-1,1.6673027E-1,1.025083E-1,1.1503898E-1,8.04713E-2],"categories":[],"categories_nodes":[],"categories_segments":[],"categories_sizes":[],"default_left":[0,0,0,0,0,0,0,0,0,0,0,0,0,0,0,0,0,0,0,0,0,0,0,0,0,0,0,0,0,0,0,0,0,0,0,0,0,0,0,0,0,0,0,0,0,0,0,0,0,0,0,0,0,0,0,0,0,0,0,0,0,0,0,0,0,0,0,0,0,0,0,0,0,0,0,0,0,0,0,0,0,0,0,0,0,0,0,0,0,0,0,0,0,0,0,0,0],"id":9,"left_children":[1,3,5,7,9,11,13,15,17,19,21,23,25,27,29,31,-1,33,35,37,-1,39,41,-1,43,45,47,49,51,-1,53,-1,55,57,59,61,63,-1,-1,65,67,69,71,73,75,77,79,81,83,85,87,89,91,93,95,-1,-1,-1,-1,-1,-1,-1,-1,-1,-1,-1,-1,-1,-1,-1,-1,-1,-1,-1,-1,-1,-1,-1,-1,-1,-1,-1,-1,-1,-1,-1,-1,-1,-1,-1,-1,-1,-1,-1,-1,-1,-1],"loss_changes":[3.8366535E4,4.0955918E3,7.3362715E3,1.6699941E3,6.950167E2,1.2383184E3,1.02279297E3,5.9595978E1,9.330508E2,1.8845642E2,4.6441156E2,7.866006E2,2.3962292E2,4.5545898E2,2.5563171E1,3.0279297E1,0E0,5.8775586E2,1.2895814E3,2.05755E1,0E0,3.429231E2,6.5802954E2,0E0,4.140586E2,8.3435646E1,8.7071045E1,1.6006152E2,1.7512793E2,0E0,3.0289185E1,0E0,6.0055714E0,2.2275195E2,3.5107227E2,6.853983E2,4.1315247E1,0E0,0E0,2.6870728E1,7.234388E2,8.7619543E2,5.4093872E1,3.1133008E2,8.755249E1,1.739925E2,5.8559563E1,5.262018E1,1.3294138E2,1.570083E2,2.786676E1,4.867627E1,7.449121E1,1.1347656E1,5.4207153E0,0E0,0E0,0E0,0E0,0E0,0E0,0E0,0E0,0E0,0E0,0E0,0E0,0E0,0E0,0E0,0E0,0E0,0E0,0E0,0E0,0E0,0E0,0E0,0E0,0E0,0E0,0E0,0E0,0E0,0E0,0E0,0E0,0E0,0E0,0E0,0E0,0E0,0E0,0E0,0E0,0E0,0E0],"parents":[2147483647,0,0,1,1,2,2,3,3,4,4,5,5,6,6,7,7,8,8,9,9,10,10,11,11,12,12,13,13,14,14,15,15,17,17,18,18,19,19,21,21,22,22,24,24,25,25,26,26,27,27,28,28,30,30,32,32,33,33,34,34,35,35,36,36,39,39,40,40,41,41,42,42,43,43,44,44,45,45,46,46,47,47,48,48,49,49,50,50,51,51,52,52,53,53,54,54],"right_children":[2,4,6,8,10,12,14,16,18,20,22,24,26,28,30,32,-1,34,36,38,-1,40,42,-1,44,46,48,50,52,-1,54,-1,56,58,60,62,64,-1,-1,66,68,70,72,74,76,78,80,82,84,86,88,90,92,94,96,-1,-1,-1,-1,-1,-1,-1,-1,-1,-1,-1,-1,-1,-1,-1,-1,-1,-1,-1,-1,-1,-1,-1,-1,-1,-1,-1,-1,-1,-1,-1,-1,-1,-1,-1,-1,-1,-1,-1,-1,-1,-1],"split_conditions":[2.308E1,2.029E1,2.885E1,1.6666667E-1,6.666667E-1,1E0,1E0,6.79236E0,2.685455E-1,-7.0710677E-1,3.95E1,3.3333334E-1,2.462E1,9.9221253E-1,1.689E1,2E0,2.1529184E-1,1.845E1,7.3166664E1,2.129E1,-1.9296387E-2,2.125E1,2E-1,3.4851706E-1,2.637E1,1.3769071E-1,2.66E0,9.6655585E-2,2.3E-1,3.3495434E-2,-9.238795E-1,1.553716E-1,1.721E1,9.25E1,1.4462327E1,1.762E1,1.787E1,2.1996692E-1,3.8539186E-1,-3.9E-1,2.1334444E1,6.9327803E0,2.32E1,1.6575368E-1,2.828E1,2.377E1,2.479E1,1.685E1,6.79236E0,9.6133426E-2,3.2E0,3.093E1,7.0740952E0,2.91E1,1.752E1,8.0547504E-2,1.9761277E-2,-1.661409E-1,-3.173415E-2,-1.188876E-1,2.1599661E-1,2.2454472E-1,-1.1125171E-1,2.4712184E-1,4.457024E-1,-1.1536437E-1,-7.602991E-2,4.174647E-1,-3.281078E-2,-4.935169E-2,3.7685183E-1,1.6115847E-1,4.1052356E-1,2.9902703E-1,7.5943336E-2,1.2146064E-1,1.7185636E-1,-6.958455E-3,2.5439942E-1,-1.324494E-3,2.9297119E-2,-1.648029E-2,5.8969874E-2,2.1622038E-2,2.042589E-1,2.2543478E-1,4.8052216E-1,1.319845E-1,1.9387971E-1,1.7530403E-1,2.6657358E-1,3.3823943E-1,1.8755715E-1,1.6673027E-1,1.025083E-1,1.1503898E-1,8.04713E-2],"split_indices":[0,0,0,28,28,29,29,18,19,27,28,28,0,7,5,29,0,1,28,1,0,0,13,0,0,7,8,19,8,0,27,0,0,11,21,0,0,0,0,8,6,18,5,12,0,1,3,5,18,19,16,1,18,1,3,0,0,0,0,0,0,0,0,0,0,0,0,0,0,0,0,0,0,0,0,0,0,0,0,0,0,0,0,0,0,0,0,0,0,0,0,0,0,0,0,0,0],"split_type":[0,0,0,0,0,0,0,0,0,0,0,0,0,0,0,0,0,0,0,0,0,0,0,0,0,0,0,0,0,0,0,0,0,0,0,0,0,0,0,0,0,0,0,0,0,0,0,0,0,0,0,0,0,0,0,0,0,0,0,0,0,0,0,0,0,0,0,0,0,0,0,0,0,0,0,0,0,0,0,0,0,0,0,0,0,0,0,0,0,0,0,0,0,0,0,0,0],"sum_hessian":[8.571E3,4.687E3,3.884E3,3.019E3,1.668E3,2.863E3,1.021E3,5.1E1,2.968E3,2.5E1,1.643E3,1.705E3,1.158E3,8.77E2,1.44E2,3E1,2.1E1,2.782E3,1.86E2,1.9E1,6E0,1.528E3,1.15E2,3.1E1,1.674E3,6.6E2,4.98E2,4.35E2,4.42E2,1.2E1,1.32E2,1.3E1,1.7E1,1.561E3,1.221E3,1.63E2,2.3E1,1.2E1,7E0,4.56E2,1.072E3,9.9E1,1.6E1,1.091E3,5.83E2,2.5E1,6.35E2,4.57E2,4.1E1,3.32E2,1.03E2,2.61E2,1.81E2,4.9E1,8.3E1,8E0,9E0,1.529E3,3.2E1,1.214E3,7E0,1.6E1,1.47E2,1.7E1,6E0,5.3E1,4.03E2,8E0,1.064E3,8.6E1,1.3E1,5E0,1.1E1,1.5E1,1.076E3,4.68E2,1.15E2,1.5E1,1E1,3.61E2,2.74E2,2.4E1,4.33E2,1.7E1,2.4E1,3.26E2,6E0,6.5E1,3.8E1,2.4E1,2.37E2,1.68E2,1.3E1,3.1E1,1.8E1,2.6E1,5.7E1],"tree_param":{"num_deleted":"0","num_feature":"30","num_nodes":"97","size_leaf_vector":"1"}},{"base_weights":[7.0495643E-3,-1.8669096E0,2.1489177E0,-2.5618968E0,-7.9441035E-1,1.3643994E0,4.3091316E0,2.8230667E0,-2.646302E0,3.7228816E0,-8.7366E-1,7.8916365E-1,2.0526137E0,4.6985726E0,1.9203897E0,3.7751205E0,1.5394487E0,-2.7931333E0,-3.4711874E-1,5.1551027E0,9.985361E-3,-1.5293955E0,-4.9565303E-1,4.5869737E0,7.082157E-1,1.2920134E0,2.233213E0,4.319021E0,6.0140133E0,4.9035883E-1,2.0756497E0,2.0287715E-1,1.12579815E-1,6.368232E-1,1.2859498E-1,-3.1907773E0,-2.438979E0,-1.2170696E0,5.634788E0,1.8141222E-1,3.312254E-1,-1.6557403E0,7.786454E-1,-6.6472006E-1,1.7627609E0,3.4058726E-1,2.0923803E0,1.1776934E0,3.949755E-1,1.950855E-1,1.2247506E0,3.3809793E0,2.1154363E0,4.181681E0,6.4546633E0,6.701471E0,2.6335058E-1,2.9546946E-1,3.8296476E-2,1.4137129E0,2.436361E0,3.927536E-2,1.7861065E-2,-1.6238257E-1,9.255579E-2,-5.413529E-2,-1.2594245E-1,-1.0649874E-1,1.839107E-1,3.1570855E-1,1.6869986E-1,-1.0892675E-1,-7.7864684E-2,-8.950689E-2,2.0758899E-1,9.5984645E-2,-3.6909755E-2,-3.4680862E-2,2.7546608E-1,1.696221E-1,2.7991602E-2,4.7781367E-2,2.0753895E-1,-7.4058785E-3,3.3600833E-2,-2.725786E-2,6.387723E-2,9.71696E-2,2.666088E-1,9.176119E-2,1.3071118E-1,1.6564319E-1,2.2297712E-1,3.5765907E-1,2.1999598E-1,3.5179937E-1,2.4974397E-1,2.4236377E-2,2.8483232E-3,4.7548613E-4,7.8476205E-2,1.4772601E-1,9.7176865E-2],"categories":[],"categories_nodes":[],"categories_segments":[],"categories_sizes":[],"default_left":[0,0,0,0,0,0,0,0,0,0,0,0,0,0,0,0,0,0,0,0,0,0,0,0,0,0,0,0,0,0,0,0,0,0,0,0,0,0,0,0,0,0,0,0,0,0,0,0,0,0,0,0,0,0,0,0,0,0,0,0,0,0,0,0,0,0,0,0,0,0,0,0,0,0,0,0,0,0,0,0,0,0,0,0,0,0,0,0,0,0,0,0,0,0,0,0,0,0,0,0,0,0,0],"id":10,"left_children":[1,3,5,7,9,11,13,15,17,19,21,23,25,27,29,31,33,35,37,39,-1,41,43,45,47,49,51,53,55,57,59,-1,-1,61,-1,63,65,67,69,-1,-1,71,73,75,77,-1,79,81,83,-1,85,87,89,91,93,95,-1,97,-1,99,101,-1,-1,-1,-1,-1,-1,-1,-1,-1,-1,-1,-1,-1,-1,-1,-1,-1,-1,-1,-1,-1,-1,-1,-1,-1,-1,-1,-1,-1,-1,-1,-1,-1,-1,-1,-1,-1,-1,-1,-1,-1,-1],"loss_changes":[3.4173266E4,3.3827031E3,6.7272695E3,1.2596719E3,6.429874E2,1.1527827E3,9.7520703E2,4.673758E1,9.14916E2,1.5539532E2,4.3475415E2,4.8555707E2,1.7939648E2,4.2786914E2,3.2286133E1,1.1907043E0,1.7000488E1,3.5132812E2,8.603081E2,2.5323303E1,0E0,1.885022E2,4.2728656E2,1.6889386E2,2.2865326E2,4.0333893E1,1.37625E2,1.8096484E2,6.792285E1,6.329837E-1,2.878949E1,0E0,0E0,2.1826792E-1,0E0,3.4954102E2,1.438374E2,6.513604E2,1.0950806E1,0E0,0E0,2.7950928E1,3.0203717E2,1.9871268E2,7.21653E2,0E0,3.1971725E1,4.073512E2,1.4092929E2,0E0,2.4243408E1,2.6452905E2,1.3133447E2,1.4672949E2,2.7372803E1,2.2515137E1,0E0,4.689116E-1,0E0,1.0924599E1,1.621878E1,0E0,0E0,0E0,0E0,0E0,0E0,0E0,0E0,0E0,0E0,0E0,0E0,0E0,0E0,0E0,0E0,0E0,0E0,0E0,0E0,0E0,0E0,0E0,0E0,0E0,0E0,0E0,0E0,0E0,0E0,0E0,0E0,0E0,0E0,0E0,0E0,0E0,0E0,0E0,0E0,0E0,0E0],"parents":[2147483647,0,0,1,1,2,2,3,3,4,4,5,5,6,6,7,7,8,8,9,9,10,10,11,11,12,12,13,13,14,14,15,15,16,16,17,17,18,18,19,19,21,21,22,22,23,23,24,24,25,25,26,26,27,27,28,28,29,29,30,30,33,33,35,35,36,36,37,37,38,38,41,41,42,42,43,43,44,44,46,46,47,47,48,48,50,50,51,51,52,52,53,53,54,54,55,55,57,57,59,59,60,60],"right_children":[2,4,6,8,10,12,14,16,18,20,22,24,26,28,30,32,34,36,38,40,-1,42,44,46,48,50,52,54,56,58,60,-1,-1,62,-1,64,66,68,70,-1,-1,72,74,76,78,-1,80,82,84,-1,86,88,90,92,94,96,-1,98,-1,100,102,-1,-1,-1,-1,-1,-1,-1,-1,-1,-1,-1,-1,-1,-1,-1,-1,-1,-1,-1,-1,-1,-1,-1,-1,-1,-1,-1,-1,-1,-1,-1,-1,-1,-1,-1,-1,-1,-1,-1,-1,-1,-1],"split_conditions":[2.293E1,1.979E1,2.865E1,1.6666667E-1,8.333333E-1,2.535E1,1E0,2E0,2.685455E-1,-7.372773E-1,2.109E1,3.3333334E-1,3.6614483E1,3.25E1,2.19E1,2.4E0,3.6E1,1.809E1,7.3166664E1,2.181E1,9.985361E-3,4.35E1,3.9E1,1E0,1E0,1.6666667E-1,2.562E1,1.92E0,3.25E1,2.468E1,4.3E-1,2.0287715E-1,1.12579815E-1,1.835E1,1.2859498E-1,9.25E1,1.881E1,3.2E0,3.447903E0,1.8141222E-1,3.312254E-1,-2.3E-1,1.814E1,2.149E1,3.18E1,3.4058726E-1,2E0,5.5E-1,2.371E1,1.950855E-1,1.685E1,6.087614E-1,2.719E1,2.969E1,3.8406868E1,-5E-1,2.6335058E-1,1.668E1,3.8296476E-2,2.885E1,-9.063078E-1,3.927536E-2,1.7861065E-2,-1.6238257E-1,9.255579E-2,-5.413529E-2,-1.2594245E-1,-1.0649874E-1,1.839107E-1,3.1570855E-1,1.6869986E-1,-1.0892675E-1,-7.7864684E-2,-8.950689E-2,2.0758899E-1,9.5984645E-2,-3.6909755E-2,-3.4680862E-2,2.7546608E-1,1.696221E-1,2.7991602E-2,4.7781367E-2,2.0753895E-1,-7.4058785E-3,3.3600833E-2,-2.725786E-2,6.387723E-2,9.71696E-2,2.666088E-1,9.176119E-2,1.3071118E-1,1.6564319E-1,2.2297712E-1,3.5765907E-1,2.1999598E-1,3.5179937E-1,2.4974397E-1,2.4236377E-2,2.8483232E-3,4.7548613E-4,7.8476205E-2,1.4772601E-1,9.7176865E-2],"split_indices":[0,0,0,28,28,0,29,29,19,27,0,28,20,0,9,16,11,0,28,4,0,28,28,29,29,28,1,8,2,2,8,0,0,0,0,11,5,16,12,0,0,8,5,2,10,0,29,17,0,0,5,26,0,0,20,27,0,4,0,1,27,0,0,0,0,0,0,0,0,0,0,0,0,0,0,0,0,0,0,0,0,0,0,0,0,0,0,0,0,0,0,0,0,0,0,0,0,0,0,0,0,0,0],"split_type":[0,0,0,0,0,0,0,0,0,0,0,0,0,0,0,0,0,0,0,0,0,0,0,0,0,0,0,0,0,0,0,0,0,0,0,0,0,0,0,0,0,0,0,0,0,0,0,0,0,0,0,0,0,0,0,0,0,0,0,0,0,0,0,0,0,0,0,0,0,0,0,0,0,0,0,0,0,0,0,0,0,0,0,0,0,0,0,0,0,0,0,0,0,0,0,0,0,0,0,0,0,0,0],"sum_hessian":[8.512E3,4.54E3,3.972E3,2.754E3,1.786E3,2.915E3,1.057E3,4.2E1,2.712E3,3E1,1.756E3,1.589E3,1.326E3,9.08E2,1.49E2,2.3E1,1.9E1,2.549E3,1.63E2,2.1E1,9E0,6.41E2,1.115E3,3.2E1,1.557E3,2.56E2,1.07E3,7.08E2,2E2,1.5E1,1.34E2,1.8E1,5E0,1.1E1,8E0,1.197E3,1.352E3,1.43E2,2E1,1.2E1,9E0,6.08E2,3.3E1,1.038E3,7.7E1,1.6E1,1.6E1,6.22E2,9.35E2,5E0,2.51E2,9.7E1,9.73E2,6.68E2,4E1,1E2,1E2,1E1,5E0,4.9E1,8.5E1,6E0,5E0,1.184E3,1.3E1,7.6E1,1.276E3,1.21E2,2.2E1,1.4E1,6E0,9.3E1,5.15E2,1.9E1,1.4E1,2.8E1,1.01E3,4.7E1,3E1,8E0,8E0,5.8E2,4.2E1,3.16E2,6.19E2,7E0,2.44E2,5.7E1,4E1,6.26E2,3.47E2,1.65E2,5.03E2,2.8E1,1.2E1,8.1E1,1.9E1,5E0,5E0,5E0,4.4E1,3.9E1,4.6E1],"tree_param":{"num_deleted":"0","num_feature":"30","num_nodes":"103","size_leaf_vector":"1"}},{"base_weights":[1.3713733E-2,-1.771238E0,2.0529554E0,-2.4057186E0,-7.629546E-1,1.3419249E0,4.1875467E0,-2.582503E0,1.7632145E-1,3.331294E0,-8.378557E-1,1.8760624E0,5.72528E-1,4.5481663E0,1.899411E0,2.5089939E0,-2.6343033E0,2.711316E0,-1.8584398E0,4.8637505E0,3.7188768E-1,-9.392318E-1,1.4886079E0,6.38734E0,1.7816474E0,1.7468464E-1,1.0494868E0,3.8558214E0,5.231586E0,5.8631665E-1,2.0312822E0,1.7272548E-1,1.384264E0,-3.009903E0,-2.3030794E0,-1.699086E-1,4.906273E0,-2.4600801E0,-9.1798854E-1,1.4377655E-1,2.733668E-1,-2.5975337E-2,6.749333E-2,-1.5831839E0,-4.917612E-1,5.4751477E0,-1.7563782E0,2.7241382E-1,3.9057225E-1,1.5382919E0,2.580021E0,1.1102221E0,7.4709855E-2,9.3385404E-1,2.4207401E0,4.0589004E0,2.2551332E0,4.6992316E0,6.0014157E0,3.660905E-2,1.9269789E-2,1.7089958E0,2.5857415E0,9.504134E-2,1.8935459E-2,-1.5343823E-1,9.557237E-2,-3.798447E-2,-1.199074E-1,2.2530408E-1,3.8784924E-1,-1.3868868E-1,-1.0217357E-1,5.6687105E-2,-1.07264236E-1,-1.03440285E-1,-7.451927E-2,3.7758595E-1,-2.7438551E-2,3.4510443E-1,1.374462E-1,-9.7809E-2,-5.1681466E-2,1.8909964E-1,7.2224006E-2,6.818188E-2,1.3456993E-1,2.1661268E-1,-2.6301289E-2,-9.385109E-3,1.8534586E-2,1.0692596E-1,4.2116072E-2,2.1714633E-2,1.851434E-1,2.2557E-1,1.7505334E-1,1.6191687E-1,9.3478724E-2,1.5492003E-1,2.428174E-1,3.0953348E-1,1.5979646E-1,1.1768209E-1,7.520931E-2,1.0409039E-1,1.8780404E-1],"categories":[],"categories_nodes":[],"categories_segments":[],"categories_sizes":[],"default_left":[0,0,0,0,0,0,0,0,0,0,0,0,0,0,0,0,0,0,0,0,0,0,0,0,0,0,0,0,0,0,0,0,0,0,0,0,0,0,0,0,0,0,0,0,0,0,0,0,0,0,0,0,0,0,0,0,0,0,0,0,0,0,0,0,0,0,0,0,0,0,0,0,0,0,0,0,0,0,0,0,0,0,0,0,0,0,0,0,0,0,0,0,0,0,0,0,0,0,0,0,0,0,0,0,0,0,0],"id":11,"left_children":[1,3,5,7,9,11,13,15,17,19,21,23,25,27,29,31,33,35,37,39,41,43,45,47,49,51,53,55,57,59,61,-1,63,65,67,-1,69,71,73,-1,-1,-1,-1,75,77,79,81,-1,-1,83,85,87,89,91,93,95,97,99,101,-1,-1,103,105,-1,-1,-1,-1,-1,-1,-1,-1,-1,-1,-1,-1,-1,-1,-1,-1,-1,-1,-1,-1,-1,-1,-1,-1,-1,-1,-1,-1,-1,-1,-1,-1,-1,-1,-1,-1,-1,-1,-1,-1,-1,-1,-1,-1],"loss_changes":[3.1256225E4,2.9275176E3,6.0775605E3,1.2831221E3,5.4558594E2,1.2351045E3,8.17334E2,7.0024805E2,9.3865656E2,1.4331638E2,4.1153735E2,7.446494E2,2.3397421E2,3.8864062E2,2.2705017E1,2.3931198E1,3.170254E2,1.1028875E3,5.4888855E1,9.479797E0,1.1162444E1,4.795669E2,9.539639E2,5.584961E0,3.3409375E2,6.2956383E1,8.6692566E1,1.316001E2,1.4884082E2,1.2812138E-1,1.7917847E1,0E0,6.5521927E0,3.584043E2,2.018374E2,0E0,3.3496338E1,2.303772E0,1.0567353E2,0E0,0E0,0E0,0E0,2.7696045E1,4.55823E2,1.0940198E2,3.898697E0,0E0,0E0,2.757456E2,5.1198486E1,3.449616E2,4.7447792E1,5.542679E1,1.0790767E2,8.0882324E1,1.32789E1,5.0347656E1,7.206885E1,0E0,0E0,7.2861176E0,1.8130585E1,0E0,0E0,0E0,0E0,0E0,0E0,0E0,0E0,0E0,0E0,0E0,0E0,0E0,0E0,0E0,0E0,0E0,0E0,0E0,0E0,0E0,0E0,0E0,0E0,0E0,0E0,0E0,0E0,0E0,0E0,0E0,0E0,0E0,0E0,0E0,0E0,0E0,0E0,0E0,0E0,0E0,0E0,0E0,0E0],"parents":[2147483647,0,0,1,1,2,2,3,3,4,4,5,5,6,6,7,7,8,8,9,9,10,10,11,11,12,12,13,13,14,14,15,15,16,16,17,17,18,18,19,19,20,20,21,21,22,22,23,23,24,24,25,25,26,26,27,27,28,28,29,29,30,30,32,32,33,33,34,34,36,36,37,37,38,38,43,43,44,44,45,45,46,46,49,49,50,50,51,51,52,52,53,53,54,54,55,55,56,56,57,57,58,58,61,61,62,62],"right_children":[2,4,6,8,10,12,14,16,18,20,22,24,26,28,30,32,34,36,38,40,42,44,46,48,50,52,54,56,58,60,62,-1,64,66,68,-1,70,72,74,-1,-1,-1,-1,76,78,80,82,-1,-1,84,86,88,90,92,94,96,98,100,102,-1,-1,104,106,-1,-1,-1,-1,-1,-1,-1,-1,-1,-1,-1,-1,-1,-1,-1,-1,-1,-1,-1,-1,-1,-1,-1,-1,-1,-1,-1,-1,-1,-1,-1,-1,-1,-1,-1,-1,-1,-1,-1,-1,-1,-1,-1,-1],"split_conditions":[2.293E1,1.979E1,2.885E1,2.685455E-1,8.333333E-1,1E0,1E0,1.6666667E-1,1.864E1,2.185E1,4.35E1,3.3333334E-1,2.447E1,9.9221253E-1,1.689E1,2E0,1.809E1,6.777765E0,5.6E-1,2.096E1,2.299E1,2.125E1,2.185E1,3.42E1,2.714E1,2.26E1,2.66E0,3.31E1,2.3E-1,2.17E1,-2.5881904E-1,1.7272548E-1,4E-2,9.25E1,1.881E1,-1.699086E-1,1.845E1,1.875E1,3.9E1,1.4377655E-1,2.733668E-1,-2.5975337E-2,6.749333E-2,-2.3E-1,2.1334444E1,5.3E1,2.226E1,2.7241382E-1,3.9057225E-1,2.457E1,3.6417557E1,3.7799934E-1,2.377E1,2.2366269E-1,6.79236E0,3.6808308E1,3.65E1,3.093E1,7.0740952E0,3.660905E-2,1.9269789E-2,1.752E1,2.45E1,9.504134E-2,1.8935459E-2,-1.5343823E-1,9.557237E-2,-3.798447E-2,-1.199074E-1,2.2530408E-1,3.8784924E-1,-1.3868868E-1,-1.0217357E-1,5.6687105E-2,-1.07264236E-1,-1.03440285E-1,-7.451927E-2,3.7758595E-1,-2.7438551E-2,3.4510443E-1,1.374462E-1,-9.7809E-2,-5.1681466E-2,1.8909964E-1,7.2224006E-2,6.818188E-2,1.3456993E-1,2.1661268E-1,-2.6301289E-2,-9.385109E-3,1.8534586E-2,1.0692596E-1,4.2116072E-2,2.1714633E-2,1.851434E-1,2.2557E-1,1.7505334E-1,1.6191687E-1,9.3478724E-2,1.5492003E-1,2.428174E-1,3.0953348E-1,1.5979646E-1,1.1768209E-1,7.520931E-2,1.0409039E-1,1.8780404E-1],"split_indices":[0,0,0,19,28,29,29,28,3,1,28,28,0,7,5,29,0,18,17,0,2,0,3,10,0,9,8,10,8,9,26,0,8,11,5,0,1,0,11,0,0,0,0,8,6,11,4,0,0,4,20,7,0,7,18,20,11,1,18,0,0,2,9,0,0,0,0,0,0,0,0,0,0,0,0,0,0,0,0,0,0,0,0,0,0,0,0,0,0,0,0,0,0,0,0,0,0,0,0,0,0,0,0,0,0,0,0],"split_type":[0,0,0,0,0,0,0,0,0,0,0,0,0,0,0,0,0,0,0,0,0,0,0,0,0,0,0,0,0,0,0,0,0,0,0,0,0,0,0,0,0,0,0,0,0,0,0,0,0,0,0,0,0,0,0,0,0,0,0,0,0,0,0,0,0,0,0,0,0,0,0,0,0,0,0,0,0,0,0,0,0,0,0,0,0,0,0,0,0,0,0,0,0,0,0,0,0,0,0,0,0,0,0,0,0,0,0],"sum_hessian":[8.585E3,4.578E3,4.007E3,2.809E3,1.769E3,3.007E3,1E3,2.629E3,1.8E2,3.1E1,1.738E3,1.774E3,1.233E3,8.63E2,1.37E2,2.6E1,2.603E3,8E1,1E2,2E1,1.1E1,1.666E3,7.2E1,3.5E1,1.739E3,6.73E2,5.6E2,4.32E2,4.31E2,1.3E1,1.24E2,1.3E1,1.3E1,1.216E3,1.387E3,2.1E1,5.9E1,6E1,4E1,6E0,1.4E1,6E0,5E0,6.82E2,9.84E2,3.2E1,4E1,2.4E1,1.1E1,1.335E3,4.04E2,6.4E1,6.09E2,5.18E2,4.2E1,3.82E2,5E1,2.59E2,1.72E2,6E0,7E0,8.1E1,4.3E1,8E0,5E0,1.202E3,1.4E1,8.1E1,1.306E3,5.4E1,5E0,3.1E1,2.9E1,1.5E1,2.5E1,1.06E2,5.76E2,6E0,9.78E2,2E1,1.2E1,3E1,1E1,5.2E1,1.283E3,3.5E1,3.69E2,2.1E1,4.3E1,3.23E2,2.86E2,3.5E1,4.83E2,1.7E1,2.5E1,2.07E2,1.75E2,1.2E1,3.8E1,2.5E1,2.34E2,1.6E2,1.2E1,1.7E1,6.4E1,3.2E1,1.1E1],"tree_param":{"num_deleted":"0","num_feature":"30","num_nodes":"107","size_leaf_vector":"1"}},{"base_weights":[1.5525033E-2,-1.6830693E0,1.9573194E0,-2.2956996E0,-7.1287006E-1,1.224564E0,3.9043846E0,2.72154E0,-2.3788197E0,3.2613387E0,-7.8575873E-1,1.7116251E0,5.509503E-1,4.254185E0,1.717758E0,1.8098353E-1,1.5772306E0,-2.6052907E0,-1.1581291E0,4.536988E0,4.1355497E-1,-8.804357E-1,1.3512536E0,2.9888567E-1,1.6279022E0,1.5435846E-1,9.9710625E-1,3.9051073E0,5.469741E0,1.5064378E0,2.9642591E0,5.373211E-1,1.1995226E-1,-3.128078E0,-2.328243E0,-1.9745901E0,5.7359695E0,5.181739E0,1.2075651E-1,-3.0328004E-2,6.823721E-2,-1.4987295E0,-4.696265E-1,5.4484525E0,-1.7292492E0,9.984604E-1,1.9083728E0,-5.723755E-2,6.982777E-1,8.696892E-1,2.1813302E0,3.7591941E0,5.90909E0,5.0062623E0,6.6015916E0,3.2246065E-1,1.6554736E0,6.767724E-2,1.8364672E-1,3.4895625E-2,1.4358806E-2,-1.5968174E-1,7.2147414E-2,-1.2058685E-1,-6.1841853E-2,-1.1911668E-1,-1.7737528E-2,2.3275478E-1,4.2052612E-1,1.8347244E-1,3.117674E-1,-9.7329125E-2,-7.0926905E-2,3.8022456E-1,-2.6710093E-2,1.8044332E-1,3.5312423E-1,-9.621911E-2,-4.9332306E-2,3.6486186E-2,2.9916838E-1,9.271818E-2,2.6851293E-1,-1.6050084E-2,1.4007253E-2,2.3059121E-1,1.4541593E-2,3.9479326E-2,1.2813966E-1,2.303748E-2,1.7492649E-1,1.4984456E-1,2.0012918E-1,3.5156223E-1,2.3879433E-1,2.3980205E-1,3.14656E-1,3.4080032E-1,1.8215328E-1,-2.9078138E-3,4.8325744E-2,2.8049592E-2,8.934449E-2],"categories":[],"categories_nodes":[],"categories_segments":[],"categories_sizes":[],"default_left":[0,0,0,0,0,0,0,0,0,0,0,0,0,0,0,0,0,0,0,0,0,0,0,0,0,0,0,0,0,0,0,0,0,0,0,0,0,0,0,0,0,0,0,0,0,0,0,0,0,0,0,0,0,0,0,0,0,0,0,0,0,0,0,0,0,0,0,0,0,0,0,0,0,0,0,0,0,0,0,0,0,0,0,0,0,0,0,0,0,0,0,0,0,0,0,0,0,0,0,0,0,0,0],"id":12,"left_children":[1,3,5,7,9,11,13,15,17,19,21,23,25,27,29,-1,31,33,35,37,39,41,43,-1,45,47,49,51,53,55,57,59,-1,61,63,65,67,69,-1,-1,-1,71,73,75,77,79,81,83,85,87,89,91,93,95,97,99,101,-1,-1,-1,-1,-1,-1,-1,-1,-1,-1,-1,-1,-1,-1,-1,-1,-1,-1,-1,-1,-1,-1,-1,-1,-1,-1,-1,-1,-1,-1,-1,-1,-1,-1,-1,-1,-1,-1,-1,-1,-1,-1,-1,-1,-1,-1],"loss_changes":[2.8190744E4,2.7081123E3,5.6849883E3,1.171665E3,5.141282E2,9.501929E2,8.26416E2,4.1566956E1,7.569463E2,1.1437247E2,3.522251E2,5.9102686E2,2.153612E2,3.7708008E2,3.5572998E1,0E0,1.7512417E1,3.284502E2,2.442952E3,1.7582977E1,1.1501347E1,4.2144556E2,9.4340784E2,0E0,2.89562E2,7.438885E1,8.456305E1,1.921211E2,7.5541016E1,2.275827E1,1.8999481E1,2.4145865E-1,0E0,2.4433789E2,1.354375E2,2.5476025E2,9.382764E1,2.6134949E0,0E0,0E0,0E0,2.104956E1,5.254513E2,6.952527E1,4.3322906E0,6.801835E2,2.033789E2,4.1559E1,2.8727377E2,6.836444E1,1.2303714E2,1.1528223E2,2.7457764E1,1.0666992E1,1.1326904E1,3.978416E0,1.5825958E1,0E0,0E0,0E0,0E0,0E0,0E0,0E0,0E0,0E0,0E0,0E0,0E0,0E0,0E0,0E0,0E0,0E0,0E0,0E0,0E0,0E0,0E0,0E0,0E0,0E0,0E0,0E0,0E0,0E0,0E0,0E0,0E0,0E0,0E0,0E0,0E0,0E0,0E0,0E0,0E0,0E0,0E0,0E0,0E0,0E0,0E0],"parents":[2147483647,0,0,1,1,2,2,3,3,4,4,5,5,6,6,7,7,8,8,9,9,10,10,11,11,12,12,13,13,14,14,16,16,17,17,18,18,19,19,20,20,21,21,22,22,24,24,25,25,26,26,27,27,28,28,29,29,30,30,31,31,33,33,34,34,35,35,36,36,37,37,41,41,42,42,43,43,44,44,45,45,46,46,47,47,48,48,49,49,50,50,51,51,52,52,53,53,54,54,55,55,56,56],"right_children":[2,4,6,8,10,12,14,16,18,20,22,24,26,28,30,-1,32,34,36,38,40,42,44,-1,46,48,50,52,54,56,58,60,-1,62,64,66,68,70,-1,-1,-1,72,74,76,78,80,82,84,86,88,90,92,94,96,98,100,102,-1,-1,-1,-1,-1,-1,-1,-1,-1,-1,-1,-1,-1,-1,-1,-1,-1,-1,-1,-1,-1,-1,-1,-1,-1,-1,-1,-1,-1,-1,-1,-1,-1,-1,-1,-1,-1,-1,-1,-1,-1,-1,-1,-1,-1,-1],"split_conditions":[2.293E1,1.979E1,2.865E1,1.6666667E-1,8.333333E-1,1E0,1E0,2E0,3.44E1,2.185E1,4.35E1,3.3333334E-1,2.436E1,3.25E1,2.46E1,1.8098353E-1,3.6E1,1.773E1,7.0666664E1,7E-2,2.241E1,2.125E1,2.185E1,2.9888567E-1,2.501E1,3.8878757E1,4.3E-1,1.92E0,-3.007058E-1,2.885E1,-2.5881904E-1,1.1350232E-1,1.1995226E-1,9.25E1,3.824263E1,9.1E0,1.787E1,2.1255E1,1.2075651E-1,-3.0328004E-2,6.823721E-2,-2.3E-1,2.1334444E1,2.059E1,2.165E1,5.5E-1,9.1E1,2.377E1,2.26E1,9.76296E-1,6.79236E0,2.969E1,3.737076E1,3.74E1,4.9E1,1.86E1,1.689E1,6.767724E-2,1.8364672E-1,3.4895625E-2,1.4358806E-2,-1.5968174E-1,7.2147414E-2,-1.2058685E-1,-6.1841853E-2,-1.1911668E-1,-1.7737528E-2,2.3275478E-1,4.2052612E-1,1.8347244E-1,3.117674E-1,-9.7329125E-2,-7.0926905E-2,3.8022456E-1,-2.6710093E-2,1.8044332E-1,3.5312423E-1,-9.621911E-2,-4.9332306E-2,3.6486186E-2,2.9916838E-1,9.271818E-2,2.6851293E-1,-1.6050084E-2,1.4007253E-2,2.3059121E-1,1.4541593E-2,3.9479326E-2,1.2813966E-1,2.303748E-2,1.7492649E-1,1.4984456E-1,2.0012918E-1,3.5156223E-1,2.3879433E-1,2.3980205E-1,3.14656E-1,3.4080032E-1,1.8215328E-1,-2.9078138E-3,4.8325744E-2,2.8049592E-2,8.934449E-2],"split_indices":[0,0,0,28,28,29,29,29,10,1,28,28,0,0,9,0,11,0,28,8,0,0,3,0,0,20,8,8,26,0,26,7,0,11,20,16,0,6,0,0,0,8,6,1,4,17,11,0,9,26,18,0,20,10,11,3,5,0,0,0,0,0,0,0,0,0,0,0,0,0,0,0,0,0,0,0,0,0,0,0,0,0,0,0,0,0,0,0,0,0,0,0,0,0,0,0,0,0,0,0,0,0,0],"split_type":[0,0,0,0,0,0,0,0,0,0,0,0,0,0,0,0,0,0,0,0,0,0,0,0,0,0,0,0,0,0,0,0,0,0,0,0,0,0,0,0,0,0,0,0,0,0,0,0,0,0,0,0,0,0,0,0,0,0,0,0,0,0,0,0,0,0,0,0,0,0,0,0,0,0,0,0,0,0,0,0,0,0,0,0,0,0,0,0,0,0,0,0,0,0,0,0,0,0,0,0,0,0,0],"sum_hessian":[8.545E3,4.558E3,3.987E3,2.793E3,1.765E3,2.898E3,1.089E3,4.5E1,2.748E3,3.1E1,1.734E3,1.681E3,1.217E3,9.38E2,1.51E2,2.4E1,2.1E1,2.317E3,4.31E2,2.1E1,1E1,1.661E3,7.3E1,3.1E1,1.65E3,6.45E2,5.72E2,7.32E2,2.06E2,1.31E2,2E1,1E1,1.1E1,7.99E2,1.518E3,3.86E2,4.5E1,1.5E1,6E0,5E0,5E0,6.62E2,9.99E2,3.1E1,4.2E1,5.1E2,1.14E3,4.65E2,1.8E2,5.18E2,5.4E1,6.85E2,4.7E1,1.5E2,5.6E1,1.5E1,1.16E2,7E0,1.3E1,5E0,5E0,7.88E2,1.1E1,1.409E3,1.09E2,3.08E2,7.8E1,3.4E1,1.1E1,8E0,7E0,9.7E1,5.65E2,7E0,9.92E2,1.6E1,1.5E1,3.2E1,1E1,4.85E2,2.5E1,1.124E3,1.6E1,2.61E2,2.04E2,1.6E1,1.64E2,4.96E2,2.2E1,2.4E1,3E1,1.69E2,5.16E2,2.1E1,2.6E1,1.33E2,1.7E1,5.1E1,5E0,1E1,5E0,1.3E1,1.03E2],"tree_param":{"num_deleted":"0","num_feature":"30","num_nodes":"103","size_leaf_vector":"1"}},{"base_weights":[-4.4033066E-3,-1.6042713E0,1.8470628E0,-2.1744397E0,-6.595194E-1,1.0901574E0,3.4862587E0,2.5764887E0,-2.2542524E0,3.4786046E0,-7.1459943E-1,1.5691692E0,4.5054334E-1,3.8448298E0,1.6559558E0,1.6921792E0,1.8649565E-1,-2.3699667E0,-3.8296926E-1,4.3913116E0,8.035787E-3,-1.2635605E0,-4.0836486E-1,5.9869404E0,1.4756846E0,1.21779434E-1,8.5561913E-1,3.1681786E0,4.6173997E0,2.217493E0,1.2576765E0,1.3923497E-1,9.7060543E-1,-2.6465957E0,-1.9746042E0,-1.2410613E0,5.006084E0,1.2340368E-1,2.8415474E-1,-1.3934397E0,1.3112004E0,2.3917356E0,-5.297224E-1,2.434223E-1,3.6235833E-1,3.1298715E-1,1.6141961E0,-6.0684264E-1,2.405996E-1,2.3198118E0,7.776139E-1,2.6935777E-1,3.0638835E0,5.408286E0,4.244631E0,6.370002E-1,2.6939986E0,4.643645E-1,1.4634087E0,6.36034E-2,2.4715308E-2,1.692252E-1,-1.3359891E-1,1.2204623E-1,-1.01891994E-1,1.9188377E-1,-9.087614E-2,2.0411618E-1,3.4715092E-1,-9.208752E-2,-6.6144146E-2,-7.756021E-2,1.9563773E-1,2.711366E-1,-5.8064707E-2,-8.411325E-2,-1.8037908E-2,3.389924E-2,-3.6493313E-2,3.2485634E-1,7.6101474E-2,-5.0015956E-2,5.8238972E-2,1.8132019E-1,6.0401023E-3,3.6851536E-2,1.4320754E-1,1.3295923E-4,4.661129E-2,2.890033E-1,1.4850475E-1,3.0423385E-1,2.259678E-1,2.2172455E-1,1.267005E-1,-5.5392105E-3,4.3880343E-2,8.523881E-2,1.5478845E-1,1.8617263E-3,4.017931E-2,2.9140746E-2,8.205147E-2],"categories":[],"categories_nodes":[],"categories_segments":[],"categories_sizes":[],"default_left":[0,0,0,0,0,0,0,0,0,0,0,0,0,0,0,0,0,0,0,0,0,0,0,0,0,0,0,0,0,0,0,0,0,0,0,0,0,0,0,0,0,0,0,0,0,0,0,0,0,0,0,0,0,0,0,0,0,0,0,0,0,0,0,0,0,0,0,0,0,0,0,0,0,0,0,0,0,0,0,0,0,0,0,0,0,0,0,0,0,0,0,0,0,0,0,0,0,0,0,0,0,0,0],"id":13,"left_children":[1,3,5,7,9,11,13,15,17,19,21,23,25,27,29,31,-1,33,35,37,-1,39,41,43,45,47,49,51,53,55,57,-1,59,61,63,65,67,-1,-1,69,71,73,75,-1,-1,77,79,81,83,85,87,-1,89,91,93,95,97,99,101,-1,-1,-1,-1,-1,-1,-1,-1,-1,-1,-1,-1,-1,-1,-1,-1,-1,-1,-1,-1,-1,-1,-1,-1,-1,-1,-1,-1,-1,-1,-1,-1,-1,-1,-1,-1,-1,-1,-1,-1,-1,-1,-1,-1],"loss_changes":[2.5477035E4,2.4839795E3,4.9429365E3,1.0967207E3,3.9862463E2,8.354114E2,8.199053E2,4.2647583E1,6.1188574E2,6.8944214E1,2.8796228E2,6.354348E2,1.5570973E2,5.353154E2,4.373004E1,2.0158836E1,0E0,2.862412E2,7.738473E2,3.0693024E1,0E0,2.0715332E2,3.7608093E2,9.823364E0,2.4573535E2,5.6160027E1,5.8044617E1,1.1401953E2,1.2120996E2,6.2298553E1,1.9558456E1,0E0,2.09935E0,2.4861816E2,3.1239404E2,4.2856323E2,1.2809387E1,0E0,0E0,1.6067871E1,2.2947049E2,5.0168155E2,2.0542642E2,0E0,0E0,6.291964E1,6.048696E2,6.460048E1,2.254873E2,2.028984E1,5.9786346E1,0E0,1.2065088E2,6.449463E1,9.821387E1,3.8755846E0,2.055603E1,3.8821568E0,1.4371933E1,0E0,0E0,0E0,0E0,0E0,0E0,0E0,0E0,0E0,0E0,0E0,0E0,0E0,0E0,0E0,0E0,0E0,0E0,0E0,0E0,0E0,0E0,0E0,0E0,0E0,0E0,0E0,0E0,0E0,0E0,0E0,0E0,0E0,0E0,0E0,0E0,0E0,0E0,0E0,0E0,0E0,0E0,0E0,0E0],"parents":[2147483647,0,0,1,1,2,2,3,3,4,4,5,5,6,6,7,7,8,8,9,9,10,10,11,11,12,12,13,13,14,14,15,15,17,17,18,18,19,19,21,21,22,22,23,23,24,24,25,25,26,26,27,27,28,28,29,29,30,30,32,32,33,33,34,34,35,35,36,36,39,39,40,40,41,41,42,42,45,45,46,46,47,47,48,48,49,49,50,50,52,52,53,53,54,54,55,55,56,56,57,57,58,58],"right_children":[2,4,6,8,10,12,14,16,18,20,22,24,26,28,30,32,-1,34,36,38,-1,40,42,44,46,48,50,52,54,56,58,-1,60,62,64,66,68,-1,-1,70,72,74,76,-1,-1,78,80,82,84,86,88,-1,90,92,94,96,98,100,102,-1,-1,-1,-1,-1,-1,-1,-1,-1,-1,-1,-1,-1,-1,-1,-1,-1,-1,-1,-1,-1,-1,-1,-1,-1,-1,-1,-1,-1,-1,-1,-1,-1,-1,-1,-1,-1,-1,-1,-1,-1,-1,-1,-1],"split_conditions":[2.293E1,1.995E1,2.786E1,1.6666667E-1,3.3333334E-1,1E0,1E0,6.79236E0,2.685455E-1,-7.372773E-1,2.115E1,3.3333334E-1,2.436E1,3.1E1,2.5575E1,1.662E1,1.8649565E-1,1.845E1,7.3166664E1,2.181E1,8.035787E-3,4.35E1,2.1414444E1,2.975224E0,3.580857E1,1.799E1,1.6666667E-1,2.6313334E1,-6.755902E-1,6.79236E0,2.865E1,1.3923497E-1,1.767E1,1.98E1,1.864E1,1.762E1,1.787E1,1.2340368E-1,2.8415474E-1,-2.3E-1,1.814E1,1.8290491E-1,-3.4E-1,2.434223E-1,3.6235833E-1,3.9833332E1,2.3837223E1,2.632E1,2.26E1,3.5E1,-5.3729963E-1,2.6935777E-1,1.4825654E-1,3.737076E1,3.790392E1,2.0212778E1,2.34E1,2.9E-1,3.976529E0,6.36034E-2,2.4715308E-2,1.692252E-1,-1.3359891E-1,1.2204623E-1,-1.01891994E-1,1.9188377E-1,-9.087614E-2,2.0411618E-1,3.4715092E-1,-9.208752E-2,-6.6144146E-2,-7.756021E-2,1.9563773E-1,2.711366E-1,-5.8064707E-2,-8.411325E-2,-1.8037908E-2,3.389924E-2,-3.6493313E-2,3.2485634E-1,7.6101474E-2,-5.0015956E-2,5.8238972E-2,1.8132019E-1,6.0401023E-3,3.6851536E-2,1.4320754E-1,1.3295923E-4,4.661129E-2,2.890033E-1,1.4850475E-1,3.0423385E-1,2.259678E-1,2.2172455E-1,1.267005E-1,-5.5392105E-3,4.3880343E-2,8.523881E-2,1.5478845E-1,1.8617263E-3,4.017931E-2,2.9140746E-2,8.205147E-2],"split_indices":[0,0,0,28,28,29,29,18,19,27,0,28,0,0,6,3,0,1,28,4,0,28,6,12,20,5,28,6,27,18,1,0,0,9,3,0,0,0,0,8,4,7,8,0,0,28,6,4,9,11,27,0,7,20,20,6,9,8,7,0,0,0,0,0,0,0,0,0,0,0,0,0,0,0,0,0,0,0,0,0,0,0,0,0,0,0,0,0,0,0,0,0,0,0,0,0,0,0,0,0,0,0,0],"split_type":[0,0,0,0,0,0,0,0,0,0,0,0,0,0,0,0,0,0,0,0,0,0,0,0,0,0,0,0,0,0,0,0,0,0,0,0,0,0,0,0,0,0,0,0,0,0,0,0,0,0,0,0,0,0,0,0,0,0,0,0,0,0,0,0,0,0,0,0,0,0,0,0,0,0,0,0,0,0,0,0,0,0,0,0,0,0,0,0,0,0,0,0,0,0,0,0,0,0,0,0,0,0,0],"sum_hessian":[8.599E3,4.613E3,3.986E3,2.876E3,1.737E3,2.728E3,1.258E3,4.7E1,2.829E3,2.2E1,1.715E3,1.559E3,1.169E3,1.051E3,2.07E2,2.8E1,1.9E1,2.664E3,1.65E2,1.7E1,5E0,6.13E2,1.102E3,3.1E1,1.528E3,6.46E2,5.23E2,5.63E2,4.88E2,8.4E1,1.23E2,1E1,1.8E1,1.564E3,1.1E3,1.43E2,2.2E1,8E0,9E0,5.84E2,2.9E1,4.5E1,1.057E3,1.9E1,1.2E1,1.63E2,1.365E3,9E1,5.56E2,2.5E1,4.98E2,2.3E1,5.4E2,1.52E2,3.36E2,2E1,6.4E1,2.6E1,9.7E1,1E1,8E0,6E0,1.558E3,1.5E1,1.085E3,1.4E1,1.29E2,1.7E1,5E0,7.6E1,5.08E2,1.4E1,1.5E1,2.4E1,2.1E1,1.34E2,9.23E2,1.21E2,4.2E1,2.4E1,1.341E3,7.4E1,1.6E1,1.8E1,5.38E2,7E0,1.8E1,8.3E1,4.15E2,1.6E1,5.24E2,8.3E1,6.9E1,3.01E2,3.5E1,5E0,1.5E1,2E1,4.4E1,1.2E1,1.4E1,1.7E1,8E1],"tree_param":{"num_deleted":"0","num_feature":"30","num_nodes":"103","size_leaf_vector":"1"}},{"base_weights":[9.136623E-3,-1.5854872E0,1.7106819E0,-2.0685716E0,-7.3071444E-1,9.526321E-1,3.222807E0,2.4298346E0,-2.1438797E0,3.394588E0,-7.957315E-1,1.3852144E0,4.043864E-1,2.338999E0,3.8612573E0,1.634359E0,1.7580478E-1,-2.3606231E0,-1.0541272E0,4.1574383E0,1.4299472E-2,-8.9014024E-1,1.4842075E0,5.305413E0,1.3093102E0,-8.49961E-2,6.467829E-1,2.809878E0,1.7432147E0,4.105905E0,1.692492E0,1.3213341E-1,9.6458226E-1,-2.785355E0,-2.056172E0,-1.8158357E0,4.872596E0,1.0514062E-1,2.4438956E-1,-1.3537987E0,-5.317296E-1,4.8719273E0,-8.715859E-2,2.0577534E-1,3.324077E-1,2.7284855E-1,1.4925714E0,-7.526254E-1,7.151592E-2,2.1289802E-1,6.057589E-1,1.238925E0,2.8928335E0,1.0183969E0,2.004893E0,5.049314E0,3.7508247E0,1.7724915E0,2.8535707E-2,6.2378358E-2,2.0976603E-2,-1.4232086E-1,7.829128E-2,-1.0669873E-1,-5.452463E-2,-1.0867443E-1,-1.9883478E-2,1.5986644E-1,3.3105013E-1,-8.8447444E-2,-6.390619E-2,3.5172752E-1,-3.0124126E-2,1.5129116E-1,3.4487474E-1,2.5918344E-2,-3.7128385E-2,3.1524995E-1,6.98104E-2,-5.2173384E-2,-3.3435423E-3,1.554828E-1,-2.6651088E-3,1.1394464E-1,2.7910901E-2,2.4823558E-2,7.843897E-2,2.1495362E-1,1.370939E-1,1.4356607E-1,4.0159173E-2,2.4217914E-1,8.845184E-2,2.8701824E-1,1.4436093E-1,1.4995754E-1,1.9790058E-1,7.2886534E-2,1.013601E-1],"categories":[],"categories_nodes":[],"categories_segments":[],"categories_sizes":[],"default_left":[0,0,0,0,0,0,0,0,0,0,0,0,0,0,0,0,0,0,0,0,0,0,0,0,0,0,0,0,0,0,0,0,0,0,0,0,0,0,0,0,0,0,0,0,0,0,0,0,0,0,0,0,0,0,0,0,0,0,0,0,0,0,0,0,0,0,0,0,0,0,0,0,0,0,0,0,0,0,0,0,0,0,0,0,0,0,0,0,0,0,0,0,0,0,0,0,0,0,0],"id":14,"left_children":[1,3,5,7,9,11,13,15,17,19,21,23,25,27,29,31,-1,33,35,37,-1,39,41,43,45,47,49,51,53,55,57,-1,59,61,63,65,67,-1,-1,69,71,73,-1,-1,-1,75,77,79,81,-1,83,85,87,89,91,93,95,97,-1,-1,-1,-1,-1,-1,-1,-1,-1,-1,-1,-1,-1,-1,-1,-1,-1,-1,-1,-1,-1,-1,-1,-1,-1,-1,-1,-1,-1,-1,-1,-1,-1,-1,-1,-1,-1,-1,-1,-1,-1],"loss_changes":[2.3253193E4,1.8252773E3,4.7493496E3,9.6256445E2,4.315769E2,6.5471704E2,7.7191504E2,3.4865875E1,6.541377E2,5.8095917E1,3.4033392E2,4.5248608E2,1.4477698E2,1.5865796E2,4.1857812E2,1.703585E1,0E0,2.9401465E2,2.0990315E3,1.9733917E1,0E0,2.5071057E2,6.9730035E2,1.8973816E1,2.8754663E2,4.237308E1,1.18306915E2,3.8639404E1,4.7272156E1,2.2225098E2,6.436966E0,0E0,2.4071846E0,2.608496E2,9.9401855E1,2.0759937E2,1.3407007E2,0E0,0E0,1.8442627E1,4.6195105E2,9.505109E1,0E0,0E0,0E0,5.747538E1,5.8849585E2,1.5287598E1,1.2492743E2,0E0,6.2998077E1,3.6293755E0,5.3382324E1,2.6006775E1,1.1864081E2,2.7328467E2,7.020264E1,3.2181854E0,0E0,0E0,0E0,0E0,0E0,0E0,0E0,0E0,0E0,0E0,0E0,0E0,0E0,0E0,0E0,0E0,0E0,0E0,0E0,0E0,0E0,0E0,0E0,0E0,0E0,0E0,0E0,0E0,0E0,0E0,0E0,0E0,0E0,0E0,0E0,0E0,0E0,0E0,0E0,0E0,0E0],"parents":[2147483647,0,0,1,1,2,2,3,3,4,4,5,5,6,6,7,7,8,8,9,9,10,10,11,11,12,12,13,13,14,14,15,15,17,17,18,18,19,19,21,21,22,22,23,23,24,24,25,25,26,26,27,27,28,28,29,29,30,30,32,32,33,33,34,34,35,35,36,36,39,39,40,40,41,41,45,45,46,46,47,47,48,48,50,50,51,51,52,52,53,53,54,54,55,55,56,56,57,57],"right_children":[2,4,6,8,10,12,14,16,18,20,22,24,26,28,30,32,-1,34,36,38,-1,40,42,44,46,48,50,52,54,56,58,-1,60,62,64,66,68,-1,-1,70,72,74,-1,-1,-1,76,78,80,82,-1,84,86,88,90,92,94,96,98,-1,-1,-1,-1,-1,-1,-1,-1,-1,-1,-1,-1,-1,-1,-1,-1,-1,-1,-1,-1,-1,-1,-1,-1,-1,-1,-1,-1,-1,-1,-1,-1,-1,-1,-1,-1,-1,-1,-1,-1,-1],"split_conditions":[2.278E1,1.979E1,2.743E1,1.6666667E-1,8.333333E-1,1E0,2.988E1,6.79236E0,3.41E1,-7.372773E-1,4.35E1,1.6666667E-1,2.371E1,2.772335E0,1E0,1.662E1,1.7580478E-1,1.799E1,7.0666664E1,2.096E1,1.4299472E-2,2.125E1,2.185E1,2.5039825E-1,3.580857E1,1.803E1,1.3769071E-1,2.09E1,2.129E1,3.06E1,2.171E1,1.3213341E-1,1.767E1,9.25E1,3.824263E1,9.1E0,6.9658446E0,1.0514062E-1,2.4438956E-1,-2.3E-1,2.1334444E1,2.059E1,-8.715859E-2,2.0577534E-1,3.324077E-1,4.0166668E1,2.3837223E1,2.468E1,2.26E1,2.1289802E-1,1.6666667E-1,1.762E1,1.6666667E-1,1.752E1,2.6504444E1,7.0740952E0,3.0949444E1,1.37E0,2.8535707E-2,6.2378358E-2,2.0976603E-2,-1.4232086E-1,7.829128E-2,-1.0669873E-1,-5.452463E-2,-1.0867443E-1,-1.9883478E-2,1.5986644E-1,3.3105013E-1,-8.8447444E-2,-6.390619E-2,3.5172752E-1,-3.0124126E-2,1.5129116E-1,3.4487474E-1,2.5918344E-2,-3.7128385E-2,3.1524995E-1,6.98104E-2,-5.2173384E-2,-3.3435423E-3,1.554828E-1,-2.6651088E-3,1.1394464E-1,2.7910901E-2,2.4823558E-2,7.843897E-2,2.1495362E-1,1.370939E-1,1.4356607E-1,4.0159173E-2,2.4217914E-1,8.845184E-2,2.8701824E-1,1.4436093E-1,1.4995754E-1,1.9790058E-1,7.2886534E-2,1.013601E-1],"split_indices":[0,0,0,28,28,29,0,18,10,27,28,28,0,12,29,2,0,0,28,0,0,0,3,7,20,5,7,5,5,2,3,0,0,11,20,16,18,0,0,8,6,1,0,0,0,28,6,3,9,0,28,2,28,1,6,18,6,8,0,0,0,0,0,0,0,0,0,0,0,0,0,0,0,0,0,0,0,0,0,0,0,0,0,0,0,0,0,0,0,0,0,0,0,0,0,0,0,0,0],"split_type":[0,0,0,0,0,0,0,0,0,0,0,0,0,0,0,0,0,0,0,0,0,0,0,0,0,0,0,0,0,0,0,0,0,0,0,0,0,0,0,0,0,0,0,0,0,0,0,0,0,0,0,0,0,0,0,0,0,0,0,0,0,0,0,0,0,0,0,0,0,0,0,0,0,0,0,0,0,0,0,0,0,0,0,0,0,0,0,0,0,0,0,0,0,0,0,0,0,0,0],"sum_hessian":[8.568E3,4.423E3,4.145E3,2.825E3,1.598E3,2.762E3,1.383E3,4.6E1,2.779E3,2.4E1,1.574E3,1.543E3,1.219E3,5.82E2,8.01E2,2.8E1,1.8E1,2.317E3,4.62E2,1.9E1,5E0,1.512E3,6.2E1,2.8E1,1.515E3,4.04E2,8.15E2,3.23E2,2.59E2,7.19E2,8.2E1,1E1,1.8E1,9.64E2,1.353E3,4.1E2,5.2E1,6E0,1.3E1,6.58E2,8.54E2,3E1,3.2E1,1.7E1,1.1E1,2.28E2,1.287E3,7.6E1,3.28E2,8E0,8.07E2,1.7E1,3.06E2,7E1,1.89E2,1.93E2,5.26E2,7.6E1,6E0,1.1E1,7E0,9.51E2,1.3E1,1.251E3,1.02E2,3.27E2,8.3E1,2.8E1,2.4E1,9.8E1,5.6E2,7E0,8.47E2,1.7E1,1.3E1,1.84E2,4.4E1,2.4E1,1.263E3,5.3E1,2.3E1,1.2E1,3.16E2,2.1E1,7.86E2,6E0,1.1E1,2.7E1,2.79E2,6E0,6.4E1,1.3E1,1.76E2,1.45E2,4.8E1,1.17E2,4.09E2,3.7E1,3.9E1],"tree_param":{"num_deleted":"0","num_feature":"30","num_nodes":"99","size_leaf_vector":"1"}},{"base_weights":[1.3120439E-2,-1.4497372E0,1.6867908E0,-1.9738727E0,-6.19505E-1,1.088602E0,3.4418607E0,-2.1158745E0,7.4933775E-2,-1.1242619E0,-3.2923505E-1,5.933493E-1,1.6864382E0,3.7287056E0,1.5826049E0,2.3386695E0,-2.1494167E0,2.081798E0,-1.4502318E0,-1.2892091E0,-2.4537191E-1,2.4353197E0,-4.4968563E-1,5.0629175E-1,2.8585625E0,1.907042E0,1.2022312E0,3.398838E0,4.77838E0,4.5807824E-1,1.6968046E0,1.4444678E-1,2.8661346E-2,-2.5277073E0,-1.8703309E0,3.7499306E0,-1.8972524E0,-2.0266118E0,1.846521E0,-1.306862E0,2.5279889E-2,1.6687348E-1,-1.0433556E0,5.65104E0,-1.1659117E0,-1.3947023E0,-2.6833877E-1,4.0509768E0,4.6944615E-1,1.4860454E0,4.112397E-1,1.6780592E0,2.4137545E0,1.0897409E0,2.421344E0,3.2664802E0,5.0837827E0,5.374697E0,4.1118307E0,2.9761368E-2,1.4040649E-2,2.1783042E0,1.3949592E0,-1.3154545E-1,-5.102719E-2,-9.442541E-2,1.1330189E-1,2.2789533E-1,9.683069E-2,-1.4242856E-1,7.157331E-2,-1.1793088E-1,-8.082955E-2,4.5714304E-2,1.3322352E-1,-8.4526524E-2,-6.129157E-2,-6.9872715E-2,-4.4056453E-2,1.5943813E-1,3.2157195E-1,-6.8736374E-2,-1.7257294E-2,-8.274031E-2,-4.7924813E-2,1.4019117E-2,-2.280019E-2,2.2599888E-1,1.2579896E-1,1.5742992E-1,2.1177564E-2,2.9988894E-1,-2.4500664E-2,1.1672097E-1,7.33312E-2,1.9188748E-1,1.1657932E-1,7.679795E-2,4.0222745E-2,1.7837798E-2,1.812556E-1,1.3012087E-1,1.749763E-1,3.112421E-1,2.0435885E-1,2.823334E-1,1.8656789E-1,2.2278371E-1,1.7337406E-1,1.2480261E-1,7.132618E-2,9.625083E-2,6.203243E-2],"categories":[],"categories_nodes":[],"categories_segments":[],"categories_sizes":[],"default_left":[0,0,0,0,0,0,0,0,0,0,0,0,0,0,0,0,0,0,0,0,0,0,0,0,0,0,0,0,0,0,0,0,0,0,0,0,0,0,0,0,0,0,0,0,0,0,0,0,0,0,0,0,0,0,0,0,0,0,0,0,0,0,0,0,0,0,0,0,0,0,0,0,0,0,0,0,0,0,0,0,0,0,0,0,0,0,0,0,0,0,0,0,0,0,0,0,0,0,0,0,0,0,0,0,0,0,0,0,0,0,0,0,0],"id":15,"left_children":[1,3,5,7,9,11,13,15,17,19,21,23,25,27,29,31,33,35,37,39,41,43,45,47,49,51,53,55,57,59,61,-1,-1,63,65,67,69,71,73,75,-1,-1,77,79,81,83,85,87,89,91,-1,93,95,97,99,101,103,105,107,-1,-1,109,111,-1,-1,-1,-1,-1,-1,-1,-1,-1,-1,-1,-1,-1,-1,-1,-1,-1,-1,-1,-1,-1,-1,-1,-1,-1,-1,-1,-1,-1,-1,-1,-1,-1,-1,-1,-1,-1,-1,-1,-1,-1,-1,-1,-1,-1,-1,-1,-1,-1,-1],"loss_changes":[2.0908834E4,1.9817744E3,4.1778594E3,8.127383E2,2.5823016E2,8.78949E2,5.338174E2,3.9529883E2,5.600847E2,9.304468E1,3.7471246E2,3.1940326E2,1.4148438E2,2.8707715E2,1.6816345E1,1.7773232E1,2.6903027E2,5.3148364E2,2.0136113E2,1.783319E1,2.9796426E2,5.5087463E2,1.8402614E2,2.0288864E2,4.2969226E2,1.030437E2,5.5507935E1,1.3281494E2,6.0177246E1,1.732173E-1,1.4983368E1,0E0,0E0,1.6809961E2,1.1676123E2,7.3219604E1,8.007777E1,8.302551E0,9.764244E0,1.4622437E1,0E0,0E0,3.6514206E0,2.7530579E1,3.4674625E0,1.8042297E1,9.321796E1,1.4648438E-1,1.8962238E2,4.3979602E2,0E0,8.525525E1,2.4398926E1,4.8411316E1,8.5691696E1,8.746094E1,2.8005737E1,2.6305908E1,7.1486816E0,0E0,0E0,7.427643E0,4.073395E0,0E0,0E0,0E0,0E0,0E0,0E0,0E0,0E0,0E0,0E0,0E0,0E0,0E0,0E0,0E0,0E0,0E0,0E0,0E0,0E0,0E0,0E0,0E0,0E0,0E0,0E0,0E0,0E0,0E0,0E0,0E0,0E0,0E0,0E0,0E0,0E0,0E0,0E0,0E0,0E0,0E0,0E0,0E0,0E0,0E0,0E0,0E0,0E0,0E0,0E0],"parents":[2147483647,0,0,1,1,2,2,3,3,4,4,5,5,6,6,7,7,8,8,9,9,10,10,11,11,12,12,13,13,14,14,15,15,16,16,17,17,18,18,19,19,20,20,21,21,22,22,23,23,24,24,25,25,26,26,27,27,28,28,29,29,30,30,33,33,34,34,35,35,36,36,37,37,38,38,39,39,42,42,43,43,44,44,45,45,46,46,47,47,48,48,49,49,51,51,52,52,53,53,54,54,55,55,56,56,57,57,58,58,61,61,62,62],"right_children":[2,4,6,8,10,12,14,16,18,20,22,24,26,28,30,32,34,36,38,40,42,44,46,48,50,52,54,56,58,60,62,-1,-1,64,66,68,70,72,74,76,-1,-1,78,80,82,84,86,88,90,92,-1,94,96,98,100,102,104,106,108,-1,-1,110,112,-1,-1,-1,-1,-1,-1,-1,-1,-1,-1,-1,-1,-1,-1,-1,-1,-1,-1,-1,-1,-1,-1,-1,-1,-1,-1,-1,-1,-1,-1,-1,-1,-1,-1,-1,-1,-1,-1,-1,-1,-1,-1,-1,-1,-1,-1,-1,-1,-1,-1],"split_conditions":[2.293E1,1.979E1,2.885E1,2.685455E-1,2.109E1,2.541E1,1E0,1.715E1,1.864E1,3.8567654E1,2.149E1,2.685455E-1,1.4251171E-1,3.25E1,1.689E1,1.662E1,1.803E1,2.43E1,3.2E0,4E-2,2.262E1,-3.8268343E-1,-2.5E-1,1.99E1,9.5E0,2.736E1,2.66E0,1.92E0,3.25E1,2.17E1,-9.238795E-1,1.4444678E-1,2.8661346E-2,3.41E1,1.1E-1,2.9213533E-1,1.787E1,1.9E1,1.876389E1,-2.9E-1,2.5279889E-2,1.6687348E-1,2.303E1,2.181E1,7E1,2E0,1E0,2.4108889E1,1.8525411E-1,2.362E1,4.112397E-1,-8.7155744E-2,2.69E1,5.500646E-1,3.3E1,3.007E1,3.737076E1,-5E-1,3.6614483E1,2.9761368E-2,1.4040649E-2,5.1204967E0,1.752E1,-1.3154545E-1,-5.102719E-2,-9.442541E-2,1.1330189E-1,2.2789533E-1,9.683069E-2,-1.4242856E-1,7.157331E-2,-1.1793088E-1,-8.082955E-2,4.5714304E-2,1.3322352E-1,-8.4526524E-2,-6.129157E-2,-6.9872715E-2,-4.4056453E-2,1.5943813E-1,3.2157195E-1,-6.8736374E-2,-1.7257294E-2,-8.274031E-2,-4.7924813E-2,1.4019117E-2,-2.280019E-2,2.2599888E-1,1.2579896E-1,1.5742992E-1,2.1177564E-2,2.9988894E-1,-2.4500664E-2,1.1672097E-1,7.33312E-2,1.9188748E-1,1.1657932E-1,7.679795E-2,4.0222745E-2,1.7837798E-2,1.812556E-1,1.3012087E-1,1.749763E-1,3.112421E-1,2.0435885E-1,2.823334E-1,1.8656789E-1,2.2278371E-1,1.7337406E-1,1.2480261E-1,7.132618E-2,9.625083E-2,6.203243E-2],"split_indices":[0,0,0,19,0,0,29,5,3,20,2,19,19,0,5,3,0,9,16,8,5,27,8,9,16,0,8,8,2,9,27,0,0,10,8,19,3,0,6,8,0,0,5,4,11,29,29,6,12,1,0,27,1,7,10,0,20,27,20,0,0,7,2,0,0,0,0,0,0,0,0,0,0,0,0,0,0,0,0,0,0,0,0,0,0,0,0,0,0,0,0,0,0,0,0,0,0,0,0,0,0,0,0,0,0,0,0,0,0,0,0,0,0],"split_type":[0,0,0,0,0,0,0,0,0,0,0,0,0,0,0,0,0,0,0,0,0,0,0,0,0,0,0,0,0,0,0,0,0,0,0,0,0,0,0,0,0,0,0,0,0,0,0,0,0,0,0,0,0,0,0,0,0,0,0,0,0,0,0,0,0,0,0,0,0,0,0,0,0,0,0,0,0,0,0,0,0,0,0,0,0,0,0,0,0,0,0,0,0,0,0,0,0,0,0,0,0,0,0,0,0,0,0,0,0,0,0,0,0],"sum_hessian":[8.538E3,4.556E3,3.982E3,2.792E3,1.764E3,2.971E3,1.011E3,2.611E3,1.81E2,6.43E2,1.121E3,1.626E3,1.345E3,8.75E2,1.36E2,1.9E1,2.592E3,7.8E1,1.03E2,5.41E2,1.02E2,4.6E1,1.075E3,1.567E3,5.9E1,9.22E2,4.23E2,6.69E2,2.06E2,1.3E1,1.23E2,1.4E1,5E0,1.097E3,1.495E3,5.5E1,2.3E1,8.8E1,1.5E1,5.36E2,5E0,1.8E1,8.4E1,2.4E1,2.2E1,1.72E2,9.03E2,1.5E1,1.552E3,4.8E1,1.1E1,6.38E2,2.84E2,3.89E2,3.4E1,6.23E2,4.6E1,1.05E2,1.01E2,6E0,7E0,4.5E1,7.8E1,1.026E3,7.1E1,1.489E3,6E0,3.7E1,1.8E1,1.8E1,5E0,4.6E1,4.2E1,8E0,7E0,9E1,4.46E2,2.4E1,6E1,7E0,1.7E1,1.7E1,5E0,1.06E2,6.6E1,2.3E2,6.73E2,1E1,5E0,2.5E1,1.527E3,1.4E1,3.4E1,1.53E2,4.85E2,1.3E1,2.71E2,1.5E2,2.39E2,1.3E1,2.1E1,1.65E2,4.58E2,1.9E1,2.7E1,8.8E1,1.7E1,6.2E1,3.9E1,3E1,1.5E1,1.5E1,6.3E1],"tree_param":{"num_deleted":"0","num_feature":"30","num_nodes":"113","size_leaf_vector":"1"}},{"base_weights":[2.1917596E-2,-1.3531195E0,1.6194944E0,-1.7647958E0,-3.7915528E-1,1.0458153E0,3.2838323E0,2.1777174E0,-1.8276874E0,3.4524093E0,-4.417319E-1,5.6457126E-1,1.5796249E0,3.5578907E0,1.4811734E0,2.9691246E0,1.1636708E0,-1.9945203E0,-1.0007228E0,4.230388E-3,4.437962E0,-5.5954605E-1,1.1452745E0,4.8941058E-1,3.1768208E0,1.7950749E0,1.1024987E0,3.9193292E0,2.7051644E0,1.3322866E0,2.5052516E0,1.06718756E-1,1.7751412E-1,3.6260048E-1,9.6726224E-2,-2.341029E0,-1.5070235E0,-1.5784634E0,4.3848443E0,1.2082275E-1,2.6604626E-1,-1.4862691E0,-4.524035E-1,-9.417508E-1,3.9341269E0,2.1225289E-1,4.5122233E-1,6.1661544E0,4.3086138E-2,9.946565E-1,1.935796E0,1.0068839E0,2.2005775E0,4.425816E0,3.0385811E0,3.2422426E0,2.1002672E0,4.651526E-1,1.4243279E0,5.2772332E-2,1.5341522E-1,3.3628155E-2,-5.5558207E-3,1.6436264E-1,-1.182601E-1,3.1718713E-1,-7.998069E-2,-9.127205E-2,-2.472501E-2,1.4783503E-1,3.4590945E-1,-5.5957954E-2,-9.046395E-2,-3.1696893E-2,-9.538266E-4,-5.8844704E-2,2.7871728E-2,3.5454366E-1,-1.590279E-2,1.6196172E-1,2.0455204E-2,3.6630782E-1,9.2589505E-2,-6.1015006E-2,5.058037E-2,5.2553296E-2,1.4093185E-2,1.485984E-1,8.759092E-2,3.6114536E-2,6.97489E-2,1.6095519E-1,-1.10857105E-2,3.0405384E-1,1.8939659E-1,1.90347E-1,1.2577294E-1,1.6974586E-1,1.3028774E-1,9.3498416E-2,1.5868412E-1,2.9687976E-2,1.5527666E-2,5.311813E-2,8.3300576E-2],"categories":[],"categories_nodes":[],"categories_segments":[],"categories_sizes":[],"default_left":[0,0,0,0,0,0,0,0,0,0,0,0,0,0,0,0,0,0,0,0,0,0,0,0,0,0,0,0,0,0,0,0,0,0,0,0,0,0,0,0,0,0,0,0,0,0,0,0,0,0,0,0,0,0,0,0,0,0,0,0,0,0,0,0,0,0,0,0,0,0,0,0,0,0,0,0,0,0,0,0,0,0,0,0,0,0,0,0,0,0,0,0,0,0,0,0,0,0,0,0,0,0,0,0,0],"id":16,"left_children":[1,3,5,7,9,11,13,15,17,19,21,23,25,27,29,31,33,35,37,-1,39,41,43,45,47,49,51,53,55,57,59,-1,-1,61,-1,63,65,67,69,-1,-1,71,73,75,77,-1,79,81,83,85,87,89,91,93,95,97,99,101,103,-1,-1,-1,-1,-1,-1,-1,-1,-1,-1,-1,-1,-1,-1,-1,-1,-1,-1,-1,-1,-1,-1,-1,-1,-1,-1,-1,-1,-1,-1,-1,-1,-1,-1,-1,-1,-1,-1,-1,-1,-1,-1,-1,-1,-1,-1],"loss_changes":[1.8720504E4,1.8357188E3,3.76037E3,8.0213477E2,3.2808685E2,7.525742E2,4.937041E2,3.7473618E1,4.3521484E2,7.264572E1,2.5137E2,3.0159167E2,1.4090845E2,2.593877E2,1.7245972E1,6.005768E0,1.4118732E1,4.4175098E2,1.668442E3,0E0,1.7485779E1,1.2334265E2,5.450027E2,2.1350375E2,4.0254877E2,1.0575464E2,4.3456116E1,2.600039E2,7.8957886E1,8.914932E0,9.822639E0,0E0,0E0,1.9835814E0,0E0,2.171582E2,8.0828784E2,1.2840344E2,1.6767987E2,0E0,0E0,1.3271973E1,8.816997E1,1.9692295E1,5.3917786E2,0E0,1.7340506E2,9.6536255E1,2.8154024E1,5.5339203E0,1.495874E2,4.3392883E1,8.459743E1,3.8558496E2,8.166553E1,4.563843E0,2.5460571E1,7.40788E-2,7.678055E0,0E0,0E0,0E0,0E0,0E0,0E0,0E0,0E0,0E0,0E0,0E0,0E0,0E0,0E0,0E0,0E0,0E0,0E0,0E0,0E0,0E0,0E0,0E0,0E0,0E0,0E0,0E0,0E0,0E0,0E0,0E0,0E0,0E0,0E0,0E0,0E0,0E0,0E0,0E0,0E0,0E0,0E0,0E0,0E0,0E0,0E0],"parents":[2147483647,0,0,1,1,2,2,3,3,4,4,5,5,6,6,7,7,8,8,9,9,10,10,11,11,12,12,13,13,14,14,15,15,16,16,17,17,18,18,20,20,21,21,22,22,23,23,24,24,25,25,26,26,27,27,28,28,29,29,30,30,33,33,35,35,36,36,37,37,38,38,41,41,42,42,43,43,44,44,46,46,47,47,48,48,49,49,50,50,51,51,52,52,53,53,54,54,55,55,56,56,57,57,58,58],"right_children":[2,4,6,8,10,12,14,16,18,20,22,24,26,28,30,32,34,36,38,-1,40,42,44,46,48,50,52,54,56,58,60,-1,-1,62,-1,64,66,68,70,-1,-1,72,74,76,78,-1,80,82,84,86,88,90,92,94,96,98,100,102,104,-1,-1,-1,-1,-1,-1,-1,-1,-1,-1,-1,-1,-1,-1,-1,-1,-1,-1,-1,-1,-1,-1,-1,-1,-1,-1,-1,-1,-1,-1,-1,-1,-1,-1,-1,-1,-1,-1,-1,-1,-1,-1,-1,-1,-1,-1],"split_conditions":[2.299E1,2.069E1,2.885E1,1.6666667E-1,3.3333334E-1,2.535E1,1E0,2E0,3.41E1,2.8E-1,3.9E1,2.7385747E-1,1.4251171E-1,7.0740952E0,2.46E1,6.79236E0,3.6E1,1.875E1,7.0666664E1,4.230388E-3,2.181E1,-3.7E-1,3.17E1,1.99E1,5.500646E-1,3.6808308E1,2.66E0,3.737076E1,2.34E1,1.689E1,-3.007058E-1,1.06718756E-1,1.7751412E-1,1.3601442E-1,9.6726224E-2,1.98E1,1.885E1,9.1E0,3.8268343E-1,1.2082275E-1,2.6604626E-1,1.75E1,2.241E1,6E-1,2.2018888E1,2.1225289E-1,1.6575368E-1,2.3E1,3.62E1,9.659258E-1,2.586E1,2.897E1,2E0,3.06E1,2.58E1,9.396926E-1,2.0591335E0,2.564611E1,6E-1,5.2772332E-2,1.5341522E-1,3.3628155E-2,-5.5558207E-3,1.6436264E-1,-1.182601E-1,3.1718713E-1,-7.998069E-2,-9.127205E-2,-2.472501E-2,1.4783503E-1,3.4590945E-1,-5.5957954E-2,-9.046395E-2,-3.1696893E-2,-9.538266E-4,-5.8844704E-2,2.7871728E-2,3.5454366E-1,-1.590279E-2,1.6196172E-1,2.0455204E-2,3.6630782E-1,9.2589505E-2,-6.1015006E-2,5.058037E-2,5.2553296E-2,1.4093185E-2,1.485984E-1,8.759092E-2,3.6114536E-2,6.97489E-2,1.6095519E-1,-1.10857105E-2,3.0405384E-1,1.8939659E-1,1.90347E-1,1.2577294E-1,1.6974586E-1,1.3028774E-1,9.3498416E-2,1.5868412E-1,2.9687976E-2,1.5527666E-2,5.311813E-2,8.3300576E-2],"split_indices":[0,0,0,28,28,0,29,29,10,17,28,19,19,18,9,18,11,2,28,0,4,8,10,9,7,20,8,20,10,5,26,0,0,7,0,9,3,16,26,0,0,28,0,14,6,0,12,9,10,26,2,5,29,2,3,26,7,6,8,0,0,0,0,0,0,0,0,0,0,0,0,0,0,0,0,0,0,0,0,0,0,0,0,0,0,0,0,0,0,0,0,0,0,0,0,0,0,0,0,0,0,0,0,0,0],"split_type":[0,0,0,0,0,0,0,0,0,0,0,0,0,0,0,0,0,0,0,0,0,0,0,0,0,0,0,0,0,0,0,0,0,0,0,0,0,0,0,0,0,0,0,0,0,0,0,0,0,0,0,0,0,0,0,0,0,0,0,0,0,0,0,0,0,0,0,0,0,0,0,0,0,0,0,0,0,0,0,0,0,0,0,0,0,0,0,0,0,0,0,0,0,0,0,0,0,0,0,0,0,0,0,0,0],"sum_hessian":[8.52E3,4.579E3,3.941E3,3.218E3,1.361E3,2.932E3,1.009E3,5E1,3.168E3,2.1E1,1.34E3,1.543E3,1.389E3,8.75E2,1.34E2,2.7E1,2.3E1,2.635E3,5.33E2,5E0,1.6E1,1.248E3,9.2E1,1.501E3,4.2E1,9.55E2,4.34E2,6.12E2,2.63E2,1.19E2,1.5E1,1.3E1,1.4E1,1.2E1,1.1E1,1.538E3,1.097E3,4.82E2,5.1E1,6E0,1E1,1.28E2,1.12E3,5.3E1,3.9E1,1.4E1,1.487E3,2.1E1,2.1E1,1.44E2,8.11E2,4.01E2,3.3E1,3.86E2,2.26E2,1.37E2,1.26E2,1.2E1,1.07E2,5E0,1E1,7E0,5E0,6E0,1.532E3,1.2E1,1.085E3,3.92E2,9E1,3.4E1,1.7E1,6.2E1,6.6E1,7.89E2,3.31E2,4.6E1,7E0,2.2E1,1.7E1,2.1E1,1.466E3,1.6E1,5E0,9E0,1.2E1,1.33E2,1.1E1,1.2E2,6.91E2,2.33E2,1.68E2,2.3E1,1E1,1.05E2,2.81E2,8.9E1,1.37E2,1.07E2,3E1,1.06E2,2E1,5E0,7E0,4.5E1,6.2E1],"tree_param":{"num_deleted":"0","num_feature":"30","num_nodes":"105","size_leaf_vector":"1"}},{"base_weights":[1.8599698E-2,-1.2018157E0,1.6113402E0,-1.6627139E0,-2.8155345E-1,1.1312312E0,3.300859E0,2.098525E0,-1.7212747E0,3.7094126E0,-3.4643343E-1,6.3378304E-1,1.5718782E0,3.5073137E0,1.4695123E0,1.4065179E0,1.533105E-1,-1.8359368E0,-4.8241168E-1,4.9189224E0,2.3213382E0,-4.792429E-1,1.2610059E0,5.6494397E-1,3.2276251E0,1.3064568E0,1.9370707E0,3.845158E0,2.689111E0,9.963155E-2,1.3193307E0,1.1406604E-1,8.8131076E-1,-2.190578E0,-1.4666198E0,-1.0046229E0,4.4770646E0,1.3928477E-1,2.951989E-1,6.2680595E-2,1.4827156E-1,-8.307479E-1,-2.3562278E-1,1.1725794E-1,5.6940575E0,1.7842822E-1,5.302261E-1,7.047176E0,3.4567824E-1,2.0786967E0,1.1450255E0,8.523346E-1,2.0938253E0,5.0218196E0,3.3454995E0,2.1673543E0,1.5932105E-1,7.842868E-2,5.373614E-2,6.0390998E-2,2.0068435E-2,-1.1216523E-1,1.3599584E-2,1.3146965E-1,-7.530268E-2,2.1559715E-1,-6.478473E-2,1.5851492E-1,3.1254306E-1,-1.8540708E-2,-5.7223566E-2,-4.5631126E-2,-8.769754E-3,1.9848573E-1,-4.924834E-2,3.2067382E-1,1.17349245E-1,1.4489497E-1,2.4662515E-2,2.073098E-1,4.041523E-1,-5.510676E-2,6.6070996E-2,1.9747025E-1,6.1877828E-2,1.4919524E-1,5.5143204E-2,1.0502687E-2,7.525788E-2,1.8397626E-1,9.842723E-2,2.2459474E-1,4.1606116E-1,1.790429E-1,1.31068E-1,1.1571769E-1,4.4624314E-2],"categories":[],"categories_nodes":[],"categories_segments":[],"categories_sizes":[],"default_left":[0,0,0,0,0,0,0,0,0,0,0,0,0,0,0,0,0,0,0,0,0,0,0,0,0,0,0,0,0,0,0,0,0,0,0,0,0,0,0,0,0,0,0,0,0,0,0,0,0,0,0,0,0,0,0,0,0,0,0,0,0,0,0,0,0,0,0,0,0,0,0,0,0,0,0,0,0,0,0,0,0,0,0,0,0,0,0,0,0,0,0,0,0,0,0,0,0],"id":17,"left_children":[1,3,5,7,9,11,13,15,17,19,21,23,25,27,29,31,-1,33,35,37,39,