{"learner":{"attributes":{"best_iteration":"128","best_score":"3.926327796088316"},"feature_names":["vwc_20cm","vwc_20cm_lag_6s","vwc_20cm_lag_18s","vwc_20cm_lag_36s","vwc_20cm_lag_72s","vwc_20cm_lag_144s","vwc_20cm_roll_mean_3h","vwc_20cm_roll_std_6h","vwc_20cm_deriv_1h","soil_temp_c","air_temp_c","rh_pct","vpd_kpa","rain_mm_h","rain_mm_1h_sum","rain_mm_6h_sum","rain_mm_24h_sum","et0_open_meteo_mm_h","et0_hargreaves_mm_day","etc_mm_h","ra_mj_m2_day","daylength_h","gdd_cum","kc_dynamic","sin_doy","cos_doy","sin_hour","cos_hour","hours_since_last_irrigation","line_id"],"feature_types":[],"gradient_booster":{"model":{"cats":{"enc":[],"feature_segments":[],"sorted_idx":[]},"gbtree_model_param":{"num_parallel_tree":"1","num_trees":"179"},"iteration_indptr":[0,1,2,3,4,5,6,7,8,9,10,11,12,13,14,15,16,17,18,19,20,21,22,23,24,25,26,27,28,29,30,31,32,33,34,35,36,37,38,39,40,41,42,43,44,45,46,47,48,49,50,51,52,53,54,55,56,57,58,59,60,61,62,63,64,65,66,67,68,69,70,71,72,73,74,75,76,77,78,79,80,81,82,83,84,85,86,87,88,89,90,91,92,93,94,95,96,97,98,99,100,101,102,103,104,105,106,107,108,109,110,111,112,113,114,115,116,117,118,119,120,121,122,123,124,125,126,127,128,129,130,131,132,133,134,135,136,137,138,139,140,141,142,143,144,145,146,147,148,149,150,151,152,153,154,155,156,157,158,159,160,161,162,163,164,165,166,167,168,169,170,171,172,173,174,175,176,177,178,179],"tree_info":[0,0,0,0,0,0,0,0,0,0,0,0,0,0,0,0,0,0,0,0,0,0,0,0,0,0,0,0,0,0,0,0,0,0,0,0,0,0,0,0,0,0,0,0,0,0,0,0,0,0,0,0,0,0,0,0,0,0,0,0,0,0,0,0,0,0,0,0,0,0,0,0,0,0,0,0,0,0,0,0,0,0,0,0,0,0,0,0,0,0,0,0,0,0,0,0,0,0,0,0,0,0,0,0,0,0,0,0,0,0,0,0,0,0,0,0,0,0,0,0,0,0,0,0,0,0,0,0,0,0,0,0,0,0,0,0,0,0,0,0,0,0,0,0,0,0,0,0,0,0,0,0,0,0,0,0,0,0,0,0,0,0,0,0,0,0,0,0,0,0,0,0,0,0,0,0,0,0,0],"trees":[{"base_weights":[-1.5945056E-2,4.394031E0,-2.1947172E0,3.3142514E0,6.75848E0,-3.4878361E0,-2.0618254E-1,9.928568E0,3.0616174E0,7.64245E0,4.8899913E0,1.4832003E0,-3.649685E0,-1.0252242E0,8.45185E-1,5.565711E-1,4.3280944E-1,1.0245175E0,3.7457356E0,8.742824E0,6.0498137E0,6.2135053E0,3.706609E0,3.3726433E-1,2.5047762E0,-3.8529403E0,-6.464858E-1,1.7317979E0,-1.4478711E0,-1.4534578E0,9.796391E-1,8.855324E0,4.9190196E-1,7.2685184E0,3.4693737E0,8.222523E0,6.412881E-1,3.7699535E-1,5.7941523E0,3.4507748E-1,2.651586E-1,2.974019E0,4.419346E0,1.3803885E0,-6.433961E-1,1.6812838E0,1.4314274E-1,-7.602013E-1,-4.0493793E0,-2.9412858E0,4.323839E0,2.8001568E-1,7.2820497E0,-3.0791216E0,-1.1442941E0,-1.9403829E-1,-2.060904E0,3.4183192E0,8.349154E-1,5.5244106E-1,7.210519E-2,-1.4958416E-2,8.881179E-2,4.7523195E-1,3.939351E-2,1.6385691E-1,4.0118518E-1,3.8897893E-1,4.4210312E-1,2.3349534E-1,2.9821464E-1,1.24056295E-1,1.707966E-1,1.7654976E-1,2.357939E-1,3.2508176E-2,8.643667E-2,-5.2710403E-2,-3.8980643E-4,9.4512194E-2,4.393349E-2,-1.9417265E-1,3.6637267E-1,-2.0781215E-1,8.8525385E-2,2.61603E-1,-1.6630974E-1,2.6445985E-1,-1.2961535E-1,1.5835243E-1,-6.746165E-2,-4.3115385E-2,4.863565E-1,-9.764915E-2,-1.7254871E-1,-6.531186E-2,1.6274823E-2,-2.6825551E-2,2.6480603E-4,-7.5360805E-2,-1.2808092E-1,2.3977843E-1,3.8692813E-2,5.7827096E-2,6.540631E-3],"categories":[],"categories_nodes":[],"categories_segments":[],"categories_sizes":[],"default_left":[0,0,0,0,0,0,0,0,0,0,0,0,0,0,0,0,0,0,0,0,0,0,0,0,0,0,0,0,0,0,0,0,0,0,0,0,0,0,0,0,0,0,0,0,0,0,0,0,0,0,0,0,0,0,0,0,0,0,0,0,0,0,0,0,0,0,0,0,0,0,0,0,0,0,0,0,0,0,0,0,0,0,0,0,0,0,0,0,0,0,0,0,0,0,0,0,0,0,0,0,0,0,0,0,0],"id":0,"left_children":[1,3,5,7,9,11,13,15,17,19,21,23,25,27,29,-1,-1,31,33,35,37,39,41,43,45,47,49,51,53,55,57,59,61,63,65,67,-1,-1,69,-1,-1,71,73,75,77,79,-1,81,83,85,87,89,91,93,95,97,99,101,103,-1,-1,-1,-1,-1,-1,-1,-1,-1,-1,-1,-1,-1,-1,-1,-1,-1,-1,-1,-1,-1,-1,-1,-1,-1,-1,-1,-1,-1,-1,-1,-1,-1,-1,-1,-1,-1,-1,-1,-1,-1,-1,-1,-1,-1,-1],"loss_changes":[8.211284E4,7.192621E3,1.4707754E4,3.2146875E3,1.4243672E3,2.7940078E3,1.9426782E3,1.2309082E1,2.6050117E3,9.9685547E2,4.264756E2,1.2792789E2,2.0466758E3,1.4800405E3,3.0677716E2,0E0,0E0,1.9642664E3,1.3387441E3,6.4231055E2,5.079004E1,4.7331055E1,6.7266846E1,5.510452E1,1.228949E1,1.9070117E3,2.4535806E3,1.3597219E3,5.412075E2,4.1676735E1,3.267871E2,4.7189282E2,4.5061868E2,1.4561533E3,1.1127373E3,1.7654297E1,0E0,0E0,1.3463867E1,0E0,0E0,8.732056E0,3.3684082E0,5.489662E0,7.3029184E0,1.6933823E0,0E0,4.802554E3,1.8457969E3,4.798639E2,4.6771716E2,6.392718E2,7.0536414E2,6.52865E1,2.2154785E2,1.2999067E0,6.396942E0,1.8567737E2,1.9981128E2,0E0,0E0,0E0,0E0,0E0,0E0,0E0,0E0,0E0,0E0,0E0,0E0,0E0,0E0,0E0,0E0,0E0,0E0,0E0,0E0,0E0,0E0,0E0,0E0,0E0,0E0,0E0,0E0,0E0,0E0,0E0,0E0,0E0,0E0,0E0,0E0,0E0,0E0,0E0,0E0,0E0,0E0,0E0,0E0,0E0,0E0],"parents":[2147483647,0,0,1,1,2,2,3,3,4,4,5,5,6,6,7,7,8,8,9,9,10,10,11,11,12,12,13,13,14,14,17,17,18,18,19,19,20,20,21,21,22,22,23,23,24,24,25,25,26,26,27,27,28,28,29,29,30,30,31,31,32,32,33,33,34,34,35,35,38,38,41,41,42,42,43,43,44,44,45,45,47,47,48,48,49,49,50,50,51,51,52,52,53,53,54,54,55,55,56,56,57,57,58,58],"right_children":[2,4,6,8,10,12,14,16,18,20,22,24,26,28,30,-1,-1,32,34,36,38,40,42,44,46,48,50,52,54,56,58,60,62,64,66,68,-1,-1,70,-1,-1,72,74,76,78,80,-1,82,84,86,88,90,92,94,96,98,100,102,104,-1,-1,-1,-1,-1,-1,-1,-1,-1,-1,-1,-1,-1,-1,-1,-1,-1,-1,-1,-1,-1,-1,-1,-1,-1,-1,-1,-1,-1,-1,-1,-1,-1,-1,-1,-1,-1,-1,-1,-1,-1,-1,-1,-1,-1,-1],"split_conditions":[1E0,2.872E1,2.115E1,1.6666667E-1,7.0740952E0,8.333333E-1,2.382E1,2.447E1,3.6014557E1,3.737076E1,2.39E1,6.79236E0,3.824263E1,2.2E1,2.16E1,5.565711E-1,4.3280944E-1,2.278E1,2.42E1,6.087614E-1,2.602E1,7.933533E-1,3.6417557E1,2E0,2.34E1,3.5387844E1,7.372773E-1,8.870108E-1,-3.4E-1,1.689E1,3.3905077E-1,2.216E1,2.501E1,2.4E1,8.75E1,1.5465987E-1,6.412881E-1,3.7699535E-1,1E0,3.4507748E-1,2.651586E-1,3.026E1,-4.2261827E-1,1.668E1,2.07E1,9E-1,1.4314274E-1,8.8E1,1.3316667E2,2.237E1,2.4E1,2.155E1,1.98E1,1.6333334E1,3.8878757E1,1.685E1,6.5833336E1,2.29E1,2.524E1,5.5244106E-1,7.210519E-2,-1.4958416E-2,8.881179E-2,4.7523195E-1,3.939351E-2,1.6385691E-1,4.0118518E-1,3.8897893E-1,4.4210312E-1,2.3349534E-1,2.9821464E-1,1.24056295E-1,1.707966E-1,1.7654976E-1,2.357939E-1,3.2508176E-2,8.643667E-2,-5.2710403E-2,-3.8980643E-4,9.4512194E-2,4.393349E-2,-1.9417265E-1,3.6637267E-1,-2.0781215E-1,8.8525385E-2,2.61603E-1,-1.6630974E-1,2.6445985E-1,-1.2961535E-1,1.5835243E-1,-6.746165E-2,-4.3115385E-2,4.863565E-1,-9.764915E-2,-1.7254871E-1,-6.531186E-2,1.6274823E-2,-2.6825551E-2,2.6480603E-4,-7.5360805E-2,-1.2808092E-1,2.3977843E-1,3.8692813E-2,5.7827096E-2,6.540631E-3],"split_indices":[29,1,1,28,18,28,1,4,20,20,10,18,20,3,9,0,0,5,1,26,2,26,20,29,9,20,26,26,8,5,12,1,4,9,11,19,0,0,16,0,0,1,26,4,9,14,0,28,28,5,9,1,10,28,20,5,28,9,4,0,0,0,0,0,0,0,0,0,0,0,0,0,0,0,0,0,0,0,0,0,0,0,0,0,0,0,0,0,0,0,0,0,0,0,0,0,0,0,0,0,0,0,0,0,0],"split_type":[0,0,0,0,0,0,0,0,0,0,0,0,0,0,0,0,0,0,0,0,0,0,0,0,0,0,0,0,0,0,0,0,0,0,0,0,0,0,0,0,0,0,0,0,0,0,0,0,0,0,0,0,0,0,0,0,0,0,0,0,0,0,0,0,0,0,0,0,0,0,0,0,0,0,0,0,0,0,0,0,0,0,0,0,0,0,0,0,0,0,0,0,0,0,0,0,0,0,0,0,0,0,0,0,0],"sum_hessian":[8.544E3,2.825E3,5.719E3,1.941E3,8.84E2,3.465E3,2.254E3,7E1,1.871E3,5.98E2,2.86E2,1.09E2,3.356E3,1.267E3,9.87E2,3.2E1,3.8E1,4.71E2,1.4E3,3.51E2,2.47E2,1.33E2,1.53E2,5.2E1,5.7E1,3.143E3,2.13E2,1.68E2,1.099E3,5.4E1,9.33E2,2.9E1,4.42E2,1E2,1.3E3,3.14E2,3.7E1,3.2E1,2.15E2,7.2E1,6.1E1,7.8E1,7.5E1,2.5E1,2.7E1,1.9E1,3.8E1,1.88E2,2.955E3,1.46E2,6.7E1,1.34E2,3.4E1,1.71E2,9.28E2,1.8E1,3.6E1,5.1E1,8.82E2,2.2E1,7E0,2.74E2,1.68E2,7.4E1,2.6E1,1.249E3,5.1E1,1.91E2,1.23E2,3.2E1,1.83E2,4E1,3.8E1,2.2E1,5.3E1,9E0,1.6E1,1.6E1,1.1E1,1.4E1,5E0,1.36E2,5.2E1,2.902E3,5.3E1,6E0,1.4E2,5.9E1,8E0,4.8E1,8.6E1,8E0,2.6E1,4.4E1,1.27E2,8.36E2,9.2E1,6E0,1.2E1,1.9E1,1.7E1,3.3E1,1.8E1,6.05E2,2.77E2],"tree_param":{"num_deleted":"0","num_feature":"30","num_nodes":"105","size_leaf_vector":"1"}},{"base_weights":[1.5686019E-3,4.184063E0,-2.087122E0,3.0537305E0,6.6772623E0,-3.3942137E0,-7.8671284E-2,1.1393528E0,3.6616223E0,7.402987E0,4.8680115E0,-4.389864E0,-2.878804E0,-8.889296E-1,9.7317845E-1,5.3374285E-1,6.757914E-1,8.880715E0,3.410354E0,8.374711E0,5.886871E0,4.0763164E0,3.162771E-1,-4.5723267E0,-1.7867494E0,-2.5010633E-1,-3.2422507E0,1.3817207E0,-1.2727953E0,2.68513E-1,9.0410787E-1,-1.5675437E-1,1.7475928E0,2.4646555E-1,4.5580384E-1,4.8688698E-1,3.2721336E0,6.042198E-1,7.9323635E0,3.813331E-1,5.51088E0,3.3468995E0,4.8005614E0,-5.2098765E0,-3.6285655E0,1.697562E0,-2.1616338E-1,1.681282E0,-3.949329E0,-3.56319E0,7.901721E-1,-2.5710317E-1,6.967647E0,-1.8691187E0,-7.234095E-1,3.2907754E-1,1.3877759E0,-1.9704403E-2,7.057331E-2,6.950183E-2,3.866093E-1,8.0661826E-2,1.7803682E-1,4.4437152E-1,3.759561E-1,2.2298662E-1,2.834004E-1,1.3310252E-1,2.0008469E-1,2.828316E-1,1.9945064E-1,-2.8312463E-1,-2.4443172E-1,-1.9196536E-1,-1.2646438E-1,9.413532E-2,5.6964338E-2,2.1971825E-1,-1.1601615E-1,-2.4600337E-1,-1.0973816E-1,-1.4308517E-1,-2.412257E-1,-8.0559224E-2,2.1404186E-1,1.18951336E-1,-7.014853E-2,-2.2012493E-2,4.5006618E-1,-1.2498832E-1,-7.190071E-2,-4.8409086E-2,1.5449245E-2,-3.69188E-2,3.1283464E-2,-4.2073365E-2,7.840132E-2],"categories":[],"categories_nodes":[],"categories_segments":[],"categories_sizes":[],"default_left":[0,0,0,0,0,0,0,0,0,0,0,0,0,0,0,0,0,0,0,0,0,0,0,0,0,0,0,0,0,0,0,0,0,0,0,0,0,0,0,0,0,0,0,0,0,0,0,0,0,0,0,0,0,0,0,0,0,0,0,0,0,0,0,0,0,0,0,0,0,0,0,0,0,0,0,0,0,0,0,0,0,0,0,0,0,0,0,0,0,0,0,0,0,0,0,0,0],"id":1,"left_children":[1,3,5,7,9,11,13,15,17,19,21,23,25,27,29,-1,31,33,35,37,39,41,-1,43,45,47,49,51,53,-1,55,57,59,-1,-1,-1,61,-1,63,-1,65,67,69,71,73,75,-1,77,79,81,83,85,87,89,91,93,95,-1,-1,-1,-1,-1,-1,-1,-1,-1,-1,-1,-1,-1,-1,-1,-1,-1,-1,-1,-1,-1,-1,-1,-1,-1,-1,-1,-1,-1,-1,-1,-1,-1,-1,-1,-1,-1,-1,-1,-1],"loss_changes":[7.4989266E4,8.0366875E3,1.5029174E4,2.2872227E3,1.1338633E3,1.7670234E3,1.9252908E3,2.0968447E3,1.9289355E3,8.847344E2,2.7192627E2,5.527715E2,2.185127E3,1.1139519E3,2.936906E2,0E0,4.0628125E2,1.830371E1,1.2161523E3,5.342754E2,1.2216211E2,7.373999E1,0E0,6.447637E2,7.0554254E2,1.9999932E3,2.604082E3,1.6953462E3,3.5639978E2,0E0,2.6904517E2,9.6209465E1,4.150777E2,0E0,0E0,0E0,6.6356445E2,0E0,6.973242E1,0E0,9.407227E0,2.8809631E1,3.5099365E1,6.770117E1,9.407471E1,1.3693466E0,0E0,2.0078267E3,1.5271118E2,1.6336934E3,1.2558646E3,4.3831207E2,6.3670386E2,1.3859595E2,1.4433896E2,1.4103146E2,2.1267786E2,0E0,0E0,0E0,0E0,0E0,0E0,0E0,0E0,0E0,0E0,0E0,0E0,0E0,0E0,0E0,0E0,0E0,0E0,0E0,0E0,0E0,0E0,0E0,0E0,0E0,0E0,0E0,0E0,0E0,0E0,0E0,0E0,0E0,0E0,0E0,0E0,0E0,0E0,0E0,0E0],"parents":[2147483647,0,0,1,1,2,2,3,3,4,4,5,5,6,6,7,7,8,8,9,9,10,10,11,11,12,12,13,13,14,14,16,16,17,17,18,18,19,19,20,20,21,21,23,23,24,24,25,25,26,26,27,27,28,28,30,30,31,31,32,32,36,36,38,38,40,40,41,41,42,42,43,43,44,44,45,45,47,47,48,48,49,49,50,50,51,51,52,52,53,53,54,54,55,55,56,56],"right_children":[2,4,6,8,10,12,14,16,18,20,22,24,26,28,30,-1,32,34,36,38,40,42,-1,44,46,48,50,52,54,-1,56,58,60,-1,-1,-1,62,-1,64,-1,66,68,70,72,74,76,-1,78,80,82,84,86,88,90,92,94,96,-1,-1,-1,-1,-1,-1,-1,-1,-1,-1,-1,-1,-1,-1,-1,-1,-1,-1,-1,-1,-1,-1,-1,-1,-1,-1,-1,-1,-1,-1,-1,-1,-1,-1,-1,-1,-1,-1,-1,-1],"split_conditions":[1E0,2.872E1,2.109E1,3.6014557E1,7.0740952E0,6.7884483E0,2.382E1,2.206E1,2.393E1,3.737076E1,4.2261827E-1,8.75E1,1.778E1,2.206E1,1.5706131E-1,5.3374285E-1,6.9045596E0,2.24E1,2.02E1,3.06E1,2.602E1,3.6417557E1,3.162771E-1,1.864E1,1.752E1,4.617486E-1,3.7729515E1,8.660254E-1,2.247E1,2.68513E-1,2.49E1,3.041E1,3.6166668E1,2.4646555E-1,4.5580384E-1,4.8688698E-1,2.495E1,6.042198E-1,-6.087614E-1,3.813331E-1,2.479E1,3.026E1,2.517E1,2.22E1,2.458E2,1.737E1,-2.1616338E-1,7.594902E-2,4.886002E-2,3.6808308E1,7.6604444E-1,2.155E1,1.98E1,2.37E1,3.8878757E1,1.803E1,1.689E1,-1.9704403E-2,7.057331E-2,6.950183E-2,3.866093E-1,8.0661826E-2,1.7803682E-1,4.4437152E-1,3.759561E-1,2.2298662E-1,2.834004E-1,1.3310252E-1,2.0008469E-1,2.828316E-1,1.9945064E-1,-2.8312463E-1,-2.4443172E-1,-1.9196536E-1,-1.2646438E-1,9.413532E-2,5.6964338E-2,2.1971825E-1,-1.1601615E-1,-2.4600337E-1,-1.0973816E-1,-1.4308517E-1,-2.412257E-1,-8.0559224E-2,2.1404186E-1,1.18951336E-1,-7.014853E-2,-2.2012493E-2,4.5006618E-1,-1.2498832E-1,-7.190071E-2,-4.8409086E-2,1.5449245E-2,-3.69188E-2,3.1283464E-2,-4.2073365E-2,7.840132E-2],"split_indices":[29,0,0,20,18,18,0,0,0,20,27,11,5,3,7,0,18,10,9,0,2,20,0,0,1,27,20,26,0,0,0,5,28,0,0,0,2,0,27,0,5,0,5,9,16,0,0,7,7,20,26,1,10,9,20,5,5,0,0,0,0,0,0,0,0,0,0,0,0,0,0,0,0,0,0,0,0,0,0,0,0,0,0,0,0,0,0,0,0,0,0,0,0,0,0,0,0],"split_type":[0,0,0,0,0,0,0,0,0,0,0,0,0,0,0,0,0,0,0,0,0,0,0,0,0,0,0,0,0,0,0,0,0,0,0,0,0,0,0,0,0,0,0,0,0,0,0,0,0,0,0,0,0,0,0,0,0,0,0,0,0,0,0,0,0,0,0,0,0,0,0,0,0,0,0,0,0,0,0,0,0,0,0,0,0,0,0,0,0,0,0,0,0,0,0,0,0],"sum_hessian":[8.582E3,2.858E3,5.724E3,1.968E3,8.9E2,3.467E3,2.257E3,4.75E2,1.493E3,6.33E2,2.57E2,1.18E3,2.287E3,1.275E3,9.82E2,2.1E1,4.54E2,6.7E1,1.426E3,3.83E2,2.5E2,1.69E2,8.8E1,1.102E3,7.8E1,2.78E2,2.009E3,1.84E2,1.091E3,1.4E1,9.68E2,2.56E2,1.98E2,5E0,6.2E1,2.9E1,1.397E3,3.8E1,3.45E2,4.1E1,2.09E2,8.7E1,8.2E1,6.55E2,4.47E2,3.3E1,4.5E1,1.83E2,9.5E1,1.861E3,1.48E2,1.43E2,4.1E1,5.22E2,5.69E2,4.43E2,5.25E2,2.23E2,3.3E1,1.88E2,1E1,2.08E2,1.189E3,9.8E1,2.47E2,3.1E1,1.78E2,4.5E1,4.2E1,3.7E1,4.5E1,2.65E2,3.9E2,3.73E2,7.4E1,2.3E1,1E1,1.09E2,7.4E1,6E1,3.5E1,1.198E3,6.63E2,8.8E1,6E1,4.3E1,1E2,9E0,3.2E1,2.1E2,3.12E2,4.6E2,1.09E2,9.6E1,3.47E2,3.9E1,4.86E2],"tree_param":{"num_deleted":"0","num_feature":"30","num_nodes":"97","size_leaf_vector":"1"}},{"base_weights":[1.34907365E-2,3.9896507E0,-1.991115E0,3.022303E0,6.6954837E0,-3.2334518E0,-7.0243664E-2,1.1929282E0,3.5791187E0,7.3774385E0,5.029731E0,-3.4204357E0,-5.641407E-1,-8.196559E-1,9.0321237E-1,5.110963E-1,7.6865876E-1,7.152164E0,3.291931E0,5.7983553E-1,7.101089E0,5.7081585E0,3.939514E0,-5.125244E-1,-3.6094294E0,-2.4249172E0,3.9835742E0,3.4022005E0,-1.0454557E0,2.5413305E-1,8.364811E-1,-1.5634656E-1,1.690407E0,8.957873E0,6.6760117E-1,3.1490088E0,7.2712383E0,7.6179333E0,5.9757104E0,3.1765175E-1,2.4629293E-1,2.824504E-1,1.7253177E-1,-3.2204533E0,7.1003623E0,3.5750906E0,-3.6731632E0,-2.8191507E0,2.273242E-1,4.8060246E0,-1.2899722E-1,5.3439054E0,-8.2814395E-1,-1.1704068E0,2.7832E0,2.7658668E-1,1.3101192E0,1.4063185E-1,-2.3735618E-2,3.2570636E-1,7.78899E-2,5.0370044E-1,3.8508114E-1,2.013278E-2,3.5475682E-2,1.3546662E-1,2.1365272E-1,4.0424466E-1,2.135473E-1,4.295582E-1,3.6130893E-1,2.7458292E-1,3.758673E-1,2.2956896E-1,-1.8835765E-1,4.8478404E-1,2.0660667E-1,9.2521094E-2,2.3225747E-1,-2.013772E-1,-1.24713145E-1,1.256973E-1,-1.5269648E-1,2.5418648E-1,7.5283796E-2,1.6117607E-1,4.4265538E-1,4.7986876E-2,-8.036395E-2,-8.5465975E-2,-3.2793764E-2,4.2552486E-1,-1.398446E-1,-7.377907E-2,2.1858392E-2,-1.7182166E-2,7.382904E-2],"categories":[],"categories_nodes":[],"categories_segments":[],"categories_sizes":[],"default_left":[0,0,0,0,0,0,0,0,0,0,0,0,0,0,0,0,0,0,0,0,0,0,0,0,0,0,0,0,0,0,0,0,0,0,0,0,0,0,0,0,0,0,0,0,0,0,0,0,0,0,0,0,0,0,0,0,0,0,0,0,0,0,0,0,0,0,0,0,0,0,0,0,0,0,0,0,0,0,0,0,0,0,0,0,0,0,0,0,0,0,0,0,0,0,0,0,0],"id":2,"left_children":[1,3,5,7,9,11,13,15,17,19,21,23,25,27,29,-1,31,33,35,-1,37,39,41,43,45,47,49,51,53,-1,55,57,59,61,63,65,67,69,71,-1,-1,-1,-1,73,75,77,79,81,-1,83,-1,85,87,89,91,93,95,-1,-1,-1,-1,-1,-1,-1,-1,-1,-1,-1,-1,-1,-1,-1,-1,-1,-1,-1,-1,-1,-1,-1,-1,-1,-1,-1,-1,-1,-1,-1,-1,-1,-1,-1,-1,-1,-1,-1,-1],"loss_changes":[6.779818E4,7.442203E3,1.3494693E4,2.1368809E3,8.148672E2,1.7120391E3,1.6217335E3,1.8768605E3,1.6295586E3,5.3562695E2,1.4097168E2,1.7617461E3,1.9221355E3,1.2008945E3,2.654447E2,0E0,4.0184927E2,1.3874199E3,8.262168E2,0E0,2.4530078E2,3.630713E1,5.4052124E1,4.084052E3,1.3927734E3,4.5530304E2,3.6867834E2,5.301268E2,5.739824E2,0E0,2.5236115E2,2.2440779E2,1.4081439E2,5.281299E1,1.4131546E-2,7.015762E2,8.9971436E1,6.716992E1,7.960693E1,0E0,0E0,0E0,0E0,6.4082263E2,3.605183E2,4.123294E1,1.2378633E3,1.9924866E2,0E0,4.642041E1,0E0,2.9885938E2,3.0795593E1,3.1942346E2,1.238239E3,1.23883026E2,1.4255603E2,0E0,0E0,0E0,0E0,0E0,0E0,0E0,0E0,0E0,0E0,0E0,0E0,0E0,0E0,0E0,0E0,0E0,0E0,0E0,0E0,0E0,0E0,0E0,0E0,0E0,0E0,0E0,0E0,0E0,0E0,0E0,0E0,0E0,0E0,0E0,0E0,0E0,0E0,0E0,0E0],"parents":[2147483647,0,0,1,1,2,2,3,3,4,4,5,5,6,6,7,7,8,8,9,9,10,10,11,11,12,12,13,13,14,14,16,16,17,17,18,18,20,20,21,21,22,22,23,23,24,24,25,25,26,26,27,27,28,28,30,30,31,31,32,32,33,33,34,34,35,35,36,36,37,37,38,38,43,43,44,44,45,45,46,46,47,47,49,49,51,51,52,52,53,53,54,54,55,55,56,56],"right_children":[2,4,6,8,10,12,14,16,18,20,22,24,26,28,30,-1,32,34,36,-1,38,40,42,44,46,48,50,52,54,-1,56,58,60,62,64,66,68,70,72,-1,-1,-1,-1,74,76,78,80,82,-1,84,-1,86,88,90,92,94,96,-1,-1,-1,-1,-1,-1,-1,-1,-1,-1,-1,-1,-1,-1,-1,-1,-1,-1,-1,-1,-1,-1,-1,-1,-1,-1,-1,-1,-1,-1,-1,-1,-1,-1,-1,-1,-1,-1,-1,-1],"split_conditions":[1E0,2.969E1,2.115E1,3.6014557E1,7.0740952E0,3.824263E1,2.382E1,2.206E1,2.42E1,2.7982137E-1,2.22E1,3.5387844E1,7.372773E-1,2.165E1,1.5706131E-1,5.110963E-1,2.442E1,2.4E1,8.8E1,5.7983553E-1,3.737076E1,7.0710677E-1,3.0005E1,8.8E1,1.662E1,3.95E1,2.0662777E1,1.8460684E-1,4.1166668E1,2.5413305E-1,2.49E1,2.21E1,1.3333333E1,2.18E1,2.41E1,2.736E1,2.596E1,3.1E1,6E-1,3.1765175E-1,2.4629293E-1,2.824504E-1,1.7253177E-1,1.7513334E1,9.0333336E1,9.238795E-1,3.3E1,1.6666667E-1,2.273242E-1,3E-1,-1.2899722E-1,9.5371693E-1,1.875E1,2.247E1,2.175E1,1.748E1,2.19E1,1.4063185E-1,-2.3735618E-2,3.2570636E-1,7.78899E-2,5.0370044E-1,3.8508114E-1,2.013278E-2,3.5475682E-2,1.3546662E-1,2.1365272E-1,4.0424466E-1,2.135473E-1,4.295582E-1,3.6130893E-1,2.7458292E-1,3.758673E-1,2.2956896E-1,-1.8835765E-1,4.8478404E-1,2.0660667E-1,9.2521094E-2,2.3225747E-1,-2.013772E-1,-1.24713145E-1,1.256973E-1,-1.5269648E-1,2.5418648E-1,7.5283796E-2,1.6117607E-1,4.4265538E-1,4.7986876E-2,-8.036395E-2,-8.5465975E-2,-3.2793764E-2,4.2552486E-1,-1.398446E-1,-7.377907E-2,2.1858392E-2,-1.7182166E-2,7.382904E-2],"split_indices":[29,0,0,20,18,20,0,0,1,7,10,20,26,2,7,0,0,9,11,0,20,26,6,28,2,28,6,7,28,0,0,6,28,9,9,0,1,2,8,0,0,0,0,6,28,26,10,28,0,14,0,26,1,0,1,4,9,0,0,0,0,0,0,0,0,0,0,0,0,0,0,0,0,0,0,0,0,0,0,0,0,0,0,0,0,0,0,0,0,0,0,0,0,0,0,0,0],"split_type":[0,0,0,0,0,0,0,0,0,0,0,0,0,0,0,0,0,0,0,0,0,0,0,0,0,0,0,0,0,0,0,0,0,0,0,0,0,0,0,0,0,0,0,0,0,0,0,0,0,0,0,0,0,0,0,0,0,0,0,0,0,0,0,0,0,0,0,0,0,0,0,0,0,0,0,0,0,0,0,0,0,0,0,0,0,0,0,0,0,0,0,0,0,0,0,0,0],"sum_hessian":[8.504E3,2.85E3,5.654E3,2.101E3,7.49E2,3.433E3,2.221E3,4.91E2,1.61E3,5.29E2,2.2E2,3.208E3,2.25E2,1.255E3,9.66E2,2.1E1,4.7E2,1.18E2,1.492E3,3E1,4.99E2,1.33E2,8.7E1,1.96E2,3.012E3,1.6E2,6.5E1,6.3E1,1.192E3,1.4E1,9.52E2,2.35E2,2.35E2,9.2E1,2.6E1,1.442E3,5E1,3.38E2,1.61E2,6.9E1,6.4E1,1.7E1,7E1,1.45E2,5.1E1,2.6E1,2.986E3,1.52E2,8E0,5.8E1,7E0,4.3E1,2E1,1.155E3,3.7E1,4.37E2,5.15E2,2.2E1,2.13E2,5E0,2.3E2,4.5E1,4.7E1,5E0,2.1E1,1.039E3,4.03E2,3.8E1,1.2E1,9.1E1,2.47E2,1.26E2,3.5E1,9E0,1.36E2,2.6E1,2.5E1,1.1E1,1.5E1,2.294E3,6.92E2,6E0,1.46E2,5.3E1,5E0,2.8E1,1.5E1,6E0,1.4E1,5.63E2,5.92E2,1.8E1,1.9E1,3.6E1,4.01E2,4.7E1,4.68E2],"tree_param":{"num_deleted":"0","num_feature":"30","num_nodes":"97","size_leaf_vector":"1"}},{"base_weights":[-2.042904E-3,3.8090303E0,-1.9105842E0,2.971303E0,6.0174856E0,-3.034503E0,-1.6838452E-1,8.637207E0,2.727799E0,6.7947807E0,4.384735E0,1.3016841E0,-3.1583025E0,-8.6869484E-1,7.470245E-1,1.8009615E-1,4.4534442E-1,9.0611637E-1,3.2967775E0,7.45253E0,5.333128E0,3.4610147E0,5.6185274E0,3.4132415E-1,2.3590112E0,-5.969651E-1,-3.3025067E0,1.6607311E0,-1.2668005E0,-1.3449088E0,8.692657E-1,6.3622355E0,4.7103631E-1,4.1097766E-1,3.1646497E0,7.0252895E0,5.569076E-1,2.0304039E-1,5.637417E0,2.918261E0,4.0480013E0,2.9865727E-1,2.4040484E-1,1.2999687E0,-5.2679867E-1,2.568809E0,4.1158184E-2,-3.7984636E0,5.6091123E0,-3.4699576E0,-7.792534E-1,3.2517302E-1,6.093333E0,-2.7052298E0,-9.528328E-1,-1.6990235E-1,-1.8351774E0,3.1008327E0,7.28949E-1,4.8131633E-1,6.841796E-2,-1.2967142E-2,7.809403E-2,1.5383299E-1,4.0777788E-1,3.3276427E-1,3.775713E-1,2.562884E-1,3.1679177E-1,1.6847686E-1,1.1729363E-1,2.2297542E-1,1.572684E-1,2.8863674E-2,8.030517E-2,-4.0540908E-2,3.2759092E-3,9.375222E-2,1.3995855E-1,-2.39096E-1,-1.6932516E-1,-1.7415632E-1,3.3227396E-1,-1.7800985E-1,6.6398546E-2,-1.3944522E-1,1.6716014E-1,1.1804306E-1,-6.062127E-2,-5.7689454E-2,3.9705846E-1,-2.2105288E-2,-1.4384435E-1,-7.3915645E-2,-2.7932925E-2,-2.4096226E-2,4.8352815E-3,-6.960471E-2,-1.1787055E-1,2.2465663E-1,3.4948714E-2,9.505086E-3,5.3376347E-2],"categories":[],"categories_nodes":[],"categories_segments":[],"categories_sizes":[],"default_left":[0,0,0,0,0,0,0,0,0,0,0,0,0,0,0,0,0,0,0,0,0,0,0,0,0,0,0,0,0,0,0,0,0,0,0,0,0,0,0,0,0,0,0,0,0,0,0,0,0,0,0,0,0,0,0,0,0,0,0,0,0,0,0,0,0,0,0,0,0,0,0,0,0,0,0,0,0,0,0,0,0,0,0,0,0,0,0,0,0,0,0,0,0,0,0,0,0,0,0,0,0,0,0],"id":3,"left_children":[1,3,5,7,9,11,13,15,17,19,21,23,25,27,29,-1,-1,31,33,35,37,39,41,43,45,47,49,51,53,55,57,59,61,-1,63,65,-1,-1,67,69,71,-1,-1,73,75,77,-1,79,81,83,85,87,89,91,93,95,97,99,101,-1,-1,-1,-1,-1,-1,-1,-1,-1,-1,-1,-1,-1,-1,-1,-1,-1,-1,-1,-1,-1,-1,-1,-1,-1,-1,-1,-1,-1,-1,-1,-1,-1,-1,-1,-1,-1,-1,-1,-1,-1,-1,-1,-1],"loss_changes":[6.229831E4,5.2696562E3,1.11743125E4,2.837877E3,9.6647266E2,1.866334E3,1.4360055E3,8.33418E1,2.0596455E3,4.6979883E2,2.72312E2,9.769002E1,1.2438672E3,1.2799602E3,2.4947357E2,0E0,0E0,1.1245812E3,9.600488E2,4.9334766E2,4.2148926E1,3.5656494E1,2.3188477E0,4.3960327E1,1.2707489E1,3.6175493E3,1.3464023E3,1.0221781E3,4.928501E2,3.0795898E1,2.8518927E2,5.573441E2,3.5176294E2,0E0,6.239707E2,1.3594727E1,0E0,0E0,1.5050781E1,1.3018188E1,1.1602661E1,0E0,0E0,4.6038857E0,4.7635503E0,1.1440735E0,0E0,3.2423584E1,6.073668E2,1.3010195E3,1.6662632E3,4.222918E2,5.4482227E2,7.487048E1,1.860061E2,1.4607941E0,5.5111923E0,1.7744122E2,1.5760925E2,0E0,0E0,0E0,0E0,0E0,0E0,0E0,0E0,0E0,0E0,0E0,0E0,0E0,0E0,0E0,0E0,0E0,0E0,0E0,0E0,0E0,0E0,0E0,0E0,0E0,0E0,0E0,0E0,0E0,0E0,0E0,0E0,0E0,0E0,0E0,0E0,0E0,0E0,0E0,0E0,0E0,0E0,0E0,0E0],"parents":[2147483647,0,0,1,1,2,2,3,3,4,4,5,5,6,6,7,7,8,8,9,9,10,10,11,11,12,12,13,13,14,14,17,17,18,18,19,19,20,20,21,21,22,22,23,23,24,24,25,25,26,26,27,27,28,28,29,29,30,30,31,31,32,32,34,34,35,35,38,38,39,39,40,40,43,43,44,44,45,45,47,47,48,48,49,49,50,50,51,51,52,52,53,53,54,54,55,55,56,56,57,57,58,58],"right_children":[2,4,6,8,10,12,14,16,18,20,22,24,26,28,30,-1,-1,32,34,36,38,40,42,44,46,48,50,52,54,56,58,60,62,-1,64,66,-1,-1,68,70,72,-1,-1,74,76,78,-1,80,82,84,86,88,90,92,94,96,98,100,102,-1,-1,-1,-1,-1,-1,-1,-1,-1,-1,-1,-1,-1,-1,-1,-1,-1,-1,-1,-1,-1,-1,-1,-1,-1,-1,-1,-1,-1,-1,-1,-1,-1,-1,-1,-1,-1,-1,-1,-1,-1,-1,-1,-1],"split_conditions":[1E0,2.949E1,2.1166666E1,3.3333334E-1,7.0740952E0,6.666667E-1,2.382E1,-6.755902E-1,3.6014557E1,3.737076E1,3.4202015E-1,6.79236E0,3.5387844E1,2.2E1,2.16E1,1.8009615E-1,4.4534442E-1,2.278E1,2.393E1,6.755902E-1,1.7E0,3.6417557E1,7.372773E-1,2E0,8E-1,8.6833336E1,3.824263E1,8.1915206E-1,-3.1E-1,1.689E1,3.3905077E-1,2.216E1,2.501E1,4.1097766E-1,1.3116667E2,1.5465987E-1,5.569076E-1,2.0304039E-1,2.2763805E0,4.0097006E-2,2.33E1,2.9865727E-1,2.4040484E-1,1.668E1,1.721E1,2.34E1,4.1158184E-2,1.762E1,2.26E1,1.3316667E2,6.087614E-1,2.155E1,1.98E1,-9.396926E-1,2.2423334E1,2.462E1,4.58E1,2.29E1,2.468E1,4.8131633E-1,6.841796E-2,-1.2967142E-2,7.809403E-2,1.5383299E-1,4.0777788E-1,3.3276427E-1,3.775713E-1,2.562884E-1,3.1679177E-1,1.6847686E-1,1.1729363E-1,2.2297542E-1,1.572684E-1,2.8863674E-2,8.030517E-2,-4.0540908E-2,3.2759092E-3,9.375222E-2,1.3995855E-1,-2.39096E-1,-1.6932516E-1,-1.7415632E-1,3.3227396E-1,-1.7800985E-1,6.6398546E-2,-1.3944522E-1,1.6716014E-1,1.1804306E-1,-6.062127E-2,-5.7689454E-2,3.9705846E-1,-2.2105288E-2,-1.4384435E-1,-7.3915645E-2,-2.7932925E-2,-2.4096226E-2,4.8352815E-3,-6.960471E-2,-1.1787055E-1,2.2465663E-1,3.4948714E-2,9.505086E-3,5.3376347E-2],"split_indices":[29,1,6,28,18,28,1,26,20,20,27,18,20,3,9,0,0,5,1,26,16,20,26,29,14,28,20,26,8,5,12,1,4,0,28,19,0,0,7,19,9,0,0,4,2,9,0,1,10,28,26,1,10,26,6,1,16,9,1,0,0,0,0,0,0,0,0,0,0,0,0,0,0,0,0,0,0,0,0,0,0,0,0,0,0,0,0,0,0,0,0,0,0,0,0,0,0,0,0,0,0,0,0],"split_type":[0,0,0,0,0,0,0,0,0,0,0,0,0,0,0,0,0,0,0,0,0,0,0,0,0,0,0,0,0,0,0,0,0,0,0,0,0,0,0,0,0,0,0,0,0,0,0,0,0,0,0,0,0,0,0,0,0,0,0,0,0,0,0,0,0,0,0,0,0,0,0,0,0,0,0,0,0,0,0,0,0,0,0,0,0,0,0,0,0,0,0,0,0,0,0,0,0,0,0,0,0,0,0],"sum_hessian":[8.563E3,2.857E3,5.706E3,2.073E3,7.84E2,3.468E3,2.238E3,8.4E1,1.989E3,5.29E2,2.55E2,9.6E1,3.372E3,1.268E3,9.7E2,5E0,7.9E1,4.74E2,1.515E3,3.62E2,1.67E2,1.48E2,1.07E2,5.1E1,4.5E1,1.8E2,3.192E3,1.72E2,1.096E3,5.3E1,9.17E2,3.4E1,4.4E2,3.8E1,1.477E3,3.27E2,3.5E1,3.5E1,1.32E2,8E1,6.8E1,7E1,3.7E1,2.4E1,2.7E1,3.9E1,6E0,1.19E2,6.1E1,2.993E3,1.99E2,1.33E2,3.9E1,1.95E2,9.01E2,1.6E1,3.7E1,5.3E1,8.64E2,2E1,1.4E1,2.64E2,1.76E2,1.453E3,2.4E1,2E2,1.27E2,8.1E1,5.1E1,4.2E1,3.8E1,4.4E1,2.4E1,8E0,1.6E1,1.8E1,9E0,1.2E1,2.7E1,3.2E1,8.7E1,6E0,5.5E1,2.938E3,5.5E1,1.34E2,6.5E1,5.7E1,7.6E1,8E0,3.1E1,1.4E1,1.81E2,3.85E2,5.16E2,7E0,9E0,2.2E1,1.5E1,3.3E1,2E1,3.34E2,5.3E2],"tree_param":{"num_deleted":"0","num_feature":"30","num_nodes":"103","size_leaf_vector":"1"}},{"base_weights":[-3.961456E-3,3.5859053E0,-1.8014116E0,2.5765738E0,5.73455E0,-2.9121525E0,-2.0465273E-2,9.584762E-1,3.114913E0,6.3523955E0,4.21821E0,-3.8056748E0,-2.4469419E0,-7.1352464E-1,8.453468E-1,4.6489882E-1,5.6270903E-1,6.5599604E0,2.8012717E0,7.190514E0,5.1202683E0,3.4664605E0,2.7001452E-1,-3.4508398E0,-2.5024527E-1,-2.6825674E0,6.982015E-1,4.084079E0,-9.053112E-1,2.3194204E-1,7.852555E-1,-1.8658966E-1,1.4159782E0,8.236052E0,9.587044E-1,2.6741533E0,6.8625865E0,9.602216E0,6.674945E0,6.7664804E0,4.7527866E0,2.7663317E0,4.101097E0,1.662399E0,-3.6290076E0,1.8958257E0,-2.8740668E0,4.561788E0,-7.811172E-1,2.7701395E0,4.3343207E-1,-1.4598304E0,-3.4640077E-1,2.3190278E-1,1.1844835E0,1.331727E-1,-2.2356628E-2,1.7894427E-1,6.636307E-2,4.7619548E-1,3.5187364E-1,2.5204211E-2,1.04453586E-1,5.5298503E-2,1.4537509E-1,3.750596E-1,1.9147399E-1,3.3436736E-1,5.101165E-1,3.1361058E-1,3.521539E-1,2.1645413E-1,3.5464802E-1,1.840634E-1,2.4296005E-1,1.114737E-1,1.6795053E-1,2.4357815E-1,1.7459661E-1,-2.8843561E-2,1.0492221E-1,-2.1107817E-1,-1.5321942E-1,2.0042777E-1,-2.4675326E-1,-2.2185652E-2,-1.5678799E-1,9.3384534E-2,2.4259292E-1,1.9636862E-1,-8.622186E-2,1.9221543E-1,6.120674E-3,-8.786988E-2,-4.894325E-2,1.071163E-1,-2.889559E-2,-3.949058E-2,2.615425E-2,-4.3374326E-2,6.680518E-2],"categories":[],"categories_nodes":[],"categories_segments":[],"categories_sizes":[],"default_left":[0,0,0,0,0,0,0,0,0,0,0,0,0,0,0,0,0,0,0,0,0,0,0,0,0,0,0,0,0,0,0,0,0,0,0,0,0,0,0,0,0,0,0,0,0,0,0,0,0,0,0,0,0,0,0,0,0,0,0,0,0,0,0,0,0,0,0,0,0,0,0,0,0,0,0,0,0,0,0,0,0,0,0,0,0,0,0,0,0,0,0,0,0,0,0,0,0,0,0,0,0],"id":4,"left_children":[1,3,5,7,9,11,13,15,17,19,21,23,25,27,29,-1,31,33,35,37,39,41,-1,43,-1,45,47,49,51,-1,53,55,57,59,61,63,65,67,69,71,73,75,77,79,81,83,85,87,89,91,-1,93,95,97,99,-1,-1,-1,-1,-1,-1,-1,-1,-1,-1,-1,-1,-1,-1,-1,-1,-1,-1,-1,-1,-1,-1,-1,-1,-1,-1,-1,-1,-1,-1,-1,-1,-1,-1,-1,-1,-1,-1,-1,-1,-1,-1,-1,-1,-1,-1],"loss_changes":[5.523432E4,6.1790195E3,1.1283424E4,1.6912764E3,8.27625E2,1.4509551E3,1.315933E3,1.6021113E3,1.5580859E3,6.302871E2,2.1854395E2,4.9378906E2,1.7159834E3,1.1243984E3,2.1861444E2,0E0,2.9820288E2,1.1280781E3,6.7293164E2,4.108828E2,1.2815234E2,6.241333E1,0E0,8.5327734E2,0E0,1.8922344E3,9.294704E2,2.5910693E2,3.6272827E2,0E0,2.1202362E2,1.8608803E2,3.7081116E1,7.653027E1,1.3849676E1,4.7249707E2,4.8752563E1,4.5475098E1,2.9707031E0,5.89917E0,7.197754E0,1.8602234E1,2.2882812E1,3.2456078E1,2.8783984E2,1.2753512E3,1.3125957E3,2.6104736E1,5.3088275E2,1.0760544E2,0E0,8.243396E1,3.3829617E2,1.2060517E2,1.7476373E2,0E0,0E0,0E0,0E0,0E0,0E0,0E0,0E0,0E0,0E0,0E0,0E0,0E0,0E0,0E0,0E0,0E0,0E0,0E0,0E0,0E0,0E0,0E0,0E0,0E0,0E0,0E0,0E0,0E0,0E0,0E0,0E0,0E0,0E0,0E0,0E0,0E0,0E0,0E0,0E0,0E0,0E0,0E0,0E0,0E0,0E0],"parents":[2147483647,0,0,1,1,2,2,3,3,4,4,5,5,6,6,7,7,8,8,9,9,10,10,11,11,12,12,13,13,14,14,16,16,17,17,18,18,19,19,20,20,21,21,23,23,25,25,26,26,27,27,28,28,30,30,31,31,32,32,33,33,34,34,35,35,36,36,37,37,38,38,39,39,40,40,41,41,42,42,43,43,44,44,45,45,46,46,47,47,48,48,49,49,51,51,52,52,53,53,54,54],"right_children":[2,4,6,8,10,12,14,16,18,20,22,24,26,28,30,-1,32,34,36,38,40,42,-1,44,-1,46,48,50,52,-1,54,56,58,60,62,64,66,68,70,72,74,76,78,80,82,84,86,88,90,92,-1,94,96,98,100,-1,-1,-1,-1,-1,-1,-1,-1,-1,-1,-1,-1,-1,-1,-1,-1,-1,-1,-1,-1,-1,-1,-1,-1,-1,-1,-1,-1,-1,-1,-1,-1,-1,-1,-1,-1,-1,-1,-1,-1,-1,-1,-1,-1,-1,-1],"split_conditions":[1E0,2.865E1,2.125E1,3.6014557E1,7.0740952E0,6.7884483E0,2.382E1,2.206E1,2.42E1,3.737076E1,3.8268343E-1,6.777765E0,3.7729515E1,2.1509445E1,1.5706131E-1,4.6489882E-1,2.442E1,3.4202015E-1,8.8E1,3.066E1,2.562E1,3.6417557E1,2.7001452E-1,1.7345556E1,-2.5024527E-1,1.689E1,2.299E1,9.76296E-1,3.824263E1,2.3194204E-1,2.479E1,1.6818358E-2,-9.961947E-1,2.17E1,8.660254E-1,2.535E1,2.602E1,-3.007058E-1,7.6E-2,2.7E0,8E-1,3.026E1,2.42E1,8.8E1,1.864E1,5E-1,3.5387844E1,1.8553333E1,1.925E1,1.657161E-1,4.3343207E-1,2.1643962E-1,2.185E1,1.803E1,1.689E1,1.331727E-1,-2.2356628E-2,1.7894427E-1,6.636307E-2,4.7619548E-1,3.5187364E-1,2.5204211E-2,1.04453586E-1,5.5298503E-2,1.4537509E-1,3.750596E-1,1.9147399E-1,3.3436736E-1,5.101165E-1,3.1361058E-1,3.521539E-1,2.1645413E-1,3.5464802E-1,1.840634E-1,2.4296005E-1,1.114737E-1,1.6795053E-1,2.4357815E-1,1.7459661E-1,-2.8843561E-2,1.0492221E-1,-2.1107817E-1,-1.5321942E-1,2.0042777E-1,-2.4675326E-1,-2.2185652E-2,-1.5678799E-1,9.3384534E-2,2.4259292E-1,1.9636862E-1,-8.622186E-2,1.9221543E-1,6.120674E-3,-8.786988E-2,-4.894325E-2,1.071163E-1,-2.889559E-2,-3.949058E-2,2.615425E-2,-4.3374326E-2,6.680518E-2],"split_indices":[29,0,0,20,18,18,0,0,1,20,27,18,20,6,7,0,0,27,11,1,2,20,0,6,0,1,5,26,20,0,0,7,27,9,26,3,0,26,19,16,16,0,5,11,0,27,20,6,4,7,0,27,2,5,5,0,0,0,0,0,0,0,0,0,0,0,0,0,0,0,0,0,0,0,0,0,0,0,0,0,0,0,0,0,0,0,0,0,0,0,0,0,0,0,0,0,0,0,0,0,0],"split_type":[0,0,0,0,0,0,0,0,0,0,0,0,0,0,0,0,0,0,0,0,0,0,0,0,0,0,0,0,0,0,0,0,0,0,0,0,0,0,0,0,0,0,0,0,0,0,0,0,0,0,0,0,0,0,0,0,0,0,0,0,0,0,0,0,0,0,0,0,0,0,0,0,0,0,0,0,0,0,0,0,0,0,0,0,0,0,0,0,0,0,0,0,0,0,0,0,0,0,0,0,0],"sum_hessian":[8.558E3,2.855E3,5.703E3,1.944E3,9.11E2,3.512E3,2.191E3,4.86E2,1.458E3,6.45E2,2.66E2,1.2E3,2.312E3,1.217E3,9.74E2,2.1E1,4.65E2,1.2E2,1.338E3,3.81E2,2.64E2,1.65E2,1.01E2,9.29E2,2.71E2,2.151E3,1.61E2,4.6E1,1.171E3,1.4E1,9.6E2,2.48E2,2.17E2,9.2E1,2.8E1,1.299E3,3.9E1,6.4E1,3.17E2,4.5E1,2.19E2,8.1E1,8.4E1,3.1E1,8.98E2,8.6E1,2.065E3,4.4E1,1.17E2,3.7E1,9E0,5.87E2,5.84E2,4.03E2,5.57E2,2E1,2.28E2,7E0,2.1E2,4.1E1,5.1E1,2.1E1,7E0,1.69E2,1.13E3,3.1E1,8E0,1.3E1,5.1E1,1.6E2,1.57E2,7E0,3.8E1,2.3E1,1.96E2,4.5E1,3.6E1,3.4E1,5E1,5E0,2.6E1,4.35E2,4.63E2,6.6E1,2E1,2.01E2,1.864E3,5E0,3.9E1,1.9E1,9.8E1,2.6E1,1.1E1,3.61E2,2.26E2,4.9E1,5.35E2,8.9E1,3.14E2,3.8E1,5.19E2],"tree_param":{"num_deleted":"0","num_feature":"30","num_nodes":"101","size_leaf_vector":"1"}},{"base_weights":[-1.3516753E-2,-2.0942888E0,2.7499595E0,-2.9217677E0,-6.135099E-1,2.010349E0,5.385022E0,-3.2801623E0,-1.7306451E0,-1.0070297E0,2.5867622E0,4.6141967E-1,2.4857624E0,1.8683796E0,5.7000446E0,2.790502E0,-3.3524506E0,4.702342E0,-2.251479E0,3.8682945E0,-1.0853173E0,9.011303E-1,4.4069776E-1,-1.8315732E-1,9.5411783E-1,2.894465E0,1.0874593E0,1.7619034E0,1.3374916E-1,6.209814E0,4.3435097E0,1.9139247E-1,7.0282035E-2,-3.970847E0,-2.5793557E0,5.2095466E0,-1.5404384E-2,-9.527688E-1,-3.409282E0,4.282782E-2,5.235197E0,-2.3159623E0,-9.1505516E-1,2.845949E0,-1.0553913E0,-1.2700475E0,3.2353E-1,-1.1107229E-1,1.39705E0,5.7134585E0,2.674017E0,6.706893E-1,2.1573403E0,6.759514E-2,9.420182E-2,-4.8980154E-2,6.306617E0,3.698207E0,2.6276228E-1,-2.049636E-1,-3.3992544E-2,1.295167E-1,-1.3761763E-1,3.2187915E-1,1.8620037E-1,-9.8792456E-2,1.15078665E-1,-1.7809838E-1,1.8484403E-1,9.194072E-2,3.2485613E-1,-6.55992E-2,-1.4736761E-1,-8.680543E-2,-3.47193E-2,2.626042E-1,-9.0218954E-2,-9.10245E-2,1.368772E-2,-7.72263E-2,-1.266559E-3,1.1823026E-1,9.108735E-3,2.9720876E-2,-2.654319E-2,-9.0576425E-2,7.7605285E-2,3.3395287E-1,2.0333592E-2,1.2781772E-1,3.156304E-1,3.0501503E-2,1.8299158E-1,1.2273552E-1,6.8971455E-2,4.796659E-1,3.0486104E-1,2.4403875E-1,1.7119299E-1],"categories":[],"categories_nodes":[],"categories_segments":[],"categories_sizes":[],"default_left":[0,0,0,0,0,0,0,0,0,0,0,0,0,0,0,0,0,0,0,0,0,0,0,0,0,0,0,0,0,0,0,0,0,0,0,0,0,0,0,0,0,0,0,0,0,0,0,0,0,0,0,0,0,0,0,0,0,0,0,0,0,0,0,0,0,0,0,0,0,0,0,0,0,0,0,0,0,0,0,0,0,0,0,0,0,0,0,0,0,0,0,0,0,0,0,0,0,0,0],"id":5,"left_children":[1,3,5,7,9,11,13,15,17,19,21,23,25,27,29,31,33,35,37,39,41,43,-1,45,47,49,51,53,-1,55,57,-1,-1,59,61,63,-1,65,67,-1,69,71,73,75,77,79,81,83,85,87,89,91,93,-1,-1,-1,95,97,-1,-1,-1,-1,-1,-1,-1,-1,-1,-1,-1,-1,-1,-1,-1,-1,-1,-1,-1,-1,-1,-1,-1,-1,-1,-1,-1,-1,-1,-1,-1,-1,-1,-1,-1,-1,-1,-1,-1,-1,-1],"loss_changes":[4.945142E4,6.0095957E3,7.1884844E3,1.337752E3,2.2190967E3,2.1240498E3,8.855762E2,1.0704668E3,2.4564648E3,6.026687E2,2.017931E3,2.1581284E2,1.2587031E3,1.1270447E0,4.8613672E2,3.6280304E1,1.1323652E3,1.413772E2,1.01321924E3,9.843463E1,3.2139844E2,5.851809E2,0E0,1.6287138E2,1.8180084E2,1.0461445E3,2.2194617E2,6.07666E-1,0E0,3.799082E2,1.0176416E2,0E0,0E0,5.576426E2,9.5960205E2,6.724121E1,0E0,1.0699727E3,4.005166E2,0E0,6.0914673E1,1.1467273E2,2.448385E2,8.7105426E2,7.8801796E1,3.2075775E1,5.7849625E1,3.4077637E1,1.3813397E2,6.2756396E2,6.628711E2,6.3404892E1,2.8999756E1,0E0,0E0,0E0,3.0626562E2,2.351892E1,0E0,0E0,0E0,0E0,0E0,0E0,0E0,0E0,0E0,0E0,0E0,0E0,0E0,0E0,0E0,0E0,0E0,0E0,0E0,0E0,0E0,0E0,0E0,0E0,0E0,0E0,0E0,0E0,0E0,0E0,0E0,0E0,0E0,0E0,0E0,0E0,0E0,0E0,0E0,0E0,0E0],"parents":[2147483647,0,0,1,1,2,2,3,3,4,4,5,5,6,6,7,7,8,8,9,9,10,10,11,11,12,12,13,13,14,14,15,15,16,16,17,17,18,18,19,19,20,20,21,21,23,23,24,24,25,25,26,26,27,27,29,29,30,30,33,33,34,34,35,35,37,37,38,38,40,40,41,41,42,42,43,43,44,44,45,45,46,46,47,47,48,48,49,49,50,50,51,51,52,52,56,56,57,57],"right_children":[2,4,6,8,10,12,14,16,18,20,22,24,26,28,30,32,34,36,38,40,42,44,-1,46,48,50,52,54,-1,56,58,-1,-1,60,62,64,-1,66,68,-1,70,72,74,76,78,80,82,84,86,88,90,92,94,-1,-1,-1,96,98,-1,-1,-1,-1,-1,-1,-1,-1,-1,-1,-1,-1,-1,-1,-1,-1,-1,-1,-1,-1,-1,-1,-1,-1,-1,-1,-1,-1,-1,-1,-1,-1,-1,-1,-1,-1,-1,-1,-1,-1,-1],"split_conditions":[2.356E1,2.045E1,2.988E1,3.29E1,3.65E1,2.086E1,2.165E1,1.662E1,1.767E1,1.6666667E-1,6.9327803E0,2.462E1,2.39E1,-3.8268343E-1,7.0740952E0,2.55E1,1.835E1,9.15E1,1.3097043E-1,3.32E1,-3.6E-1,2.185E1,4.4069776E-1,1.803E1,6.9327803E0,2.42E1,2.609E1,2.34E1,1.3374916E-1,1.685E1,5.3729963E-1,1.9139247E-1,7.0282035E-2,8.9E1,1.864E1,3.279223E0,-1.5404384E-2,9.1E0,4.9E1,4.282782E-2,2.129E1,1.6E1,2.125E1,3.8268343E-1,2.299E1,2.517E1,1.6775833E-1,3.6217567E1,1.685E1,1E-1,8.8E1,3.65E1,2.2763805E0,6.759514E-2,9.420182E-2,-4.8980154E-2,2.9384264E-1,3.0207777E1,2.6276228E-1,-2.049636E-1,-3.3992544E-2,1.295167E-1,-1.3761763E-1,3.2187915E-1,1.8620037E-1,-9.8792456E-2,1.15078665E-1,-1.7809838E-1,1.8484403E-1,9.194072E-2,3.2485613E-1,-6.55992E-2,-1.4736761E-1,-8.680543E-2,-3.47193E-2,2.626042E-1,-9.0218954E-2,-9.10245E-2,1.368772E-2,-7.72263E-2,-1.266559E-3,1.1823026E-1,9.108735E-3,2.9720876E-2,-2.654319E-2,-9.0576425E-2,7.7605285E-2,3.3395287E-1,2.0333592E-2,1.2781772E-1,3.156304E-1,3.0501503E-2,1.8299158E-1,1.2273552E-1,6.8971455E-2,4.796659E-1,3.0486104E-1,2.4403875E-1,1.7119299E-1],"split_indices":[0,0,0,10,28,5,3,2,4,28,18,0,9,27,18,10,0,28,7,10,8,2,0,5,18,1,0,9,0,5,27,0,0,11,2,12,0,16,11,0,1,28,0,27,4,3,7,20,5,14,11,28,7,0,0,0,7,6,0,0,0,0,0,0,0,0,0,0,0,0,0,0,0,0,0,0,0,0,0,0,0,0,0,0,0,0,0,0,0,0,0,0,0,0,0,0,0,0,0],"split_type":[0,0,0,0,0,0,0,0,0,0,0,0,0,0,0,0,0,0,0,0,0,0,0,0,0,0,0,0,0,0,0,0,0,0,0,0,0,0,0,0,0,0,0,0,0,0,0,0,0,0,0,0,0,0,0,0,0,0,0,0,0,0,0,0,0,0,0,0,0,0,0,0,0,0,0,0,0,0,0,0,0,0,0,0,0,0,0,0,0,0,0,0,0,0,0,0,0,0,0],"sum_hessian":[8.598E3,4.905E3,3.693E3,3.146E3,1.759E3,2.885E3,8.08E2,2.417E3,7.29E2,1.567E3,1.92E2,6.78E2,2.207E3,6.7E1,7.41E2,2.8E1,2.389E3,5.4E1,6.75E2,2.4E1,1.543E3,1.52E2,4E1,2.94E2,3.84E2,1.707E3,5E2,6.2E1,5E0,5.36E2,2.05E2,1.5E1,1.3E1,1.325E3,1.064E3,4.9E1,5E0,3.19E2,3.56E2,8E0,1.6E1,1.86E2,1.357E3,7.6E1,7.6E1,9.3E1,2.01E2,1.13E2,2.71E2,1.22E2,1.585E3,3.61E2,1.39E2,1.7E1,4.5E1,7E0,5.29E2,1.23E2,8.2E1,1.275E3,5E1,3.4E1,1.03E3,2.5E1,2.4E1,2.43E2,7.6E1,3.49E2,7E0,5E0,1.1E1,7.3E1,1.13E2,2.86E2,1.071E3,5E1,2.6E1,4.8E1,2.8E1,7.6E1,1.7E1,1.2E1,1.89E2,4.2E1,7.1E1,1.2E1,2.59E2,1.03E2,1.9E1,1.537E3,4.8E1,3.55E2,6E0,9.9E1,4E1,2.9E1,5E2,2E1,1.03E2],"tree_param":{"num_deleted":"0","num_feature":"30","num_nodes":"99","size_leaf_vector":"1"}},{"base_weights":[-3.2209042E-3,3.2501202E0,-1.6190616E0,2.2781634E0,5.173241E0,-2.637407E0,-5.2805614E-2,8.288246E-1,2.7603483E0,5.7241864E0,3.8050818E0,-3.466484E0,-2.217574E0,-6.7857933E-1,7.5591093E-1,4.2208585E-1,4.5562625E-1,5.85919E0,2.4579332E0,6.539375E0,4.6099396E0,3.1274848E0,4.8956513E0,-3.1446886E0,-2.2766407E-1,-2.2760089E-1,-2.5474389E0,1.3275254E0,-9.9856997E-1,-1.0569241E0,8.6047196E-1,-1.08600825E-1,1.3136059E0,7.4975905E0,6.4927834E-1,2.3327441E0,6.3117747E0,8.863968E0,6.017699E0,6.109493E0,4.293458E0,2.493127E0,3.6981916E0,2.63859E-1,2.1277249E-1,1.7307369E0,-3.303406E0,1.8200961E0,-3.1685314E0,4.987458E0,-2.662467E0,-2.3596853E-1,5.469186E0,-1.8855871E0,-7.352687E-1,1.5129334E-1,-1.6161401E0,-9.85655E-1,9.468198E-1,1.06021695E-1,-1.5138407E-2,5.5773415E-2,7.807937E-2,4.2989945E-1,3.2316753E-1,2.2433564E-2,7.051813E-2,3.2482618E-1,1.1247339E-1,3.4197152E-1,1.6731115E-1,3.1298995E-1,4.735713E-1,2.7898884E-1,3.169988E-1,1.936466E-1,3.1984416E-1,1.6893275E-1,2.2083838E-1,1.610279E-1,1.0589894E-1,2.2161508E-1,1.5818956E-1,1.0694388E-1,7.122735E-3,-1.7929833E-1,-1.14273265E-1,1.2210317E-1,-7.024633E-2,-1.846072E-1,-8.409393E-2,9.157162E-2,2.7727032E-1,-1.6397882E-2,-1.4718288E-1,1.3390352E-1,-5.5831354E-2,-3.0902172E-2,3.647803E-1,-1.05862975E-1,-3.4392335E-2,-6.590792E-2,-1.8818127E-2,1.4107697E-2,-7.872677E-3,-6.424198E-2,-9.8533474E-2,-9.431787E-3,-8.179303E-2,1.2272499E-1,3.7184533E-2],"categories":[],"categories_nodes":[],"categories_segments":[],"categories_sizes":[],"default_left":[0,0,0,0,0,0,0,0,0,0,0,0,0,0,0,0,0,0,0,0,0,0,0,0,0,0,0,0,0,0,0,0,0,0,0,0,0,0,0,0,0,0,0,0,0,0,0,0,0,0,0,0,0,0,0,0,0,0,0,0,0,0,0,0,0,0,0,0,0,0,0,0,0,0,0,0,0,0,0,0,0,0,0,0,0,0,0,0,0,0,0,0,0,0,0,0,0,0,0,0,0,0,0,0,0,0,0,0,0,0,0],"id":6,"left_children":[1,3,5,7,9,11,13,15,17,19,21,23,25,27,29,-1,31,33,35,37,39,41,43,45,-1,47,49,51,53,55,57,59,61,63,65,67,69,71,73,75,77,79,81,-1,-1,83,85,87,89,91,93,95,97,99,101,103,105,107,109,-1,-1,-1,-1,-1,-1,-1,-1,-1,-1,-1,-1,-1,-1,-1,-1,-1,-1,-1,-1,-1,-1,-1,-1,-1,-1,-1,-1,-1,-1,-1,-1,-1,-1,-1,-1,-1,-1,-1,-1,-1,-1,-1,-1,-1,-1,-1,-1,-1,-1,-1,-1],"loss_changes":[4.4909535E4,5.287369E3,9.104061E3,1.315044E3,6.950664E2,1.1963008E3,1.1391785E3,1.337162E3,1.310709E3,5.8387695E2,1.8864404E2,3.9171387E2,1.5085352E3,8.159408E2,1.8704944E2,0E0,2.1846967E2,1.0621221E3,6.0764795E2,4.171836E2,1.1092334E2,5.341162E1,2.9455566E0,7.01376E2,0E0,1.9810272E3,1.72246E3,1.1344961E3,2.5435376E2,3.672986E1,1.4902423E2,1.1879795E2,7.0531616E0,5.254541E1,4.100257E0,4.1916357E2,3.9705322E1,4.986328E1,9.785156E0,6.078003E0,1.2375977E1,1.6374939E1,2.08927E1,0E0,0E0,1.8494347E1,2.4233008E2,3.9256732E2,9.887842E1,4.26709E1,1.274501E3,3.3147336E2,5.381655E2,6.791449E1,1.7648935E2,7.7167654E-1,1.8138733E0,2.1456928E1,2.7012787E2,0E0,0E0,0E0,0E0,0E0,0E0,0E0,0E0,0E0,0E0,0E0,0E0,0E0,0E0,0E0,0E0,0E0,0E0,0E0,0E0,0E0,0E0,0E0,0E0,0E0,0E0,0E0,0E0,0E0,0E0,0E0,0E0,0E0,0E0,0E0,0E0,0E0,0E0,0E0,0E0,0E0,0E0,0E0,0E0,0E0,0E0,0E0,0E0,0E0,0E0,0E0,0E0],"parents":[2147483647,0,0,1,1,2,2,3,3,4,4,5,5,6,6,7,7,8,8,9,9,10,10,11,11,12,12,13,13,14,14,16,16,17,17,18,18,19,19,20,20,21,21,22,22,23,23,25,25,26,26,27,27,28,28,29,29,30,30,31,31,32,32,33,33,34,34,35,35,36,36,37,37,38,38,39,39,40,40,41,41,42,42,45,45,46,46,47,47,48,48,49,49,50,50,51,51,52,52,53,53,54,54,55,55,56,56,57,57,58,58],"right_children":[2,4,6,8,10,12,14,16,18,20,22,24,26,28,30,-1,32,34,36,38,40,42,44,46,-1,48,50,52,54,56,58,60,62,64,66,68,70,72,74,76,78,80,82,-1,-1,84,86,88,90,92,94,96,98,100,102,104,106,108,110,-1,-1,-1,-1,-1,-1,-1,-1,-1,-1,-1,-1,-1,-1,-1,-1,-1,-1,-1,-1,-1,-1,-1,-1,-1,-1,-1,-1,-1,-1,-1,-1,-1,-1,-1,-1,-1,-1,-1,-1,-1,-1,-1,-1,-1,-1,-1,-1,-1,-1,-1,-1],"split_conditions":[1E0,2.847E1,2.115E1,1.3867474E1,7.0740952E0,6.7884483E0,2.382E1,2.206E1,2.42E1,1.41772785E1,3.8268343E-1,6.777765E0,6.793264E0,2.206E1,2.16E1,4.2208585E-1,2.535E1,3.4202015E-1,8.8E1,3.066E1,2.562E1,1.39581785E1,6.755902E-1,1.7345556E1,-2.2766407E-1,4.2261827E-1,1.685E1,7.933533E-1,-2.3E-1,1.695E1,1.685E1,2.21E1,1.38215275E1,2.17E1,3.6166668E1,2.19E1,2.602E1,-3.007058E-1,2.9988443E-2,2.7E0,2.408E1,1.0356967E-2,2.42E1,2.63859E-1,2.1277249E-1,2.25E1,1.956E1,7.35E1,2.075E1,6.7666664E1,1.3728523E1,2.155E1,1.98E1,2.506E1,2.2423334E1,1.773E1,2.165E1,1.96E1,2.29E1,1.06021695E-1,-1.5138407E-2,5.5773415E-2,7.807937E-2,4.2989945E-1,3.2316753E-1,2.2433564E-2,7.051813E-2,3.2482618E-1,1.1247339E-1,3.4197152E-1,1.6731115E-1,3.1298995E-1,4.735713E-1,2.7898884E-1,3.169988E-1,1.936466E-1,3.1984416E-1,1.6893275E-1,2.2083838E-1,1.610279E-1,1.0589894E-1,2.2161508E-1,1.5818956E-1,1.0694388E-1,7.122735E-3,-1.7929833E-1,-1.14273265E-1,1.2210317E-1,-7.024633E-2,-1.846072E-1,-8.409393E-2,9.157162E-2,2.7727032E-1,-1.6397882E-2,-1.4718288E-1,1.3390352E-1,-5.5831354E-2,-3.0902172E-2,3.647803E-1,-1.05862975E-1,-3.4392335E-2,-6.590792E-2,-1.8818127E-2,1.4107697E-2,-7.872677E-3,-6.424198E-2,-9.8533474E-2,-9.431787E-3,-8.179303E-2,1.2272499E-1,3.7184533E-2],"split_indices":[29,0,0,21,18,18,0,0,1,21,27,18,18,3,9,0,4,27,11,1,2,21,26,6,0,27,0,26,8,5,5,6,21,9,28,5,0,26,19,16,4,19,5,0,0,9,0,11,2,28,21,1,10,3,6,2,2,3,9,0,0,0,0,0,0,0,0,0,0,0,0,0,0,0,0,0,0,0,0,0,0,0,0,0,0,0,0,0,0,0,0,0,0,0,0,0,0,0,0,0,0,0,0,0,0,0,0,0,0,0,0],"split_type":[0,0,0,0,0,0,0,0,0,0,0,0,0,0,0,0,0,0,0,0,0,0,0,0,0,0,0,0,0,0,0,0,0,0,0,0,0,0,0,0,0,0,0,0,0,0,0,0,0,0,0,0,0,0,0,0,0,0,0,0,0,0,0,0,0,0,0,0,0,0,0,0,0,0,0,0,0,0,0,0,0,0,0,0,0,0,0,0,0,0,0,0,0,0,0,0,0,0,0,0,0,0,0,0,0,0,0,0,0,0,0],"sum_hessian":[8.541E3,2.834E3,5.707E3,1.884E3,9.5E2,3.458E3,2.249E3,4.71E2,1.413E3,6.75E2,2.75E2,1.16E3,2.298E3,1.268E3,9.81E2,2.1E1,4.5E2,1.24E2,1.289E3,3.87E2,2.88E2,1.72E2,1.03E2,8.98E2,2.62E2,3.27E2,1.971E3,1.74E2,1.094E3,5.3E1,9.28E2,2.72E2,1.78E2,9.4E1,3E1,1.25E3,3.9E1,6.8E1,3.19E2,4.7E1,2.41E2,8.4E1,8.8E1,6E1,4.3E1,2.8E1,8.7E2,1.93E2,1.34E2,2.9E1,1.942E3,1.27E2,4.7E1,2.49E2,8.45E2,1.7E1,3.6E1,4.1E1,8.87E2,2.1E1,2.51E2,1.02E2,7.6E1,4.2E1,5.2E1,2.5E1,5E0,2.3E1,1.227E3,3.2E1,7E0,1.5E1,5.3E1,1.43E2,1.76E2,7E0,4E1,3.2E1,2.09E2,2.6E1,5.8E1,3.4E1,5.4E1,2.2E1,6E0,6.79E2,1.91E2,1.62E2,3.1E1,9.8E1,3.6E1,5E0,2.4E1,2.09E2,1.733E3,2.9E1,9.8E1,1.1E1,3.6E1,2.08E2,4.1E1,3.21E2,5.24E2,1.2E1,5E0,2.1E1,1.5E1,1.9E1,2.2E1,1.04E2,7.83E2],"tree_param":{"num_deleted":"0","num_feature":"30","num_nodes":"111","size_leaf_vector":"1"}},{"base_weights":[1.8606933E-3,-1.8761103E0,2.4846103E0,-2.6266975E0,-5.405697E-1,1.8141094E0,4.7671123E0,-2.9819472E0,-1.5090053E0,-9.1024226E-1,2.3563669E0,3.6144587E-1,2.2580535E0,1.7906339E0,5.105576E0,-3.077882E0,1.527159E0,1.1931518E0,-2.7249322E0,3.5064662E0,-9.8162913E-1,8.2077575E-1,3.95413E-1,-1.3835229E-1,9.583799E-1,2.6380258E0,9.417381E-1,1.3805895E-1,1.6573993E0,5.627819E0,3.8276732E0,-3.683037E0,-2.314324E0,2.8110433E0,-2.7727282E0,3.3211277E0,-2.1530381E-1,-9.4232637E-1,-3.0949838E0,2.1070354E0,2.880114E-1,-1.6907135E0,-7.240532E-1,2.6194599E0,-9.432009E-1,-2.652523E-1,2.063935E0,2.4522686E-1,8.3557254E-1,3.5067954E0,2.1311462E0,5.874339E-1,1.9210953E0,1.02464356E-1,7.35096E-2,5.2671423E0,7.248548E0,3.2084038E0,2.390379E-1,-1.8984418E-1,-3.5878267E-2,1.601321E-1,-1.24739565E-1,1.8468049E-1,8.4381275E-2,-1.8261643E-1,-8.113404E-2,-1.9409369E-1,2.4461778E-1,-1.5945117E-1,1.2114133E-1,-1.879799E-1,-1.3259663E-1,2.3174811E-2,1.3766094E-1,-1.0844715E-1,-5.912551E-2,-7.394598E-2,-2.5303667E-2,2.5561914E-1,-7.698151E-2,-8.500002E-2,1.225617E-2,-5.558156E-2,1.2150868E-2,1.208292E-1,6.1644435E-2,5.513404E-2,-1.3030228E-2,2.9428214E-1,1.5625733E-1,3.1121954E-2,1.2032925E-1,2.6624143E-2,1.6490833E-1,1.097618E-1,6.472189E-2,-4.3822084E-2,2.6772496E-1,2.9635066E-1,4.3718076E-1,1.236385E-1,1.7279303E-1],"categories":[],"categories_nodes":[],"categories_segments":[],"categories_sizes":[],"default_left":[0,0,0,0,0,0,0,0,0,0,0,0,0,0,0,0,0,0,0,0,0,0,0,0,0,0,0,0,0,0,0,0,0,0,0,0,0,0,0,0,0,0,0,0,0,0,0,0,0,0,0,0,0,0,0,0,0,0,0,0,0,0,0,0,0,0,0,0,0,0,0,0,0,0,0,0,0,0,0,0,0,0,0,0,0,0,0,0,0,0,0,0,0,0,0,0,0,0,0,0,0,0,0],"id":7,"left_children":[1,3,5,7,9,11,13,15,17,19,21,23,25,27,29,31,33,35,37,39,41,43,-1,45,47,49,51,-1,53,55,57,59,61,63,65,67,-1,69,71,73,-1,75,77,79,81,83,85,-1,87,89,91,93,95,-1,-1,97,99,101,-1,-1,-1,-1,-1,-1,-1,-1,-1,-1,-1,-1,-1,-1,-1,-1,-1,-1,-1,-1,-1,-1,-1,-1,-1,-1,-1,-1,-1,-1,-1,-1,-1,-1,-1,-1,-1,-1,-1,-1,-1,-1,-1,-1,-1],"loss_changes":[3.9939246E4,4.8874766E3,5.6370684E3,1.235123E3,1.8826765E3,1.8390869E3,8.340781E2,1.0290527E3,2.4838987E3,4.946715E2,1.690071E3,1.9972644E2,1.0903711E3,6.6736145E0,4.7965625E2,1.0630195E3,2.8382214E2,2.7643235E3,3.407644E2,6.6712585E1,2.7895044E2,5.0060602E2,0E0,1.025541E2,1.4371014E2,7.3893945E2,1.6924377E2,0E0,2.7829285E0,2.7222266E2,1.1509912E2,4.334668E2,1.0315E3,3.2434692E1,6.212425E0,1.9429763E3,0E0,6.9573004E2,1.1694141E2,1.6778358E1,0E0,9.6594604E1,1.8469452E2,8.1659784E2,7.236256E1,1.4911543E2,2.8819733E0,0E0,8.724835E1,5.4721875E2,4.4439453E2,5.2166405E1,1.9491394E1,0E0,0E0,2.3975879E2,1.338999E2,1.6393677E1,0E0,0E0,0E0,0E0,0E0,0E0,0E0,0E0,0E0,0E0,0E0,0E0,0E0,0E0,0E0,0E0,0E0,0E0,0E0,0E0,0E0,0E0,0E0,0E0,0E0,0E0,0E0,0E0,0E0,0E0,0E0,0E0,0E0,0E0,0E0,0E0,0E0,0E0,0E0,0E0,0E0,0E0,0E0,0E0,0E0],"parents":[2147483647,0,0,1,1,2,2,3,3,4,4,5,5,6,6,7,7,8,8,9,9,10,10,11,11,12,12,13,13,14,14,15,15,16,16,17,17,18,18,19,19,20,20,21,21,23,23,24,24,25,25,26,26,28,28,29,29,30,30,31,31,32,32,33,33,34,34,35,35,37,37,38,38,39,39,41,41,42,42,43,43,44,44,45,45,46,46,48,48,49,49,50,50,51,51,52,52,55,55,56,56,57,57],"right_children":[2,4,6,8,10,12,14,16,18,20,22,24,26,28,30,32,34,36,38,40,42,44,-1,46,48,50,52,-1,54,56,58,60,62,64,66,68,-1,70,72,74,-1,76,78,80,82,84,86,-1,88,90,92,94,96,-1,-1,98,100,102,-1,-1,-1,-1,-1,-1,-1,-1,-1,-1,-1,-1,-1,-1,-1,-1,-1,-1,-1,-1,-1,-1,-1,-1,-1,-1,-1,-1,-1,-1,-1,-1,-1,-1,-1,-1,-1,-1,-1,-1,-1,-1,-1,-1,-1],"split_conditions":[2.356E1,2.045E1,2.969E1,3.27E1,3.6166668E1,2.086E1,2.171E1,1.3316667E2,1.875E1,1.6666667E-1,6.9327803E0,2.506E1,2.39E1,-9.238795E-1,7.0740952E0,1.835E1,4.617486E-1,3.6808308E1,6.793264E0,5E-1,-1.8E-1,2.185E1,3.95413E-1,3.47E1,1.71E1,2.672E1,2.609E1,1.3805895E-1,1.752E1,3.06E1,5.3729963E-1,8.9E1,1.864E1,1.726E1,8.433914E-1,6.777765E0,-2.1530381E-1,6.777765E0,1.91E1,2.8E-1,2.880114E-1,2.21E1,2.125E1,3.4202015E-1,2.299E1,1.803E1,1.748E1,2.4522686E-1,3.9E-1,2.4153889E1,2.535E1,3.65E1,2.2763805E0,1.02464356E-1,7.35096E-2,1.685E1,3.4202015E-1,-3.1E-1,2.390379E-1,-1.8984418E-1,-3.5878267E-2,1.601321E-1,-1.24739565E-1,1.8468049E-1,8.4381275E-2,-1.8261643E-1,-8.113404E-2,-1.9409369E-1,2.4461778E-1,-1.5945117E-1,1.2114133E-1,-1.879799E-1,-1.3259663E-1,2.3174811E-2,1.3766094E-1,-1.0844715E-1,-5.912551E-2,-7.394598E-2,-2.5303667E-2,2.5561914E-1,-7.698151E-2,-8.500002E-2,1.225617E-2,-5.558156E-2,1.2150868E-2,1.208292E-1,6.1644435E-2,5.513404E-2,-1.3030228E-2,2.9428214E-1,1.5625733E-1,3.1121954E-2,1.2032925E-1,2.6624143E-2,1.6490833E-1,1.097618E-1,6.472189E-2,-4.3822084E-2,2.6772496E-1,2.9635066E-1,4.3718076E-1,1.236385E-1,1.7279303E-1],"split_indices":[0,0,0,10,28,5,3,28,4,28,18,2,9,26,18,0,27,20,18,17,8,2,0,10,10,5,0,0,3,4,27,11,2,4,26,18,0,18,0,17,0,0,0,27,4,5,2,0,17,6,3,28,7,0,0,5,26,8,0,0,0,0,0,0,0,0,0,0,0,0,0,0,0,0,0,0,0,0,0,0,0,0,0,0,0,0,0,0,0,0,0,0,0,0,0,0,0,0,0,0,0,0,0],"split_type":[0,0,0,0,0,0,0,0,0,0,0,0,0,0,0,0,0,0,0,0,0,0,0,0,0,0,0,0,0,0,0,0,0,0,0,0,0,0,0,0,0,0,0,0,0,0,0,0,0,0,0,0,0,0,0,0,0,0,0,0,0,0,0,0,0,0,0,0,0,0,0,0,0,0,0,0,0,0,0,0,0,0,0,0,0,0,0,0,0,0,0,0,0,0,0,0,0,0,0,0,0,0,0],"sum_hessian":[8.564E3,4.876E3,3.688E3,3.121E3,1.755E3,2.852E3,8.36E2,2.367E3,7.54E2,1.557E3,1.98E2,6.68E2,2.184E3,8.6E1,7.5E2,2.318E3,4.9E1,2.34E2,5.2E2,2.4E1,1.533E3,1.56E2,4.2E1,3.64E2,3.04E2,1.694E3,4.9E2,8E0,7.8E1,5.3E2,2.2E2,1.291E3,1.027E3,3.8E1,1.1E1,1.69E2,6.5E1,9E1,4.3E2,1.6E1,8E0,4.07E2,1.126E3,7.7E1,7.9E1,3.45E2,1.9E1,8E0,2.96E2,6.22E2,1.072E3,3.61E2,1.29E2,2.2E1,5.6E1,4.37E2,9.3E1,1.36E2,8.4E1,1.243E3,4.8E1,3.2E1,9.95E2,2E1,1.8E1,5E0,6E0,3E1,1.39E2,5.4E1,3.6E1,1.69E2,2.61E2,5E0,1.1E1,2.08E2,1.99E2,2.51E2,8.75E2,4.8E1,2.9E1,4.8E1,3.1E1,1.29E2,2.16E2,1.2E1,7E0,2.38E2,5.8E1,8.4E1,5.38E2,1.66E2,9.06E2,3.55E2,6E0,8.8E1,4.1E1,6E0,4.31E2,5.2E1,4.1E1,3.7E1,9.9E1],"tree_param":{"num_deleted":"0","num_feature":"30","num_nodes":"103","size_leaf_vector":"1"}},{"base_weights":[9.865786E-3,2.937427E0,-1.4684956E0,2.0441253E0,4.6550546E0,-2.494646E0,-2.349715E-1,7.636085E-1,2.4815633E0,5.155945E0,3.3952558E0,-2.8231356E0,-1.4511034E0,-7.5798184E-1,6.6077197E-1,5.6681128E0,2.9899555E-1,5.297292E0,2.1860075E0,5.965334E0,4.1113644E0,2.7921324E0,4.3817067E0,2.7447138E0,-2.8979428E0,1.1512556E0,-2.582818E0,-1.3601567E0,-3.9981727E-2,1.9353285E-1,6.091222E-1,3.8903606E-1,4.4356484E-2,-2.3032516E-1,1.1648111E0,6.9077687E0,3.5742703E-1,2.0631883E0,3.1949192E-1,4.3885502E-1,5.605925E0,5.5122266E0,3.8347347E0,2.161445E0,3.3782759E0,2.3841916E-1,1.926631E-1,1.5419039E0,2.0025526E-1,-3.0414305E0,-3.6917204E-1,3.215364E0,-2.0371802E-1,-2.7150164E0,2.4174693E0,-1.6024187E0,-8.710685E-1,1.2639762E0,-5.494172E-1,1.695258E-1,9.869452E-1,5.4301918E-2,-1.6573807E-2,4.988223E-2,6.781217E-2,4.006569E-1,2.810015E-1,5.736351E-3,1.9765789E-2,3.0304158E-1,9.8665975E-2,3.1764486E-1,2.6342115E-1,1.6545598E-1,2.8713405E-1,1.4985617E-1,1.9668692E-1,8.7044135E-2,1.3400356E-1,2.062172E-1,1.4518625E-1,8.777978E-2,4.1096054E-2,-1.7211914E-1,-1.2156679E-1,2.171259E-1,-1.4596274E-1,-1.843036E-1,2.3012033E-1,-1.6628407E-1,-1.0621446E-1,1.3028018E-2,1.7934003E-1,-1.1685049E-1,-7.042082E-2,-6.946097E-2,-3.288862E-2,1.8696508E-1,-6.116367E-2,-4.0412236E-2,2.1789141E-2,-3.206328E-2,1.994957E-2,-4.241615E-2,5.519521E-2],"categories":[],"categories_nodes":[],"categories_segments":[],"categories_sizes":[],"default_left":[0,0,0,0,0,0,0,0,0,0,0,0,0,0,0,0,0,0,0,0,0,0,0,0,0,0,0,0,0,0,0,0,0,0,0,0,0,0,0,0,0,0,0,0,0,0,0,0,0,0,0,0,0,0,0,0,0,0,0,0,0,0,0,0,0,0,0,0,0,0,0,0,0,0,0,0,0,0,0,0,0,0,0,0,0,0,0,0,0,0,0,0,0,0,0,0,0,0,0,0,0,0,0,0,0],"id":8,"left_children":[1,3,5,7,9,11,13,15,17,19,21,23,25,27,29,31,33,35,37,39,41,43,45,47,49,51,53,55,57,-1,59,-1,-1,61,63,65,67,69,-1,-1,71,73,75,77,79,-1,-1,81,-1,83,85,87,-1,89,91,93,95,97,99,101,103,-1,-1,-1,-1,-1,-1,-1,-1,-1,-1,-1,-1,-1,-1,-1,-1,-1,-1,-1,-1,-1,-1,-1,-1,-1,-1,-1,-1,-1,-1,-1,-1,-1,-1,-1,-1,-1,-1,-1,-1,-1,-1,-1,-1],"loss_changes":[3.7276992E4,4.424785E3,7.2434805E3,1.064064E3,6.0594336E2,1.0667871E3,1.218557E3,1.1057516E3,1.1684873E3,5.715332E2,1.5673169E2,9.9717773E2,2.211819E3,7.098833E2,1.5663474E2,4.1731213E2,2.0420917E2,1.063573E3,6.502759E2,3.4997266E2,9.938086E1,5.8869507E1,3.2858887E0,4.2336884E1,8.493926E2,2.4723625E3,3.5228223E2,1.04413574E2,4.9890625E2,0E0,1.5678741E2,0E0,0E0,3.7242943E1,4.0551453E0,9.873242E1,2.672963E-1,4.371206E2,0E0,0E0,5.5523438E1,5.874756E0,1.0019775E1,1.4746521E1,2.024231E1,0E0,0E0,1.326416E0,0E0,5.341953E2,1.5386072E3,1.5868688E3,0E0,1.7691089E2,3.4375404E1,8.1645874E1,3.202104E1,1.3036489E3,1.380505E2,8.174521E1,1.09979126E2,0E0,0E0,0E0,0E0,0E0,0E0,0E0,0E0,0E0,0E0,0E0,0E0,0E0,0E0,0E0,0E0,0E0,0E0,0E0,0E0,0E0,0E0,0E0,0E0,0E0,0E0,0E0,0E0,0E0,0E0,0E0,0E0,0E0,0E0,0E0,0E0,0E0,0E0,0E0,0E0,0E0,0E0,0E0,0E0],"parents":[2147483647,0,0,1,1,2,2,3,3,4,4,5,5,6,6,7,7,8,8,9,9,10,10,11,11,12,12,13,13,14,14,15,15,16,16,17,17,18,18,19,19,20,20,21,21,22,22,23,23,24,24,25,25,26,26,27,27,28,28,30,30,33,33,34,34,35,35,36,36,37,37,40,40,41,41,42,42,43,43,44,44,47,47,49,49,50,50,51,51,53,53,54,54,55,55,56,56,57,57,58,58,59,59,60,60],"right_children":[2,4,6,8,10,12,14,16,18,20,22,24,26,28,30,32,34,36,38,40,42,44,46,48,50,52,54,56,58,-1,60,-1,-1,62,64,66,68,70,-1,-1,72,74,76,78,80,-1,-1,82,-1,84,86,88,-1,90,92,94,96,98,100,102,104,-1,-1,-1,-1,-1,-1,-1,-1,-1,-1,-1,-1,-1,-1,-1,-1,-1,-1,-1,-1,-1,-1,-1,-1,-1,-1,-1,-1,-1,-1,-1,-1,-1,-1,-1,-1,-1,-1,-1,-1,-1,-1,-1,-1],"split_conditions":[1E0,2.835E1,2.045E1,3.6014557E1,7.0740952E0,3.27E1,2.382E1,2.278E1,2.42E1,3.737076E1,3.4202015E-1,1.662E1,1.875E1,3.824263E1,1.5706131E-1,2.216E1,2.535E1,2.4E1,8.8E1,3.06E1,2.602E1,3.6417557E1,6.4278764E-1,9.5371693E-1,3.824263E1,3.6808308E1,4.9E1,2.241E1,2.247E1,1.9353285E-1,2.49E1,3.8903606E-1,4.4356484E-2,2.21E1,3.580857E1,4.95E1,2.41E1,2.19E1,3.1949192E-1,4.3885502E-1,-6.087614E-1,2.495E1,2.408E1,3.026E1,2.42E1,2.3841916E-1,1.926631E-1,1.752E1,2.0025526E-1,1.854E1,2.367E1,6.777765E0,-2.0371802E-1,2E0,1E-1,-3.6E-1,-2.5881904E-1,3.8268343E-1,3.8878757E1,1.803E1,1.685E1,5.4301918E-2,-1.6573807E-2,4.988223E-2,6.781217E-2,4.006569E-1,2.810015E-1,5.736351E-3,1.9765789E-2,3.0304158E-1,9.8665975E-2,3.1764486E-1,2.6342115E-1,1.6545598E-1,2.8713405E-1,1.4985617E-1,1.9668692E-1,8.7044135E-2,1.3400356E-1,2.062172E-1,1.4518625E-1,8.777978E-2,4.1096054E-2,-1.7211914E-1,-1.2156679E-1,2.171259E-1,-1.4596274E-1,-1.843036E-1,2.3012033E-1,-1.6628407E-1,-1.0621446E-1,1.3028018E-2,1.7934003E-1,-1.1685049E-1,-7.042082E-2,-6.946097E-2,-3.288862E-2,1.8696508E-1,-6.116367E-2,-4.0412236E-2,2.1789141E-2,-3.206328E-2,1.994957E-2,-4.241615E-2,5.519521E-2],"split_indices":[29,0,0,20,18,10,0,5,0,20,27,2,4,20,7,1,4,9,11,0,2,20,26,26,20,20,11,0,4,0,0,0,0,6,20,11,9,5,0,0,27,5,4,0,5,0,0,0,0,0,5,18,0,29,19,8,27,27,20,5,5,0,0,0,0,0,0,0,0,0,0,0,0,0,0,0,0,0,0,0,0,0,0,0,0,0,0,0,0,0,0,0,0,0,0,0,0,0,0,0,0,0,0,0,0],"split_type":[0,0,0,0,0,0,0,0,0,0,0,0,0,0,0,0,0,0,0,0,0,0,0,0,0,0,0,0,0,0,0,0,0,0,0,0,0,0,0,0,0,0,0,0,0,0,0,0,0,0,0,0,0,0,0,0,0,0,0,0,0,0,0,0,0,0,0,0,0,0,0,0,0,0,0,0,0,0,0,0,0,0,0,0,0,0,0,0,0,0,0,0,0,0,0,0,0,0,0,0,0,0,0,0,0],"sum_hessian":[8.611E3,2.889E3,5.722E3,1.902E3,9.87E2,3.123E3,2.599E3,4.85E2,1.417E3,7.04E2,2.83E2,2.374E3,7.49E2,1.641E3,9.58E2,4.1E1,4.44E2,1.33E2,1.284E3,3.94E2,3.1E2,1.78E2,1.05E2,3.1E1,2.343E3,2.27E2,5.22E2,8.92E2,7.49E2,1.4E1,9.44E2,2.8E1,1.3E1,2.76E2,1.68E2,1E2,3.3E1,1.249E3,3.5E1,4.2E1,3.52E2,4.8E1,2.62E2,8.8E1,9E1,5.6E1,4.9E1,1.7E1,1.4E1,2.217E3,1.26E2,1.63E2,6.4E1,5.09E2,1.3E1,5.95E2,2.97E2,2.1E2,5.39E2,4.37E2,5.07E2,1.9E1,2.57E2,9.3E1,7.5E1,5.1E1,4.9E1,5E0,2.8E1,2.6E1,1.223E3,1.04E2,2.48E2,6E0,4.2E1,3.1E1,2.31E2,5.1E1,3.7E1,3.2E1,5.8E1,1.2E1,5E0,1.335E3,8.82E2,4.4E1,8.2E1,2.7E1,1.36E2,2.48E2,2.61E2,5E0,8E0,1.22E2,4.73E2,8.5E1,2.12E2,1.05E2,1.05E2,4.27E2,1.12E2,9.6E1,3.41E2,3E1,4.77E2],"tree_param":{"num_deleted":"0","num_feature":"30","num_nodes":"105","size_leaf_vector":"1"}},{"base_weights":[-4.700798E-3,2.7956905E0,-1.3883022E0,1.9446809E0,4.3920593E0,-2.267445E0,-4.0265318E-2,7.2639996E-1,2.3742886E0,4.8674765E0,3.2130947E0,-2.9821637E0,-1.901642E0,-5.864058E-1,6.6046304E-1,3.6346108E-1,3.991028E-1,5.045209E0,2.080165E0,5.633057E0,3.9084084E0,2.6101954E0,4.126436E0,-2.6941986E0,-3.964566E0,-8.7459005E-2,-2.2033482E0,2.3966293E0,-7.4357164E-1,1.8475933E-1,6.0698223E-1,-1.3286409E-1,1.0784737E0,6.695007E0,8.125015E-1,1.9840418E0,3.002917E-1,7.704021E0,5.19886E0,3.6618707E0,5.5529213E0,1.9810116E0,3.169211E0,2.2765453E-1,1.8403922E-1,1.7642672E0,-2.8480217E0,-2.1292762E-1,-1.8545415E-1,1.769074E0,-2.7684698E0,4.316863E0,-2.3199654E0,1.03677E0,6.411409E0,-8.505421E-1,2.5808208E0,1.4516006E-1,9.309703E-1,-3.0021561E-2,1.1251372E-2,4.110496E-2,2.9721457E-1,3.8058504E-1,2.7789247E-1,1.6343778E-2,1.7144823E-1,3.567806E-1,9.543904E-2,2.6746383E-1,4.0949184E-1,2.7139625E-1,2.3393598E-1,1.4171395E-1,1.88515E-1,2.9445225E-1,1.8890853E-1,7.404306E-2,1.1427044E-1,2.3707347E-1,1.4694117E-1,-4.3165684E-3,1.061736E-1,-1.5526345E-1,-9.665629E-2,-1.507533E-1,1.12146236E-1,-1.6328768E-1,-6.815383E-2,7.629972E-2,2.4208319E-1,-2.4382329E-2,-1.2623392E-1,-4.5293227E-2,1.0969863E-1,3.906071E-1,1.3874158E-1,-4.905345E-2,2.1046355E-2,3.2381973E-1,-1.0536971E-1,-3.4294028E-2,1.810882E-2,-2.9509267E-2,5.245448E-2],"categories":[],"categories_nodes":[],"categories_segments":[],"categories_sizes":[],"default_left":[0,0,0,0,0,0,0,0,0,0,0,0,0,0,0,0,0,0,0,0,0,0,0,0,0,0,0,0,0,0,0,0,0,0,0,0,0,0,0,0,0,0,0,0,0,0,0,0,0,0,0,0,0,0,0,0,0,0,0,0,0,0,0,0,0,0,0,0,0,0,0,0,0,0,0,0,0,0,0,0,0,0,0,0,0,0,0,0,0,0,0,0,0,0,0,0,0,0,0,0,0,0,0,0,0],"id":9,"left_children":[1,3,5,7,9,11,13,15,17,19,21,23,25,27,29,-1,31,33,35,37,39,41,43,45,47,49,51,53,55,-1,57,59,61,63,65,67,-1,69,71,73,75,77,79,-1,-1,81,83,-1,-1,85,87,89,91,93,95,97,99,101,103,-1,-1,-1,-1,-1,-1,-1,-1,-1,-1,-1,-1,-1,-1,-1,-1,-1,-1,-1,-1,-1,-1,-1,-1,-1,-1,-1,-1,-1,-1,-1,-1,-1,-1,-1,-1,-1,-1,-1,-1,-1,-1,-1,-1,-1,-1],"loss_changes":[3.321717E4,3.842879E3,6.8001094E3,9.6705664E2,5.364531E2,9.02334E2,8.675768E2,1.0335592E3,1.0641797E3,4.9195508E2,1.4671631E2,3.2144043E2,1.2587129E3,5.99073E2,1.5892047E2,0E0,1.6711142E2,9.3728E2,4.5373145E2,3.0794238E2,1.0697217E2,5.5273315E1,4.536743E0,6.2980225E2,4.0336914E0,1.6424573E3,1.5094609E3,3.4276306E2,4.3284106E2,0E0,1.4604837E2,4.3643078E1,2.483499E2,5.8811035E1,4.8433426E1,4.5396143E2,0E0,3.0548584E1,1.3087891E1,1.4080566E1,1.0151367E0,9.556366E0,1.9028503E1,0E0,0E0,2.0790382E1,2.0134424E2,0E0,0E0,4.4882135E2,8.989722E1,4.387433E1,7.2571094E2,1.1214052E2,5.9824585E1,1.9525104E2,7.0765326E2,7.310957E1,1.0375418E2,0E0,0E0,0E0,0E0,0E0,0E0,0E0,0E0,0E0,0E0,0E0,0E0,0E0,0E0,0E0,0E0,0E0,0E0,0E0,0E0,0E0,0E0,0E0,0E0,0E0,0E0,0E0,0E0,0E0,0E0,0E0,0E0,0E0,0E0,0E0,0E0,0E0,0E0,0E0,0E0,0E0,0E0,0E0,0E0,0E0,0E0],"parents":[2147483647,0,0,1,1,2,2,3,3,4,4,5,5,6,6,7,7,8,8,9,9,10,10,11,11,12,12,13,13,14,14,16,16,17,17,18,18,19,19,20,20,21,21,22,22,23,23,24,24,25,25,26,26,27,27,28,28,30,30,31,31,32,32,33,33,34,34,35,35,37,37,38,38,39,39,40,40,41,41,42,42,45,45,46,46,49,49,50,50,51,51,52,52,53,53,54,54,55,55,56,56,57,57,58,58],"right_children":[2,4,6,8,10,12,14,16,18,20,22,24,26,28,30,-1,32,34,36,38,40,42,44,46,48,50,52,54,56,-1,58,60,62,64,66,68,-1,70,72,74,76,78,80,-1,-1,82,84,-1,-1,86,88,90,92,94,96,98,100,102,104,-1,-1,-1,-1,-1,-1,-1,-1,-1,-1,-1,-1,-1,-1,-1,-1,-1,-1,-1,-1,-1,-1,-1,-1,-1,-1,-1,-1,-1,-1,-1,-1,-1,-1,-1,-1,-1,-1,-1,-1,-1,-1,-1,-1,-1,-1],"split_conditions":[1E0,2.835E1,2.115E1,1.3867474E1,7.0740952E0,6.7884483E0,2.382E1,2.206E1,2.42E1,1.41772785E1,2.5881904E-1,6.777765E0,6.793264E0,2.165E1,1.5706131E-1,3.6346108E-1,6.9045596E0,2.39E1,8.8E1,3.066E1,6E-1,1.39581785E1,6.087614E-1,1.7345556E1,1.7209444E1,4.2261827E-1,1.685E1,9.5371693E-1,4.1166668E1,1.8475933E-1,2.479E1,2.2817778E1,3.6166668E1,4.95E1,9.396926E-1,1.6666667E-1,3.002917E-1,-3.007058E-1,6.755902E-1,2.484E1,9E0,3.026E1,2.8573334E1,2.2765453E-1,1.8403922E-1,8.8E1,1.956E1,-2.1292762E-1,-1.8545415E-1,2.7255407E-2,4.9992856E-2,6.7666664E1,1.3728523E1,2.5E0,2.2166666E1,1.4538372E1,2.175E1,1.803E1,1.689E1,-3.0021561E-2,1.1251372E-2,4.110496E-2,2.9721457E-1,3.8058504E-1,2.7789247E-1,1.6343778E-2,1.7144823E-1,3.567806E-1,9.543904E-2,2.6746383E-1,4.0949184E-1,2.7139625E-1,2.3393598E-1,1.4171395E-1,1.88515E-1,2.9445225E-1,1.8890853E-1,7.404306E-2,1.1427044E-1,2.3707347E-1,1.4694117E-1,-4.3165684E-3,1.061736E-1,-1.5526345E-1,-9.665629E-2,-1.507533E-1,1.12146236E-1,-1.6328768E-1,-6.815383E-2,7.629972E-2,2.4208319E-1,-2.4382329E-2,-1.2623392E-1,-4.5293227E-2,1.0969863E-1,3.906071E-1,1.3874158E-1,-4.905345E-2,2.1046355E-2,3.2381973E-1,-1.0536971E-1,-3.4294028E-2,1.810882E-2,-2.9509267E-2,5.245448E-2],"split_indices":[29,0,0,21,18,18,0,0,0,21,27,18,18,2,7,0,18,9,11,1,8,21,26,6,6,27,0,26,28,0,0,6,28,11,26,28,0,26,27,5,14,1,6,0,0,11,0,0,0,7,7,28,21,16,28,21,1,5,5,0,0,0,0,0,0,0,0,0,0,0,0,0,0,0,0,0,0,0,0,0,0,0,0,0,0,0,0,0,0,0,0,0,0,0,0,0,0,0,0,0,0,0,0,0,0],"split_type":[0,0,0,0,0,0,0,0,0,0,0,0,0,0,0,0,0,0,0,0,0,0,0,0,0,0,0,0,0,0,0,0,0,0,0,0,0,0,0,0,0,0,0,0,0,0,0,0,0,0,0,0,0,0,0,0,0,0,0,0,0,0,0,0,0,0,0,0,0,0,0,0,0,0,0,0,0,0,0,0,0,0,0,0,0,0,0,0,0,0,0,0,0,0,0,0,0,0,0,0,0,0,0,0,0],"sum_hessian":[8.571E3,2.834E3,5.737E3,1.85E3,9.84E2,3.472E3,2.265E3,4.83E2,1.367E3,6.99E2,2.85E2,1.173E3,2.299E3,1.273E3,9.92E2,2.2E1,4.61E2,1.34E2,1.233E3,3.86E2,3.13E2,1.74E2,1.11E2,9.1E2,2.63E2,3.28E2,1.971E3,6.3E1,1.21E3,1.6E1,9.76E2,2.59E2,2.02E2,9.6E1,3.8E1,1.205E3,2.8E1,6.4E1,3.22E2,2.75E2,3.8E1,8.4E1,9E1,5.2E1,5.9E1,3E1,8.8E2,1.15E2,1.48E2,1.94E2,1.34E2,3.4E1,1.937E3,4.8E1,1.5E1,1.173E3,3.7E1,4.03E2,5.73E2,1.12E2,1.47E2,1.93E2,9E0,5E1,4.6E1,3.3E1,5E0,1.6E1,1.189E3,1.3E1,5.1E1,2.17E2,1.05E2,3.5E1,2.4E2,3E1,8E0,3.4E1,5E1,9E0,8.1E1,5E0,2.5E1,6.85E2,1.95E2,1.7E1,1.77E2,9.8E1,3.6E1,6E0,2.8E1,1.95E2,1.742E3,1.8E1,3E1,1E1,5E0,1.064E3,1.09E2,2E1,1.7E1,8.3E1,3.2E2,4.1E1,5.32E2],"tree_param":{"num_deleted":"0","num_feature":"30","num_nodes":"105","size_leaf_vector":"1"}},{"base_weights":[9.8703215E-3,2.622377E0,-1.3193015E0,1.8458034E0,4.1495233E0,-2.2694407E0,-1.798789E-1,4.876468E0,1.6928357E0,4.5939674E0,3.0644898E0,-1.4602844E-1,-2.4060054E0,-6.714416E-1,6.3821906E-1,3.2125044E-1,1.162787E0,7.103915E-2,2.1151292E0,5.332396E0,3.6911817E0,3.7992978E0,2.4013717E0,-2.793854E0,5.2373915E0,-2.4448352E0,4.3023376E0,-8.1950486E-1,2.2357893E0,-8.4091085E-1,7.132527E-1,6.7537986E-2,3.9979674E-2,-2.2551389E-1,8.917806E-1,4.8005557E0,1.8359197E0,7.1850786E0,4.926729E0,4.9510636E0,3.4538019E0,2.1115349E-1,1.6307038E-1,1.7561554E0,2.9165978E0,9.87554E-2,-3.0909786E0,-1.605225E-1,6.034754E0,-2.5135822E0,1.3356678E0,1.1890501E-1,2.4529643E-1,-1.2187196E0,-3.1111234E-1,4.358586E0,-9.6768335E-2,1.8749127E-1,-7.428473E-2,2.0858243E0,5.992442E-1,-2.4067847E-2,2.2872861E-2,2.0252388E-2,4.648513E-2,3.1859207E-1,3.8469713E-2,3.6787558E-1,8.8519685E-2,2.5771478E-1,3.845614E-1,2.3206334E-1,2.6614958E-1,1.6248403E-1,2.6083702E-1,1.34477E-1,1.7754593E-1,4.5481414E-2,9.330704E-2,2.1515274E-1,1.3449126E-1,-1.82483E-1,-1.268221E-1,3.963931E-1,1.6472308E-1,-1.1186093E-1,-1.8569522E-1,1.2123608E-1,-1.471981E-1,-3.67622E-2,-7.380318E-2,4.9213037E-2,-2.7078077E-2,3.517449E-1,1.4868502E-1,1.5748821E-2,5.4218504E-4,-1.204433E-2,1.4786808E-1,-4.0448666E-2,3.367684E-2],"categories":[],"categories_nodes":[],"categories_segments":[],"categories_sizes":[],"default_left":[0,0,0,0,0,0,0,0,0,0,0,0,0,0,0,0,0,0,0,0,0,0,0,0,0,0,0,0,0,0,0,0,0,0,0,0,0,0,0,0,0,0,0,0,0,0,0,0,0,0,0,0,0,0,0,0,0,0,0,0,0,0,0,0,0,0,0,0,0,0,0,0,0,0,0,0,0,0,0,0,0,0,0,0,0,0,0,0,0,0,0,0,0,0,0,0,0,0,0,0,0],"id":10,"left_children":[1,3,5,7,9,11,13,15,17,19,21,23,25,27,29,-1,31,33,35,37,39,41,43,45,47,49,51,53,55,57,59,-1,-1,61,63,65,67,69,71,73,75,-1,-1,77,79,-1,81,-1,83,85,87,-1,-1,89,91,93,-1,95,-1,97,99,-1,-1,-1,-1,-1,-1,-1,-1,-1,-1,-1,-1,-1,-1,-1,-1,-1,-1,-1,-1,-1,-1,-1,-1,-1,-1,-1,-1,-1,-1,-1,-1,-1,-1,-1,-1,-1,-1,-1,-1],"loss_changes":[2.95646E4,3.3971777E3,6.10876E3,8.748906E2,4.5224414E2,8.9192676E2,1.0327384E3,5.158506E2,1.2428965E3,4.3630078E2,1.2925977E2,2.6801973E3,7.635781E2,6.922805E2,1.0758887E2,0E0,8.3151627E-1,9.171702E1,1.070894E3,2.4568848E2,7.591113E1,1.6543335E1,4.5407654E1,1.8464398E2,4.3700586E2,7.505625E2,8.077881E0,3.0953735E2,6.9908765E2,3.1444115E1,1.4240323E2,0E0,0E0,4.862135E1,1.4692078E0,8.5020166E2,4.5949658E2,2.716919E1,1.036084E1,4.2921143E0,1.01188965E1,0E0,0E0,4.8199005E0,1.4521545E1,0E0,2.761023E1,0E0,2.6957886E2,9.284844E2,2.4949713E2,0E0,0E0,1.0529346E2,2.0143546E2,1.7181244E2,0E0,4.244634E-1,0E0,1.4265945E2,8.936734E1,0E0,0E0,0E0,0E0,0E0,0E0,0E0,0E0,0E0,0E0,0E0,0E0,0E0,0E0,0E0,0E0,0E0,0E0,0E0,0E0,0E0,0E0,0E0,0E0,0E0,0E0,0E0,0E0,0E0,0E0,0E0,0E0,0E0,0E0,0E0,0E0,0E0,0E0,0E0,0E0],"parents":[2147483647,0,0,1,1,2,2,3,3,4,4,5,5,6,6,7,7,8,8,9,9,10,10,11,11,12,12,13,13,14,14,16,16,17,17,18,18,19,19,20,20,21,21,22,22,23,23,24,24,25,25,26,26,27,27,28,28,29,29,30,30,33,33,34,34,35,35,36,36,37,37,38,38,39,39,40,40,43,43,44,44,46,46,48,48,49,49,50,50,53,53,54,54,55,55,57,57,59,59,60,60],"right_children":[2,4,6,8,10,12,14,16,18,20,22,24,26,28,30,-1,32,34,36,38,40,42,44,46,48,50,52,54,56,58,60,-1,-1,62,64,66,68,70,72,74,76,-1,-1,78,80,-1,82,-1,84,86,88,-1,-1,90,92,94,-1,96,-1,98,100,-1,-1,-1,-1,-1,-1,-1,-1,-1,-1,-1,-1,-1,-1,-1,-1,-1,-1,-1,-1,-1,-1,-1,-1,-1,-1,-1,-1,-1,-1,-1,-1,-1,-1,-1,-1,-1,-1,-1,-1],"split_conditions":[1E0,2.835E1,2.045E1,2.278E1,7.0740952E0,3.5387844E1,2.382E1,2.5971111E1,3.580857E1,3.737076E1,2.35E1,8.6833336E1,3.8567654E1,4.0833332E1,2.16E1,3.2125044E-1,2.619E1,2.501E1,2.42E1,3.066E1,2.602E1,7.6604444E-1,3.6417557E1,1.6666667E-1,2.26E1,1.3316667E2,2.001E1,3.824263E1,2.185E1,1.695E1,3.5444084E-1,6.7537986E-2,3.9979674E-2,3.6166668E1,2.541E1,2.39E1,1.6666667E-1,-3.007058E-1,1.4251171E-1,2.501E1,2.408E1,2.1115349E-1,1.6307038E-1,2.206E1,2.139E1,9.87554E-2,1.87E1,-1.605225E-1,9.0333336E1,8.5666664E1,5E-1,1.1890501E-1,2.4529643E-1,1.3666667E1,2.206E1,2.3E0,-9.6768335E-2,1.752E1,-7.428473E-2,2.231E1,1.685E1,-2.4067847E-2,2.2872861E-2,2.0252388E-2,4.648513E-2,3.1859207E-1,3.8469713E-2,3.6787558E-1,8.8519685E-2,2.5771478E-1,3.845614E-1,2.3206334E-1,2.6614958E-1,1.6248403E-1,2.6083702E-1,1.34477E-1,1.7754593E-1,4.5481414E-2,9.330704E-2,2.1515274E-1,1.3449126E-1,-1.82483E-1,-1.268221E-1,3.963931E-1,1.6472308E-1,-1.1186093E-1,-1.8569522E-1,1.2123608E-1,-1.471981E-1,-3.67622E-2,-7.380318E-2,4.9213037E-2,-2.7078077E-2,3.517449E-1,1.4868502E-1,1.5748821E-2,5.4218504E-4,-1.204433E-2,1.4786808E-1,-4.0448666E-2,3.367684E-2],"split_indices":[29,0,0,5,18,20,0,6,20,20,10,28,20,28,9,0,0,4,0,1,2,26,20,28,10,28,0,20,2,5,12,0,0,28,4,9,28,26,19,5,4,0,0,5,5,0,0,0,28,28,27,0,0,28,4,16,0,2,0,4,5,0,0,0,0,0,0,0,0,0,0,0,0,0,0,0,0,0,0,0,0,0,0,0,0,0,0,0,0,0,0,0,0,0,0,0,0,0,0,0,0],"split_type":[0,0,0,0,0,0,0,0,0,0,0,0,0,0,0,0,0,0,0,0,0,0,0,0,0,0,0,0,0,0,0,0,0,0,0,0,0,0,0,0,0,0,0,0,0,0,0,0,0,0,0,0,0,0,0,0,0,0,0,0,0,0,0,0,0,0,0,0,0,0,0,0,0,0,0,0,0,0,0,0,0,0,0,0,0,0,0,0,0,0,0,0,0,0,0,0,0,0,0,0,0],"sum_hessian":[8.512E3,2.87E3,5.642E3,1.904E3,9.66E2,3.076E3,2.566E3,9E1,1.814E3,6.83E2,2.83E2,1.86E2,2.89E3,1.603E3,9.63E2,6.3E1,2.7E1,3.75E2,1.439E3,3.73E2,3.1E2,1.32E2,1.51E2,1.25E2,6.1E1,2.874E3,1.6E1,1.526E3,7.7E1,4.6E1,9.17E2,1.6E1,1.1E1,2.76E2,9.9E1,1.34E2,1.305E3,6.4E1,3.09E2,4.6E1,2.64E2,7E1,6.2E1,6.9E1,8.2E1,7E0,1.18E2,5E0,5.6E1,2.823E3,5.1E1,5E0,1.1E1,8.54E2,6.72E2,5.1E1,2.6E1,1.8E1,2.8E1,6.9E1,8.48E2,2.01E2,7.5E1,8E0,9.1E1,9.6E1,3.8E1,1.4E1,1.291E3,1.5E1,4.9E1,1.87E2,1.22E2,8E0,3.8E1,3.3E1,2.31E2,9E0,6E1,9E0,7.3E1,5.6E1,6.2E1,3.2E1,2.4E1,2.297E3,5.26E2,4.1E1,1E1,2.98E2,5.56E2,1.01E2,5.71E2,1.6E1,3.5E1,1E1,8E0,1.9E1,5E1,4.2E1,8.06E2],"tree_param":{"num_deleted":"0","num_feature":"30","num_nodes":"101","size_leaf_vector":"1"}},{"base_weights":[4.734413E-3,2.5356455E0,-1.2651482E0,1.8367679E0,4.0309005E0,-2.0482073E0,-3.6720715E-2,6.773827E-1,2.21309E0,4.496644E0,2.934024E0,-2.1726587E0,-1.9638272E-1,-5.502252E-1,5.4463094E-1,5.1745505E0,2.7994043E-1,4.674731E0,1.957926E0,5.093355E0,3.629749E0,3.595665E0,2.27033E0,-2.472111E0,-1.211161E0,-1.474069E0,3.5945513E0,1.0339427E0,-8.170983E-1,2.1083695E-1,8.5879964E-1,3.4385428E-1,3.8537756E-2,-2.144916E-1,1.0035522E0,5.9934525E0,7.7186733E-1,1.8490831E0,5.121823E0,6.9597974E0,4.673533E0,3.4381545E0,2.7905056E-1,2.0021975E-1,3.0584955E0,2.7736204E0,1.6805713E0,-2.5615785E0,1.2637367E0,1.3254927E0,-2.1742928E0,3.483267E0,-1.8483527E0,4.193841E0,-1.0492521E-1,-1.6467693E-1,4.6057563E0,-1.3698741E0,-5.049562E-1,1.8399496E0,5.238671E-2,-7.128115E-1,9.629105E-1,-2.2230783E-2,1.9685224E-2,4.2760592E-2,5.8714937E-2,3.4411666E-1,2.4567965E-1,1.3327454E-2,1.627017E-1,3.1977904E-1,8.8824295E-2,2.8068858E-1,1.2924677E-1,2.4626267E-1,3.7259844E-1,2.0113586E-1,2.4267581E-1,1.2842862E-1,1.7742859E-1,1.6858265E-1,1.300817E-1,1.0082165E-1,1.5483707E-1,4.8296034E-2,8.9450136E-2,-1.5259631E-1,-9.766335E-2,-1.13975786E-1,1.1573227E-1,1.5048072E-1,-1.8142448E-1,-1.410818E-1,-8.026157E-2,1.1278715E-1,2.1674168E-1,-1.2442394E-1,-5.661858E-2,2.1794076E-1,1.2670867E-1,1.07300065E-1,-4.2811684E-2,-3.192432E-2,3.1071347E-1,-3.2528847E-2,-9.0214506E-2,-4.9609646E-2,-1.1483585E-2,-9.50802E-3,1.7358221E-1,-2.2502365E-2,1.8049618E-2,2.2389921E-3,-6.2268224E-2,9.254787E-2,3.8162045E-2],"categories":[],"categories_nodes":[],"categories_segments":[],"categories_sizes":[],"default_left":[0,0,0,0,0,0,0,0,0,0,0,0,0,0,0,0,0,0,0,0,0,0,0,0,0,0,0,0,0,0,0,0,0,0,0,0,0,0,0,0,0,0,0,0,0,0,0,0,0,0,0,0,0,0,0,0,0,0,0,0,0,0,0,0,0,0,0,0,0,0,0,0,0,0,0,0,0,0,0,0,0,0,0,0,0,0,0,0,0,0,0,0,0,0,0,0,0,0,0,0,0,0,0,0,0,0,0,0,0,0,0,0,0,0,0,0,0],"id":11,"left_children":[1,3,5,7,9,11,13,15,17,19,21,23,25,27,29,31,33,35,37,39,41,43,45,47,49,51,53,55,57,59,61,-1,-1,63,65,67,69,71,73,75,77,79,-1,-1,81,83,85,87,89,91,93,95,97,99,-1,101,103,105,107,109,111,113,115,-1,-1,-1,-1,-1,-1,-1,-1,-1,-1,-1,-1,-1,-1,-1,-1,-1,-1,-1,-1,-1,-1,-1,-1,-1,-1,-1,-1,-1,-1,-1,-1,-1,-1,-1,-1,-1,-1,-1,-1,-1,-1,-1,-1,-1,-1,-1,-1,-1,-1,-1,-1,-1,-1],"loss_changes":[2.7598266E4,2.9907012E3,5.500248E3,8.5234424E2,4.532246E2,8.0434766E2,6.6511865E2,8.582738E2,9.185825E2,3.120586E2,1.12596436E2,9.3908887E2,1.0757397E3,5.0098392E2,1.0940555E2,2.8710645E2,1.5871037E2,7.0563086E2,4.519829E2,2.6209766E2,7.95083E1,1.7612549E1,3.6893555E1,8.368242E2,1.9060817E3,3.1444293E2,1.9986102E2,7.3285156E2,1.7409595E2,1.3103532E2,8.8714935E1,0E0,0E0,3.7124634E1,3.5548859E0,6.504932E1,4.4286865E1,4.16729E2,4.040149E1,3.0387207E1,1.6787598E1,1.4217285E1,0E0,0E0,2.4157715E-1,1.1860657E1,3.4638367E0,7.206592E2,2.249707E2,1.8046887E3,2.0360425E2,2.7655487E0,6.82215E1,2.9178467E0,0E0,2.0797498E2,3.6669104E2,1.1287921E2,8.6821655E1,1.4972351E2,7.210751E1,1.3773323E1,8.8131805E1,0E0,0E0,0E0,0E0,0E0,0E0,0E0,0E0,0E0,0E0,0E0,0E0,0E0,0E0,0E0,0E0,0E0,0E0,0E0,0E0,0E0,0E0,0E0,0E0,0E0,0E0,0E0,0E0,0E0,0E0,0E0,0E0,0E0,0E0,0E0,0E0,0E0,0E0,0E0,0E0,0E0,0E0,0E0,0E0,0E0,0E0,0E0,0E0,0E0,0E0,0E0,0E0,0E0,0E0],"parents":[2147483647,0,0,1,1,2,2,3,3,4,4,5,5,6,6,7,7,8,8,9,9,10,10,11,11,12,12,13,13,14,14,15,15,16,16,17,17,18,18,19,19,20,20,21,21,22,22,23,23,24,24,25,25,26,26,27,27,28,28,29,29,30,30,33,33,34,34,35,35,36,36,37,37,38,38,39,39,40,40,41,41,44,44,45,45,46,46,47,47,48,48,49,49,50,50,51,51,52,52,53,53,55,55,56,56,57,57,58,58,59,59,60,60,61,61,62,62],"right_children":[2,4,6,8,10,12,14,16,18,20,22,24,26,28,30,32,34,36,38,40,42,44,46,48,50,52,54,56,58,60,62,-1,-1,64,66,68,70,72,74,76,78,80,-1,-1,82,84,86,88,90,92,94,96,98,100,-1,102,104,106,108,110,112,114,116,-1,-1,-1,-1,-1,-1,-1,-1,-1,-1,-1,-1,-1,-1,-1,-1,-1,-1,-1,-1,-1,-1,-1,-1,-1,-1,-1,-1,-1,-1,-1,-1,-1,-1,-1,-1,-1,-1,-1,-1,-1,-1,-1,-1,-1,-1,-1,-1,-1,-1,-1,-1,-1,-1],"split_conditions":[1E0,2.865E1,2.115E1,3.6014557E1,7.0740952E0,3.824263E1,2.371E1,2.278E1,2.42E1,3.737076E1,2.35E1,3.3E1,7.6604444E-1,2.206E1,2.49E1,2.216E1,2.501E1,2.39E1,8.8E1,3.066E1,1.37E0,7.6604444E-1,3.148E1,1.3316667E2,1.875E1,2.237E1,2.0662777E1,8.1915206E-1,2.34E1,1.7030971E-1,1.685E1,3.4385428E-1,3.8537756E-2,3.5833332E1,3.580857E1,4.95E1,9.396926E-1,1.6666667E-1,2.602E1,-3.007058E-1,3.141E1,2.484E1,2.7905056E-1,2.0021975E-1,2.23E1,2.609E1,3.041E1,1.854E1,8.870108E-1,3.6808308E1,2E0,2.001E1,2.055E1,2E-1,-1.0492521E-1,2.155E1,1.98E1,1.3333333E1,2.216E1,7.0988097E0,2.495E1,1.715E1,1.721E1,-2.2230783E-2,1.9685224E-2,4.2760592E-2,5.8714937E-2,3.4411666E-1,2.4567965E-1,1.3327454E-2,1.627017E-1,3.1977904E-1,8.8824295E-2,2.8068858E-1,1.2924677E-1,2.4626267E-1,3.7259844E-1,2.0113586E-1,2.4267581E-1,1.2842862E-1,1.7742859E-1,1.6858265E-1,1.300817E-1,1.0082165E-1,1.5483707E-1,4.8296034E-2,8.9450136E-2,-1.5259631E-1,-9.766335E-2,-1.13975786E-1,1.1573227E-1,1.5048072E-1,-1.8142448E-1,-1.410818E-1,-8.026157E-2,1.1278715E-1,2.1674168E-1,-1.2442394E-1,-5.661858E-2,2.1794076E-1,1.2670867E-1,1.07300065E-1,-4.2811684E-2,-3.192432E-2,3.1071347E-1,-3.2528847E-2,-9.0214506E-2,-4.9609646E-2,-1.1483585E-2,-9.50802E-3,1.7358221E-1,-2.2502365E-2,1.8049618E-2,2.2389921E-3,-6.2268224E-2,9.254787E-2,3.8162045E-2],"split_indices":[29,0,0,20,18,20,0,5,0,20,10,10,26,3,0,1,4,9,11,1,8,26,4,28,4,5,6,26,9,7,5,0,0,28,20,11,26,28,0,26,0,5,0,0,9,4,2,0,26,20,29,0,0,14,0,1,10,28,0,18,3,3,5,0,0,0,0,0,0,0,0,0,0,0,0,0,0,0,0,0,0,0,0,0,0,0,0,0,0,0,0,0,0,0,0,0,0,0,0,0,0,0,0,0,0,0,0,0,0,0,0,0,0,0,0,0,0],"split_type":[0,0,0,0,0,0,0,0,0,0,0,0,0,0,0,0,0,0,0,0,0,0,0,0,0,0,0,0,0,0,0,0,0,0,0,0,0,0,0,0,0,0,0,0,0,0,0,0,0,0,0,0,0,0,0,0,0,0,0,0,0,0,0,0,0,0,0,0,0,0,0,0,0,0,0,0,0,0,0,0,0,0,0,0,0,0,0,0,0,0,0,0,0,0,0,0,0,0,0,0,0,0,0,0,0,0,0,0,0,0,0,0,0,0,0,0,0],"sum_hessian":[8.585E3,2.868E3,5.717E3,1.956E3,9.12E2,3.491E3,2.226E3,4.8E2,1.476E3,6.38E2,2.74E2,3.271E3,2.2E2,1.182E3,1.044E3,3.8E1,4.42E2,1.37E2,1.339E3,3.75E2,2.63E2,1.35E2,1.39E2,2.493E3,7.78E2,1.65E2,5.5E1,1.7E2,1.012E3,5.07E2,5.37E2,2.7E1,1.1E1,2.63E2,1.79E2,1.02E2,3.5E1,1.296E3,4.3E1,6.6E1,3.09E2,2.42E2,2.1E1,7.3E1,6.2E1,7.3E1,6.6E1,2.435E3,5.8E1,2.14E2,5.64E2,1.1E1,1.54E2,5E1,5E0,1.28E2,4.2E1,3.64E2,6.48E2,4.4E1,4.63E2,3.3E1,5.04E2,1.91E2,7.2E1,9.9E1,8E1,5.3E1,4.9E1,3E1,5E0,1.9E1,1.277E3,3.5E1,8E0,1.5E1,5.1E1,7.2E1,2.37E2,3E1,2.12E2,3.3E1,2.9E1,2.4E1,4.9E1,1E1,5.6E1,1.346E3,1.089E3,1.3E1,4.5E1,1.6E2,5.4E1,2.62E2,3.02E2,6E0,5E0,8E1,7.4E1,4.4E1,6E0,2.9E1,9.9E1,1E1,3.2E1,1.38E2,2.26E2,2.33E2,4.15E2,2E1,2.4E1,1.76E2,2.87E2,1.4E1,1.9E1,9.1E1,4.13E2],"tree_param":{"num_deleted":"0","num_feature":"30","num_nodes":"117","size_leaf_vector":"1"}},{"base_weights":[1.3453058E-2,2.424617E0,-1.1978531E0,1.7152262E0,3.8057568E0,-2.0773194E0,-2.0685546E-1,6.2089896E-1,2.0873227E0,4.226707E0,2.7957091E0,-2.3709002E0,-1.1471442E0,-6.566046E-1,5.415897E-1,3.1185576E-1,3.3812368E-1,4.2869506E0,1.8586767E0,4.8611298E0,3.3977935E0,3.4668818E0,2.172378E0,-2.4594145E0,1.270719E0,1.1717385E0,-2.153087E0,-7.9023457E-1,1.9441507E0,2.964312E0,4.9440292E-1,-1.1525218E-1,9.310532E-1,5.6584864E0,6.1250794E-1,1.7584666E0,4.999757E0,7.240926E0,4.547702E0,4.5575147E0,3.157857E0,1.9694638E-1,3.0593224E0,3.0502958E0,1.8094429E0,-2.9045022E0,-1.8505205E0,-1.6242381E0,2.396934E0,2.8458457E0,-1.7224114E-1,-5.547913E-1,-2.479036E0,-1.0510788E0,-1.2030878E-1,-1.6066588E0,4.248802E0,8.142185E-2,1.6625468E-1,4.1550167E-2,7.543478E-1,-1.3267529E-2,4.003116E-2,3.3261254E-2,2.7069116E-1,3.1198147E-1,2.1193409E-1,1.1860319E-1,1.3172517E-2,2.0229958E-2,9.9239595E-2,2.6962548E-1,1.21697895E-1,3.792993E-1,2.3915195E-1,2.0692995E-1,2.478259E-1,2.0420814E-1,2.8383347E-1,1.2054594E-1,1.6260743E-1,1.6934995E-1,1.3405022E-1,2.1437822E-1,1.322495E-1,5.1416557E-2,9.657293E-2,-1.5037021E-1,-5.954256E-3,1.2188281E-1,-9.991528E-2,1.7764887E-2,-1.2781635E-1,1.6364649E-1,6.786459E-2,-1.6892049E-1,2.114208E-1,-1.2711887E-1,1.0999244E-1,-1.5134677E-1,-1.04341805E-1,-6.842247E-2,-3.7299793E-2,1.4383267E-1,-2.6106412E-2,-2.1194762E-2,-9.013637E-2,1.594897E-1,3.1499156E-1,-4.821227E-2,1.3913403E-2,-2.4908274E-2,4.2141557E-2],"categories":[],"categories_nodes":[],"categories_segments":[],"categories_sizes":[],"default_left":[0,0,0,0,0,0,0,0,0,0,0,0,0,0,0,0,0,0,0,0,0,0,0,0,0,0,0,0,0,0,0,0,0,0,0,0,0,0,0,0,0,0,0,0,0,0,0,0,0,0,0,0,0,0,0,0,0,0,0,0,0,0,0,0,0,0,0,0,0,0,0,0,0,0,0,0,0,0,0,0,0,0,0,0,0,0,0,0,0,0,0,0,0,0,0,0,0,0,0,0,0,0,0,0,0,0,0,0,0,0,0,0,0],"id":12,"left_children":[1,3,5,7,9,11,13,15,17,19,21,23,25,27,29,-1,31,33,35,37,39,41,43,45,47,49,51,53,55,57,59,61,63,65,67,69,71,73,75,77,79,-1,81,83,85,87,89,91,93,95,-1,97,99,101,103,105,107,-1,-1,109,111,-1,-1,-1,-1,-1,-1,-1,-1,-1,-1,-1,-1,-1,-1,-1,-1,-1,-1,-1,-1,-1,-1,-1,-1,-1,-1,-1,-1,-1,-1,-1,-1,-1,-1,-1,-1,-1,-1,-1,-1,-1,-1,-1,-1,-1,-1,-1,-1,-1,-1,-1,-1],"loss_changes":[2.4962844E4,2.7936484E3,4.9578135E3,7.683037E2,4.0018262E2,8.2034766E2,9.011308E2,7.6178015E2,7.011714E2,3.4213477E2,1.12957275E2,7.4127344E2,1.6937037E3,5.8262146E2,1.1342642E2,0E0,1.2349565E2,6.6176514E2,3.937964E2,2.5349316E2,6.880762E1,1.4306641E1,4.2911987E1,6.0060645E2,1.832121E2,1.7100996E3,2.6223218E2,2.778949E2,6.778634E2,3.742508E0,1.16155106E2,3.6092484E1,2.3353622E2,5.276245E1,2.2099976E1,3.7945752E2,2.6176086E1,1.850586E-1,3.6686035E1,2.7734985E0,9.837402E0,0E0,5.887451E-1,1.0222748E1,8.49762E0,3.6938867E2,6.0501196E2,3.0429905E1,3.1986588E1,1.4083716E3,0E0,4.819251E2,8.39353E1,1.0984302E2,5.3979626E2,6.888626E0,8.850763E1,0E0,0E0,8.621874E1,6.990808E1,0E0,0E0,0E0,0E0,0E0,0E0,0E0,0E0,0E0,0E0,0E0,0E0,0E0,0E0,0E0,0E0,0E0,0E0,0E0,0E0,0E0,0E0,0E0,0E0,0E0,0E0,0E0,0E0,0E0,0E0,0E0,0E0,0E0,0E0,0E0,0E0,0E0,0E0,0E0,0E0,0E0,0E0,0E0,0E0,0E0,0E0,0E0,0E0,0E0,0E0,0E0,0E0],"parents":[2147483647,0,0,1,1,2,2,3,3,4,4,5,5,6,6,7,7,8,8,9,9,10,10,11,11,12,12,13,13,14,14,16,16,17,17,18,18,19,19,20,20,21,21,22,22,23,23,24,24,25,25,26,26,27,27,28,28,29,29,30,30,31,31,32,32,33,33,34,34,35,35,36,36,37,37,38,38,39,39,40,40,42,42,43,43,44,44,45,45,46,46,47,47,48,48,49,49,51,51,52,52,53,53,54,54,55,55,56,56,59,59,60,60],"right_children":[2,4,6,8,10,12,14,16,18,20,22,24,26,28,30,-1,32,34,36,38,40,42,44,46,48,50,52,54,56,58,60,62,64,66,68,70,72,74,76,78,80,-1,82,84,86,88,90,92,94,96,-1,98,100,102,104,106,108,-1,-1,110,112,-1,-1,-1,-1,-1,-1,-1,-1,-1,-1,-1,-1,-1,-1,-1,-1,-1,-1,-1,-1,-1,-1,-1,-1,-1,-1,-1,-1,-1,-1,-1,-1,-1,-1,-1,-1,-1,-1,-1,-1,-1,-1,-1,-1,-1,-1,-1,-1,-1,-1,-1,-1],"split_conditions":[1E0,2.847E1,2.029E1,3.6014557E1,7.0740952E0,3.27E1,2.377E1,2.206E1,2.42E1,3.737076E1,2.35E1,1.3316667E2,1.875E1,4.1166668E1,1.5706131E-1,3.1185576E-1,6.9045596E0,2.39E1,8.8E1,3.06E1,2.76E1,6.087614E-1,3.007E1,1.835E1,9.063078E-1,3.6808308E1,6.793264E0,3.8567654E1,1.748E1,2.408E1,2.462E1,3.053E1,3.6166668E1,5.7E1,2.453E1,2.512E1,2.602E1,1.35E1,3.05E1,2.562E1,2.408E1,1.9694638E-1,1.95E1,2.8328888E1,2.21E1,8.9E1,1.864E1,6.5E1,1.726E1,6.777765E0,-1.7224114E-1,6.777765E0,1.91E1,2.36E1,2.272E1,2.09E1,2.149E1,8.142185E-2,1.6625468E-1,1.803E1,1.689E1,-1.3267529E-2,4.003116E-2,3.3261254E-2,2.7069116E-1,3.1198147E-1,2.1193409E-1,1.1860319E-1,1.3172517E-2,2.0229958E-2,9.9239595E-2,2.6962548E-1,1.21697895E-1,3.792993E-1,2.3915195E-1,2.0692995E-1,2.478259E-1,2.0420814E-1,2.8383347E-1,1.2054594E-1,1.6260743E-1,1.6934995E-1,1.3405022E-1,2.1437822E-1,1.322495E-1,5.1416557E-2,9.657293E-2,-1.5037021E-1,-5.954256E-3,1.2188281E-1,-9.991528E-2,1.7764887E-2,-1.2781635E-1,1.6364649E-1,6.786459E-2,-1.6892049E-1,2.114208E-1,-1.2711887E-1,1.0999244E-1,-1.5134677E-1,-1.04341805E-1,-6.842247E-2,-3.7299793E-2,1.4383267E-1,-2.6106412E-2,-2.1194762E-2,-9.013637E-2,1.594897E-1,3.1499156E-1,-4.821227E-2,1.3913403E-2,-2.4908274E-2,4.2141557E-2],"split_indices":[29,0,0,20,18,10,0,0,0,20,10,28,4,28,7,0,18,9,11,0,2,26,2,0,26,20,18,20,4,2,0,5,28,11,4,2,0,28,10,3,4,0,10,6,5,11,2,11,4,18,0,18,0,9,5,1,1,0,0,5,5,0,0,0,0,0,0,0,0,0,0,0,0,0,0,0,0,0,0,0,0,0,0,0,0,0,0,0,0,0,0,0,0,0,0,0,0,0,0,0,0,0,0,0,0,0,0,0,0,0,0,0,0],"split_type":[0,0,0,0,0,0,0,0,0,0,0,0,0,0,0,0,0,0,0,0,0,0,0,0,0,0,0,0,0,0,0,0,0,0,0,0,0,0,0,0,0,0,0,0,0,0,0,0,0,0,0,0,0,0,0,0,0,0,0,0,0,0,0,0,0,0,0,0,0,0,0,0,0,0,0,0,0,0,0,0,0,0,0,0,0,0,0,0,0,0,0,0,0,0,0,0,0,0,0,0,0,0,0,0,0,0,0,0,0,0,0,0,0],"sum_hessian":[8.545E3,2.857E3,5.688E3,1.889E3,9.68E2,3.013E3,2.675E3,4.8E2,1.409E3,6.81E2,2.87E2,2.289E3,7.24E2,1.671E3,1.004E3,2.2E1,4.58E2,1.31E2,1.278E3,3.83E2,2.98E2,1.36E2,1.51E2,2.235E3,5.4E1,2.19E2,5.05E2,1.59E3,8.1E1,1.8E1,9.86E2,2.6E2,1.98E2,9.5E1,3.6E1,1.24E3,3.8E1,4.2E1,3.41E2,4.8E1,2.5E2,5.9E1,7.7E1,4.2E1,1.09E2,1.289E3,9.46E2,1.5E1,3.9E1,1.61E2,5.8E1,8.6E1,4.19E2,1.144E3,4.46E2,3.2E1,4.9E1,5E0,1.3E1,3.6E2,6.26E2,2.24E2,3.6E1,1.88E2,1E1,6.5E1,3E1,5E0,3.1E1,1.78E2,1.062E3,3.2E1,6E0,3.5E1,7E0,1.76E2,1.65E2,3.7E1,1.1E1,3.1E1,2.19E2,3.7E1,4E1,8E0,3.4E1,1.6E1,9.3E1,1.243E3,4.6E1,3.1E1,9.15E2,5E0,1E1,2E1,1.9E1,2.9E1,1.32E2,5E1,3.6E1,1.72E2,2.47E2,5.59E2,5.85E2,5.2E1,3.94E2,5E0,2.7E1,3.4E1,1.5E1,6.8E1,2.92E2,4.1E1,5.85E2],"tree_param":{"num_deleted":"0","num_feature":"30","num_nodes":"113","size_leaf_vector":"1"}},{"base_weights":[-1.5594063E-3,2.2914083E0,-1.1378759E0,1.6112108E0,3.569706E0,-1.9576001E0,-1.5063035E-1,6.0940254E-1,1.957745E0,3.9574647E0,2.6168048E0,-7.214187E-2,-2.0768924E0,-5.6994706E-1,5.099214E-1,4.73895E0,2.2321883E-1,4.29181E0,1.7506907E0,4.604893E0,3.1855364E0,1.684708E0,3.0099123E0,-2.134737E0,5.6633153E0,2.3611984E-1,-2.1605096E0,-7.0139885E-1,1.8672585E0,-8.442069E-1,5.914569E-1,3.0996898E-1,3.4648165E-2,-1.9800468E-1,9.196842E-1,2.267123E0,5.83058E0,4.1719284E0,1.606216E0,3.5276884E-1,4.311128E0,3.0478582E0,2.4244122E-1,1.3490413E0,2.2886953E0,2.655433E0,1.7999727E-1,3.958562E0,-2.6377723E0,3.5700576E0,9.888359E0,2.825221E0,-3.5024939E0,-2.1934912E0,3.822578E0,-9.485368E-1,-9.874117E-2,3.6451578E0,-1.5077006E0,1.1169607E-1,-1.3897653E0,1.9720744E0,5.0182664E-1,-2.1036392E-2,1.8495401E-2,5.1517498E-2,3.681987E-2,1.6745117E-1,-3.7706103E-2,3.386389E-1,2.2842018E-1,4.401509E-1,7.317108E-3,1.8494224E-2,9.563341E-2,2.4667013E-1,2.027169E-1,1.1806227E-1,1.5705258E-1,3.954951E-2,7.3022455E-2,7.3781304E-2,1.23599686E-1,1.4342265E-1,9.711801E-2,1.18773E-1,2.4409516E-1,-1.3948448E-1,4.707397E-2,2.1974559E-1,9.1804005E-2,3.1445688E-1,5.994481E-1,1.619778E-1,-7.909152E-2,-1.838258E-1,-9.083028E-2,-1.0024939E-1,-1.495808E-1,1.04668155E-1,2.2091396E-1,-5.9611924E-2,-2.7827932E-2,1.4476974E-1,-2.570629E-2,2.0587294E-1,-5.7107653E-3,-1.703059E-2,-8.68326E-2,1.1005983E-2,1.4998914E-4,-7.7156834E-2,-5.1378697E-2,1.3407686E-1,-2.2460196E-2,3.8683005E-3,3.7608337E-2],"categories":[],"categories_nodes":[],"categories_segments":[],"categories_sizes":[],"default_left":[0,0,0,0,0,0,0,0,0,0,0,0,0,0,0,0,0,0,0,0,0,0,0,0,0,0,0,0,0,0,0,0,0,0,0,0,0,0,0,0,0,0,0,0,0,0,0,0,0,0,0,0,0,0,0,0,0,0,0,0,0,0,0,0,0,0,0,0,0,0,0,0,0,0,0,0,0,0,0,0,0,0,0,0,0,0,0,0,0,0,0,0,0,0,0,0,0,0,0,0,0,0,0,0,0,0,0,0,0,0,0,0,0,0,0,0,0],"id":13,"left_children":[1,3,5,7,9,11,13,15,17,19,21,23,25,27,29,31,33,35,37,39,41,43,45,47,49,51,53,55,57,59,61,-1,-1,63,65,67,69,71,73,-1,75,77,-1,79,81,83,-1,85,87,89,91,93,95,97,99,101,103,105,107,109,111,113,115,-1,-1,-1,-1,-1,-1,-1,-1,-1,-1,-1,-1,-1,-1,-1,-1,-1,-1,-1,-1,-1,-1,-1,-1,-1,-1,-1,-1,-1,-1,-1,-1,-1,-1,-1,-1,-1,-1,-1,-1,-1,-1,-1,-1,-1,-1,-1,-1,-1,-1,-1,-1,-1,-1],"loss_changes":[2.2410229E4,2.4723086E3,4.6538115E3,6.452202E2,3.550752E2,7.065498E2,7.232095E2,7.6442883E2,6.6085986E2,3.3566797E2,1.00822754E2,2.2361157E3,5.720293E2,5.1294867E2,1.1245465E2,2.3796802E2,1.2926384E2,3.357207E2,4.3825415E2,2.4241211E2,5.9188232E1,1.4753418E1,3.268994E1,4.3649683E2,4.0690332E2,1.01657886E3,5.711758E2,2.2569879E2,4.9752347E2,3.0402283E1,1.1743448E2,0E0,0E0,3.493964E1,2.6083221E0,1.6595984E2,4.397998E1,1.3223541E3,4.547019E2,0E0,3.448828E1,1.1843506E1,0E0,2.512909E0,8.2328796E-1,1.4175232E1,0E0,4.4824066E0,7.27702E1,4.1990356E1,4.5568237E1,1.1833612E2,5.9365845E0,4.2082812E2,7.2324677E0,1.0202661E2,5.5121185E2,9.635028E1,7.157463E0,2.58615E-1,4.696579E-1,1.0083734E2,9.557533E1,0E0,0E0,0E0,0E0,0E0,0E0,0E0,0E0,0E0,0E0,0E0,0E0,0E0,0E0,0E0,0E0,0E0,0E0,0E0,0E0,0E0,0E0,0E0,0E0,0E0,0E0,0E0,0E0,0E0,0E0,0E0,0E0,0E0,0E0,0E0,0E0,0E0,0E0,0E0,0E0,0E0,0E0,0E0,0E0,0E0,0E0,0E0,0E0,0E0,0E0,0E0,0E0,0E0,0E0],"parents":[2147483647,0,0,1,1,2,2,3,3,4,4,5,5,6,6,7,7,8,8,9,9,10,10,11,11,12,12,13,13,14,14,15,15,16,16,17,17,18,18,19,19,20,20,21,21,22,22,23,23,24,24,25,25,26,26,27,27,28,28,29,29,30,30,33,33,34,34,35,35,36,36,37,37,38,38,40,40,41,41,43,43,44,44,45,45,47,47,48,48,49,49,50,50,51,51,52,52,53,53,54,54,55,55,56,56,57,57,58,58,59,59,60,60,61,61,62,62],"right_children":[2,4,6,8,10,12,14,16,18,20,22,24,26,28,30,32,34,36,38,40,42,44,46,48,50,52,54,56,58,60,62,-1,-1,64,66,68,70,72,74,-1,76,78,-1,80,82,84,-1,86,88,90,92,94,96,98,100,102,104,106,108,110,112,114,116,-1,-1,-1,-1,-1,-1,-1,-1,-1,-1,-1,-1,-1,-1,-1,-1,-1,-1,-1,-1,-1,-1,-1,-1,-1,-1,-1,-1,-1,-1,-1,-1,-1,-1,-1,-1,-1,-1,-1,-1,-1,-1,-1,-1,-1,-1,-1,-1,-1,-1,-1,-1,-1,-1],"split_conditions":[1E0,2.828E1,2.045E1,3.6014557E1,7.0740952E0,3.5387844E1,2.377E1,2.278E1,2.462E1,3.737076E1,-3.1E-1,8.8E1,1.704E1,4.05E1,2.16E1,2.216E1,2.535E1,3.3092536E-2,3.6217567E1,3.06E1,1.37E0,3.6417557E1,6.4278764E-1,1.7513334E1,4.65E1,5E-1,3.8567654E1,3.8567654E1,1.56E1,1.695E1,3.3905077E-1,3.0996898E-1,3.4648165E-2,3.5833332E1,7.0988097E0,2.457E1,2.16E1,3.053E1,2.495E1,3.5276884E-1,-6.087614E-1,1.9E0,2.4244122E-1,2.206E1,2.596E1,1.4E0,1.7999727E-1,1.778E1,3.3755705E-1,9.15E1,3.2026775E-2,1.685E1,6.4E1,8.3333336E1,2.001E1,2.241E1,2.272E1,2.1725E1,2.125E1,2.3776112E1,2.49E1,2.9898706E-1,2.457E1,-2.1036392E-2,1.8495401E-2,5.1517498E-2,3.681987E-2,1.6745117E-1,-3.7706103E-2,3.386389E-1,2.2842018E-1,4.401509E-1,7.317108E-3,1.8494224E-2,9.563341E-2,2.4667013E-1,2.027169E-1,1.1806227E-1,1.5705258E-1,3.954951E-2,7.3022455E-2,7.3781304E-2,1.23599686E-1,1.4342265E-1,9.711801E-2,1.18773E-1,2.4409516E-1,-1.3948448E-1,4.707397E-2,2.1974559E-1,9.1804005E-2,3.1445688E-1,5.994481E-1,1.619778E-1,-7.909152E-2,-1.838258E-1,-9.083028E-2,-1.0024939E-1,-1.495808E-1,1.04668155E-1,2.2091396E-1,-5.9611924E-2,-2.7827932E-2,1.4476974E-1,-2.570629E-2,2.0587294E-1,-5.7107653E-3,-1.703059E-2,-8.68326E-2,1.1005983E-2,1.4998914E-4,-7.7156834E-2,-5.1378697E-2,1.3407686E-1,-2.2460196E-2,3.8683005E-3,3.7608337E-2],"split_indices":[29,0,0,20,18,20,0,5,4,20,8,28,4,28,9,1,4,19,20,0,8,20,27,6,11,27,20,20,16,5,12,0,0,28,18,4,9,5,0,0,27,16,0,5,4,16,0,5,19,28,7,1,11,28,0,0,5,6,1,6,1,7,0,0,0,0,0,0,0,0,0,0,0,0,0,0,0,0,0,0,0,0,0,0,0,0,0,0,0,0,0,0,0,0,0,0,0,0,0,0,0,0,0,0,0,0,0,0,0,0,0,0,0,0,0,0,0],"split_type":[0,0,0,0,0,0,0,0,0,0,0,0,0,0,0,0,0,0,0,0,0,0,0,0,0,0,0,0,0,0,0,0,0,0,0,0,0,0,0,0,0,0,0,0,0,0,0,0,0,0,0,0,0,0,0,0,0,0,0,0,0,0,0,0,0,0,0,0,0,0,0,0,0,0,0,0,0,0,0,0,0,0,0,0,0,0,0,0,0,0,0,0,0,0,0,0,0,0,0,0,0,0,0,0,0,0,0,0,0,0,0,0,0,0,0,0,0],"sum_hessian":[8.599E3,2.849E3,5.75E3,1.861E3,9.88E2,3.141E3,2.609E3,4.79E2,1.382E3,7E2,2.88E2,1.87E2,2.954E3,1.596E3,1.013E3,4E1,4.39E2,1.11E2,1.271E3,3.78E2,3.22E2,8.7E1,2.01E2,1.38E2,4.9E1,1.03E2,2.851E3,1.515E3,8.1E1,5.7E1,9.56E2,2.9E1,1.1E1,2.74E2,1.65E2,4.9E1,6.2E1,7E1,1.201E3,3.8E1,3.4E2,3E2,2.2E1,5.8E1,2.9E1,1.29E2,7.2E1,1E1,1.28E2,3.4E1,1.5E1,6.1E1,4.2E1,2.836E3,1.5E1,1.074E3,4.41E2,5.3E1,2.8E1,2.1E1,3.6E1,5.7E1,8.99E2,1.97E2,7.7E1,1E2,6.5E1,3.6E1,1.3E1,3.3E1,2.9E1,3.2E1,3.8E1,2.39E2,9.62E2,9.4E1,2.46E2,3.9E1,2.61E2,1.1E1,4.7E1,7E0,2.2E1,9.7E1,3.2E1,5E0,5E0,1.23E2,5E0,2.2E1,1.2E1,7E0,8E0,5.6E1,5E0,3.7E1,5E0,2.297E3,5.39E2,5E0,1E1,6.61E2,4.13E2,5.3E1,3.88E2,4.7E1,6E0,5E0,2.3E1,1E1,1.1E1,2.3E1,1.3E1,4.4E1,1.3E1,3.34E2,5.65E2],"tree_param":{"num_deleted":"0","num_feature":"30","num_nodes":"117","size_leaf_vector":"1"}},{"base_weights":[1.4556043E-2,2.1898022E0,-1.077263E0,1.5482632E0,3.4082623E0,-1.7601552E0,-2.0599997E-2,5.5289445E0,1.4630486E0,3.77248E0,2.5111766E0,-1.8744498E0,-3.1765055E-2,-4.25813E-1,5.0694686E-1,2.0150058E-1,6.2071466E0,5.209133E-1,1.7803669E0,4.3966837E0,3.021795E0,2.082102E0,1.6609047E-1,-1.521631E-2,-1.9950241E0,-1.5693051E0,2.356318E0,9.0010905E-1,-6.6469955E-1,-8.064974E-1,5.8189875E-1,3.4164056E-1,1.8110901E-1,2.8828287E-1,3.0902424E-1,3.7768342E0,1.5778606E0,6.5541835E0,4.1092005E0,2.8404927E0,4.3366423E0,1.6032372E0,2.5392785E0,-1.9641602E0,5.390632E0,-2.0538247E0,1.2474834E0,1.00687526E-1,-1.8167099E0,4.0520067E0,-1.6474382E0,-5.9869057E-1,2.37443E0,-1.0908544E0,-3.2931653E-1,1.3189784E-1,-1.334774E0,1.8628788E0,4.937509E-1,-5.1722485E-3,4.175406E-2,1.298822E-2,2.5633496E-1,7.356771E-2,2.5163278E-1,3.6456063E-1,2.619726E-1,2.3633707E-1,1.9241618E-1,1.11771286E-1,1.4622648E-1,2.3951446E-1,1.6246015E-1,6.179875E-2,1.00459196E-1,1.5673433E-1,1.0648944E-1,2.0275013E-1,-1.2404102E-1,4.591375E-1,1.6724168E-1,-9.170609E-2,-1.5392719E-1,1.098543E-1,-9.9473536E-2,-1.1017656E-1,-4.746483E-2,2.1555093E-1,1.4937852E-1,-1.0256227E-1,-6.072816E-2,4.06236E-2,-3.4210768E-2,-2.2400443E-2,2.2496295E-1,-8.988856E-2,-3.63584E-2,-3.4779143E-2,1.6606859E-3,1.665756E-2,2.1301652E-3,-5.4785322E-2,-7.8227304E-2,-2.297037E-2,1.2645821E-1,5.186149E-3,3.505143E-2],"categories":[],"categories_nodes":[],"categories_segments":[],"categories_sizes":[],"default_left":[0,0,0,0,0,0,0,0,0,0,0,0,0,0,0,0,0,0,0,0,0,0,0,0,0,0,0,0,0,0,0,0,0,0,0,0,0,0,0,0,0,0,0,0,0,0,0,0,0,0,0,0,0,0,0,0,0,0,0,0,0,0,0,0,0,0,0,0,0,0,0,0,0,0,0,0,0,0,0,0,0,0,0,0,0,0,0,0,0,0,0,0,0,0,0,0,0,0,0,0,0,0,0,0,0,0,0],"id":14,"left_children":[1,3,5,7,9,11,13,15,17,19,21,23,25,27,29,-1,31,33,35,37,39,41,-1,43,45,47,49,51,53,55,57,-1,-1,-1,59,61,63,65,67,69,71,73,75,77,79,81,83,-1,85,87,89,91,93,95,97,99,101,103,105,-1,-1,-1,-1,-1,-1,-1,-1,-1,-1,-1,-1,-1,-1,-1,-1,-1,-1,-1,-1,-1,-1,-1,-1,-1,-1,-1,-1,-1,-1,-1,-1,-1,-1,-1,-1,-1,-1,-1,-1,-1,-1,-1,-1,-1,-1,-1,-1],"loss_changes":[2.035352E4,2.2334814E3,4.117338E3,6.289512E2,3.1301367E2,6.8463477E2,4.7927185E2,1.4631714E1,5.491531E2,3.1471973E2,9.3256226E1,7.2876465E2,7.968007E2,4.0223087E2,9.63548E1,0E0,1.5683289E1,5.149747E2,5.503535E2,2.0876025E2,6.420337E1,3.7743774E1,0E0,2.1071912E3,5.8465137E2,1.20671844E2,5.8375104E2,4.3010562E2,1.5328525E2,2.6449871E1,1.03188385E2,0E0,0E0,0E0,9.729443E1,5.968618E2,4.5291016E2,3.4648438E0,3.6262207E1,7.9541016E0,2.6879883E0,1.1829239E1,1.672992E1,4.6720947E2,3.8045447E2,6.695293E2,1.7343117E2,0E0,3.9514374E1,3.6625977E0,2.0533829E0,1.2262779E1,5.897414E2,1.2029913E2,8.0091E1,3.4522313E-1,1.533699E-1,9.245294E1,6.9776596E1,0E0,0E0,0E0,0E0,0E0,0E0,0E0,0E0,0E0,0E0,0E0,0E0,0E0,0E0,0E0,0E0,0E0,0E0,0E0,0E0,0E0,0E0,0E0,0E0,0E0,0E0,0E0,0E0,0E0,0E0,0E0,0E0,0E0,0E0,0E0,0E0,0E0,0E0,0E0,0E0,0E0,0E0,0E0,0E0,0E0,0E0,0E0,0E0],"parents":[2147483647,0,0,1,1,2,2,3,3,4,4,5,5,6,6,7,7,8,8,9,9,10,10,11,11,12,12,13,13,14,14,16,16,17,17,18,18,19,19,20,20,21,21,23,23,24,24,25,25,26,26,27,27,28,28,29,29,30,30,34,34,35,35,36,36,37,37,38,38,39,39,40,40,41,41,42,42,43,43,44,44,45,45,46,46,48,48,49,49,50,50,51,51,52,52,53,53,54,54,55,55,56,56,57,57,58,58],"right_children":[2,4,6,8,10,12,14,16,18,20,22,24,26,28,30,-1,32,34,36,38,40,42,-1,44,46,48,50,52,54,56,58,-1,-1,-1,60,62,64,66,68,70,72,74,76,78,80,82,84,-1,86,88,90,92,94,96,98,100,102,104,106,-1,-1,-1,-1,-1,-1,-1,-1,-1,-1,-1,-1,-1,-1,-1,-1,-1,-1,-1,-1,-1,-1,-1,-1,-1,-1,-1,-1,-1,-1,-1,-1,-1,-1,-1,-1,-1,-1,-1,-1,-1,-1,-1,-1,-1,-1,-1,-1],"split_conditions":[1E0,2.828E1,2.109E1,1.6666667E-1,7.0740952E0,3.824263E1,2.382E1,2.377E1,3.6014557E1,3.737076E1,4.2261827E-1,3.5387844E1,3.5833332E1,2.206E1,2.16E1,2.0150058E-1,3.8406868E1,2.206E1,2.42E1,3.06E1,6E-1,3.6417557E1,1.6609047E-1,8.8E1,1.3316667E2,2.308E1,2.0662777E1,3.790392E1,2.241E1,1.695E1,3.3905077E-1,3.4164056E-1,1.8110901E-1,2.8828287E-1,6.9045596E0,3.6833332E1,8.8E1,2.87E1,-5.7357645E-1,2.49E1,4.4E0,3.026E1,2.42E1,1.7513334E1,3.25E1,8.5666664E1,4.617486E-1,1.00687526E-1,2.41E1,2.059E1,2.308E1,1.814E1,2.0333334E1,2E0,2.065E1,3.06E1,2.165E1,2.231E1,2.457E1,-5.1722485E-3,4.175406E-2,1.298822E-2,2.5633496E-1,7.356771E-2,2.5163278E-1,3.6456063E-1,2.619726E-1,2.3633707E-1,1.9241618E-1,1.11771286E-1,1.4622648E-1,2.3951446E-1,1.6246015E-1,6.179875E-2,1.00459196E-1,1.5673433E-1,1.0648944E-1,2.0275013E-1,-1.2404102E-1,4.591375E-1,1.6724168E-1,-9.170609E-2,-1.5392719E-1,1.098543E-1,-9.9473536E-2,-1.1017656E-1,-4.746483E-2,2.1555093E-1,1.4937852E-1,-1.0256227E-1,-6.072816E-2,4.06236E-2,-3.4210768E-2,-2.2400443E-2,2.2496295E-1,-8.988856E-2,-3.63584E-2,-3.4779143E-2,1.6606859E-3,1.665756E-2,2.1301652E-3,-5.4785322E-2,-7.8227304E-2,-2.297037E-2,1.2645821E-1,5.186149E-3,3.505143E-2],"split_indices":[29,0,0,28,18,20,0,0,20,20,27,20,28,3,9,0,20,0,0,0,8,20,0,28,28,5,6,20,0,5,12,0,0,0,18,28,11,10,27,5,14,0,5,6,10,28,27,0,9,1,5,1,28,29,5,10,2,4,0,0,0,0,0,0,0,0,0,0,0,0,0,0,0,0,0,0,0,0,0,0,0,0,0,0,0,0,0,0,0,0,0,0,0,0,0,0,0,0,0,0,0,0,0,0,0,0,0],"split_type":[0,0,0,0,0,0,0,0,0,0,0,0,0,0,0,0,0,0,0,0,0,0,0,0,0,0,0,0,0,0,0,0,0,0,0,0,0,0,0,0,0,0,0,0,0,0,0,0,0,0,0,0,0,0,0,0,0,0,0,0,0,0,0,0,0,0,0,0,0,0,0,0,0,0,0,0,0,0,0,0,0,0,0,0,0,0,0,0,0,0,0,0,0,0,0,0,0,0,0,0,0,0,0,0,0,0,0],"sum_hessian":[8.568E3,2.863E3,5.705E3,1.877E3,9.86E2,3.465E3,2.24E3,3.8E1,1.839E3,6.99E2,2.87E2,3.25E3,2.15E2,1.267E3,9.73E2,1.4E1,2.4E1,4.64E2,1.375E3,3.79E2,3.2E2,1.9E2,9.7E1,1.98E2,3.052E3,1.31E2,8.4E1,1.93E2,1.074E3,5.2E1,9.21E2,1.8E1,6E0,1.7E1,4.47E2,1.25E2,1.25E3,4.2E1,3.37E2,2.84E2,3.6E1,9.5E1,9.5E1,1.46E2,5.2E1,2.998E3,5.4E1,8E0,1.23E2,5.9E1,2.5E1,9.6E1,9.7E1,4.72E2,6.02E2,1.9E1,3.3E1,5.8E1,8.63E2,2.51E2,1.96E2,3.5E1,9E1,1.214E3,3.6E1,2.4E1,1.8E1,9.5E1,2.42E2,3.8E1,2.46E2,2.3E1,1.3E1,5.2E1,4.3E1,3.6E1,5.9E1,1.1E1,1.35E2,1.7E1,3.5E1,2.471E3,5.27E2,4.2E1,1.2E1,8.4E1,3.9E1,4.5E1,1.4E1,1.1E1,1.4E1,5E0,9.1E1,4.2E1,5.5E1,1.59E2,3.13E2,2.99E2,3.03E2,5E0,1.4E1,1.9E1,1.4E1,1.3E1,4.5E1,3E2,5.63E2],"tree_param":{"num_deleted":"0","num_feature":"30","num_nodes":"107","size_leaf_vector":"1"}},{"base_weights":[1.8389966E-2,2.0760498E0,-1.0149674E0,1.3666626E0,3.0906265E0,-1.801944E0,-1.9311455E-1,4.017313E0,1.2335256E0,2.4603188E0,3.6002274E0,1.5972493E-2,-1.9306519E0,-5.7461613E-1,4.4743583E-1,2.619702E-1,3.804266E-2,4.4978514E-2,1.5789528E0,2.8034672E-1,2.3124285E0,4.6658516E0,3.4502215E0,3.1185157E0,-2.6690743E0,1.7901808E0,-1.987023E0,-1.0187104E0,6.139971E-2,-7.319808E-1,5.1791304E-1,-2.1443518E-1,7.083314E-1,3.7349496E0,1.3148386E0,1.1918721E0,2.54873E0,4.916441E0,7.288053E-2,3.554997E0,2.2064474E0,-3.0625013E-3,6.686106E0,-1.5309632E-1,-1.9639623E0,2.2367883E0,-5.9391357E-2,-2.221363E0,-1.1688036E0,-1.5625955E0,-8.861067E-1,1.2255929E0,-4.2552406E-1,1.0236422E-1,-1.267878E0,1.6338574E0,4.447302E-1,-1.5628811E-2,2.6189554E-2,5.330929E-2,3.2438546E-2,2.4556828E-1,3.0137291E-2,6.090162E-2,2.4373479E-1,3.460349E-2,6.579373E-2,2.5158125E-1,1.2376811E-1,2.622589E-1,1.6697389E-1,1.5127192E-1,1.9171207E-1,8.88577E-2,1.229311E-1,8.8013045E-2,-8.831316E-2,2.4330722E-1,5.1858515E-1,-3.525337E-2,-1.0618299E-1,7.647919E-2,1.5125975E-1,-1.1654945E-1,-1.3909231E-2,3.4658026E-2,-9.2315234E-2,-9.450859E-2,-3.4325186E-2,-5.187683E-2,-2.0112645E-2,1.5402155E-1,-5.0259944E-2,-9.8973475E-2,-1.34940585E-2,8.457079E-3,-6.3079037E-3,-5.1636167E-2,-7.641231E-2,1.939357E-1,4.6520684E-2,4.0252376E-3,3.347571E-2],"categories":[],"categories_nodes":[],"categories_segments":[],"categories_sizes":[],"default_left":[0,0,0,0,0,0,0,0,0,0,0,0,0,0,0,0,0,0,0,0,0,0,0,0,0,0,0,0,0,0,0,0,0,0,0,0,0,0,0,0,0,0,0,0,0,0,0,0,0,0,0,0,0,0,0,0,0,0,0,0,0,0,0,0,0,0,0,0,0,0,0,0,0,0,0,0,0,0,0,0,0,0,0,0,0,0,0,0,0,0,0,0,0,0,0,0,0,0,0,0,0,0,0],"id":15,"left_children":[1,3,5,7,9,11,13,15,17,19,21,23,25,27,29,-1,-1,31,33,-1,35,37,39,41,43,45,47,49,51,53,55,57,59,61,63,65,67,69,-1,71,73,75,77,-1,79,81,-1,83,85,87,89,91,93,95,97,99,101,-1,-1,-1,-1,-1,-1,-1,-1,-1,-1,-1,-1,-1,-1,-1,-1,-1,-1,-1,-1,-1,-1,-1,-1,-1,-1,-1,-1,-1,-1,-1,-1,-1,-1,-1,-1,-1,-1,-1,-1,-1,-1,-1,-1,-1,-1],"loss_changes":[1.8158564E4,2.0505986E3,3.6765903E3,5.886221E2,3.6823828E2,6.7950977E2,6.8009717E2,3.143888E2,6.58051E2,2.3274121E2,8.732422E1,1.6161049E3,5.723916E2,4.9265698E2,8.674286E1,0E0,0E0,6.2445866E1,7.0232056E2,0E0,1.3094531E2,5.4738037E1,6.6566895E1,1.00230676E3,2.2794983E1,5.718695E1,5.0973633E2,7.2683716E1,4.0753653E2,2.6510052E1,7.938965E1,1.9073248E1,1.4823189E0,4.9448413E2,3.7589734E2,4.667221E0,6.3507324E1,1.929065E1,0E0,6.603467E1,7.187042E-1,1.5545465E2,2.3125098E2,0E0,6.5443726E0,1.5445023E1,0E0,4.4158594E2,7.543851E2,5.6099762E1,6.0250122E1,8.8030096E2,1.22089066E2,3.8758126E-1,6.259117E-1,9.113899E1,7.543211E1,0E0,0E0,0E0,0E0,0E0,0E0,0E0,0E0,0E0,0E0,0E0,0E0,0E0,0E0,0E0,0E0,0E0,0E0,0E0,0E0,0E0,0E0,0E0,0E0,0E0,0E0,0E0,0E0,0E0,0E0,0E0,0E0,0E0,0E0,0E0,0E0,0E0,0E0,0E0,0E0,0E0,0E0,0E0,0E0,0E0,0E0],"parents":[2147483647,0,0,1,1,2,2,3,3,4,4,5,5,6,6,7,7,8,8,9,9,10,10,11,11,12,12,13,13,14,14,17,17,18,18,20,20,21,21,22,22,23,23,24,24,25,25,26,26,27,27,28,28,29,29,30,30,31,31,32,32,33,33,34,34,35,35,36,36,37,37,39,39,40,40,41,41,42,42,44,44,45,45,47,47,48,48,49,49,50,50,51,51,52,52,53,53,54,54,55,55,56,56],"right_children":[2,4,6,8,10,12,14,16,18,20,22,24,26,28,30,-1,-1,32,34,-1,36,38,40,42,44,46,48,50,52,54,56,58,60,62,64,66,68,70,-1,72,74,76,78,-1,80,82,-1,84,86,88,90,92,94,96,98,100,102,-1,-1,-1,-1,-1,-1,-1,-1,-1,-1,-1,-1,-1,-1,-1,-1,-1,-1,-1,-1,-1,-1,-1,-1,-1,-1,-1,-1,-1,-1,-1,-1,-1,-1,-1,-1,-1,-1,-1,-1,-1,-1,-1,-1,-1,-1],"split_conditions":[1E0,2.743E1,2.004E1,2.278E1,3.041E1,3.5387844E1,2.371E1,2.586E1,3.580857E1,2.568E1,3.06E1,-1.8369701E-16,1.721E1,3.824263E1,2.16E1,2.619702E-1,3.804266E-2,2.501E1,2.42E1,2.8034672E-1,3.6417557E1,2.736E1,3.8406868E1,5.7357645E-1,2.13E1,4.617486E-1,3.3E1,-3.9E-1,2.241E1,1.695E1,3.3905077E-1,9.5371693E-1,2.1966785E-2,2.39E1,8.8E1,2.206E1,3.6614483E1,4.2261827E-1,7.288053E-2,3.127E1,-7.372773E-1,1.854E1,1.854E1,-1.5309632E-1,8.7155744E-2,9.5371693E-1,-5.9391357E-2,3.824263E1,1.809E1,1.3749868E0,2.2423334E1,3.8268343E-1,-2.3E-1,3.21E1,2.165E1,1.695E1,2.457E1,-1.5628811E-2,2.6189554E-2,5.330929E-2,3.2438546E-2,2.4556828E-1,3.0137291E-2,6.090162E-2,2.4373479E-1,3.460349E-2,6.579373E-2,2.5158125E-1,1.2376811E-1,2.622589E-1,1.6697389E-1,1.5127192E-1,1.9171207E-1,8.88577E-2,1.229311E-1,8.8013045E-2,-8.831316E-2,2.4330722E-1,5.1858515E-1,-3.525337E-2,-1.0618299E-1,7.647919E-2,1.5125975E-1,-1.1654945E-1,-1.3909231E-2,3.4658026E-2,-9.2315234E-2,-9.450859E-2,-3.4325186E-2,-5.187683E-2,-2.0112645E-2,1.5402155E-1,-5.0259944E-2,-9.8973475E-2,-1.34940585E-2,8.457079E-3,-6.3079037E-3,-5.1636167E-2,-7.641231E-2,1.939357E-1,4.6520684E-2,4.0252376E-3,3.347571E-2],"split_indices":[29,0,0,5,0,20,0,0,20,2,1,27,5,20,9,0,0,4,0,0,20,5,20,26,10,27,10,8,4,5,12,26,7,9,11,5,20,27,0,0,26,1,0,0,27,26,0,20,3,7,6,27,8,10,2,5,0,0,0,0,0,0,0,0,0,0,0,0,0,0,0,0,0,0,0,0,0,0,0,0,0,0,0,0,0,0,0,0,0,0,0,0,0,0,0,0,0,0,0,0,0,0,0],"split_type":[0,0,0,0,0,0,0,0,0,0,0,0,0,0,0,0,0,0,0,0,0,0,0,0,0,0,0,0,0,0,0,0,0,0,0,0,0,0,0,0,0,0,0,0,0,0,0,0,0,0,0,0,0,0,0,0,0,0,0,0,0,0,0,0,0,0,0,0,0,0,0,0,0,0,0,0,0,0,0,0,0,0,0,0,0,0,0,0,0,0,0,0,0,0,0,0,0,0,0,0,0,0,0],"sum_hessian":[8.538E3,2.854E3,5.684E3,1.681E3,1.173E3,2.903E3,2.781E3,7.9E1,1.602E3,5.27E2,6.46E2,1.92E2,2.711E3,1.743E3,1.038E3,5.7E1,2.2E1,3.61E2,1.241E3,2.2E1,5.05E2,7.6E1,5.7E2,8.9E1,1.03E2,4E1,2.671E3,1.026E3,7.17E2,5.8E1,9.8E2,2.6E2,1.01E2,1.34E2,1.107E3,8.9E1,4.16E2,7E1,6E0,5.24E2,4.6E1,4.8E1,4.1E1,6.4E1,3.9E1,3.5E1,5E0,2.075E3,5.96E2,1.99E2,8.27E2,2.11E2,5.06E2,2.3E1,3.5E1,5.9E1,9.21E2,2.3E2,3E1,1.2E1,8.9E1,9.7E1,3.7E1,1.079E3,2.8E1,1.9E1,7E1,1E1,4.06E2,5.6E1,1.4E1,1.85E2,3.39E2,2E1,2.6E1,2.4E1,2.4E1,2.9E1,1.2E1,5E0,3.4E1,2E1,1.5E1,1.964E3,1.11E2,1.59E2,4.37E2,1.44E2,5.5E1,6.29E2,1.98E2,1.15E2,9.6E1,4.5E1,4.61E2,1.8E1,5E0,2.1E1,1.4E1,1.3E1,4.6E1,3.52E2,5.69E2],"tree_param":{"num_deleted":"0","num_feature":"30","num_nodes":"103","size_leaf_vector":"1"}},{"base_weights":[2.0157952E-2,1.9813619E0,-9.7205746E-1,1.2802799E0,2.936694E0,-1.6615685E0,-1.4442708E-1,3.9204078E0,1.1417489E0,2.3469193E0,3.459216E0,-1.898475E0,-8.388959E-1,-4.9372488E-1,4.3046525E-1,2.4683845E-1,3.665183E-2,5.2436642E-2,1.4640989E0,2.671815E-1,2.2286625E0,3.6930242E0,2.6639628E0,-1.9698083E0,1.0632484E0,1.2623653E0,-1.7260026E0,-6.0277146E-1,1.5600233E0,1.4124382E-1,3.9509836E-1,-1.797654E-1,6.8386865E-1,3.5235863E0,1.200762E0,1.1096199E0,2.4243362E0,6.1153035E0,3.550257E0,2.9417932E0,1.9340997E0,-2.408065E0,-1.4253415E0,-1.5531349E0,2.1221573E0,2.6732864E0,-1.5390728E-1,-2.1496281E-1,-2.0224845E0,-8.956277E-1,-2.2946364E-1,3.080079E0,-7.13614E-2,4.9523956E-1,-5.2192676E-1,-1.9770598E-2,2.2380946E-2,5.123788E-2,3.0945627E-2,2.3489712E-1,2.2609033E-2,8.826872E-2,2.1545218E-2,4.5793504E-2,7.139202E-2,2.387396E-1,1.1734282E-1,3.4052882E-1,1.3313155E-1,1.6906591E-1,2.2078727E-1,1.5631507E-1,8.9596905E-2,1.0306318E-1,6.826102E-2,-1.2594861E-1,4.5369766E-3,4.37625E-1,-7.413171E-2,-1.2260047E-1,-1.1769998E-2,1.2852113E-1,4.7946896E-2,-1.5418E-1,1.9241919E-1,-1.07234E-1,1.1283791E-1,-1.2895226E-1,-8.3675735E-2,-2.5037283E-2,-5.6085225E-2,-1.8084114E-2,5.1406633E-2,2.804798E-1,9.816762E-2,1.4735426E-1,2.3157684E-2,1.2601137E-2,-7.123662E-2],"categories":[],"categories_nodes":[],"categories_segments":[],"categories_sizes":[],"default_left":[0,0,0,0,0,0,0,0,0,0,0,0,0,0,0,0,0,0,0,0,0,0,0,0,0,0,0,0,0,0,0,0,0,0,0,0,0,0,0,0,0,0,0,0,0,0,0,0,0,0,0,0,0,0,0,0,0,0,0,0,0,0,0,0,0,0,0,0,0,0,0,0,0,0,0,0,0,0,0,0,0,0,0,0,0,0,0,0,0,0,0,0,0,0,0,0,0,0,0],"id":16,"left_children":[1,3,5,7,9,11,13,15,17,19,21,23,25,27,29,-1,-1,31,33,-1,35,37,39,41,43,45,47,49,51,-1,53,55,57,59,61,63,65,67,69,71,73,75,77,79,81,83,-1,85,87,89,91,93,-1,95,97,-1,-1,-1,-1,-1,-1,-1,-1,-1,-1,-1,-1,-1,-1,-1,-1,-1,-1,-1,-1,-1,-1,-1,-1,-1,-1,-1,-1,-1,-1,-1,-1,-1,-1,-1,-1,-1,-1,-1,-1,-1,-1,-1,-1],"loss_changes":[1.6583252E4,1.9137812E3,3.2291274E3,6.0009155E2,3.650752E2,6.0005176E2,5.168932E2,2.6202173E2,5.519148E2,1.9079712E2,1.0916211E2,5.082959E2,1.2920966E3,3.594911E2,8.128035E1,0E0,0E0,5.2906067E1,6.536262E2,0E0,1.1817993E2,1.484336E2,2.452417E1,5.549297E2,1.6121518E2,1.2697972E3,2.1773938E2,1.6607861E2,3.721999E2,0E0,8.8417175E1,3.5894417E1,1.5136147E0,4.9202417E2,4.6738E2,3.871315E0,7.4204834E1,4.4280273E1,5.3350586E1,1.6886536E1,3.68927E-1,3.5911914E2,6.2291626E2,1.9558926E1,1.8913788E1,1.0671914E3,0E0,3.9118762E2,7.4732544E1,7.549951E1,1.11777885E2,1.4152448E2,0E0,6.6763016E1,6.673802E1,0E0,0E0,0E0,0E0,0E0,0E0,0E0,0E0,0E0,0E0,0E0,0E0,0E0,0E0,0E0,0E0,0E0,0E0,0E0,0E0,0E0,0E0,0E0,0E0,0E0,0E0,0E0,0E0,0E0,0E0,0E0,0E0,0E0,0E0,0E0,0E0,0E0,0E0,0E0,0E0,0E0,0E0,0E0,0E0],"parents":[2147483647,0,0,1,1,2,2,3,3,4,4,5,5,6,6,7,7,8,8,9,9,10,10,11,11,12,12,13,13,14,14,17,17,18,18,20,20,21,21,22,22,23,23,24,24,25,25,26,26,27,27,28,28,30,30,31,31,32,32,33,33,34,34,35,35,36,36,37,37,38,38,39,39,40,40,41,41,42,42,43,43,44,44,45,45,47,47,48,48,49,49,50,50,51,51,53,53,54,54],"right_children":[2,4,6,8,10,12,14,16,18,20,22,24,26,28,30,-1,-1,32,34,-1,36,38,40,42,44,46,48,50,52,-1,54,56,58,60,62,64,66,68,70,72,74,76,78,80,82,84,-1,86,88,90,92,94,-1,96,98,-1,-1,-1,-1,-1,-1,-1,-1,-1,